{"learner":{"attributes":{"best_iteration":"499","best_score":"5.819678376943503","scikit_learn":"{\"_estimator_type\": \"regressor\"}"},"feature_names":[],"feature_types":[],"gradient_booster":{"model":{"gbtree_model_param":{"num_parallel_tree":"1","num_trees":"500"},"iteration_indptr":[0,1,2,3,4,5,6,7,8,9,10,11,12,13,14,15,16,17,18,19,20,21,22,23,24,25,26,27,28,29,30,31,32,33,34,35,36,37,38,39,40,41,42,43,44,45,46,47,48,49,50,51,52,53,54,55,56,57,58,59,60,61,62,63,64,65,66,67,68,69,70,71,72,73,74,75,76,77,78,79,80,81,82,83,84,85,86,87,88,89,90,91,92,93,94,95,96,97,98,99,100,101,102,103,104,105,106,107,108,109,110,111,112,113,114,115,116,117,118,119,120,121,122,123,124,125,126,127,128,129,130,131,132,133,134,135,136,137,138,139,140,141,142,143,144,145,146,147,148,149,150,151,152,153,154,155,156,157,158,159,160,161,162,163,164,165,166,167,168,169,170,171,172,173,174,175,176,177,178,179,180,181,182,183,184,185,186,187,188,189,190,191,192,193,194,195,196,197,198,199,200,201,202,203,204,205,206,207,208,209,210,211,212,213,214,215,216,217,218,219,220,221,222,223,224,225,226,227,228,229,230,231,232,233,234,235,236,237,238,239,240,241,242,243,244,245,246,247,248,249,250,251,252,253,254,255,256,257,258,259,260,261,262,263,264,265,266,267,268,269,270,271,272,273,274,275,276,277,278,279,280,281,282,283,284,285,286,287,288,289,290,291,292,293,294,295,296,297,298,299,300,301,302,303,304,305,306,307,308,309,310,311,312,313,314,315,316,317,318,319,320,321,322,323,324,325,326,327,328,329,330,331,332,333,334,335,336,337,338,339,340,341,342,343,344,345,346,347,348,349,350,351,352,353,354,355,356,357,358,359,360,361,362,363,364,365,366,367,368,369,370,371,372,373,374,375,376,377,378,379,380,381,382,383,384,385,386,387,388,389,390,391,392,393,394,395,396,397,398,399,400,401,402,403,404,405,406,407,408,409,410,411,412,413,414,415,416,417,418,419,420,421,422,423,424,425,426,427,428,429,430,431,432,433,434,435,436,437,438,439,440,441,442,443,444,445,446,447,448,449,450,451,452,453,454,455,456,457,458,459,460,461,462,463,464,465,466,467,468,469,470,471,472,473,474,475,476,477,478,479,480,481,482,483,484,485,486,487,488,489,490,491,492,493,494,495,496,497,498,499,500],"tree_info":[0,0,0,0,0,0,0,0,0,0,0,0,0,0,0,0,0,0,0,0,0,0,0,0,0,0,0,0,0,0,0,0,0,0,0,0,0,0,0,0,0,0,0,0,0,0,0,0,0,0,0,0,0,0,0,0,0,0,0,0,0,0,0,0,0,0,0,0,0,0,0,0,0,0,0,0,0,0,0,0,0,0,0,0,0,0,0,0,0,0,0,0,0,0,0,0,0,0,0,0,0,0,0,0,0,0,0,0,0,0,0,0,0,0,0,0,0,0,0,0,0,0,0,0,0,0,0,0,0,0,0,0,0,0,0,0,0,0,0,0,0,0,0,0,0,0,0,0,0,0,0,0,0,0,0,0,0,0,0,0,0,0,0,0,0,0,0,0,0,0,0,0,0,0,0,0,0,0,0,0,0,0,0,0,0,0,0,0,0,0,0,0,0,0,0,0,0,0,0,0,0,0,0,0,0,0,0,0,0,0,0,0,0,0,0,0,0,0,0,0,0,0,0,0,0,0,0,0,0,0,0,0,0,0,0,0,0,0,0,0,0,0,0,0,0,0,0,0,0,0,0,0,0,0,0,0,0,0,0,0,0,0,0,0,0,0,0,0,0,0,0,0,0,0,0,0,0,0,0,0,0,0,0,0,0,0,0,0,0,0,0,0,0,0,0,0,0,0,0,0,0,0,0,0,0,0,0,0,0,0,0,0,0,0,0,0,0,0,0,0,0,0,0,0,0,0,0,0,0,0,0,0,0,0,0,0,0,0,0,0,0,0,0,0,0,0,0,0,0,0,0,0,0,0,0,0,0,0,0,0,0,0,0,0,0,0,0,0,0,0,0,0,0,0,0,0,0,0,0,0,0,0,0,0,0,0,0,0,0,0,0,0,0,0,0,0,0,0,0,0,0,0,0,0,0,0,0,0,0,0,0,0,0,0,0,0,0,0,0,0,0,0,0,0,0,0,0,0,0,0,0,0,0,0,0,0,0,0,0,0,0,0,0,0,0,0,0,0,0,0,0,0,0,0,0,0,0,0,0,0,0,0,0,0,0,0,0,0,0,0,0,0,0,0,0,0,0,0,0,0,0,0,0,0,0,0,0,0,0,0,0,0,0,0,0,0,0,0,0,0],"trees":[{"base_weights":[-9.095345E-4,-8.11382E0,8.618126E0,-7.72595E0,-5.4981564E1,5.6650467E0,1.58815155E1,-1.0144212E1,-1.7622144E0,-4.40336E1,-8.270161E1,1.2395885E1,1.9984565E0,2.066136E1,1.1971643E1,-8.665122E0,-1.5923821E1,2.6729167E-1,-1.0323894E1,-4.977307E1,-2.8228855E1,-4.0548256E1,-9.286632E1,2.2124859E1,1.0283053E1,3.2807481E0,-1.0875382E1,2.106122E1,-2.7773447E0,4.6187763E0,1.4765091E1,-5.2633777E0,-1.0205377E1,-1.3403601E1,-2.2045923E1,1.8376896E1,-4.544661E-1,-6.7931914E0,-1.8273054E1,-4.274145E1,-5.6283024E1,-2.211648E1,-1.9452957E0,-2.6404712E0,-1.3014424E0,-1.1828677E2,-7.827579E1,-1.7853786E0,2.5373367E1,1.05116415E1,-6.436948E1,3.597161E0,-3.999177E1,1.6166203E0,-2.0084969E1,2.2630116E1,1.4289302E1,-2.7375032E1,-4.8906612E-1,8.028711E0,-1.0325653E1,1.5876121E1,-1.2979098E1,-8.447141E-2,-3.5704386E-1,-6.615992E-1,-4.1342497E-1,-9.544945E-1,-6.0260177E-1,-9.7870344E-1,-1.6721306E0,-2.839567E-1,1.1507611E0,2.3044646E-1,-8.8964194E-2,-4.8114453E-2,-4.38341E-1,-6.535713E-1,-1.4742881E0,-1.2207888E0,-2.184192E0,-3.3936615E0,-2.5572612E0,-9.352085E-1,-1.3217021E0,-6.384808E0,-3.4875736E0,-3.0566714E0,-4.5999827E0,-1.0857749E-3,-4.7117167E0,1.8517636E0,1.0359691E0,3.7765312E-1,6.514577E-1,-2.1816082E0,-3.5827527E0,2.6450722E-2,2.8869995E-1,-1.6517371E0,-3.9044816E0,7.4754065E-1,-9.6853755E-2,-1.5301805E0,-7.632715E-1,2.0018127E0,1.1068705E0,4.543987E-1,9.319175E-1,-6.447315E-1,-1.7400478E0,-6.561318E-1,3.2977808E-1,1.452952E0,3.6272675E-1,-7.1953654E-1,5.2952516E-1,5.5522674E-1,9.3417007E-1,-1.8903442E-1,-9.670744E-1],"categories":[],"categories_nodes":[],"categories_segments":[],"categories_sizes":[],"default_left":[0,0,0,0,0,0,0,0,0,0,0,0,0,0,0,0,0,0,0,0,0,0,0,0,0,0,0,0,0,0,0,0,0,0,0,0,0,0,0,0,0,0,0,0,0,0,0,0,0,0,0,0,0,0,0,0,0,0,0,0,0,0,0,0,0,0,0,0,0,0,0,0,0,0,0,0,0,0,0,0,0,0,0,0,0,0,0,0,0,0,0,0,0,0,0,0,0,0,0,0,0,0,0,0,0,0,0,0,0,0,0,0,0,0,0,0,0,0,0,0,0],"id":0,"left_children":[1,3,5,7,9,11,13,15,17,19,21,23,25,27,29,31,33,35,37,39,41,43,45,47,49,51,53,55,57,59,61,63,65,67,69,71,73,75,77,79,81,83,-1,-1,-1,85,87,89,91,93,95,97,99,101,103,105,107,109,111,113,115,117,119,-1,-1,-1,-1,-1,-1,-1,-1,-1,-1,-1,-1,-1,-1,-1,-1,-1,-1,-1,-1,-1,-1,-1,-1,-1,-1,-1,-1,-1,-1,-1,-1,-1,-1,-1,-1,-1,-1,-1,-1,-1,-1,-1,-1,-1,-1,-1,-1,-1,-1,-1,-1,-1,-1,-1,-1,-1,-1],"loss_changes":[1.0058009E7,1.346512E6,1.495872E6,1.059816E6,1.808605E5,1.2237178E6,3.764925E5,4.46829E5,3.684267E5,3.83185E4,6.94905E4,3.59206E5,5.299588E5,8.505725E4,2.2773738E5,2.1808825E5,1.6406675E5,2.2405581E5,1.1390597E5,1.22326875E4,6.899633E3,4.848422E3,4.1534375E4,2.423085E5,2.4585675E5,3.9986394E5,3.3458862E5,9.4411E4,8.59564E3,1.5576403E5,2.4794362E5,8.707056E4,1.6788075E5,5.778375E4,8.6810875E4,7.344031E4,1.10590555E5,3.2385703E4,7.245744E4,1.6552812E3,6.2230625E3,6.5022656E2,0E0,0E0,0E0,1.299425E4,1.55338125E4,6.0968777E4,1.4826412E5,1.06595875E5,3.5096875E3,1.9356969E5,5.3599375E4,5.8551555E4,8.439169E4,6.118125E4,3.7830844E4,9.443799E2,1.2707288E4,4.029314E4,4.8447438E4,1.03307625E5,1.806696E4,0E0,0E0,0E0,0E0,0E0,0E0,0E0,0E0,0E0,0E0,0E0,0E0,0E0,0E0,0E0,0E0,0E0,0E0,0E0,0E0,0E0,0E0,0E0,0E0,0E0,0E0,0E0,0E0,0E0,0E0,0E0,0E0,0E0,0E0,0E0,0E0,0E0,0E0,0E0,0E0,0E0,0E0,0E0,0E0,0E0,0E0,0E0,0E0,0E0,0E0,0E0,0E0,0E0,0E0,0E0,0E0,0E0,0E0],"parents":[2147483647,0,0,1,1,2,2,3,3,4,4,5,5,6,6,7,7,8,8,9,9,10,10,11,11,12,12,13,13,14,14,15,15,16,16,17,17,18,18,19,19,20,20,21,21,22,22,23,23,24,24,25,25,26,26,27,27,28,28,29,29,30,30,31,31,32,32,33,33,34,34,35,35,36,36,37,37,38,38,39,39,40,40,41,41,45,45,46,46,47,47,48,48,49,49,50,50,51,51,52,52,53,53,54,54,55,55,56,56,57,57,58,58,59,59,60,60,61,61,62,62],"right_children":[2,4,6,8,10,12,14,16,18,20,22,24,26,28,30,32,34,36,38,40,42,44,46,48,50,52,54,56,58,60,62,64,66,68,70,72,74,76,78,80,82,84,-1,-1,-1,86,88,90,92,94,96,98,100,102,104,106,108,110,112,114,116,118,120,-1,-1,-1,-1,-1,-1,-1,-1,-1,-1,-1,-1,-1,-1,-1,-1,-1,-1,-1,-1,-1,-1,-1,-1,-1,-1,-1,-1,-1,-1,-1,-1,-1,-1,-1,-1,-1,-1,-1,-1,-1,-1,-1,-1,-1,-1,-1,-1,-1,-1,-1,-1,-1,-1,-1,-1,-1,-1],"split_conditions":[3.9699985E2,-5.6882534E0,4.1404633E2,3.9083017E2,2.185009E-1,-7.1918964E-2,1.6333199E-1,1.6925812E-1,4.0179634E-1,1.970414E0,-5.4960575E0,-8.2710445E-1,1.2121038E0,-6.067411E0,-4.9377555E-1,-7.2402687E0,-6.7199855E0,-1.2684078E0,-6.796322E0,-5.4960575E0,6.6675186E-2,-5.48119E-1,-4.3798065E-1,5.529885E-1,-5.4960575E0,-5.6882534E0,-6.970595E0,2.7634914E1,-4.3798065E-1,-6.6774516E0,-6.067411E0,-4.7495106E-1,4.2033768E-1,3.8088623E2,8.4427834E-1,-3.2538643E-1,-4.8997402E-2,-6.9561005E-2,8.9054585E-2,-1.7518559E0,2.3718643E0,1.9651413E-2,-1.9452957E0,-2.6404712E0,-1.3014424E0,8.695894E-1,1.3729293E0,-5.4960575E0,-5.7575226E-1,4.0388007E2,-1.8586409E0,4.0388007E2,2.4128035E-1,4.308552E0,-4.9377555E-1,-1.1379719E0,6.5787506E-1,7.667032E-1,-4.9002868E-1,5.0578213E0,8.723526E-1,4.179823E2,-5.8466654E0,-8.447141E-2,-3.5704386E-1,-6.615992E-1,-4.1342497E-1,-9.544945E-1,-6.0260177E-1,-9.7870344E-1,-1.6721306E0,-2.839567E-1,1.1507611E0,2.3044646E-1,-8.8964194E-2,-4.8114453E-2,-4.38341E-1,-6.535713E-1,-1.4742881E0,-1.2207888E0,-2.184192E0,-3.3936615E0,-2.5572612E0,-9.352085E-1,-1.3217021E0,-6.384808E0,-3.4875736E0,-3.0566714E0,-4.5999827E0,-1.0857749E-3,-4.7117167E0,1.8517636E0,1.0359691E0,3.7765312E-1,6.514577E-1,-2.1816082E0,-3.5827527E0,2.6450722E-2,2.8869995E-1,-1.6517371E0,-3.9044816E0,7.4754065E-1,-9.6853755E-2,-1.5301805E0,-7.632715E-1,2.0018127E0,1.1068705E0,4.543987E-1,9.319175E-1,-6.447315E-1,-1.7400478E0,-6.561318E-1,3.2977808E-1,1.452952E0,3.6272675E-1,-7.1953654E-1,5.2952516E-1,5.5522674E-1,9.3417007E-1,-1.8903442E-1,-9.670744E-1],"split_indices":[7,5,7,7,10,1,1,1,1,4,5,1,1,5,12,5,5,1,5,5,1,0,3,0,5,5,5,0,3,5,5,11,3,7,1,0,6,3,6,1,0,6,0,0,0,11,4,5,3,7,0,7,10,0,12,1,3,0,11,0,3,7,5,0,0,0,0,0,0,0,0,0,0,0,0,0,0,0,0,0,0,0,0,0,0,0,0,0,0,0,0,0,0,0,0,0,0,0,0,0,0,0,0,0,0,0,0,0,0,0,0,0,0,0,0,0,0,0,0,0,0],"split_type":[0,0,0,0,0,0,0,0,0,0,0,0,0,0,0,0,0,0,0,0,0,0,0,0,0,0,0,0,0,0,0,0,0,0,0,0,0,0,0,0,0,0,0,0,0,0,0,0,0,0,0,0,0,0,0,0,0,0,0,0,0,0,0,0,0,0,0,0,0,0,0,0,0,0,0,0,0,0,0,0,0,0,0,0,0,0,0,0,0,0,0,0,0,0,0,0,0,0,0,0,0,0,0,0,0,0,0,0,0,0,0,0,0,0,0,0,0,0,0,0,0],"sum_hessian":[1.43837E5,7.4094E4,6.9743E4,7.3487E4,6.07E2,4.9585E4,2.0158E4,5.2285E4,2.1202E4,4.37E2,1.7E2,1.7485E4,3.21E4,9.068E3,1.109E4,4.1633E4,1.0652E4,1.714E4,4.062E3,3.19E2,1.18E2,3.4E1,1.36E2,3.118E3,1.4367E4,2.9193E4,2.907E3,8.916E3,1.52E2,3.054E3,8.036E3,1.2977E4,2.8656E4,7.548E3,3.104E3,6.56E2,1.6484E4,2.814E3,1.248E3,1.57E2,1.62E2,7.7E1,4.1E1,1.7E1,1.7E1,4.7E1,8.9E1,3.73E2,2.745E3,1.4324E4,4.3E1,2.8982E4,2.11E2,1.234E3,1.673E3,7.237E3,1.679E3,1.2E1,1.4E2,2.487E3,5.67E2,7.727E3,3.09E2,4.47E3,8.507E3,1.118E4,1.7476E4,1.447E3,6.101E3,2.553E3,5.51E2,1.06E2,5.5E2,3.418E3,1.3066E4,7.12E2,2.102E3,8.54E2,3.94E2,9E0,1.48E2,4.6E1,1.16E2,4.6E1,3.1E1,3.8E1,9E0,4.2E1,4.7E1,3.67E2,6E0,7.81E2,1.964E3,6.587E3,7.737E3,1.3E1,3E1,1.2029E4,1.6953E4,1.8E2,3.1E1,2.59E2,9.75E2,5.24E2,1.149E3,1.97E2,7.04E3,7.66E2,9.13E2,5E0,7E0,5E1,9E1,8.7E1,2.4E3,4.75E2,9.2E1,2.864E3,4.863E3,1.27E2,1.82E2],"tree_param":{"num_deleted":"0","num_feature":"13","num_nodes":"121","size_leaf_vector":"1"}},{"base_weights":[1.7887075E-2,-7.7170553E0,8.108051E0,-1.0564171E1,-3.3299482E0,5.546438E0,1.5826416E1,-8.720401E0,-1.6197409E1,-1.4021145E0,-1.0628178E1,9.031429E0,-9.897321E-1,2.2445562E1,1.3391075E1,-5.1284206E1,-8.592098E0,-1.4916879E1,-2.8602737E1,-5.754308E1,-1.2105755E0,-7.990576E0,-1.7592987E1,1.9214838E1,7.6459417E0,6.555783E-1,-1.265188E1,2.1055895E1,2.9099508E1,9.074755E0,1.5988987E1,-2.3892338E1,-9.606566E1,-5.095766E0,-9.820235E0,-7.5082E1,-1.4716008E1,-2.2419981E1,-3.793519E1,-2.024101E0,-9.411678E1,1.4361745E1,-1.8705795E0,-4.5821643E0,-9.307964E0,-9.009596E0,-2.373989E1,6.6297436E-1,2.2225714E1,4.623449E0,1.0009437E1,-3.6265953E0,2.5730689E0,-2.3935204E0,-1.7467987E1,-2.8054287E1,2.1252302E1,3.3773556E1,1.5071736E1,1.5708812E1,6.992684E0,1.772013E1,1.0050629E1,-1.7369225E0,6.9237584E-1,-5.534135E0,-3.3133683E0,-2.0795129E-1,-1.0575858E0,-8.6130047E-1,-4.6113262E-1,3.5268614E-1,-5.3090487E0,-7.0855516E-1,-1.2106365E0,-2.597223E0,-1.0496372E0,-1.2908466E0,-2.126516E0,9.153611E-1,-8.4519047E-1,-3.6365948E0,-6.3785295E0,-4.26679E-1,8.596305E-1,1.1848517E-1,-1.4880544E-1,-4.2388755E-1,-1.5035115E-1,-3.6471286E-1,-6.530524E-1,-1.3739574E0,-2.0707451E-1,-1.8564491E0,-1.0180948E0,-3.0408342E0,1.5451221E-1,1.5076057E0,9.443348E-1,-1.6937914E0,2.4131504E-1,2.56394E-2,5.361063E-1,6.7357886E-1,-3.0732334E-1,-1.2750855E-1,2.3926793E-1,-4.4113326E-1,7.0781596E-2,-5.8342314E-1,-1.3825226E0,-1.6888733E0,-9.0482134E-1,6.806197E-1,1.1038489E0,1.7708691E0,1.5116881E-1,1.0812613E0,3.311566E-1,1.157209E0,6.404347E-1,4.8482862E-1,1.8728098E-2,5.741032E-1,9.5142615E-1,7.05048E-1,9.766357E-2],"categories":[],"categories_nodes":[],"categories_segments":[],"categories_sizes":[],"default_left":[0,0,0,0,0,0,0,0,0,0,0,0,0,0,0,0,0,0,0,0,0,0,0,0,0,0,0,0,0,0,0,0,0,0,0,0,0,0,0,0,0,0,0,0,0,0,0,0,0,0,0,0,0,0,0,0,0,0,0,0,0,0,0,0,0,0,0,0,0,0,0,0,0,0,0,0,0,0,0,0,0,0,0,0,0,0,0,0,0,0,0,0,0,0,0,0,0,0,0,0,0,0,0,0,0,0,0,0,0,0,0,0,0,0,0,0,0,0,0,0,0,0,0,0,0,0,0],"id":1,"left_children":[1,3,5,7,9,11,13,15,17,19,21,23,25,27,29,31,33,35,37,39,41,43,45,47,49,51,53,55,57,59,61,63,65,67,69,71,73,75,77,79,81,83,85,87,89,91,93,95,97,99,101,103,105,107,109,111,113,115,117,119,121,123,125,-1,-1,-1,-1,-1,-1,-1,-1,-1,-1,-1,-1,-1,-1,-1,-1,-1,-1,-1,-1,-1,-1,-1,-1,-1,-1,-1,-1,-1,-1,-1,-1,-1,-1,-1,-1,-1,-1,-1,-1,-1,-1,-1,-1,-1,-1,-1,-1,-1,-1,-1,-1,-1,-1,-1,-1,-1,-1,-1,-1,-1,-1,-1,-1],"loss_changes":[9.021344E6,9.20521E5,1.3930865E6,4.64066E5,4.0810575E5,1.2051516E6,2.827285E5,1.834545E5,1.746265E5,2.466778E5,1.1119981E5,4.867235E5,3.5306597E5,4.303625E4,1.438105E5,1.2158419E5,1.441185E5,1.19631E5,5.857475E4,1.5818161E5,2.3507877E5,1.9703875E4,8.757753E4,2.307855E5,2.1695475E5,1.3242027E5,1.1235341E5,3.8300125E4,5.2791688E4,6.6547375E4,8.2194125E4,2.6680285E4,9.199E3,1.3121092E5,1.09796E5,8.5052016E4,5.118875E4,2.5112344E4,2.167025E4,9.990094E3,2.4325562E4,6.0424203E4,1.02861195E5,7.5084883E3,2.3867906E4,6.2461594E4,4.3064438E4,8.643578E4,9.3513625E4,1.0427894E5,1.15363375E5,2.1499105E5,1.26262836E5,1.7841652E4,9.108819E4,2.9541016E2,2.4229875E4,3.067275E4,1.1204359E4,2.4541062E4,6.575825E4,5.0406375E4,5.9366203E4,0E0,0E0,0E0,0E0,0E0,0E0,0E0,0E0,0E0,0E0,0E0,0E0,0E0,0E0,0E0,0E0,0E0,0E0,0E0,0E0,0E0,0E0,0E0,0E0,0E0,0E0,0E0,0E0,0E0,0E0,0E0,0E0,0E0,0E0,0E0,0E0,0E0,0E0,0E0,0E0,0E0,0E0,0E0,0E0,0E0,0E0,0E0,0E0,0E0,0E0,0E0,0E0,0E0,0E0,0E0,0E0,0E0,0E0,0E0,0E0,0E0,0E0,0E0,0E0],"parents":[2147483647,0,0,1,1,2,2,3,3,4,4,5,5,6,6,7,7,8,8,9,9,10,10,11,11,12,12,13,13,14,14,15,15,16,16,17,17,18,18,19,19,20,20,21,21,22,22,23,23,24,24,25,25,26,26,27,27,28,28,29,29,30,30,31,31,32,32,33,33,34,34,35,35,36,36,37,37,38,38,39,39,40,40,41,41,42,42,43,43,44,44,45,45,46,46,47,47,48,48,49,49,50,50,51,51,52,52,53,53,54,54,55,55,56,56,57,57,58,58,59,59,60,60,61,61,62,62],"right_children":[2,4,6,8,10,12,14,16,18,20,22,24,26,28,30,32,34,36,38,40,42,44,46,48,50,52,54,56,58,60,62,64,66,68,70,72,74,76,78,80,82,84,86,88,90,92,94,96,98,100,102,104,106,108,110,112,114,116,118,120,122,124,126,-1,-1,-1,-1,-1,-1,-1,-1,-1,-1,-1,-1,-1,-1,-1,-1,-1,-1,-1,-1,-1,-1,-1,-1,-1,-1,-1,-1,-1,-1,-1,-1,-1,-1,-1,-1,-1,-1,-1,-1,-1,-1,-1,-1,-1,-1,-1,-1,-1,-1,-1,-1,-1,-1,-1,-1,-1,-1,-1,-1,-1,-1,-1,-1],"split_conditions":[3.967617E2,3.8868414E2,4.1511423E2,6.110573E-2,3.464327E-1,3.1739807E-1,-8.7025285E-2,-9.5881975E-1,1.8825054E-1,-9.5881975E-1,6.4944804E-1,-7.143831E-1,1.3890381E0,6.4944804E-1,4.1816013E2,4.862727E-1,-7.730274E-1,-9.6363044E-1,8.5264015E-1,-8.3222866E-2,-1.2684078E0,-1.7192364E-2,-8.041382E-2,-5.6640625E-1,4.0388007E2,-4.9377555E-1,6.6262007E-1,3.0394045E1,3.4191166E1,-4.7214544E-1,8.2437325E-1,3.816249E2,-9.6814764E-1,9.0258527E-1,-9.7895813E-1,-8.606997E-3,8.703557E-1,-9.5881975E-1,5.988846E-1,-4.8569584E-1,-9.047627E-3,-3.007058E-1,-5.283642E-2,3.9083017E2,4.7715876E-1,3.9083017E2,-8.5876393E-1,-9.5881975E-1,3.3376106E1,-9.6363044E-1,-8.616292E-1,-8.726535E-3,4.0265152E2,4.3619387E-2,3.4331676E1,-1.2940952E-1,-6.8835455E-1,2.3830509E-1,8.870108E-1,-3.9175034E-2,6.2251467E-1,-8.498171E-1,1.6587734E0,-1.7369225E0,6.9237584E-1,-5.534135E0,-3.3133683E0,-2.0795129E-1,-1.0575858E0,-8.6130047E-1,-4.6113262E-1,3.5268614E-1,-5.3090487E0,-7.0855516E-1,-1.2106365E0,-2.597223E0,-1.0496372E0,-1.2908466E0,-2.126516E0,9.153611E-1,-8.4519047E-1,-3.6365948E0,-6.3785295E0,-4.26679E-1,8.596305E-1,1.1848517E-1,-1.4880544E-1,-4.2388755E-1,-1.5035115E-1,-3.6471286E-1,-6.530524E-1,-1.3739574E0,-2.0707451E-1,-1.8564491E0,-1.0180948E0,-3.0408342E0,1.5451221E-1,1.5076057E0,9.443348E-1,-1.6937914E0,2.4131504E-1,2.56394E-2,5.361063E-1,6.7357886E-1,-3.0732334E-1,-1.2750855E-1,2.3926793E-1,-4.4113326E-1,7.0781596E-2,-5.8342314E-1,-1.3825226E0,-1.6888733E0,-9.0482134E-1,6.806197E-1,1.1038489E0,1.7708691E0,1.5116881E-1,1.0812613E0,3.311566E-1,1.157209E0,6.404347E-1,4.8482862E-1,1.8728098E-2,5.741032E-1,9.5142615E-1,7.05048E-1,9.766357E-2],"split_indices":[7,7,7,1,1,1,1,8,6,8,8,1,1,8,7,12,1,8,8,6,1,6,3,8,7,12,8,2,2,10,1,7,8,8,3,12,8,8,3,6,1,8,6,7,8,7,12,8,2,8,8,8,7,8,2,10,8,6,8,6,8,12,4,0,0,0,0,0,0,0,0,0,0,0,0,0,0,0,0,0,0,0,0,0,0,0,0,0,0,0,0,0,0,0,0,0,0,0,0,0,0,0,0,0,0,0,0,0,0,0,0,0,0,0,0,0,0,0,0,0,0,0,0,0,0,0,0],"split_type":[0,0,0,0,0,0,0,0,0,0,0,0,0,0,0,0,0,0,0,0,0,0,0,0,0,0,0,0,0,0,0,0,0,0,0,0,0,0,0,0,0,0,0,0,0,0,0,0,0,0,0,0,0,0,0,0,0,0,0,0,0,0,0,0,0,0,0,0,0,0,0,0,0,0,0,0,0,0,0,0,0,0,0,0,0,0,0,0,0,0,0,0,0,0,0,0,0,0,0,0,0,0,0,0,0,0,0,0,0,0,0,0,0,0,0,0,0,0,0,0,0,0,0,0,0,0,0],"sum_hessian":[1.44162E5,7.3699E4,7.0463E4,4.4693E4,2.9006E4,5.2906E4,1.7557E4,3.3674E4,1.1019E4,2.2946E4,6.06E3,3.4507E4,1.8399E4,4.72E3,1.2837E4,1E2,3.3574E4,9.99E3,1.029E3,7.7E1,2.2869E4,4.397E3,1.663E3,4.131E3,3.0376E4,1.6125E4,2.274E3,3.908E3,8.12E2,4.825E3,8.012E3,6.3E1,3.7E1,8.729E3,2.4845E4,3.2E1,9.958E3,6.21E2,4.08E2,3.1E1,4.6E1,9.29E2,2.194E4,1.227E3,3.17E3,6.95E2,9.68E2,5.77E2,3.554E3,1.3331E4,1.7045E4,4.987E3,1.1138E4,7.27E2,1.547E3,1.5E1,3.893E3,6.08E2,2.04E2,1.151E3,3.674E3,6.202E3,1.81E3,4.9E1,1.4E1,2.3E1,1.4E1,8.249E3,4.8E2,1.853E3,2.2992E4,9E0,2.3E1,9.42E3,5.38E2,2.7E1,5.94E2,1.14E2,2.94E2,1.3E1,1.8E1,3E1,1.6E1,1.02E2,8.27E2,4.537E3,1.7403E4,3.52E2,8.75E2,2.065E3,1.105E3,1.44E2,5.51E2,1.93E2,7.75E2,2.1E1,5.56E2,1.051E3,2.503E3,6.9E1,1.3262E4,1.19E3,1.5855E4,6.4E2,4.347E3,3.359E3,7.779E3,2.7E2,4.57E2,9.87E2,5.6E2,8E0,7E0,3.81E2,3.512E3,5.77E2,3.1E1,1.14E2,9E1,3.21E2,8.3E2,2.608E3,1.066E3,1.077E3,5.125E3,1.206E3,6.04E2],"tree_param":{"num_deleted":"0","num_feature":"13","num_nodes":"127","size_leaf_vector":"1"}},{"base_weights":[-5.3657116E-3,-7.3580737E0,7.660548E0,-6.9329944E0,-4.5358044E1,4.968991E0,1.4382589E1,-9.047685E0,-1.570424E0,-3.105465E1,-6.689356E1,1.1652022E1,1.7989373E0,1.9324945E1,1.1210843E1,-7.6636467E0,-1.4265038E1,1.4861063E-2,-1.0834471E1,-3.421732E1,-2.0651608E1,-4.921928E1,-8.6083885E1,2.2982128E1,1.013524E1,2.2522025E0,-3.305576E1,1.7286026E1,2.3766706E1,1.1927517E1,-1.258374E1,-9.334831E0,-5.0281134E0,-1.083442E1,-1.7926315E1,2.8753233E1,-3.9802736E-1,-4.4836874E0,-1.5453575E1,-9.867981E-2,-3.464744E1,-3.5011587E-1,-2.1723288E1,-6.508621E1,-4.2679504E1,-1.0915223E2,-7.325246E1,3.9350765E1,1.874037E1,1.0367319E1,-6.5318085E1,3.1749027E0,-1.1742675E1,-2.2337124E1,-5.0719208E1,2.2716112E1,1.547662E1,2.864672E1,2.1100796E1,4.7310696E0,1.4763674E1,-1.0226388E1,-3.4882866E1,-1.1222048E0,-4.4394216E-1,-3.397524E-2,-3.4540355E-1,-7.4931574E-1,-4.6013352E-1,-7.694753E-1,-1.2812811E0,1.8673403E0,4.158426E-1,1.4998868E-1,-1.06190145E-1,-2.2370804E-2,-3.900033E-1,-2.5008282E-1,-9.590341E-1,-1.5250381E0,-1.8990854E0,-8.925023E-1,-1.3691214E0,-2.1371832E0,-3.392791E0,-1.6079949E0,-2.3652399E0,-3.2030907E0,-5.907312E0,-4.0078363E0,-2.2249E0,2.40134E0,1.0815659E0,1.4703499E0,7.8813034E-1,4.3415102E-1,7.0226943E-1,-2.2866466E0,-4.8363776E0,3.067077E-1,5.5078324E-2,9.5236264E-2,-9.7772217E-1,-9.6865696E-1,-1.9886862E0,-1.8231481E0,-3.4092557E0,3.2423668E0,1.0871019E0,7.964738E-1,-4.2384037E-1,2.2967153E0,1.3300425E0,2.579011E0,1.0332319E0,3.807699E-1,-4.1931292E-1,5.360071E-1,8.5946417E-1,-1.7124043E-1,-7.3199594E-1,-2.0805068E0,-1.1146594E0],"categories":[],"categories_nodes":[],"categories_segments":[],"categories_sizes":[],"default_left":[0,0,0,0,0,0,0,0,0,0,0,0,0,0,0,0,0,0,0,0,0,0,0,0,0,0,0,0,0,0,0,0,0,0,0,0,0,0,0,0,0,0,0,0,0,0,0,0,0,0,0,0,0,0,0,0,0,0,0,0,0,0,0,0,0,0,0,0,0,0,0,0,0,0,0,0,0,0,0,0,0,0,0,0,0,0,0,0,0,0,0,0,0,0,0,0,0,0,0,0,0,0,0,0,0,0,0,0,0,0,0,0,0,0,0,0,0,0,0,0,0,0,0],"id":2,"left_children":[1,3,5,7,9,11,13,15,17,19,21,23,25,27,29,31,33,35,37,39,41,43,45,47,49,51,53,55,57,59,61,63,65,67,69,71,73,75,77,-1,79,-1,81,83,85,87,89,91,93,95,97,99,101,103,105,107,109,111,113,115,117,119,121,-1,-1,-1,-1,-1,-1,-1,-1,-1,-1,-1,-1,-1,-1,-1,-1,-1,-1,-1,-1,-1,-1,-1,-1,-1,-1,-1,-1,-1,-1,-1,-1,-1,-1,-1,-1,-1,-1,-1,-1,-1,-1,-1,-1,-1,-1,-1,-1,-1,-1,-1,-1,-1,-1,-1,-1,-1,-1,-1,-1],"loss_changes":[8.127246E6,1.1885102E6,1.2771125E6,8.253795E5,2.4865E5,1.0679211E6,3.161665E5,3.768255E5,3.023304E5,1.5442469E4,1.05642375E5,2.78475E5,5.4025094E5,7.102175E4,2.0983338E5,1.81671E5,1.3725175E5,2.0860216E5,8.816822E4,5.1287188E3,1.5564453E3,1.4955375E4,3.757E4,1.3214919E5,2.5116825E5,4.3590444E5,8.197484E4,5.2799125E4,3.1641625E4,2.4356538E5,1.856284E4,1.507155E5,1.3089584E5,3.8151062E4,1.0296325E5,4.3414562E4,1.01632516E5,1.6968887E4,6.7723E4,0E0,3.950375E3,0E0,1.8739766E3,5.8796875E1,4.5041094E3,1.3906875E4,1.6670625E4,5.937175E4,4.787475E4,8.82285E4,2.262911E4,1.9428616E5,2.2264138E5,1.34360625E4,3.8588E4,5.3984E4,4.418725E4,2.964725E4,2.0290188E4,1.2779368E5,8.378925E4,9.764258E3,1.9455898E3,0E0,0E0,0E0,0E0,0E0,0E0,0E0,0E0,0E0,0E0,0E0,0E0,0E0,0E0,0E0,0E0,0E0,0E0,0E0,0E0,0E0,0E0,0E0,0E0,0E0,0E0,0E0,0E0,0E0,0E0,0E0,0E0,0E0,0E0,0E0,0E0,0E0,0E0,0E0,0E0,0E0,0E0,0E0,0E0,0E0,0E0,0E0,0E0,0E0,0E0,0E0,0E0,0E0,0E0,0E0,0E0,0E0,0E0,0E0,0E0],"parents":[2147483647,0,0,1,1,2,2,3,3,4,4,5,5,6,6,7,7,8,8,9,9,10,10,11,11,12,12,13,13,14,14,15,15,16,16,17,17,18,18,19,19,20,20,21,21,22,22,23,23,24,24,25,25,26,26,27,27,28,28,29,29,30,30,31,31,32,32,33,33,34,34,35,35,36,36,37,37,38,38,40,40,42,42,43,43,44,44,45,45,46,46,47,47,48,48,49,49,50,50,51,51,52,52,53,53,54,54,55,55,56,56,57,57,58,58,59,59,60,60,61,61,62,62],"right_children":[2,4,6,8,10,12,14,16,18,20,22,24,26,28,30,32,34,36,38,40,42,44,46,48,50,52,54,56,58,60,62,64,66,68,70,72,74,76,78,-1,80,-1,82,84,86,88,90,92,94,96,98,100,102,104,106,108,110,112,114,116,118,120,122,-1,-1,-1,-1,-1,-1,-1,-1,-1,-1,-1,-1,-1,-1,-1,-1,-1,-1,-1,-1,-1,-1,-1,-1,-1,-1,-1,-1,-1,-1,-1,-1,-1,-1,-1,-1,-1,-1,-1,-1,-1,-1,-1,-1,-1,-1,-1,-1,-1,-1,-1,-1,-1,-1,-1,-1,-1,-1,-1,-1],"split_conditions":[3.967617E2,-5.8466654E0,4.1404633E2,3.9083017E2,-5.4960575E0,-1.1298084E-1,7.793617E-2,1.5771484E-1,5.149893E-1,2.0493143E0,1.9384263E-1,-1.0689607E0,-5.8466654E0,4.209064E2,-6.067411E0,4.862727E-1,-6.934608E0,-1.7518559E0,-7.166727E0,-2.3387146E-1,-8.498171E-1,3.3775043E1,3.3461082E1,-4.9090558E-1,-5.4960575E0,1.3890381E0,-5.4960575E0,-4.9513066E-1,-3.558116E-1,-4.9377555E-1,-5.4960575E0,-2.116169E0,-6.35479E-1,-5.160624E-1,6.5658855E-1,2.1793365E-2,-2.333355E-2,2.5276184E-1,-3.4919804E-1,-9.867981E-2,-5.6882534E0,-3.5011587E-1,-3.4898567E-1,-4.4458866E-2,2.564907E-1,4.862727E-1,2.6276344E-1,-2.522828E-1,-4.9560213E-1,4.0693936E2,-4.4290517E-3,-7.0401626E0,-7.050628E0,1.6945763E0,-2.5272924E-1,-1.3794155E0,-6.067411E0,3.3168083E1,-9.6351576E-1,-6.6774516E0,4.179823E2,-5.8466654E0,3.3824562E1,-1.1222048E0,-4.4394216E-1,-3.397524E-2,-3.4540355E-1,-7.4931574E-1,-4.6013352E-1,-7.694753E-1,-1.2812811E0,1.8673403E0,4.158426E-1,1.4998868E-1,-1.06190145E-1,-2.2370804E-2,-3.900033E-1,-2.5008282E-1,-9.590341E-1,-1.5250381E0,-1.8990854E0,-8.925023E-1,-1.3691214E0,-2.1371832E0,-3.392791E0,-1.6079949E0,-2.3652399E0,-3.2030907E0,-5.907312E0,-4.0078363E0,-2.2249E0,2.40134E0,1.0815659E0,1.4703499E0,7.8813034E-1,4.3415102E-1,7.0226943E-1,-2.2866466E0,-4.8363776E0,3.067077E-1,5.5078324E-2,9.5236264E-2,-9.7772217E-1,-9.6865696E-1,-1.9886862E0,-1.8231481E0,-3.4092557E0,3.2423668E0,1.0871019E0,7.964738E-1,-4.2384037E-1,2.2967153E0,1.3300425E0,2.579011E0,1.0332319E0,3.807699E-1,-4.1931292E-1,5.360071E-1,8.5946417E-1,-1.7124043E-1,-7.3199594E-1,-2.0805068E0,-1.1146594E0],"split_indices":[7,5,7,7,5,1,1,1,1,4,10,1,5,7,5,12,5,1,5,6,12,2,2,10,5,1,5,10,1,12,5,3,1,12,1,6,6,3,9,0,5,0,1,6,1,12,10,9,9,7,9,5,5,1,10,1,5,2,9,5,7,5,2,0,0,0,0,0,0,0,0,0,0,0,0,0,0,0,0,0,0,0,0,0,0,0,0,0,0,0,0,0,0,0,0,0,0,0,0,0,0,0,0,0,0,0,0,0,0,0,0,0,0,0,0,0,0,0,0,0,0,0,0],"split_type":[0,0,0,0,0,0,0,0,0,0,0,0,0,0,0,0,0,0,0,0,0,0,0,0,0,0,0,0,0,0,0,0,0,0,0,0,0,0,0,0,0,0,0,0,0,0,0,0,0,0,0,0,0,0,0,0,0,0,0,0,0,0,0,0,0,0,0,0,0,0,0,0,0,0,0,0,0,0,0,0,0,0,0,0,0,0,0,0,0,0,0,0,0,0,0,0,0,0,0,0,0,0,0,0,0,0,0,0,0,0,0,0,0,0,0,0,0,0,0,0,0,0,0],"sum_hessian":[1.44187E5,7.3597E4,7.059E4,7.2784E4,8.13E2,5.0408E4,2.0182E4,5.2199E4,2.0585E4,4.9E2,3.23E2,1.6217E4,3.4191E4,7.887E3,1.2295E4,4.1257E4,1.0942E4,1.7578E4,3.007E3,3.74E2,1.16E2,1.7E2,1.53E2,1.913E3,1.4304E4,3.3753E4,4.38E2,5.409E3,2.478E3,1.1936E4,3.59E2,2.5246E4,1.6011E4,5.651E3,5.291E3,2.48E2,1.733E4,1.267E3,1.74E3,5E0,3.69E2,9E0,1.07E2,4.7E1,1.23E2,5.2E1,1.01E2,3.92E2,1.521E3,1.4261E4,4.3E1,3.1666E4,2.087E3,2.74E2,1.64E2,1.349E3,4.06E3,8.72E2,1.606E3,3.375E3,8.561E3,3.26E2,3.3E1,8.47E2,2.4399E4,4.833E3,1.1178E4,1.592E3,4.059E3,3.982E3,1.309E3,1.74E2,7.4E1,5.837E3,1.1493E4,5.72E2,6.95E2,4.58E2,1.282E3,1.69E2,2E2,6.6E1,4.1E1,7E0,4E1,4E1,8.3E1,1E1,4.2E1,8E1,2.1E1,2.62E2,1.3E2,3.3E2,1.191E3,9.784E3,4.477E3,2.8E1,1.5E1,1.3045E4,1.8621E4,7.6E2,1.327E3,2.36E2,3.8E1,9.2E1,7.2E1,2.9E1,1.32E3,3.985E3,7.5E1,9E1,7.82E2,2.1E1,1.585E3,2.767E3,6.08E2,3.212E3,5.349E3,1.29E2,1.97E2,2E1,1.3E1],"tree_param":{"num_deleted":"0","num_feature":"13","num_nodes":"123","size_leaf_vector":"1"}},{"base_weights":[-8.906907E-3,-7.0262885E0,7.3113165E0,-6.6913652E0,-4.9484947E1,4.7557306E0,1.36827755E1,-9.8902645E0,-3.3851247E0,-3.831189E1,-7.474002E1,5.0907936E0,-4.001235E1,1.420969E1,-9.876377E0,-5.905482E0,-1.1447725E1,-6.005722E-1,-5.013978E0,-4.446162E1,-2.7189522E1,-9.91332E1,-5.9423748E1,8.01228E0,3.0079713E0,-2.3250546E1,-5.3341377E1,8.782917E0,1.634949E1,-7.5571504E0,-2.9155485E1,-1.4931346E0,-7.7503624E0,-1.3591646E1,-9.0921545E0,4.830209E0,-1.8860407E0,-7.467445E0,-3.320732E0,-3.7428333E1,-5.153228E1,-1.9720472E1,-3.2686226E1,-2.3840318E0,-1.0540631E2,-3.0964714E1,-6.742858E1,1.2872973E1,5.382684E0,7.5517445E0,1.993655E0,-3.608521E1,-1.9697435E1,-3.8433132E1,-6.95298E1,-1.2834477E0,1.0580546E1,2.0012512E1,1.4060895E1,-1.678117E0,-1.2083677E1,-1.9834698E0,-9.566944E-1,1.9875953E-1,-3.0080652E-1,-4.272588E-1,-5.56714E-3,-1.2018012E0,-6.023833E-1,-3.5446218E-1,-6.3692063E-1,6.0703677E-1,5.2795805E-2,-1.8210745E-1,6.3799354E-3,-5.358698E-1,-2.9324588E-1,-1.3780698E-1,-6.3271254E-1,-1.9710867E0,-1.3131498E0,-3.1023066E0,-2.2311814E0,-7.9823065E-1,-1.285862E0,-1.0901407E0,-1.7810429E0,-2.9815009E0,-5.6297607E0,-2.2046826E0,-9.998512E-1,-1.9363066E0,-3.603586E0,9.665638E-1,4.2299685E-1,1.0949391E-1,4.2776424E-1,4.3589264E-1,-2.4976237E-1,-5.4940092E-3,2.4712884E-1,-9.0073395E-1,-1.9599648E0,-1.0399427E0,-3.961436E-1,-2.1774402E0,-1.1319705E0,-8.739311E-1,-4.1325445E0,1.240919E0,-3.8987592E-1,5.557674E-1,-1.0115286E0,1.2938746E0,7.725871E-1,5.8622545E-1,8.4264183E-1,-5.051878E-1,9.630372E-2,-1.14867665E-1,-7.918717E-1],"categories":[],"categories_nodes":[],"categories_segments":[],"categories_sizes":[],"default_left":[0,0,0,0,0,0,0,0,0,0,0,0,0,0,0,0,0,0,0,0,0,0,0,0,0,0,0,0,0,0,0,0,0,0,0,0,0,0,0,0,0,0,0,0,0,0,0,0,0,0,0,0,0,0,0,0,0,0,0,0,0,0,0,0,0,0,0,0,0,0,0,0,0,0,0,0,0,0,0,0,0,0,0,0,0,0,0,0,0,0,0,0,0,0,0,0,0,0,0,0,0,0,0,0,0,0,0,0,0,0,0,0,0,0,0,0,0,0,0,0,0],"id":3,"left_children":[1,3,5,7,9,11,13,15,17,19,21,23,25,27,29,31,33,35,37,39,41,43,45,47,49,51,53,55,57,59,61,63,65,67,69,71,73,75,77,79,81,83,85,-1,87,89,91,93,95,97,99,101,103,105,107,109,111,113,115,117,119,-1,-1,-1,-1,-1,-1,-1,-1,-1,-1,-1,-1,-1,-1,-1,-1,-1,-1,-1,-1,-1,-1,-1,-1,-1,-1,-1,-1,-1,-1,-1,-1,-1,-1,-1,-1,-1,-1,-1,-1,-1,-1,-1,-1,-1,-1,-1,-1,-1,-1,-1,-1,-1,-1,-1,-1,-1,-1,-1,-1],"loss_changes":[7.3810285E6,1.04288575E6,1.145038E6,7.69795E5,1.5909462E5,7.531314E5,2.5005275E5,2.295205E5,1.6234922E5,2.614375E4,5.9475438E4,3.0314462E5,8.208725E4,2.285215E5,1.9494262E4,8.462984E4,1.3419325E5,9.224307E4,9.379531E4,1.0793219E4,5.303164E3,1.62615625E4,2.2961312E4,2.6496938E5,1.3404544E5,6.899336E3,4.7274562E4,1.0082506E5,1.1810225E5,1.048993E4,4.187301E3,7.588088E4,4.4515094E4,2.242115E5,9.2482125E4,6.97662E4,3.7781246E4,4.7959688E4,7.0386984E4,1.8960156E3,6.3001562E3,1.0267383E3,1.8366094E3,0E0,1.23554375E4,2.8556953E3,8.525781E3,2.0729038E5,1.3630297E5,7.770609E4,1.475184E5,1.2576797E3,1.5571836E3,7.8949688E3,6.547625E4,1.4386644E5,7.8114625E4,1.4478875E5,5.6517625E4,5.2738755E3,8.1538145E3,0E0,0E0,0E0,0E0,0E0,0E0,0E0,0E0,0E0,0E0,0E0,0E0,0E0,0E0,0E0,0E0,0E0,0E0,0E0,0E0,0E0,0E0,0E0,0E0,0E0,0E0,0E0,0E0,0E0,0E0,0E0,0E0,0E0,0E0,0E0,0E0,0E0,0E0,0E0,0E0,0E0,0E0,0E0,0E0,0E0,0E0,0E0,0E0,0E0,0E0,0E0,0E0,0E0,0E0,0E0,0E0,0E0,0E0,0E0,0E0],"parents":[2147483647,0,0,1,1,2,2,3,3,4,4,5,5,6,6,7,7,8,8,9,9,10,10,11,11,12,12,13,13,14,14,15,15,16,16,17,17,18,18,19,19,20,20,21,21,22,22,23,23,24,24,25,25,26,26,27,27,28,28,29,29,30,30,31,31,32,32,33,33,34,34,35,35,36,36,37,37,38,38,39,39,40,40,41,41,42,42,44,44,45,45,46,46,47,47,48,48,49,49,50,50,51,51,52,52,53,53,54,54,55,55,56,56,57,57,58,58,59,59,60,60],"right_children":[2,4,6,8,10,12,14,16,18,20,22,24,26,28,30,32,34,36,38,40,42,44,46,48,50,52,54,56,58,60,62,64,66,68,70,72,74,76,78,80,82,84,86,-1,88,90,92,94,96,98,100,102,104,106,108,110,112,114,116,118,120,-1,-1,-1,-1,-1,-1,-1,-1,-1,-1,-1,-1,-1,-1,-1,-1,-1,-1,-1,-1,-1,-1,-1,-1,-1,-1,-1,-1,-1,-1,-1,-1,-1,-1,-1,-1,-1,-1,-1,-1,-1,-1,-1,-1,-1,-1,-1,-1,-1,-1,-1,-1,-1,-1,-1,-1,-1,-1,-1,-1],"split_conditions":[3.967617E2,-5.6882534E0,4.1404633E2,3.8717242E2,2.185009E-1,-5.6882534E0,-6.067411E0,-7.2895765E0,-2.0391464E-2,-3.5063744E-2,2.4128035E-1,-7.061866E0,-5.4960575E0,-4.9377555E-1,-5.4960575E0,-4.9002868E-1,1.7213356E-2,-8.56551E-1,3.9083017E2,-5.4960575E0,2.2561073E-2,-8.0972195E-2,-5.4960575E0,-4.7495106E-1,-4.6130913E-1,3.991797E2,-2.1667662E-1,3.3086327E1,-7.044805E0,-5.8466654E0,3.3824562E1,-3.859352E-1,8.717063E-1,-8.7490463E-1,-6.630107E0,-7.5173283E0,3.9164902E2,-5.012418E-1,3.1672144E-1,8.695894E-1,3.3766117E1,5.276046E0,9.0825653E-1,-2.3840318E0,-1.2329301E-1,-1.0203714E0,-5.4192543E-2,1.819344E1,4.0440912E2,2.9074257E1,3.4732666E1,1.7756101E0,1.308232E-1,-7.940809E-3,-1.8586409E0,5.69749E0,4.420333E-1,2.1516098E-2,4.1854736E2,-4.7495106E-1,-4.1529784E-1,-1.9834698E0,-9.566944E-1,1.9875953E-1,-3.0080652E-1,-4.272588E-1,-5.56714E-3,-1.2018012E0,-6.023833E-1,-3.5446218E-1,-6.3692063E-1,6.0703677E-1,5.2795805E-2,-1.8210745E-1,6.3799354E-3,-5.358698E-1,-2.9324588E-1,-1.3780698E-1,-6.3271254E-1,-1.9710867E0,-1.3131498E0,-3.1023066E0,-2.2311814E0,-7.9823065E-1,-1.285862E0,-1.0901407E0,-1.7810429E0,-2.9815009E0,-5.6297607E0,-2.2046826E0,-9.998512E-1,-1.9363066E0,-3.603586E0,9.665638E-1,4.2299685E-1,1.0949391E-1,4.2776424E-1,4.3589264E-1,-2.4976237E-1,-5.4940092E-3,2.4712884E-1,-9.0073395E-1,-1.9599648E0,-1.0399427E0,-3.961436E-1,-2.1774402E0,-1.1319705E0,-8.739311E-1,-4.1325445E0,1.240919E0,-3.8987592E-1,5.557674E-1,-1.0115286E0,1.2938746E0,7.725871E-1,5.8622545E-1,8.4264183E-1,-5.051878E-1,9.630372E-2,-1.14867665E-1,-7.918717E-1],"split_indices":[7,5,7,7,10,5,5,5,6,9,10,5,5,12,5,11,12,11,7,5,6,6,5,11,10,7,10,2,5,5,2,10,12,3,5,5,7,12,6,11,2,0,3,0,9,0,6,0,7,0,2,0,10,9,0,0,6,11,7,11,10,0,0,0,0,0,0,0,0,0,0,0,0,0,0,0,0,0,0,0,0,0,0,0,0,0,0,0,0,0,0,0,0,0,0,0,0,0,0,0,0,0,0,0,0,0,0,0,0,0,0,0,0,0,0,0,0,0,0,0,0],"split_type":[0,0,0,0,0,0,0,0,0,0,0,0,0,0,0,0,0,0,0,0,0,0,0,0,0,0,0,0,0,0,0,0,0,0,0,0,0,0,0,0,0,0,0,0,0,0,0,0,0,0,0,0,0,0,0,0,0,0,0,0,0,0,0,0,0,0,0,0,0,0,0,0,0,0,0,0,0,0,0,0,0,0,0,0,0,0,0,0,0,0,0,0,0,0,0,0,0,0,0,0,0,0,0,0,0,0,0,0,0,0,0,0,0,0,0,0,0,0,0,0,0],"sum_hessian":[1.43685E5,7.336E4,7.0325E4,7.2787E4,5.73E2,5.0194E4,2.0131E4,3.6993E4,3.5794E4,3.99E2,1.74E2,4.9822E4,3.72E2,1.9691E4,4.4E2,1.0397E4,2.6596E4,1.3211E4,2.2583E4,2.55E2,1.44E2,6.5E1,1.09E2,2.0735E4,2.9087E4,1.66E2,2.06E2,5.57E3,1.4121E4,3.94E2,4.6E1,3.066E3,7.331E3,1.3921E4,1.2675E4,2.528E3,1.0683E4,9.22E3,1.3363E4,1.31E2,1.24E2,6.3E1,8.1E1,8E0,5.7E1,2.5E1,8.4E1,7.278E3,1.3457E4,5.307E3,2.378E4,3.4E1,1.32E2,1.09E2,9.7E1,8.44E2,4.726E3,5.427E3,8.694E3,1.72E2,2.22E2,2.1E1,2.5E1,1.388E3,1.678E3,6.64E3,6.91E2,1.791E3,1.213E4,8.183E3,4.492E3,8.6E2,1.668E3,5.706E3,4.977E3,3.043E3,6.177E3,1.2602E4,7.61E2,1.09E2,2.2E1,4.6E1,7.8E1,4.1E1,2.2E1,1.9E1,6.2E1,9E0,4.8E1,1E1,1.5E1,1.3E1,7.1E1,2.953E3,4.325E3,6.708E3,6.749E3,4.856E3,4.51E2,1.388E4,9.9E3,6E0,2.8E1,1.2E2,1.2E1,8.1E1,2.8E1,2E1,7.7E1,1.68E2,6.76E2,4.646E3,8E1,2.372E3,3.055E3,4.736E3,3.958E3,5.1E1,1.21E2,6.2E1,1.6E2],"tree_param":{"num_deleted":"0","num_feature":"13","num_nodes":"121","size_leaf_vector":"1"}},{"base_weights":[-1.13383E-2,-7.152534E0,6.452866E0,-9.687846E0,-4.073396E0,3.6180756E0,1.1958809E1,-8.417854E0,-1.7246582E1,-1.3263379E0,-8.020195E0,8.996446E0,2.675204E-2,1.4150057E1,5.6992455E0,-5.080427E1,-8.296145E0,-1.5021369E1,-2.7325422E1,9.402682E0,-1.8987044E0,-7.118949E0,-2.6260612E1,2.261292E1,7.778898E0,1.3037789E0,-1.2383842E1,1.2117994E1,1.8929043E1,2.1590266E0,1.0126443E1,-3.1434431E1,-8.613727E1,-5.385721E0,-9.9271145E0,-4.1549446E1,-1.4770339E1,-2.1970928E1,-3.6165127E1,4.9109325E1,7.8785467E0,3.524785E0,-2.6431823E0,-5.5377183E0,-1.0673509E1,-5.63835E0,-2.3226954E1,-7.734118E0,2.6563007E1,-4.4651833E0,8.78545E0,-1.3602397E0,3.4585893E0,-2.4203963E0,-1.8683641E1,1.7525265E1,1.0330301E1,1.333358E1,2.1343037E1,2.6147115E0,-2.470814E1,4.0896945E0,1.24848385E1,-6.998092E-1,-3.979925E0,-4.6980233E0,-1.8280001E0,-2.3534079E-1,-9.62635E-1,-9.2517227E-1,-4.6428084E-1,7.5087005E-1,-2.8965645E0,-3.797684E-1,-7.703479E-1,-3.7456455E0,-1.0210603E0,-7.4187905E-1,-1.9702237E0,2.9984536E0,1.047088E0,-3.6190066E-1,5.5090785E-1,3.901082E-1,3.5098054E-2,-2.912789E0,-1.2868048E-1,-1.21860795E-1,-3.3932087E-1,-8.9694396E-2,-5.846306E-1,-6.727251E-1,-1.3854393E0,-1.9749044E0,-1.9866098E-1,1.9672173E0,1.1144925E0,-1.4054074E0,-1.05980136E-1,8.410856E-1,3.9344686E-1,8.2508564E-2,-1.3495816E-1,4.7469744E-1,1.2553954E-1,6.2328417E-2,-4.254171E-1,1.11999325E-1,-1.1670818E0,1.5483524E-1,9.288401E-1,4.0141174E-1,6.6338235E-1,-1.105604E0,6.808517E-1,1.4031116E0,9.9284124E-1,2.6485702E-1,-3.776018E-2,-8.359216E-1,-1.9753109E0,4.30164E-1,-3.9458433E-1,9.384265E-1,5.2518815E-1],"categories":[],"categories_nodes":[],"categories_segments":[],"categories_sizes":[],"default_left":[0,0,0,0,0,0,0,0,0,0,0,0,0,0,0,0,0,0,0,0,0,0,0,0,0,0,0,0,0,0,0,0,0,0,0,0,0,0,0,0,0,0,0,0,0,0,0,0,0,0,0,0,0,0,0,0,0,0,0,0,0,0,0,0,0,0,0,0,0,0,0,0,0,0,0,0,0,0,0,0,0,0,0,0,0,0,0,0,0,0,0,0,0,0,0,0,0,0,0,0,0,0,0,0,0,0,0,0,0,0,0,0,0,0,0,0,0,0,0,0,0,0,0,0,0],"id":4,"left_children":[1,3,5,7,9,11,13,15,17,19,21,23,25,27,29,31,33,35,37,39,41,43,45,47,49,51,53,55,57,59,61,63,65,67,69,71,73,75,77,79,81,83,85,87,89,-1,91,93,95,97,99,101,103,105,107,109,111,113,115,117,119,121,123,-1,-1,-1,-1,-1,-1,-1,-1,-1,-1,-1,-1,-1,-1,-1,-1,-1,-1,-1,-1,-1,-1,-1,-1,-1,-1,-1,-1,-1,-1,-1,-1,-1,-1,-1,-1,-1,-1,-1,-1,-1,-1,-1,-1,-1,-1,-1,-1,-1,-1,-1,-1,-1,-1,-1,-1,-1,-1,-1,-1,-1,-1],"loss_changes":[6.66286E6,5.3531075E5,1.1824162E6,3.6088125E5,3.35757E5,9.66004E5,3.530835E5,1.65691E5,1.20896E5,1.12156625E5,2.0873431E5,3.3179312E5,4.7530056E5,1.8496975E5,1.0464283E5,6.024489E4,1.52365E5,2.8901438E4,4.5443125E4,5.5586812E4,7.001028E4,6.801569E4,1.5430078E5,1.9715931E5,2.2658525E5,1.5609936E5,1.7557669E5,1.29193125E5,7.654225E4,4.5508266E4,4.2188594E4,5.0110273E4,8.963031E3,1.0849225E5,1.1303375E5,3.886771E4,1.9946688E4,4.8590375E4,2.4764938E4,9.136398E3,4.2414535E4,2.5265156E4,5.882865E4,3.2445828E4,3.371325E4,0E0,2.4982406E4,2.2536322E4,7.85295E4,7.741011E4,1.24973E5,4.901798E4,8.59683E4,2.4233176E4,1.6710456E5,5.0372562E4,6.79235E4,1.7551312E4,3.9102875E4,3.3007875E4,6.664301E3,4.522392E4,2.63525E4,0E0,0E0,0E0,0E0,0E0,0E0,0E0,0E0,0E0,0E0,0E0,0E0,0E0,0E0,0E0,0E0,0E0,0E0,0E0,0E0,0E0,0E0,0E0,0E0,0E0,0E0,0E0,0E0,0E0,0E0,0E0,0E0,0E0,0E0,0E0,0E0,0E0,0E0,0E0,0E0,0E0,0E0,0E0,0E0,0E0,0E0,0E0,0E0,0E0,0E0,0E0,0E0,0E0,0E0,0E0,0E0,0E0,0E0,0E0,0E0,0E0,0E0],"parents":[2147483647,0,0,1,1,2,2,3,3,4,4,5,5,6,6,7,7,8,8,9,9,10,10,11,11,12,12,13,13,14,14,15,15,16,16,17,17,18,18,19,19,20,20,21,21,22,22,23,23,24,24,25,25,26,26,27,27,28,28,29,29,30,30,31,31,32,32,33,33,34,34,35,35,36,36,37,37,38,38,39,39,40,40,41,41,42,42,43,43,44,44,46,46,47,47,48,48,49,49,50,50,51,51,52,52,53,53,54,54,55,55,56,56,57,57,58,58,59,59,60,60,61,61,62,62],"right_children":[2,4,6,8,10,12,14,16,18,20,22,24,26,28,30,32,34,36,38,40,42,44,46,48,50,52,54,56,58,60,62,64,66,68,70,72,74,76,78,80,82,84,86,88,90,-1,92,94,96,98,100,102,104,106,108,110,112,114,116,118,120,122,124,-1,-1,-1,-1,-1,-1,-1,-1,-1,-1,-1,-1,-1,-1,-1,-1,-1,-1,-1,-1,-1,-1,-1,-1,-1,-1,-1,-1,-1,-1,-1,-1,-1,-1,-1,-1,-1,-1,-1,-1,-1,-1,-1,-1,-1,-1,-1,-1,-1,-1,-1,-1,-1,-1,-1,-1,-1,-1,-1,-1,-1,-1],"split_conditions":[3.9564883E2,3.8717242E2,4.1222406E2,2.3703384E-1,1.8704414E-2,-3.2108307E-2,5.801468E-1,-9.6363044E-1,1.20625496E-1,-1.2684078E0,2.791257E-1,-1.1787658E0,1.2121038E0,4.1981293E2,4.1816013E2,3.821596E2,-5.786594E-1,-9.5881975E-1,8.616292E-1,-8.7696826E-1,-9.344339E-2,5.149893E-1,-9.5881975E-1,5.529885E-1,-8.616292E-1,4.0290207E2,6.6262007E-1,-2.7273345E-1,8.726535E-3,4.995532E-1,1.1256958E1,3.5063744E-2,2.4128035E-1,9.0258527E-1,3.2913284E1,-7.584348E-1,1.7756101E0,-9.6363044E-1,3.4162376E1,2.1981771E1,-5.48119E-1,-4.7495106E-1,-9.5881975E-1,-1.8398285E-2,1.2387973E0,-5.63835E0,-2.8678823E-1,-9.6363044E-1,-4.9090558E-1,-9.5881975E-1,-1.292758E-1,-1.3037682E-2,-1.292758E-1,2.6057854E1,4.308552E0,-8.616292E-1,3.4798782E1,-7.5038016E-1,-3.558116E-1,6.3607824E-1,1.8646483E0,5.2518463E-1,-3.4458637E-2,-6.998092E-1,-3.979925E0,-4.6980233E0,-1.8280001E0,-2.3534079E-1,-9.62635E-1,-9.2517227E-1,-4.6428084E-1,7.5087005E-1,-2.8965645E0,-3.797684E-1,-7.703479E-1,-3.7456455E0,-1.0210603E0,-7.4187905E-1,-1.9702237E0,2.9984536E0,1.047088E0,-3.6190066E-1,5.5090785E-1,3.901082E-1,3.5098054E-2,-2.912789E0,-1.2868048E-1,-1.21860795E-1,-3.3932087E-1,-8.9694396E-2,-5.846306E-1,-6.727251E-1,-1.3854393E0,-1.9749044E0,-1.9866098E-1,1.9672173E0,1.1144925E0,-1.4054074E0,-1.05980136E-1,8.410856E-1,3.9344686E-1,8.2508564E-2,-1.3495816E-1,4.7469744E-1,1.2553954E-1,6.2328417E-2,-4.254171E-1,1.11999325E-1,-1.1670818E0,1.5483524E-1,9.288401E-1,4.0141174E-1,6.6338235E-1,-1.105604E0,6.808517E-1,1.4031116E0,9.9284124E-1,2.6485702E-1,-3.776018E-2,-8.359216E-1,-1.9753109E0,4.30164E-1,-3.9458433E-1,9.384265E-1,5.2518815E-1],"split_indices":[7,7,7,1,1,1,1,8,6,1,6,1,1,7,7,7,1,8,8,9,6,1,8,0,8,7,8,1,8,6,0,9,10,8,2,0,0,8,2,0,0,11,8,6,0,0,9,8,10,8,6,6,6,0,0,8,2,9,1,8,1,3,6,0,0,0,0,0,0,0,0,0,0,0,0,0,0,0,0,0,0,0,0,0,0,0,0,0,0,0,0,0,0,0,0,0,0,0,0,0,0,0,0,0,0,0,0,0,0,0,0,0,0,0,0,0,0,0,0,0,0,0,0,0,0],"split_type":[0,0,0,0,0,0,0,0,0,0,0,0,0,0,0,0,0,0,0,0,0,0,0,0,0,0,0,0,0,0,0,0,0,0,0,0,0,0,0,0,0,0,0,0,0,0,0,0,0,0,0,0,0,0,0,0,0,0,0,0,0,0,0,0,0,0,0,0,0,0,0,0,0,0,0,0,0,0,0,0,0,0,0,0,0,0,0,0,0,0,0,0,0,0,0,0,0,0,0,0,0,0,0,0,0,0,0,0,0,0,0,0,0,0,0,0,0,0,0,0,0,0,0,0,0],"sum_hessian":[1.44334E5,6.8576E4,7.5758E4,3.7608E4,3.0968E4,5.0011E4,2.5747E4,3.22E4,5.408E3,1.826E4,1.2708E4,2.0023E4,2.9988E4,1.907E4,6.677E3,9.1E1,3.2109E4,4.432E3,9.76E2,9.24E2,1.7336E4,1.2111E4,5.97E2,1.642E3,1.8381E4,2.7191E4,2.797E3,1.3383E4,5.687E3,3.711E3,2.966E3,6E1,3.1E1,1.1533E4,2.0576E4,4E1,4.392E3,6.1E2,3.66E2,3.3E1,8.91E2,2.092E3,1.5244E4,8.384E3,3.727E3,1.9E1,5.78E2,1.89E2,1.453E3,1.396E3,1.6985E4,1.2159E4,1.5032E4,1.084E3,1.713E3,3.323E3,1.006E4,1.716E3,3.971E3,3.65E3,6.1E1,8.34E2,2.132E3,4.5E1,1.5E1,2.6E1,5E0,1.0996E4,5.37E2,1.43E3,1.9146E4,9E0,3.1E1,3.59E2,4.033E3,1.6E1,5.94E2,4.9E1,3.17E2,2.3E1,1E1,1.53E2,7.38E2,8.31E2,1.261E3,1.8E1,1.5226E4,2.408E3,5.976E3,3.84E2,3.343E3,1.83E2,3.95E2,1.9E1,1.7E2,3.62E2,1.091E3,1.25E2,1.271E3,1.737E3,1.5248E4,3.743E3,8.416E3,2.039E3,1.2993E4,6.77E2,4.07E2,3.12E2,1.401E3,2.26E2,3.097E3,5.642E3,4.418E3,1.3E1,1.703E3,7.16E2,3.255E3,2.032E3,1.618E3,4.1E1,2E1,6.06E2,2.28E2,5.09E2,1.623E3],"tree_param":{"num_deleted":"0","num_feature":"13","num_nodes":"125","size_leaf_vector":"1"}},{"base_weights":[6.812435E-3,-6.32359E0,6.6175942E0,-8.730461E0,-2.6455474E0,1.2334503E1,4.099294E0,-6.7171836E0,-1.2535856E1,1.5314698E-1,-6.330946E0,-3.766194E-1,1.3346523E1,8.01244E-1,9.321334E0,-5.3735175E0,-1.0558559E1,-5.85264E1,-1.2336822E1,1.7728777E1,-3.3291405E-1,-9.4428314E1,-6.218037E0,-2.6507778E1,8.629854E-1,2.2415798E1,1.1930213E1,2.277117E0,-8.939396E0,6.399417E0,1.3230138E1,1.2095707E1,-5.840367E0,-1.736571E1,-8.089809E0,-4.8309407E-1,-8.7534805E1,-1.1489841E1,-2.1734167E1,-1.066671E1,2.436586E1,-8.660782E0,2.1831983E-1,-5.408554E0,-2.6739268E0,-4.6132483E0,-1.2436321E1,-6.022463E1,-1.0465871E1,-1.8490489E0,5.612576E0,3.4276592E1,1.9086334E1,8.221893E0,1.6438568E1,-2.5165585E-1,3.954583E0,-2.1855373E0,-1.5466424E1,8.397944E0,1.5256653E0,1.4751742E1,7.870763E0,9.8287916E-1,-4.008126E-1,-2.614356E-1,-8.305487E-1,-2.2335143E0,-8.1257135E-1,-3.1401008E-1,-8.0714387E-1,6.779043E-1,-2.127139E0,-1.9870144E0,-5.1129513E0,-4.622941E-1,-6.600497E-1,-2.7697203E-1,-1.2898647E0,-2.845295E-1,-2.602194E0,1.896451E0,8.4659356E-1,-1.4519272E0,-3.7327522E-1,2.639429E-1,-2.891762E-2,-6.449396E-2,-2.7644765E-1,-3.9581215E-1,-1.1850531E0,-4.532905E0,-9.3868697E-1,5.7932835E-2,-1.3982798E0,-2.7844477E-1,1.545553E-1,4.489354E-2,4.0421945E-1,2.298301E0,1.1545488E0,9.812771E-1,-9.4298536E-1,5.6620204E-1,3.01371E-1,7.0235586E-1,9.860657E-1,-1.8010111E0,-6.0098036E-3,4.2806125E-1,1.4157645E-1,4.4625785E-2,-4.0352264E-1,1.0003298E-1,-9.690636E-1,3.1915393E-1,5.818867E-1,2.4088727E-1,-9.453814E-2,5.0571877E-1,8.350596E-1,5.7328606E-1,2.7285079E-2],"categories":[],"categories_nodes":[],"categories_segments":[],"categories_sizes":[],"default_left":[0,0,0,0,0,0,0,0,0,0,0,0,0,0,0,0,0,0,0,0,0,0,0,0,0,0,0,0,0,0,0,0,0,0,0,0,0,0,0,0,0,0,0,0,0,0,0,0,0,0,0,0,0,0,0,0,0,0,0,0,0,0,0,0,0,0,0,0,0,0,0,0,0,0,0,0,0,0,0,0,0,0,0,0,0,0,0,0,0,0,0,0,0,0,0,0,0,0,0,0,0,0,0,0,0,0,0,0,0,0,0,0,0,0,0,0,0,0,0,0,0,0,0],"id":5,"left_children":[1,3,5,7,9,11,13,15,17,19,21,23,25,27,29,31,33,35,37,39,41,43,45,47,49,51,53,55,57,59,61,63,65,67,69,71,73,75,77,79,81,83,85,-1,-1,87,89,91,93,95,97,99,101,103,105,107,109,111,113,115,117,119,121,-1,-1,-1,-1,-1,-1,-1,-1,-1,-1,-1,-1,-1,-1,-1,-1,-1,-1,-1,-1,-1,-1,-1,-1,-1,-1,-1,-1,-1,-1,-1,-1,-1,-1,-1,-1,-1,-1,-1,-1,-1,-1,-1,-1,-1,-1,-1,-1,-1,-1,-1,-1,-1,-1,-1,-1,-1,-1,-1,-1],"loss_changes":[6.0246105E6,6.5099375E5,1.01379125E6,3.4046725E5,3.000447E5,2.77018E5,8.419675E5,1.5000275E5,1.400455E5,1.4126331E5,1.24296875E5,5.1496816E4,2.5593325E5,4.307949E5,2.1604812E5,1.757475E5,1.2645019E5,1.11075984E5,1.2163675E5,8.412739E4,7.3870125E4,3.2032188E3,1.25088E5,3.8306176E4,1.9564191E4,1.05687375E5,2.8832225E5,1.1038911E5,1.7378225E5,1.0548369E5,6.5887125E4,8.547794E4,1.3813162E5,6.0239688E4,8.04845E4,1.4162753E4,2.6886469E4,5.382425E4,8.30925E4,1.7199375E4,3.5751375E4,2.4112297E4,6.085231E4,0E0,0E0,3.0333125E4,1.3076903E5,2.7301445E4,1.0206385E4,1.7787652E4,6.4247754E3,7.59455E4,4.3440188E4,6.4390938E4,6.084375E4,4.879544E4,8.091414E4,3.5131125E4,1.371444E5,5.0063438E4,3.5449184E4,5.6809375E4,4.7181812E4,0E0,0E0,0E0,0E0,0E0,0E0,0E0,0E0,0E0,0E0,0E0,0E0,0E0,0E0,0E0,0E0,0E0,0E0,0E0,0E0,0E0,0E0,0E0,0E0,0E0,0E0,0E0,0E0,0E0,0E0,0E0,0E0,0E0,0E0,0E0,0E0,0E0,0E0,0E0,0E0,0E0,0E0,0E0,0E0,0E0,0E0,0E0,0E0,0E0,0E0,0E0,0E0,0E0,0E0,0E0,0E0,0E0,0E0,0E0,0E0],"parents":[2147483647,0,0,1,1,2,2,3,3,4,4,5,5,6,6,7,7,8,8,9,9,10,10,11,11,12,12,13,13,14,14,15,15,16,16,17,17,18,18,19,19,20,20,21,21,22,22,23,23,24,24,25,25,26,26,27,27,28,28,29,29,30,30,31,31,32,32,33,33,34,34,35,35,36,36,37,37,38,38,39,39,40,40,41,41,42,42,45,45,46,46,47,47,48,48,49,49,50,50,51,51,52,52,53,53,54,54,55,55,56,56,57,57,58,58,59,59,60,60,61,61,62,62],"right_children":[2,4,6,8,10,12,14,16,18,20,22,24,26,28,30,32,34,36,38,40,42,44,46,48,50,52,54,56,58,60,62,64,66,68,70,72,74,76,78,80,82,84,86,-1,-1,88,90,92,94,96,98,100,102,104,106,108,110,112,114,116,118,120,122,-1,-1,-1,-1,-1,-1,-1,-1,-1,-1,-1,-1,-1,-1,-1,-1,-1,-1,-1,-1,-1,-1,-1,-1,-1,-1,-1,-1,-1,-1,-1,-1,-1,-1,-1,-1,-1,-1,-1,-1,-1,-1,-1,-1,-1,-1,-1,-1,-1,-1,-1,-1,-1,-1,-1,-1,-1,-1,-1,-1],"split_conditions":[3.967617E2,3.8868414E2,-1.1298084E-1,-7.71637E-2,1.8704414E-2,-8.5264015E-1,4.1222406E2,2.6321804E1,-9.6363044E-1,-1.6239414E0,-9.6814764E-1,-9.5881975E-1,-9.2915154E-1,9.937134E-1,4.1816013E2,-9.0172625E-1,3.1059647E-1,5.2707773E-1,8.616292E-1,-3.2538643E-1,-8.703557E-1,6.6675186E-2,6.4944804E-1,3.366733E1,4.0952954E2,-4.9090558E-1,4.0822375E2,4.0290207E2,6.6262007E-1,6.715584E-1,8.2437325E-1,2.5059586E1,8.9493436E-1,-3.5438004E0,4.1469324E-1,4.3606186E-1,1.1906216E0,-4.7495106E-1,1.9377136E-1,-7.9325385E-2,-2.2225342E0,-9.5881975E-1,-8.0802226E-1,-5.408554E0,-2.6739268E0,-8.56551E-1,7.453995E-1,4.0076596E2,1.2796565E0,1.6543837E0,-1.6513356E0,3.331195E1,9.799247E-1,1.7274218E1,4.1670407E2,-9.6363044E-1,-4.5593536E-1,2.6057854E1,4.308552E0,9.2476654E-1,6.3607824E-1,9.584575E-2,1.6587734E0,9.8287916E-1,-4.008126E-1,-2.614356E-1,-8.305487E-1,-2.2335143E0,-8.1257135E-1,-3.1401008E-1,-8.0714387E-1,6.779043E-1,-2.127139E0,-1.9870144E0,-5.1129513E0,-4.622941E-1,-6.600497E-1,-2.7697203E-1,-1.2898647E0,-2.845295E-1,-2.602194E0,1.896451E0,8.4659356E-1,-1.4519272E0,-3.7327522E-1,2.639429E-1,-2.891762E-2,-6.449396E-2,-2.7644765E-1,-3.9581215E-1,-1.1850531E0,-4.532905E0,-9.3868697E-1,5.7932835E-2,-1.3982798E0,-2.7844477E-1,1.545553E-1,4.489354E-2,4.0421945E-1,2.298301E0,1.1545488E0,9.812771E-1,-9.4298536E-1,5.6620204E-1,3.01371E-1,7.0235586E-1,9.860657E-1,-1.8010111E0,-6.0098036E-3,4.2806125E-1,1.4157645E-1,4.4625785E-2,-4.0352264E-1,1.0003298E-1,-9.690636E-1,3.1915393E-1,5.818867E-1,2.4088727E-1,-9.453814E-2,5.0571877E-1,8.350596E-1,5.7328606E-1,2.7285079E-2],"split_indices":[7,7,1,1,1,8,7,0,8,1,8,8,1,1,7,9,3,11,8,0,8,1,8,2,7,10,7,7,8,1,1,0,8,3,8,1,4,11,3,9,1,8,1,0,0,11,3,7,4,4,0,2,8,0,7,8,10,0,0,3,8,8,4,0,0,0,0,0,0,0,0,0,0,0,0,0,0,0,0,0,0,0,0,0,0,0,0,0,0,0,0,0,0,0,0,0,0,0,0,0,0,0,0,0,0,0,0,0,0,0,0,0,0,0,0,0,0,0,0,0,0,0,0],"split_type":[0,0,0,0,0,0,0,0,0,0,0,0,0,0,0,0,0,0,0,0,0,0,0,0,0,0,0,0,0,0,0,0,0,0,0,0,0,0,0,0,0,0,0,0,0,0,0,0,0,0,0,0,0,0,0,0,0,0,0,0,0,0,0,0,0,0,0,0,0,0,0,0,0,0,0,0,0,0,0,0,0,0,0,0,0,0,0,0,0,0,0,0,0,0,0,0,0,0,0,0,0,0,0,0,0,0,0,0,0,0,0,0,0,0,0,0,0,0,0,0,0,0,0],"sum_hessian":[1.43959E5,7.3539E4,7.042E4,4.445E4,2.9089E4,2.1533E4,4.8887E4,2.9072E4,1.5378E4,1.6534E4,1.2555E4,1.588E3,1.9945E4,2.9964E4,1.8923E4,2.154E4,7.532E3,6.5E1,1.5313E4,4.44E2,1.609E4,1.5E1,1.254E4,7.1E1,1.517E3,2.692E3,1.7253E4,2.6022E4,3.942E3,1.083E4,8.093E3,5.6E2,2.098E4,2.003E3,5.529E3,2.2E1,4.3E1,1.4049E4,1.264E3,8.4E1,3.6E2,9.98E2,1.5092E4,1E1,5E0,9.969E3,2.571E3,2.2E1,4.9E1,9.66E2,5.51E2,5.88E2,2.104E3,9.468E3,7.785E3,1.0378E4,1.5644E4,1.938E3,2.004E3,7.68E3,3.15E3,6.302E3,1.791E3,4.07E2,1.53E2,1.9854E4,1.126E3,7.7E1,1.926E3,4.516E3,1.013E3,1.7E1,5E0,1.1E1,3.2E1,6.081E3,7.968E3,2.54E2,1.01E3,7.6E1,8E0,1.26E2,2.34E2,5.4E1,9.44E2,2.052E3,1.304E4,2.154E3,7.815E3,1.836E3,7.35E2,1.2E1,1E1,3E1,1.9E1,5.51E2,4.15E2,1.9E2,3.61E2,2.86E2,3.02E2,2.075E3,2.9E1,3.921E3,5.547E3,4.507E3,3.278E3,3.7E1,1.0341E4,3.065E3,1.2579E4,1.273E3,6.65E2,3.67E2,1.637E3,4.737E3,2.943E3,1.604E3,1.546E3,1.867E3,4.435E3,1.201E3,5.9E2],"tree_param":{"num_deleted":"0","num_feature":"13","num_nodes":"123","size_leaf_vector":"1"}},{"base_weights":[-2.2941804E-3,3.656108E-1,-3.1355127E1,-2.428146E0,2.3696337E0,-2.1061785E1,-5.18301E1,-3.1602602E0,6.856847E0,4.576503E0,-5.4451746E-1,-2.5387037E1,-1.4210379E1,-3.3623657E1,-6.3758987E1,1.2865013E0,-4.922526E0,9.719759E0,-2.5331683E0,7.148677E0,1.9364909E0,7.658259E0,-1.4503975E0,-2.112249E1,-2.960171E1,-1.7329317E1,-9.729709E0,-4.0441998E1,-2.2702997E1,-8.524939E1,-5.7040417E1,4.5530844E0,-2.651345E0,-1.6403938E1,-3.201506E0,1.2926072E1,4.318948E0,5.7051015E0,-7.1216784E0,1.1019847E1,4.4732037E0,-1.1605608E0,3.0217452E0,2.400095E0,1.5386534E1,-8.059888E-1,-9.980495E0,-1.8867432E1,-3.04407E1,-3.663706E1,-2.688302E1,-2.6920094E1,-1.5621574E1,1.4796189E0,-1.106236E1,-1.6731675E0,-4.4628384E1,-7.671212E-1,-2.4124203E1,-2.2785368E0,-1.0002188E2,-5.243177E1,-8.924168E1,4.480133E-1,-7.050428E-2,-1.2141104E-1,-1.266243E0,-1.1971784E0,-5.9736544E-1,-1.0928929E-1,-5.0930333E-1,4.647529E-1,8.875093E-1,2.905311E-1,-1.6946131E-1,-2.657722E-1,4.3160525E-1,-1.8412063E-1,-6.7365307E-1,6.825851E-1,1.4077877E-1,-8.0127E-1,2.3702113E-1,-1.1756366E-1,2.6921877E-1,1.6345748E-1,-4.696558E-1,7.1678895E-1,-5.0471295E-2,2.2200649E0,6.1484843E-1,-1.4322203E-1,5.9440494E-2,-9.566253E-1,-2.2436681E-1,-4.2433858E-1,-1.0288001E0,-1.5886226E0,-6.0165405E-1,-2.0421474E0,-1.6055301E0,-1.0623534E0,-1.6580454E0,-7.4399936E-1,-1.5127563E0,1.8487749E-1,-8.046452E-1,2.2322407E-1,-3.1062374E-1,-8.026614E-1,-4.367315E-1,-1.8268576E0,-2.3865397E0,-1.6918455E0,-1.0597318E0,-5.4664025E0,-3.214354E0,-3.0211046E0,-1.8823668E0,-3.4894617E0,-5.7108645E0],"categories":[],"categories_nodes":[],"categories_segments":[],"categories_sizes":[],"default_left":[0,0,0,0,0,0,0,0,0,0,0,0,0,0,0,0,0,0,0,0,0,0,0,0,0,0,0,0,0,0,0,0,0,0,0,0,0,0,0,0,0,0,0,0,0,0,0,0,0,0,0,0,0,0,0,0,0,0,0,0,0,0,0,0,0,0,0,0,0,0,0,0,0,0,0,0,0,0,0,0,0,0,0,0,0,0,0,0,0,0,0,0,0,0,0,0,0,0,0,0,0,0,0,0,0,0,0,0,0,0,0,0,0,0,0,0,0,0,0,0,0],"id":6,"left_children":[1,3,5,7,9,11,13,15,17,19,21,23,25,27,29,31,33,35,37,39,41,43,45,47,49,51,53,55,57,59,61,63,65,67,69,71,73,75,77,79,81,83,85,87,89,91,93,95,97,99,101,103,105,107,109,-1,111,-1,113,-1,115,117,119,-1,-1,-1,-1,-1,-1,-1,-1,-1,-1,-1,-1,-1,-1,-1,-1,-1,-1,-1,-1,-1,-1,-1,-1,-1,-1,-1,-1,-1,-1,-1,-1,-1,-1,-1,-1,-1,-1,-1,-1,-1,-1,-1,-1,-1,-1,-1,-1,-1,-1,-1,-1,-1,-1,-1,-1,-1,-1],"loss_changes":[1.6608735E6,7.9680344E5,3.5086325E5,4.0411594E5,5.329651E5,3.2618E4,1.190345E5,4.318067E5,1.1683109E5,3.2022162E5,2.6539162E5,1.1609719E4,5.879836E3,1.5680281E4,4.3636375E4,2.0119431E5,7.79724E5,5.7607E4,3.844698E4,2.473415E5,7.822968E4,1.4430227E5,1.7678669E5,6.607203E3,5.5119062E3,3.7353672E3,2.7061895E3,2.4720625E3,5.464883E2,4.1147312E4,3.3743438E4,2.2468773E5,3.5814223E4,1.7255562E5,2.4345488E5,3.6424094E4,1.4300551E4,1.1787825E4,1.4212859E4,2.10724E5,7.745172E4,4.7082895E4,5.296722E4,8.608564E4,1.2835497E5,1.2279941E5,1.13479516E5,4.7531016E3,1.2067305E3,4.326797E2,8.100078E3,1.0309961E3,2.0457812E3,4.8675754E2,1.7277031E3,0E0,3.06E2,0E0,1.3260234E3,0E0,1.15773125E4,2.476775E4,7.0714062E3,0E0,0E0,0E0,0E0,0E0,0E0,0E0,0E0,0E0,0E0,0E0,0E0,0E0,0E0,0E0,0E0,0E0,0E0,0E0,0E0,0E0,0E0,0E0,0E0,0E0,0E0,0E0,0E0,0E0,0E0,0E0,0E0,0E0,0E0,0E0,0E0,0E0,0E0,0E0,0E0,0E0,0E0,0E0,0E0,0E0,0E0,0E0,0E0,0E0,0E0,0E0,0E0,0E0,0E0,0E0,0E0,0E0,0E0],"parents":[2147483647,0,0,1,1,2,2,3,3,4,4,5,5,6,6,7,7,8,8,9,9,10,10,11,11,12,12,13,13,14,14,15,15,16,16,17,17,18,18,19,19,20,20,21,21,22,22,23,23,24,24,25,25,26,26,27,27,28,28,29,29,30,30,31,31,32,32,33,33,34,34,35,35,36,36,37,37,38,38,39,39,40,40,41,41,42,42,43,43,44,44,45,45,46,46,47,47,48,48,49,49,50,50,51,51,52,52,53,53,54,54,56,56,58,58,60,60,61,61,62,62],"right_children":[2,4,6,8,10,12,14,16,18,20,22,24,26,28,30,32,34,36,38,40,42,44,46,48,50,52,54,56,58,60,62,64,66,68,70,72,74,76,78,80,82,84,86,88,90,92,94,96,98,100,102,104,106,108,110,-1,112,-1,114,-1,116,118,120,-1,-1,-1,-1,-1,-1,-1,-1,-1,-1,-1,-1,-1,-1,-1,-1,-1,-1,-1,-1,-1,-1,-1,-1,-1,-1,-1,-1,-1,-1,-1,-1,-1,-1,-1,-1,-1,-1,-1,-1,-1,-1,-1,-1,-1,-1,-1,-1,-1,-1,-1,-1,-1,-1,-1,-1,-1,-1],"split_conditions":[-5.8466654E0,8.606997E-3,-5.4960575E0,1.9846857E0,-6.8540263E0,1.9378618E0,-2.5272924E-1,-7.3720603E0,-4.9377555E-1,2.1516098E-2,-8.6678505E-1,-5.6882534E0,2.156226E0,-3.5605538E-1,3.3405556E1,3.256836E-1,-5.7575226E-1,7.225227E-2,3.430412E1,-7.2812505E0,1.532587E0,2.6276344E-1,1.0237217E0,8.808899E-1,3.3700542E1,-1.9422652E-1,-1.3794155E0,8.2437325E-1,-5.1795197E-1,-3.8604796E-1,4.8614502E-1,-1.0757005E-1,4.420333E-1,-8.5876393E-1,6.043701E-1,-6.4238324E0,5.5807495E-1,-2.1800922E-1,3.1015968E-1,1.5425875E0,-2.7501392E0,3.552991E1,1.3890381E0,-4.5158198E-1,-1.9538088E0,3.591436E-1,-3.859352E-1,1.3598616E0,-4.7495106E-1,5.2707773E-1,3.7758732E-1,3.1672144E-1,8.6314213E-1,-4.327476E-1,4.3035382E-3,-1.6731675E0,-9.599453E-2,-7.671212E-1,-7.940809E-3,-2.2785368E0,8.695894E-1,8.695894E-1,3.6963654E-1,4.480133E-1,-7.050428E-2,-1.2141104E-1,-1.266243E0,-1.1971784E0,-5.9736544E-1,-1.0928929E-1,-5.0930333E-1,4.647529E-1,8.875093E-1,2.905311E-1,-1.6946131E-1,-2.657722E-1,4.3160525E-1,-1.8412063E-1,-6.7365307E-1,6.825851E-1,1.4077877E-1,-8.0127E-1,2.3702113E-1,-1.1756366E-1,2.6921877E-1,1.6345748E-1,-4.696558E-1,7.1678895E-1,-5.0471295E-2,2.2200649E0,6.1484843E-1,-1.4322203E-1,5.9440494E-2,-9.566253E-1,-2.2436681E-1,-4.2433858E-1,-1.0288001E0,-1.5886226E0,-6.0165405E-1,-2.0421474E0,-1.6055301E0,-1.0623534E0,-1.6580454E0,-7.4399936E-1,-1.5127563E0,1.8487749E-1,-8.046452E-1,2.2322407E-1,-3.1062374E-1,-8.026614E-1,-4.367315E-1,-1.8268576E0,-2.3865397E0,-1.6918455E0,-1.0597318E0,-5.4664025E0,-3.214354E0,-3.0211046E0,-1.8823668E0,-3.4894617E0,-5.7108645E0],"split_indices":[5,12,5,4,5,4,10,5,12,11,1,5,4,10,2,3,3,1,2,5,4,10,1,3,2,9,1,1,1,9,3,10,6,12,1,5,1,9,1,4,3,2,1,9,1,10,10,4,11,11,1,6,12,10,11,0,9,0,9,0,11,11,1,0,0,0,0,0,0,0,0,0,0,0,0,0,0,0,0,0,0,0,0,0,0,0,0,0,0,0,0,0,0,0,0,0,0,0,0,0,0,0,0,0,0,0,0,0,0,0,0,0,0,0,0,0,0,0,0,0,0],"split_type":[0,0,0,0,0,0,0,0,0,0,0,0,0,0,0,0,0,0,0,0,0,0,0,0,0,0,0,0,0,0,0,0,0,0,0,0,0,0,0,0,0,0,0,0,0,0,0,0,0,0,0,0,0,0,0,0,0,0,0,0,0,0,0,0,0,0,0,0,0,0,0,0,0,0,0,0,0,0,0,0,0,0,0,0,0,0,0,0,0,0,0,0,0,0,0,0,0,0,0,0,0,0,0,0,0,0,0,0,0,0,0,0,0,0,0,0,0,0,0,0,0],"sum_hessian":[1.43985E5,1.42316E5,1.669E3,5.9445E4,8.2871E4,1.112E3,5.57E2,5.5101E4,4.344E3,4.7158E4,3.5713E4,6.8E2,4.32E2,2.22E2,3.35E2,1.5639E4,3.9462E4,3.329E3,1.015E3,2.3885E4,2.3273E4,3.551E3,3.2162E4,3.41E2,3.39E2,2.53E2,1.79E2,1.35E2,8.7E1,7.7E1,2.58E2,8.548E3,7.091E3,5.143E3,3.4319E4,2.088E3,1.241E3,3.63E2,6.52E2,9.76E3,1.4125E4,6.039E3,1.7234E4,2.114E3,1.437E3,2.9904E4,2.258E3,2.77E2,6.4E1,9.1E1,2.48E2,3.6E1,2.17E2,1.9E1,1.6E2,5.4E1,8.1E1,1.6E1,7.1E1,2.2E1,5.5E1,2.28E2,3E1,4.915E3,3.633E3,7.023E3,6.8E1,1.909E3,3.234E3,2.9963E4,4.356E3,1.193E3,8.95E2,1.04E3,2.01E2,7.6E1,2.87E2,4.24E2,2.28E2,7.389E3,2.371E3,1.81E2,1.3944E4,5.11E3,9.29E2,1.6898E4,3.36E2,4.69E2,1.645E3,1.37E2,1.3E3,1.4717E4,1.5187E4,8.46E2,1.412E3,4E1,2.37E2,5.9E1,5E0,4.3E1,4.8E1,1.33E2,1.15E2,9E0,2.7E1,5E0,2.12E2,1.4E1,5E0,4.9E1,1.11E2,2.6E1,5.5E1,1.4E1,5.7E1,4.2E1,1.3E1,1.46E2,8.2E1,1.9E1,1.1E1],"tree_param":{"num_deleted":"0","num_feature":"13","num_nodes":"121","size_leaf_vector":"1"}},{"base_weights":[1.3644198E-2,-5.997182E0,6.27385E0,-5.6602244E0,-3.6824493E1,4.2613897E0,1.23784275E1,-8.430942E0,-2.776509E0,-7.020462E1,-3.0951849E1,7.4519625E0,-6.877886E-1,1.2956499E1,-9.433879E0,-6.828158E0,-1.2805432E1,-1.2132455E0,-8.254192E0,-2.6860352E1,-7.931049E1,-2.629381E1,-4.1400566E1,7.655218E0,-5.1468655E1,1.771372E0,-8.130398E0,1.5386951E1,8.855521E0,-7.472417E0,-2.6581293E1,-5.555853E0,-1.0680708E1,-9.2657385E0,-1.5959853E1,1.0974353E1,-1.7319711E0,-6.5899835E0,-1.5303624E1,-1.7550658E0,4.745537E-2,-4.1897335E1,-8.618226E1,-3.0605377E1,-2.0087759E1,-5.802588E1,-3.51529E1,1.7308533E1,6.5750127E0,-2.0603909E1,-5.8865513E1,6.9592896E0,3.0774146E-1,-3.468017E0,-1.6939178E1,1.9454271E1,1.3690632E1,1.1871301E1,4.553889E0,-1.0486356E0,-1.0691921E1,-1.822492E0,-1.682972E1,-2.571559E-1,-7.7440214E-1,-7.103344E-1,-3.47499E-1,-3.594366E-1,-5.714168E-1,-6.5855145E-1,-1.2270687E0,-3.3341256E-1,6.798135E-1,-1.9814031E-1,-1.0672379E-3,-1.6333185E-1,-4.652648E-1,-5.554299E-1,-1.0873395E0,-1.142827E0,-2.3958976E0,-4.7653847E0,-3.7221744E0,-3.7085888E-1,-1.5679424E0,-8.6874646E-1,-1.3448944E0,-1.4849716E0,-3.0767999E0,-1.2369026E0,-2.013454E0,6.487923E-3,9.880414E-1,2.4465029E-1,5.053671E-1,-1.7937214E0,-1.8040316E-1,-3.5974643E0,-2.0122013E0,5.488613E-1,2.3007934E-1,-1.3226314E-1,1.335188E-1,-1.2117036E-1,-1.1462196E0,-5.6609645E0,-8.3027214E-1,8.7890714E-1,1.3995043E0,9.804172E-1,6.356283E-1,8.047388E-1,4.4678593E-1,3.5557494E-1,-1.2958167E-1,3.1769854E-1,-2.7567998E-1,-2.5375563E-1,-7.190869E-1,-5.001932E-1,-9.226735E-1],"categories":[],"categories_nodes":[],"categories_segments":[],"categories_sizes":[],"default_left":[0,0,0,0,0,0,0,0,0,0,0,0,0,0,0,0,0,0,0,0,0,0,0,0,0,0,0,0,0,0,0,0,0,0,0,0,0,0,0,0,0,0,0,0,0,0,0,0,0,0,0,0,0,0,0,0,0,0,0,0,0,0,0,0,0,0,0,0,0,0,0,0,0,0,0,0,0,0,0,0,0,0,0,0,0,0,0,0,0,0,0,0,0,0,0,0,0,0,0,0,0,0,0,0,0,0,0,0,0,0,0,0,0,0,0,0,0,0,0,0,0],"id":7,"left_children":[1,3,5,7,9,11,13,15,17,19,21,23,25,27,29,31,33,35,37,39,41,43,45,47,49,51,53,55,57,59,61,63,65,67,69,71,73,75,77,-1,-1,79,81,83,85,87,89,91,93,95,97,99,101,103,105,107,109,111,113,115,117,-1,119,-1,-1,-1,-1,-1,-1,-1,-1,-1,-1,-1,-1,-1,-1,-1,-1,-1,-1,-1,-1,-1,-1,-1,-1,-1,-1,-1,-1,-1,-1,-1,-1,-1,-1,-1,-1,-1,-1,-1,-1,-1,-1,-1,-1,-1,-1,-1,-1,-1,-1,-1,-1,-1,-1,-1,-1,-1,-1],"loss_changes":[5.417749E6,7.62769E5,8.6637275E5,5.8051775E5,1.5346438E5,8.375769E5,2.205925E5,2.5971675E5,3.0487688E5,4.4432125E4,3.1854625E4,3.8662562E5,3.8056212E5,1.69643E5,1.5000531E4,1.3287575E5,1.1078075E5,1.7514434E5,9.263631E4,5.078619E3,2.1314562E4,1.19830625E4,1.9451875E4,3.3503612E5,2.4120719E4,1.1867117E5,2.1202412E5,7.35135E4,8.220469E4,8.404941E3,3.8079902E3,8.350431E4,8.845506E4,2.0955188E4,1.25365625E5,5.240853E4,1.013978E5,5.7694406E4,4.054228E4,0E0,0E0,8.4651953E2,1.56475E3,4.585703E3,3.1492734E3,3.6319062E3,7.1498125E3,1.3623556E5,1.71703E5,5.8359297E3,1.8777188E4,3.2525922E4,8.506208E4,6.859747E4,5.5527312E4,4.9868375E4,4.344625E4,4.6062375E4,4.7809207E4,4.563124E3,5.541541E3,0E0,8.9635254E1,0E0,0E0,0E0,0E0,0E0,0E0,0E0,0E0,0E0,0E0,0E0,0E0,0E0,0E0,0E0,0E0,0E0,0E0,0E0,0E0,0E0,0E0,0E0,0E0,0E0,0E0,0E0,0E0,0E0,0E0,0E0,0E0,0E0,0E0,0E0,0E0,0E0,0E0,0E0,0E0,0E0,0E0,0E0,0E0,0E0,0E0,0E0,0E0,0E0,0E0,0E0,0E0,0E0,0E0,0E0,0E0,0E0,0E0],"parents":[2147483647,0,0,1,1,2,2,3,3,4,4,5,5,6,6,7,7,8,8,9,9,10,10,11,11,12,12,13,13,14,14,15,15,16,16,17,17,18,18,19,19,20,20,21,21,22,22,23,23,24,24,25,25,26,26,27,27,28,28,29,29,30,30,31,31,32,32,33,33,34,34,35,35,36,36,37,37,38,38,41,41,42,42,43,43,44,44,45,45,46,46,47,47,48,48,49,49,50,50,51,51,52,52,53,53,54,54,55,55,56,56,57,57,58,58,59,59,60,60,62,62],"right_children":[2,4,6,8,10,12,14,16,18,20,22,24,26,28,30,32,34,36,38,40,42,44,46,48,50,52,54,56,58,60,62,64,66,68,70,72,74,76,78,-1,-1,80,82,84,86,88,90,92,94,96,98,100,102,104,106,108,110,112,114,116,118,-1,120,-1,-1,-1,-1,-1,-1,-1,-1,-1,-1,-1,-1,-1,-1,-1,-1,-1,-1,-1,-1,-1,-1,-1,-1,-1,-1,-1,-1,-1,-1,-1,-1,-1,-1,-1,-1,-1,-1,-1,-1,-1,-1,-1,-1,-1,-1,-1,-1,-1,-1,-1,-1,-1,-1,-1,-1,-1,-1],"split_conditions":[3.967617E2,-5.8466654E0,4.1511423E2,3.8717242E2,-9.6363044E-1,2.564907E-1,-6.067411E0,-4.7664642E-3,3.1015968E-1,-5.4960575E0,-5.4960575E0,-5.4960575E0,-6.6844444E0,4.0179634E-1,-5.4960575E0,2.6668777E1,-6.934608E0,-1.2684078E0,-6.6463566E0,3.8585144E2,-4.673624E-2,1.8717209E0,3.3700542E1,-8.2710445E-1,-1.8586409E0,-7.6157565E0,9.383068E-1,-2.5545454E-1,-6.8423157E0,-4.1529784E-1,3.3842377E1,9.0258527E-1,6.9262654E-1,-7.3442745E0,6.6262007E-1,-7.584348E-1,3.9083017E2,4.617486E-1,6.755902E-1,-1.7550658E0,4.745537E-2,-2.4691153E-1,2.4128035E-1,1.2038573E0,8.376312E-2,1.407795E0,2.564907E-1,7.667032E-1,4.0800095E2,-1.6032791E-1,-9.6363044E-1,1.3598616E0,4.0440912E2,-5.8466654E0,-9.6363044E-1,6.4944804E-1,-6.346226E-2,1.3729293E0,1.0237217E0,7.239342E-1,-5.8466654E0,-1.822492E0,5.69749E0,-2.571559E-1,-7.7440214E-1,-7.103344E-1,-3.47499E-1,-3.594366E-1,-5.714168E-1,-6.5855145E-1,-1.2270687E0,-3.3341256E-1,6.798135E-1,-1.9814031E-1,-1.0672379E-3,-1.6333185E-1,-4.652648E-1,-5.554299E-1,-1.0873395E0,-1.142827E0,-2.3958976E0,-4.7653847E0,-3.7221744E0,-3.7085888E-1,-1.5679424E0,-8.6874646E-1,-1.3448944E0,-1.4849716E0,-3.0767999E0,-1.2369026E0,-2.013454E0,6.487923E-3,9.880414E-1,2.4465029E-1,5.053671E-1,-1.7937214E0,-1.8040316E-1,-3.5974643E0,-2.0122013E0,5.488613E-1,2.3007934E-1,-1.3226314E-1,1.335188E-1,-1.2117036E-1,-1.1462196E0,-5.6609645E0,-8.3027214E-1,8.7890714E-1,1.3995043E0,9.804172E-1,6.356283E-1,8.047388E-1,4.4678593E-1,3.5557494E-1,-1.2958167E-1,3.1769854E-1,-2.7567998E-1,-2.5375563E-1,-7.190869E-1,-5.001932E-1,-9.226735E-1],"split_indices":[7,5,7,7,8,1,5,1,1,5,5,5,5,1,5,0,5,1,5,7,6,4,2,1,0,5,1,1,5,10,2,8,10,5,8,0,7,8,8,0,0,6,10,4,1,4,1,0,7,1,8,4,7,5,8,8,6,4,1,3,5,0,0,0,0,0,0,0,0,0,0,0,0,0,0,0,0,0,0,0,0,0,0,0,0,0,0,0,0,0,0,0,0,0,0,0,0,0,0,0,0,0,0,0,0,0,0,0,0,0,0,0,0,0,0,0,0,0,0,0,0],"split_type":[0,0,0,0,0,0,0,0,0,0,0,0,0,0,0,0,0,0,0,0,0,0,0,0,0,0,0,0,0,0,0,0,0,0,0,0,0,0,0,0,0,0,0,0,0,0,0,0,0,0,0,0,0,0,0,0,0,0,0,0,0,0,0,0,0,0,0,0,0,0,0,0,0,0,0,0,0,0,0,0,0,0,0,0,0,0,0,0,0,0,0,0,0,0,0,0,0,0,0,0,0,0,0,0,0,0,0,0,0,0,0,0,0,0,0,0,0,0,0,0,0],"sum_hessian":[1.43976E5,7.3451E4,7.0525E4,7.2658E4,7.93E2,5.3041E4,1.7484E4,3.7054E4,3.5604E4,1.17E2,6.76E2,3.225E4,2.0791E4,1.7033E4,4.51E2,2.712E4,9.934E3,2.77E4,7.904E3,2.1E1,9.6E1,4.7E2,2.06E2,3.214E4,1.1E2,1.5628E4,5.163E3,1.0693E4,6.34E3,4.06E2,4.5E1,2.0389E4,6.731E3,4.683E3,5.251E3,1.13E3,2.657E4,6.396E3,1.508E3,1.6E1,5E0,1.6E1,8E1,2.75E2,1.95E2,5.4E1,1.52E2,3.233E3,2.8907E4,2.2E1,8.8E1,3.438E3,1.219E4,3.377E3,1.786E3,3.144E3,7.549E3,3.726E3,2.614E3,1.36E2,2.7E2,2.1E1,2.4E1,1.9577E4,8.12E2,3.459E3,3.272E3,2.391E3,2.292E3,3.965E3,1.286E3,1.46E2,9.84E2,1.1531E4,1.5039E4,2.877E3,3.519E3,9.15E2,5.93E2,5E0,1.1E1,4.1E1,3.9E1,9E0,2.66E2,1.42E2,5.3E1,7E0,4.7E1,5.2E1,1E2,4.04E2,2.829E3,1.9584E4,9.323E3,1.1E1,1.1E1,5E1,3.8E1,1.27E3,2.168E3,5.418E3,6.772E3,3.206E3,1.71E2,5E0,1.781E3,2.58E3,5.64E2,1.068E3,6.481E3,1.526E3,2.2E3,1.925E3,6.89E2,5.1E1,8.5E1,1.08E2,1.62E2,6E0,1.8E1],"tree_param":{"num_deleted":"0","num_feature":"13","num_nodes":"121","size_leaf_vector":"1"}},{"base_weights":[-3.5301868E-3,-5.6618156E0,6.0097456E0,-5.336004E0,-3.474611E1,3.549794E0,1.0487002E1,-7.082133E0,-1.0368478E0,-6.451799E1,-2.9755817E1,6.6011434E0,-1.289273E0,1.38045225E1,7.3714957E0,-6.169063E0,-1.258074E1,4.21693E-1,-8.293071E0,-2.5571535E1,-7.3266945E1,-2.47876E1,-3.9777714E1,6.8016176E0,-4.9745308E1,1.0263598E0,-8.549957E0,1.7854965E1,1.208787E1,9.537119E0,2.1811178E0,-3.1193845E0,-7.316513E0,-9.065641E0,-1.5740005E1,2.4838327E1,9.043775E-2,-5.0558233E0,-1.4700608E1,-1.6491741E0,4.5478027E-2,-4.0653294E1,-8.036166E1,-2.2101933E1,-3.0788074E1,-2.713696E0,-3.5074516E1,1.5985302E1,5.7434144E0,-2.9881638E1,-7.551635E1,5.3210406E0,-7.0823455E-1,-3.7637012E0,-1.8247004E1,1.865088E1,4.2336984E0,9.313215E0,1.4791924E1,5.247659E0,1.2237353E1,-7.9719543E0,4.431545E0,-2.0232366E-1,2.1789877E-1,-4.789898E-1,-2.7151084E-1,-2.5699267E-1,-5.493196E-1,-6.5130275E-1,-1.2593964E0,1.6118618E0,-2.799251E-1,2.1515135E-1,-5.3332128E-2,1.0691526E-2,-3.4648967E-1,-4.0307274E-1,-1.0899885E0,-1.2146368E0,-2.2377007E0,-3.3125367E0,-4.3752346E0,-1.6934618E0,-9.918642E-1,-1.6315911E0,-9.53793E-1,-1.3053204E0,-1.9939682E0,3.256442E-2,9.450124E-1,6.20062E-1,2.4836515E-1,-8.1666815E-1,-2.0357301E0,-5.5357094E0,-3.1279469E0,3.7289608E-1,8.2773544E-2,-1.5186276E-1,1.4576016E-1,-1.3276593E-1,-1.056696E0,-1.2337164E0,-5.408893E-1,8.25123E-1,1.3525342E0,-1.3263807E0,3.9198098E-1,-1.8716082E-2,5.1540273E-1,1.0625285E0,6.8564403E-1,8.8104165E-1,1.6711605E-1,3.060126E-1,7.11712E-1,1.055208E0,-6.0458416E-1,3.331791E-1,-6.031027E-1],"categories":[],"categories_nodes":[],"categories_segments":[],"categories_sizes":[],"default_left":[0,0,0,0,0,0,0,0,0,0,0,0,0,0,0,0,0,0,0,0,0,0,0,0,0,0,0,0,0,0,0,0,0,0,0,0,0,0,0,0,0,0,0,0,0,0,0,0,0,0,0,0,0,0,0,0,0,0,0,0,0,0,0,0,0,0,0,0,0,0,0,0,0,0,0,0,0,0,0,0,0,0,0,0,0,0,0,0,0,0,0,0,0,0,0,0,0,0,0,0,0,0,0,0,0,0,0,0,0,0,0,0,0,0,0,0,0,0,0,0,0],"id":8,"left_children":[1,3,5,7,9,11,13,15,17,19,21,23,25,27,29,31,33,35,37,39,41,43,45,47,49,51,53,55,57,59,61,63,65,67,69,71,73,75,77,-1,-1,79,81,83,85,-1,87,89,91,93,95,97,99,101,103,105,107,109,111,113,115,117,119,-1,-1,-1,-1,-1,-1,-1,-1,-1,-1,-1,-1,-1,-1,-1,-1,-1,-1,-1,-1,-1,-1,-1,-1,-1,-1,-1,-1,-1,-1,-1,-1,-1,-1,-1,-1,-1,-1,-1,-1,-1,-1,-1,-1,-1,-1,-1,-1,-1,-1,-1,-1,-1,-1,-1,-1,-1,-1],"loss_changes":[4.8953565E6,7.022295E5,7.6817625E5,5.5029125E5,1.2004706E5,6.647306E5,2.555305E5,2.6165475E5,2.2410983E5,3.798322E4,3.4110188E4,3.1220588E5,2.9272522E5,8.305975E4,1.4337188E5,1.5643225E5,8.228825E4,1.4260533E5,7.343614E4,4.5475664E3,1.8702469E4,6.952875E3,1.3904844E4,2.6727325E5,4.7899844E4,9.834547E4,1.9532594E5,3.85465E4,6.2996E4,1.0418856E5,8.587772E4,8.4763414E4,1.386365E5,2.6454156E4,9.9873875E4,5.3330188E4,8.480318E4,2.326807E4,5.586172E4,0E0,0E0,1.8060938E2,1.9485625E3,8.1435156E3,2.4819375E3,0E0,6.6223906E3,1.27017E5,1.27417125E5,7.6950625E3,1.2211578E4,2.973604E4,7.93698E4,5.4234543E4,6.614981E4,6.029325E4,2.216882E4,4.00585E4,2.939375E4,8.19567E4,6.737506E4,8.1948125E4,1.1332067E5,0E0,0E0,0E0,0E0,0E0,0E0,0E0,0E0,0E0,0E0,0E0,0E0,0E0,0E0,0E0,0E0,0E0,0E0,0E0,0E0,0E0,0E0,0E0,0E0,0E0,0E0,0E0,0E0,0E0,0E0,0E0,0E0,0E0,0E0,0E0,0E0,0E0,0E0,0E0,0E0,0E0,0E0,0E0,0E0,0E0,0E0,0E0,0E0,0E0,0E0,0E0,0E0,0E0,0E0,0E0,0E0,0E0,0E0],"parents":[2147483647,0,0,1,1,2,2,3,3,4,4,5,5,6,6,7,7,8,8,9,9,10,10,11,11,12,12,13,13,14,14,15,15,16,16,17,17,18,18,19,19,20,20,21,21,22,22,23,23,24,24,25,25,26,26,27,27,28,28,29,29,30,30,31,31,32,32,33,33,34,34,35,35,36,36,37,37,38,38,41,41,42,42,43,43,44,44,46,46,47,47,48,48,49,49,50,50,51,51,52,52,53,53,54,54,55,55,56,56,57,57,58,58,59,59,60,60,61,61,62,62],"right_children":[2,4,6,8,10,12,14,16,18,20,22,24,26,28,30,32,34,36,38,40,42,44,46,48,50,52,54,56,58,60,62,64,66,68,70,72,74,76,78,-1,-1,80,82,84,86,-1,88,90,92,94,96,98,100,102,104,106,108,110,112,114,116,118,120,-1,-1,-1,-1,-1,-1,-1,-1,-1,-1,-1,-1,-1,-1,-1,-1,-1,-1,-1,-1,-1,-1,-1,-1,-1,-1,-1,-1,-1,-1,-1,-1,-1,-1,-1,-1,-1,-1,-1,-1,-1,-1,-1,-1,-1,-1,-1,-1,-1,-1,-1,-1,-1,-1,-1,-1,-1,-1],"split_conditions":[3.9699985E2,-5.8466654E0,4.1239484E2,3.9083017E2,-9.6363044E-1,2.4977303E-1,1.9945526E-1,3.1015968E-1,4.6424413E-1,-5.4960575E0,-5.4960575E0,-5.4960575E0,-6.6844444E0,-3.558116E-1,-6.697387E0,-7.3172235E0,-7.022983E0,-1.7518559E0,-6.8351593E0,3.8585144E2,-4.3339252E-2,2.4977303E-1,3.3700542E1,-8.2710445E-1,-4.4290517E-3,-7.443658E0,9.383068E-1,-6.2695317E0,4.1692252E2,8.606997E-3,-4.9377555E-1,8.141155E-1,3.4606205E1,2.3869324E-1,7.253744E-1,8.241262E-1,-4.8997402E-2,-6.9561005E-2,6.755902E-1,-1.6491741E0,4.5478027E-2,-2.1082115E-1,-2.709961E-2,-8.703557E-1,9.999167E-1,-2.713696E0,3.464327E-1,-3.502074E-1,-1.16493225E-1,4.862727E-1,4.0076596E2,5.988846E-1,4.862727E-1,-5.965704E0,4.862727E-1,6.4944804E-1,3.3461082E1,3.3376106E1,-6.52051E-2,8.726535E-3,2.6176948E-2,8.726535E-3,-6.067411E0,-2.0232366E-1,2.1789877E-1,-4.789898E-1,-2.7151084E-1,-2.5699267E-1,-5.493196E-1,-6.5130275E-1,-1.2593964E0,1.6118618E0,-2.799251E-1,2.1515135E-1,-5.3332128E-2,1.0691526E-2,-3.4648967E-1,-4.0307274E-1,-1.0899885E0,-1.2146368E0,-2.2377007E0,-3.3125367E0,-4.3752346E0,-1.6934618E0,-9.918642E-1,-1.6315911E0,-9.53793E-1,-1.3053204E0,-1.9939682E0,3.256442E-2,9.450124E-1,6.20062E-1,2.4836515E-1,-8.1666815E-1,-2.0357301E0,-5.5357094E0,-3.1279469E0,3.7289608E-1,8.2773544E-2,-1.5186276E-1,1.4576016E-1,-1.3276593E-1,-1.056696E0,-1.2337164E0,-5.408893E-1,8.25123E-1,1.3525342E0,-1.3263807E0,3.9198098E-1,-1.8716082E-2,5.1540273E-1,1.0625285E0,6.8564403E-1,8.8104165E-1,1.6711605E-1,3.060126E-1,7.11712E-1,1.055208E0,-6.0458416E-1,3.331791E-1,-6.031027E-1],"split_indices":[7,5,7,7,8,1,1,1,1,5,5,5,5,1,5,5,5,1,5,7,6,1,2,1,9,5,1,5,7,12,12,8,2,3,8,8,6,3,8,0,0,6,1,8,12,0,1,8,6,12,7,3,12,5,12,8,2,2,6,8,8,8,5,0,0,0,0,0,0,0,0,0,0,0,0,0,0,0,0,0,0,0,0,0,0,0,0,0,0,0,0,0,0,0,0,0,0,0,0,0,0,0,0,0,0,0,0,0,0,0,0,0,0,0,0,0,0,0,0,0,0],"split_type":[0,0,0,0,0,0,0,0,0,0,0,0,0,0,0,0,0,0,0,0,0,0,0,0,0,0,0,0,0,0,0,0,0,0,0,0,0,0,0,0,0,0,0,0,0,0,0,0,0,0,0,0,0,0,0,0,0,0,0,0,0,0,0,0,0,0,0,0,0,0,0,0,0,0,0,0,0,0,0,0,0,0,0,0,0,0,0,0,0,0,0,0,0,0,0,0,0,0,0,0,0,0,0,0,0,0,0,0,0,0,0,0,0,0,0,0,0,0,0,0,0],"sum_hessian":[1.43874E5,7.4125E4,6.9749E4,7.3305E4,8.2E2,4.5017E4,2.4732E4,5.2131E4,2.1174E4,1.16E2,7.04E2,2.7608E4,1.7409E4,1.1976E4,1.2756E4,4.4709E4,7.422E3,1.7631E4,3.543E3,2.2E1,9.4E1,4.73E2,2.31E2,2.7511E4,9.7E1,1.32E4,4.209E3,3.562E3,8.414E3,9E3,3.756E3,1.2224E4,3.2485E4,3.515E3,3.907E3,2.35E2,1.7396E4,2.355E3,1.188E3,1.7E1,5E0,1.8E1,7.6E1,3.3E2,1.43E2,5.4E1,1.77E2,2.841E3,2.467E4,5.6E1,4.1E1,3.797E3,9.403E3,2.819E3,1.39E3,3.365E3,1.97E2,4.155E3,4.259E3,3.478E3,5.522E3,6.81E2,3.075E3,1.0876E4,1.348E3,1.4765E4,1.772E4,1.156E3,2.359E3,3.037E3,8.7E2,1.89E2,4.6E1,3.748E3,1.3648E4,6.18E2,1.737E3,6.15E2,5.73E2,5E0,1.3E1,2.9E1,4.7E1,5.1E1,2.79E2,1.22E2,2.1E1,6.4E1,1.13E2,4.54E2,2.387E3,2.574E3,2.2096E4,2.6E1,3E1,9E0,3.2E1,2.398E3,1.399E3,5.724E3,3.679E3,2.651E3,1.68E2,7.44E2,6.46E2,2.682E3,6.83E2,2E1,1.77E2,3.87E2,3.768E3,6.07E2,3.652E3,4.63E2,3.015E3,1.36E3,4.162E3,8.4E1,5.97E2,2.709E3,3.66E2],"tree_param":{"num_deleted":"0","num_feature":"13","num_nodes":"121","size_leaf_vector":"1"}},{"base_weights":[-2.2721205E-2,-5.4080977E0,5.6072145E0,-5.092847E0,-3.3108925E1,1.0990283E1,3.682292E0,-7.598303E0,-2.4872174E0,-6.3532646E1,-2.7869886E1,5.870897E-1,1.2214626E1,1.9102107E0,1.0633996E1,-5.362767E0,-1.0269473E1,-1.0607586E0,-7.392986E0,-2.443185E1,-7.0127625E1,-2.31964E1,-3.815188E1,1.7751521E0,-5.359449E1,2.353252E1,1.121673E1,2.267561E0,-2.447431E1,1.1254408E1,-8.8518305E0,-4.029262E0,-9.171013E0,-7.011958E0,-1.2373491E1,5.5725513E0,-1.8127583E0,-5.8798385E0,-1.3761188E1,-2.6448596E-1,-1.5441674E0,-8.692116E1,-5.980541E1,-2.600105E1,-1.4974431E1,-5.1373146E1,-3.2397816E1,3.1439826E0,-1.2477176E1,-8.8983986E1,-3.4658375E1,3.704509E1,1.754664E1,8.012561E0,1.4994707E1,3.3482063E0,-5.3937373E0,-1.694727E1,-3.798994E1,1.5059043E1,9.07164E0,-1.460342E1,-3.8663652E0,1.0818884E0,-2.3017688E-1,-7.18286E-1,-3.6696467E-1,-2.0602138E-1,-4.109757E-1,-5.2598363E-1,-1.0103844E0,-2.8171563E-1,3.733378E-1,-1.9230218E-1,-1.3552408E-2,7.565169E-3,-3.548518E-1,-4.9350888E-1,-9.851276E-1,-2.9715087E0,-4.813117E0,-3.53246E0,-2.2465189E0,-5.367916E-1,-1.3405169E0,-5.884618E-1,-9.413105E-1,-1.183746E0,-2.7421756E0,-1.0217956E0,-1.760004E0,-1.5015525E-1,3.033558E-1,-7.992457E-1,9.073197E-2,-5.480522E0,-2.159849E0,-2.128053E0,-1.0825187E0,2.1372757E0,1.2174982E0,1.2313446E0,7.167957E-1,7.9237264E-1,3.20255E-1,8.101391E-1,4.606393E-1,4.103929E-2,2.7042302E-1,7.151227E-2,-5.8578104E-1,-7.2975624E-1,-1.5230451E0,-2.339119E0,-1.153124E0,9.998059E-1,5.485632E-1,5.5659264E-1,1.0667689E-1,-4.5823422E-1,-1.5266348E0,-4.610165E-1,1.649165E-1],"categories":[],"categories_nodes":[],"categories_segments":[],"categories_sizes":[],"default_left":[0,0,0,0,0,0,0,0,0,0,0,0,0,0,0,0,0,0,0,0,0,0,0,0,0,0,0,0,0,0,0,0,0,0,0,0,0,0,0,0,0,0,0,0,0,0,0,0,0,0,0,0,0,0,0,0,0,0,0,0,0,0,0,0,0,0,0,0,0,0,0,0,0,0,0,0,0,0,0,0,0,0,0,0,0,0,0,0,0,0,0,0,0,0,0,0,0,0,0,0,0,0,0,0,0,0,0,0,0,0,0,0,0,0,0,0,0,0,0,0,0,0,0],"id":9,"left_children":[1,3,5,7,9,11,13,15,17,19,21,23,25,27,29,31,33,35,37,39,41,43,45,47,49,51,53,55,57,59,61,63,65,67,69,71,73,75,77,-1,-1,79,81,83,85,87,89,91,93,95,97,99,101,103,105,107,109,111,113,115,117,119,121,-1,-1,-1,-1,-1,-1,-1,-1,-1,-1,-1,-1,-1,-1,-1,-1,-1,-1,-1,-1,-1,-1,-1,-1,-1,-1,-1,-1,-1,-1,-1,-1,-1,-1,-1,-1,-1,-1,-1,-1,-1,-1,-1,-1,-1,-1,-1,-1,-1,-1,-1,-1,-1,-1,-1,-1,-1,-1,-1,-1],"loss_changes":[4.371349E6,6.4333225E5,7.3035425E5,4.7563788E5,1.3035544E5,2.3646825E5,6.3961706E5,2.217485E5,2.4994147E5,2.9479312E4,3.3178312E4,1.2599982E5,1.873385E5,3.9017706E5,1.27605E5,1.0266044E5,1.158925E5,1.3804948E5,7.7448625E4,2.1794307E3,1.2641719E4,1.09058125E4,1.5063969E4,3.7398074E4,2.504946E4,1.0813431E5,1.8468862E5,3.38014E5,5.5608875E4,8.4751E4,9.289529E3,2.2090227E5,4.9790344E4,2.3160156E4,1.4908275E5,5.9863023E4,7.7915555E4,4.7740906E4,3.5496656E4,0E0,0E0,3.7650938E3,7.6213594E3,4.2052344E3,1.3432734E3,4.9417188E3,4.5042812E3,3.1427918E4,8.45259E3,8.471805E3,2.0532617E3,2.8767875E4,2.0875469E4,1.0396294E5,4.8778125E4,1.8630078E5,2.1774748E5,1.0898516E4,2.4770125E4,7.495425E4,9.285706E4,1.2798109E4,6.7822812E3,0E0,0E0,0E0,0E0,0E0,0E0,0E0,0E0,0E0,0E0,0E0,0E0,0E0,0E0,0E0,0E0,0E0,0E0,0E0,0E0,0E0,0E0,0E0,0E0,0E0,0E0,0E0,0E0,0E0,0E0,0E0,0E0,0E0,0E0,0E0,0E0,0E0,0E0,0E0,0E0,0E0,0E0,0E0,0E0,0E0,0E0,0E0,0E0,0E0,0E0,0E0,0E0,0E0,0E0,0E0,0E0,0E0,0E0,0E0,0E0],"parents":[2147483647,0,0,1,1,2,2,3,3,4,4,5,5,6,6,7,7,8,8,9,9,10,10,11,11,12,12,13,13,14,14,15,15,16,16,17,17,18,18,19,19,20,20,21,21,22,22,23,23,24,24,25,25,26,26,27,27,28,28,29,29,30,30,31,31,32,32,33,33,34,34,35,35,36,36,37,37,38,38,41,41,42,42,43,43,44,44,45,45,46,46,47,47,48,48,49,49,50,50,51,51,52,52,53,53,54,54,55,55,56,56,57,57,58,58,59,59,60,60,61,61,62,62],"right_children":[2,4,6,8,10,12,14,16,18,20,22,24,26,28,30,32,34,36,38,40,42,44,46,48,50,52,54,56,58,60,62,64,66,68,70,72,74,76,78,-1,-1,80,82,84,86,88,90,92,94,96,98,100,102,104,106,108,110,112,114,116,118,120,122,-1,-1,-1,-1,-1,-1,-1,-1,-1,-1,-1,-1,-1,-1,-1,-1,-1,-1,-1,-1,-1,-1,-1,-1,-1,-1,-1,-1,-1,-1,-1,-1,-1,-1,-1,-1,-1,-1,-1,-1,-1,-1,-1,-1,-1,-1,-1,-1,-1,-1,-1,-1,-1,-1,-1,-1,-1,-1,-1,-1],"split_conditions":[3.967617E2,-5.8466654E0,-1.7649764E-1,3.8717242E2,-9.6363044E-1,1.5048288E0,4.1692252E2,-2.4388885E-1,3.029518E-1,-5.4960575E0,-5.4960575E0,-5.4960575E0,-1.2238617E0,-5.8466654E0,-6.138085E0,2.5706282E1,-7.022983E0,-8.6678505E-1,-6.6463566E0,-1.8175743E0,3.3434753E1,2.0493143E0,3.3700542E1,-6.3206377E0,-6.478386E-1,-5.7575226E-1,4.0800095E2,9.937134E-1,-5.4960575E0,-7.061866E0,-1.2947911E-1,-9.1261613E-1,3.1059647E-1,-4.9002868E-1,6.6262007E-1,-1.9936794E-1,3.9083017E2,5.4933925E0,6.755902E-1,-2.6448596E-1,-1.5441674E0,-3.4226227E-1,3.854407E2,1.3262283E0,-3.4226227E-1,1.407795E0,-7.71637E-2,-1.6513356E0,3.366733E1,-1.5575049E0,-2.5545454E-1,-6.611839E0,-4.2001405E-1,-3.422432E-1,2.69844E1,4.0440912E2,-6.970595E0,1.4617119E0,4.0952954E2,1.475898E0,7.663021E-1,-5.6882534E0,-4.7495106E-1,1.0818884E0,-2.3017688E-1,-7.18286E-1,-3.6696467E-1,-2.0602138E-1,-4.109757E-1,-5.2598363E-1,-1.0103844E0,-2.8171563E-1,3.733378E-1,-1.9230218E-1,-1.3552408E-2,7.565169E-3,-3.548518E-1,-4.9350888E-1,-9.851276E-1,-2.9715087E0,-4.813117E0,-3.53246E0,-2.2465189E0,-5.367916E-1,-1.3405169E0,-5.884618E-1,-9.413105E-1,-1.183746E0,-2.7421756E0,-1.0217956E0,-1.760004E0,-1.5015525E-1,3.033558E-1,-7.992457E-1,9.073197E-2,-5.480522E0,-2.159849E0,-2.128053E0,-1.0825187E0,2.1372757E0,1.2174982E0,1.2313446E0,7.167957E-1,7.9237264E-1,3.20255E-1,8.101391E-1,4.606393E-1,4.103929E-2,2.7042302E-1,7.151227E-2,-5.8578104E-1,-7.2975624E-1,-1.5230451E0,-2.339119E0,-1.153124E0,9.998059E-1,5.485632E-1,5.5659264E-1,1.0667689E-1,-4.5823422E-1,-1.5266348E0,-4.610165E-1,1.649165E-1],"split_indices":[7,5,1,7,8,0,7,1,1,5,5,5,1,5,5,0,5,1,5,0,2,4,2,5,1,3,7,1,5,5,9,9,3,11,8,8,7,0,8,0,0,1,7,4,1,4,1,0,2,0,1,5,9,3,0,7,5,1,7,4,1,5,11,0,0,0,0,0,0,0,0,0,0,0,0,0,0,0,0,0,0,0,0,0,0,0,0,0,0,0,0,0,0,0,0,0,0,0,0,0,0,0,0,0,0,0,0,0,0,0,0,0,0,0,0,0,0,0,0,0,0,0,0],"split_type":[0,0,0,0,0,0,0,0,0,0,0,0,0,0,0,0,0,0,0,0,0,0,0,0,0,0,0,0,0,0,0,0,0,0,0,0,0,0,0,0,0,0,0,0,0,0,0,0,0,0,0,0,0,0,0,0,0,0,0,0,0,0,0,0,0,0,0,0,0,0,0,0,0,0,0,0,0,0,0,0,0,0,0,0,0,0,0,0,0,0,0,0,0,0,0,0,0,0,0,0,0,0,0,0,0,0,0,0,0,0,0,0,0,0,0,0,0,0,0,0,0,0,0],"sum_hessian":[1.44175E5,7.3688E4,7.0487E4,7.286E4,8.28E2,1.8565E4,5.1922E4,3.7143E4,3.5717E4,1.2E2,7.08E2,1.955E3,1.661E4,4.1376E4,1.0546E4,2.0222E4,1.6921E4,2.7672E4,8.045E3,1.8E1,1.02E2,4.89E2,2.19E2,1.914E3,4.1E1,1.344E3,1.5266E4,4.0824E4,5.52E2,1.0221E4,3.25E2,1.4979E4,5.243E3,6.642E3,1.0279E4,2.817E3,2.4855E4,6.502E3,1.543E3,5E0,1.3E1,3.6E1,6.6E1,3.63E2,1.26E2,6.4E1,1.55E2,1.747E3,1.67E2,1.3E1,2.8E1,4.11E2,9.33E2,8.262E3,7.004E3,3.5778E4,5.046E3,3.56E2,1.96E2,3.724E3,6.497E3,1.5E2,1.75E2,3.27E2,1.4652E4,1.365E3,3.878E3,1.958E3,4.684E3,8.314E3,1.965E3,4.07E2,2.41E3,1.0718E4,1.4137E4,1.092E3,5.41E3,9.34E2,6.09E2,1.1E1,2.5E1,3.6E1,3E1,1.9E1,3.44E2,7.1E1,5.5E1,8E0,5.6E1,3.1E1,1.24E2,5.63E2,1.184E3,1.34E2,3.3E1,8E0,5E0,1.6E1,1.2E1,2.82E2,1.29E2,2.89E2,6.44E2,1.405E3,6.857E3,5.792E3,1.212E3,1.6068E4,1.971E4,2.427E3,2.619E3,3.05E2,5.1E1,1.22E2,7.4E1,1.685E3,2.039E3,5.009E3,1.488E3,1.13E2,3.7E1,1E2,7.5E1],"tree_param":{"num_deleted":"0","num_feature":"13","num_nodes":"123","size_leaf_vector":"1"}},{"base_weights":[-1.5720704E-3,-5.5276256E0,4.998854E0,-5.2323184E0,-3.1571629E1,2.7482553E0,9.3474E0,-7.253205E0,-2.787281E0,-6.437059E1,-2.6443863E1,3.0808144E0,-2.6947067E1,9.804264E0,-7.3107295E0,-4.033856E0,-8.423014E0,-3.7528652E-1,-4.1267366E0,-1.4391892E0,-7.156681E1,-2.2286587E1,-3.5728752E1,5.872714E0,1.5709453E0,-1.754773E1,-4.1486557E1,5.5080214E0,1.1265251E1,-3.1180437E0,-1.5555727E1,-6.5158844E-1,-6.06825E0,-1.0317515E1,-6.3348417E0,2.477527E0,-1.8750948E0,-2.574919E0,-6.854543E0,-4.425306E0,-6.121242E1,-2.8739164E1,-2.035496E1,-4.798236E1,-3.0531548E1,1.1752207E1,3.6966517E0,2.2707915E0,-6.6237063E0,-1.8875507E1,-3.3276076E0,-3.2869633E1,-5.3884415E1,2.218024E1,2.0594945E0,6.6070333E0,1.3456332E1,-8.283766E0,-2.6253405E-1,-2.9518978E1,-1.1556928E1,2.0555332E-1,-2.2175956E-1,-3.5045728E-1,-9.229422E-2,1.2759666E-1,-7.227377E-1,-7.782898E-1,-1.348554E-1,4.5437446E-1,1.863599E-2,-1.5317486E-1,-9.4640855E-5,-2.5299624E-1,-4.979114E-2,-6.150277E-1,2.7500829E-2,-1.594128E0,-3.2046177E0,-1.6791575E0,-1.1073941E0,-1.4643589E-1,-1.0397204E0,-1.9275343E0,-2.7366252E0,-1.6644827E0,-9.1263247E-1,9.7734874E-1,3.1486145E-1,3.5913438E-2,2.341644E-1,1.6168104E-2,1.7895906E-1,2.8810298E-1,-4.8523122E-1,-1.4473917E0,-8.520829E-1,7.9419655E-1,-4.398245E-1,-9.2265195E-1,-1.8891125E0,-3.488158E0,-1.4148521E0,1.2684726E0,8.2775825E-1,2.0948222E-1,-5.174823E-1,6.0505646E-1,1.2953958E-1,5.8272994E-1,9.0328234E-1,-1.4128312E0,-3.1084046E-1,-3.3676383E-1,1.2987867E-1,-1.6502756E0,-1.0643902E0,-2.3178785E-1,-6.8978685E-1],"categories":[],"categories_nodes":[],"categories_segments":[],"categories_sizes":[],"default_left":[0,0,0,0,0,0,0,0,0,0,0,0,0,0,0,0,0,0,0,0,0,0,0,0,0,0,0,0,0,0,0,0,0,0,0,0,0,0,0,0,0,0,0,0,0,0,0,0,0,0,0,0,0,0,0,0,0,0,0,0,0,0,0,0,0,0,0,0,0,0,0,0,0,0,0,0,0,0,0,0,0,0,0,0,0,0,0,0,0,0,0,0,0,0,0,0,0,0,0,0,0,0,0,0,0,0,0,0,0,0,0,0,0,0,0,0,0,0,0],"id":10,"left_children":[1,3,5,7,9,11,13,15,17,19,21,23,25,27,29,31,33,35,37,-1,39,41,43,45,47,49,51,53,55,57,59,61,63,65,67,69,71,73,75,-1,77,79,81,83,85,87,89,91,93,95,97,99,101,103,105,107,109,111,113,115,117,-1,-1,-1,-1,-1,-1,-1,-1,-1,-1,-1,-1,-1,-1,-1,-1,-1,-1,-1,-1,-1,-1,-1,-1,-1,-1,-1,-1,-1,-1,-1,-1,-1,-1,-1,-1,-1,-1,-1,-1,-1,-1,-1,-1,-1,-1,-1,-1,-1,-1,-1,-1,-1,-1,-1,-1,-1,-1],"loss_changes":[3.9805072E6,5.261176E5,7.400729E5,3.3431125E5,1.2728694E5,4.9220372E5,1.963465E5,1.3947325E5,9.892384E4,2.4307312E4,2.4866812E4,2.0773347E5,7.470328E4,1.574955E5,2.3767453E4,6.794394E4,1.07419E5,4.6787594E4,8.3317625E4,0E0,9.4760625E3,5.1684688E3,1.15188125E4,2.2125531E5,1.8345417E5,6.297914E3,2.129575E4,3.6630747E5,1.9108775E5,6.752823E3,1.260875E4,6.687243E4,2.4482484E4,7.58445E5,4.3404166E5,5.2418703E4,1.5954277E4,4.9241336E4,2.8785006E5,0E0,2.6771875E3,2.5711562E3,2.6859375E3,1.6369375E3,4.3317344E3,1.9852912E5,3.7098625E4,7.508789E4,9.610384E4,5.1911953E3,3.2909832E3,8.504203E3,3.3363797E4,1.9165812E4,1.3963714E5,1.3222847E5,1.055725E5,6.5500215E3,5.4976797E3,7.555664E2,2.7543262E3,0E0,0E0,0E0,0E0,0E0,0E0,0E0,0E0,0E0,0E0,0E0,0E0,0E0,0E0,0E0,0E0,0E0,0E0,0E0,0E0,0E0,0E0,0E0,0E0,0E0,0E0,0E0,0E0,0E0,0E0,0E0,0E0,0E0,0E0,0E0,0E0,0E0,0E0,0E0,0E0,0E0,0E0,0E0,0E0,0E0,0E0,0E0,0E0,0E0,0E0,0E0,0E0,0E0,0E0,0E0,0E0,0E0,0E0],"parents":[2147483647,0,0,1,1,2,2,3,3,4,4,5,5,6,6,7,7,8,8,9,9,10,10,11,11,12,12,13,13,14,14,15,15,16,16,17,17,18,18,20,20,21,21,22,22,23,23,24,24,25,25,26,26,27,27,28,28,29,29,30,30,31,31,32,32,33,33,34,34,35,35,36,36,37,37,38,38,40,40,41,41,42,42,43,43,44,44,45,45,46,46,47,47,48,48,49,49,50,50,51,51,52,52,53,53,54,54,55,55,56,56,57,57,58,58,59,59,60,60],"right_children":[2,4,6,8,10,12,14,16,18,20,22,24,26,28,30,32,34,36,38,-1,40,42,44,46,48,50,52,54,56,58,60,62,64,66,68,70,72,74,76,-1,78,80,82,84,86,88,90,92,94,96,98,100,102,104,106,108,110,112,114,116,118,-1,-1,-1,-1,-1,-1,-1,-1,-1,-1,-1,-1,-1,-1,-1,-1,-1,-1,-1,-1,-1,-1,-1,-1,-1,-1,-1,-1,-1,-1,-1,-1,-1,-1,-1,-1,-1,-1,-1,-1,-1,-1,-1,-1,-1,-1,-1,-1,-1,-1,-1,-1,-1,-1,-1,-1,-1,-1],"split_conditions":[3.9564883E2,-5.8466654E0,4.1222406E2,3.8717242E2,-9.6363044E-1,-5.8466654E0,-6.067411E0,-7.326065E0,-2.333355E-2,-5.4960575E0,-5.4960575E0,-2.1068573E-2,-5.4960575E0,-4.9377555E-1,-5.6882534E0,-4.7495106E-1,1.7213356E-2,-4.7495106E-1,5.2249855E-1,-1.4391892E0,-4.904976E-1,-2.73777E-1,-1.5880585E-1,-4.4550326E-1,8.241262E-1,1.6173422E-1,6.5541845E-3,-8.726535E-3,8.726535E-3,-4.7495106E-1,-8.0385685E-1,-3.859352E-1,8.5876393E-1,-8.726535E-3,-2.6176948E-2,-7.7491813E0,3.9164902E2,7.027588E-1,1.7213356E-2,-4.425306E0,-4.3339252E-2,-8.703557E-1,-8.498171E-1,3.8767377E2,9.366722E-1,2.2429657E-1,3.99643E2,-4.7873384E-1,-7.061866E0,3.9879065E2,-5.205244E-2,1.0141897E-1,-9.6363044E-1,8.2681155E-1,-6.6774516E0,5.234156E-1,4.209064E2,-1.8844233E-1,5.69749E0,-8.3388585E-1,-4.1529784E-1,2.0555332E-1,-2.2175956E-1,-3.5045728E-1,-9.229422E-2,1.2759666E-1,-7.227377E-1,-7.782898E-1,-1.348554E-1,4.5437446E-1,1.863599E-2,-1.5317486E-1,-9.4640855E-5,-2.5299624E-1,-4.979114E-2,-6.150277E-1,2.7500829E-2,-1.594128E0,-3.2046177E0,-1.6791575E0,-1.1073941E0,-1.4643589E-1,-1.0397204E0,-1.9275343E0,-2.7366252E0,-1.6644827E0,-9.1263247E-1,9.7734874E-1,3.1486145E-1,3.5913438E-2,2.341644E-1,1.6168104E-2,1.7895906E-1,2.8810298E-1,-4.8523122E-1,-1.4473917E0,-8.520829E-1,7.9419655E-1,-4.398245E-1,-9.2265195E-1,-1.8891125E0,-3.488158E0,-1.4148521E0,1.2684726E0,8.2775825E-1,2.0948222E-1,-5.174823E-1,6.0505646E-1,1.2953958E-1,5.8272994E-1,9.0328234E-1,-1.4128312E0,-3.1084046E-1,-3.3676383E-1,1.2987867E-1,-1.6502756E0,-1.0643902E0,-2.3178785E-1,-6.8978685E-1],"split_indices":[7,5,7,7,8,5,5,5,6,5,5,6,5,12,5,11,12,11,8,0,3,3,3,10,8,10,9,8,8,11,8,10,12,8,8,5,7,3,12,0,6,8,12,7,8,3,7,12,5,7,9,6,8,10,5,12,7,9,0,8,10,0,0,0,0,0,0,0,0,0,0,0,0,0,0,0,0,0,0,0,0,0,0,0,0,0,0,0,0,0,0,0,0,0,0,0,0,0,0,0,0,0,0,0,0,0,0,0,0,0,0,0,0,0,0,0,0,0,0],"split_type":[0,0,0,0,0,0,0,0,0,0,0,0,0,0,0,0,0,0,0,0,0,0,0,0,0,0,0,0,0,0,0,0,0,0,0,0,0,0,0,0,0,0,0,0,0,0,0,0,0,0,0,0,0,0,0,0,0,0,0,0,0,0,0,0,0,0,0,0,0,0,0,0,0,0,0,0,0,0,0,0,0,0,0,0,0,0,0,0,0,0,0,0,0,0,0,0,0,0,0,0,0,0,0,0,0,0,0,0,0,0,0,0,0,0,0,0,0,0,0],"sum_hessian":[1.44049E5,6.8428E4,7.5621E4,6.7662E4,7.66E2,4.9832E4,2.5789E4,3.7043E4,3.0619E4,1.02E2,6.64E2,4.9281E4,5.51E2,2.5101E4,6.88E2,9.874E3,2.7169E4,1.0933E4,1.9686E4,1.8E1,8.4E1,4.61E2,2.03E2,1.7296E4,3.1985E4,3.36E2,2.15E2,6.371E3,1.873E4,4.57E2,2.31E2,3.709E3,6.165E3,1.4243E4,1.2926E4,3.767E3,7.166E3,1.2549E4,7.137E3,2.9E1,5.5E1,1.03E2,3.58E2,5.8E1,1.45E2,4.671E3,1.2625E4,2.9469E4,2.516E3,3.07E2,2.9E1,1.29E2,8.6E1,1.091E3,5.28E3,5.993E3,1.2737E4,1.62E2,2.95E2,5E1,1.81E2,1.642E3,2.067E3,5.041E3,1.124E3,3.465E3,1.0778E4,3.653E3,9.273E3,9.09E2,2.858E3,4.384E3,2.782E3,4.875E3,7.674E3,4.112E3,3.025E3,6E0,4.9E1,5.7E1,4.6E1,9E0,3.49E2,2.7E1,3.1E1,1.17E2,2.8E1,1.922E3,2.749E3,3.142E3,9.483E3,1.1843E4,1.7626E4,5.01E2,2.015E3,4.5E1,2.62E2,6E0,2.3E1,3.4E1,9.5E1,5.2E1,3.4E1,6.94E2,3.97E2,4.507E3,7.73E2,2.53E3,3.463E3,9.16E3,3.577E3,1.4E1,1.48E2,9E1,2.05E2,3.3E1,1.7E1,4.5E1,1.36E2],"tree_param":{"num_deleted":"0","num_feature":"13","num_nodes":"119","size_leaf_vector":"1"}},{"base_weights":[1.07226325E-2,-4.8478775E0,5.1672072E0,-4.5569715E0,-3.0289486E1,3.520061E0,1.0091863E1,-6.4731073E0,-1.6669201E0,-5.8171825E1,-2.5404613E1,3.8052683E0,-2.245691E1,1.0638419E1,-6.633643E0,-3.5579932E0,-7.5134907E0,1.2619942E0,-2.9674392E0,-1.7138226E1,-6.4530075E1,-2.9195398E1,-1.652912E1,7.629867E0,2.747744E0,-1.4463694E1,-3.89263E1,1.5960563E1,9.580764E0,-1.4955441E0,-1.1692359E1,-4.4410834E0,3.3401258E0,-9.175728E0,-5.944881E0,7.42201E0,-1.3372208E0,-2.5198584E0,-1.1854921E1,-1.2987044E0,2.214988E-2,-8.133884E1,-5.369213E1,-2.1006596E1,-3.3105125E1,-1.9457806E1,-1.2211653E1,1.3106151E1,4.4180565E0,3.5826445E0,-3.7327387E0,-1.6832169E1,-5.670405E0,-2.4794165E1,-5.26388E1,2.2169666E1,1.222382E1,-2.9625513E1,9.730487E0,-1.1226826E1,2.0586941E0,-9.489437E0,-2.3240023E1,-3.2599445E-2,-2.8151608E-1,4.5677206E-1,-2.726615E-1,-6.0550517E-1,-3.3605912E-1,-2.3392515E-1,-1.0714318E0,6.69432E-1,1.7073008E-1,1.8840937E-2,-1.8985406E-1,-6.6070534E-2,-2.2298412E-1,-1.9207427E-1,-1.0800694E0,-2.3341253E0,-4.3636265E0,-1.2076105E0,-2.834219E0,-1.2919044E-1,-1.1221684E0,-4.638966E-1,-1.7094666E0,-1.100679E0,-6.5619564E-1,-2.5501662E-1,-6.5680045E-1,1.2006525E-1,8.529731E-1,1.00502744E-1,4.3433872E-1,9.771573E-2,2.8737268E-1,4.649473E-1,-3.925341E-1,-5.529193E-1,-1.0237138E0,-4.947937E-2,-4.530401E-1,-1.5852839E0,-8.357545E-1,-1.3825883E0,-3.2342355E0,1.3949245E0,8.3168566E-1,7.613023E-1,5.156637E-1,-1.6908559E0,-6.4207785E-2,3.818729E-1,6.130078E-1,-1.8565813E0,-4.1967922E-1,-1.5326038E-1,3.388704E-1,-1.7131624E-1,-5.7681865E-1,-1.622035E0,-7.8093785E-1],"categories":[],"categories_nodes":[],"categories_segments":[],"categories_sizes":[],"default_left":[0,0,0,0,0,0,0,0,0,0,0,0,0,0,0,0,0,0,0,0,0,0,0,0,0,0,0,0,0,0,0,0,0,0,0,0,0,0,0,0,0,0,0,0,0,0,0,0,0,0,0,0,0,0,0,0,0,0,0,0,0,0,0,0,0,0,0,0,0,0,0,0,0,0,0,0,0,0,0,0,0,0,0,0,0,0,0,0,0,0,0,0,0,0,0,0,0,0,0,0,0,0,0,0,0,0,0,0,0,0,0,0,0,0,0,0,0,0,0,0,0,0,0],"id":11,"left_children":[1,3,5,7,9,11,13,15,17,19,21,23,25,27,29,31,33,35,37,39,41,43,45,47,49,51,53,55,57,59,61,63,65,67,69,71,73,75,77,-1,-1,79,81,83,85,87,89,91,93,95,97,99,101,103,105,107,109,111,113,115,117,119,121,-1,-1,-1,-1,-1,-1,-1,-1,-1,-1,-1,-1,-1,-1,-1,-1,-1,-1,-1,-1,-1,-1,-1,-1,-1,-1,-1,-1,-1,-1,-1,-1,-1,-1,-1,-1,-1,-1,-1,-1,-1,-1,-1,-1,-1,-1,-1,-1,-1,-1,-1,-1,-1,-1,-1,-1,-1,-1,-1,-1],"loss_changes":[3.603416E6,5.4794125E5,5.659601E5,4.0545E5,1.1251456E5,3.8748356E5,1.599365E5,1.33499E5,1.1119942E5,3.1237781E4,2.3535438E4,2.0917312E5,7.420509E4,9.51715E4,1.4380869E4,7.056855E4,8.4543625E4,1.4374312E5,8.038528E4,2.810274E3,1.5111656E4,1.5275125E4,2.4904375E3,1.969875E5,2.1924916E5,7.89975E3,3.453772E4,6.4829875E4,8.3230875E4,9.570122E3,6.8735586E3,4.6264703E4,6.7062945E4,1.1336425E5,3.27277E5,6.3650766E4,2.6623477E4,4.4740836E4,7.5595984E4,0E0,0E0,4.138125E3,4.633453E3,4.280492E3,8.3585625E3,1.763457E3,5.227832E2,1.7520244E5,7.2582625E4,1.2652222E5,2.4826762E5,6.1211094E3,1.3072241E3,4.6581914E3,2.6194344E4,3.2926875E4,9.901172E3,6.368035E3,7.4437375E4,5.1149775E3,4.9293257E3,2.8879238E3,2.5738262E3,0E0,0E0,0E0,0E0,0E0,0E0,0E0,0E0,0E0,0E0,0E0,0E0,0E0,0E0,0E0,0E0,0E0,0E0,0E0,0E0,0E0,0E0,0E0,0E0,0E0,0E0,0E0,0E0,0E0,0E0,0E0,0E0,0E0,0E0,0E0,0E0,0E0,0E0,0E0,0E0,0E0,0E0,0E0,0E0,0E0,0E0,0E0,0E0,0E0,0E0,0E0,0E0,0E0,0E0,0E0,0E0,0E0,0E0,0E0,0E0],"parents":[2147483647,0,0,1,1,2,2,3,3,4,4,5,5,6,6,7,7,8,8,9,9,10,10,11,11,12,12,13,13,14,14,15,15,16,16,17,17,18,18,19,19,20,20,21,21,22,22,23,23,24,24,25,25,26,26,27,27,28,28,29,29,30,30,31,31,32,32,33,33,34,34,35,35,36,36,37,37,38,38,41,41,42,42,43,43,44,44,45,45,46,46,47,47,48,48,49,49,50,50,51,51,52,52,53,53,54,54,55,55,56,56,57,57,58,58,59,59,60,60,61,61,62,62],"right_children":[2,4,6,8,10,12,14,16,18,20,22,24,26,28,30,32,34,36,38,40,42,44,46,48,50,52,54,56,58,60,62,64,66,68,70,72,74,76,78,-1,-1,80,82,84,86,88,90,92,94,96,98,100,102,104,106,108,110,112,114,116,118,120,122,-1,-1,-1,-1,-1,-1,-1,-1,-1,-1,-1,-1,-1,-1,-1,-1,-1,-1,-1,-1,-1,-1,-1,-1,-1,-1,-1,-1,-1,-1,-1,-1,-1,-1,-1,-1,-1,-1,-1,-1,-1,-1,-1,-1,-1,-1,-1,-1,-1,-1,-1,-1,-1,-1,-1,-1,-1,-1,-1,-1],"split_conditions":[3.9699985E2,-5.8466654E0,4.1511423E2,3.8868414E2,-9.6363044E-1,-5.8466654E0,-6.138085E0,-7.326065E0,-7.326065E0,-5.4960575E0,1.9244362E0,-4.502E-1,-5.4960575E0,-6.6892624E-2,-5.8466654E0,8.141155E-1,3.4699776E1,-4.7495106E-1,8.7881714E-1,3.8585144E2,3.3434753E1,-5.6882534E0,-3.3691135E-1,3.7934875E-1,7.7162457E-1,2.1749656E0,-2.1070436E-1,-4.1529784E-1,-3.5438004E0,-4.7495106E-1,-5.4960575E0,-8.56551E-1,-3.9328048E-1,1.363756E0,6.755902E-1,3.3992863E1,5.075384E-1,4.461978E-1,3.4522575E1,-1.2987044E0,2.214988E-2,1.20625496E-1,-1.6178131E-1,1.211346E0,1.2796565E0,2.2379916E0,-9.615612E-2,3.3380687E-1,4.0546274E2,3.4732666E1,-7.2021403E0,2.1040916E-2,5.3806686E-1,1.7486084E0,-4.4290517E-3,1.4917673E0,-4.7495106E-1,1.0696259E0,4.1981293E2,3.2848736E1,-1.9422652E-1,-4.1529784E-1,3.3824562E1,-3.2599445E-2,-2.8151608E-1,4.5677206E-1,-2.726615E-1,-6.0550517E-1,-3.3605912E-1,-2.3392515E-1,-1.0714318E0,6.69432E-1,1.7073008E-1,1.8840937E-2,-1.8985406E-1,-6.6070534E-2,-2.2298412E-1,-1.9207427E-1,-1.0800694E0,-2.3341253E0,-4.3636265E0,-1.2076105E0,-2.834219E0,-1.2919044E-1,-1.1221684E0,-4.638966E-1,-1.7094666E0,-1.100679E0,-6.5619564E-1,-2.5501662E-1,-6.5680045E-1,1.2006525E-1,8.529731E-1,1.00502744E-1,4.3433872E-1,9.771573E-2,2.8737268E-1,4.649473E-1,-3.925341E-1,-5.529193E-1,-1.0237138E0,-4.947937E-2,-4.530401E-1,-1.5852839E0,-8.357545E-1,-1.3825883E0,-3.2342355E0,1.3949245E0,8.3168566E-1,7.613023E-1,5.156637E-1,-1.6908559E0,-6.4207785E-2,3.818729E-1,6.130078E-1,-1.8565813E0,-4.1967922E-1,-1.5326038E-1,3.388704E-1,-1.7131624E-1,-5.7681865E-1,-1.622035E0,-7.8093785E-1],"split_indices":[7,5,7,7,8,5,5,5,5,5,4,10,5,6,5,8,2,11,8,7,2,5,10,3,8,4,10,10,3,11,5,11,10,4,8,2,8,8,2,0,0,6,6,4,4,4,6,8,7,2,5,6,3,4,9,4,11,4,7,2,9,10,2,0,0,0,0,0,0,0,0,0,0,0,0,0,0,0,0,0,0,0,0,0,0,0,0,0,0,0,0,0,0,0,0,0,0,0,0,0,0,0,0,0,0,0,0,0,0,0,0,0,0,0,0,0,0,0,0,0,0,0,0],"split_type":[0,0,0,0,0,0,0,0,0,0,0,0,0,0,0,0,0,0,0,0,0,0,0,0,0,0,0,0,0,0,0,0,0,0,0,0,0,0,0,0,0,0,0,0,0,0,0,0,0,0,0,0,0,0,0,0,0,0,0,0,0,0,0,0,0,0,0,0,0,0,0,0,0,0,0,0,0,0,0,0,0,0,0,0,0,0,0,0,0,0,0,0,0,0,0,0,0,0,0,0,0,0,0,0,0,0,0,0,0,0,0,0,0,0,0,0,0,0,0,0,0,0,0],"sum_hessian":[1.43828E5,7.4053E4,6.9775E4,7.3217E4,8.36E2,5.2288E4,1.7487E4,4.4026E4,2.9191E4,1.23E2,7.13E2,5.1721E4,5.67E2,1.6934E4,5.53E2,1.1581E4,3.2445E4,8.976E3,2.0215E4,1.7E1,1.06E2,4.98E2,2.15E2,1.1202E4,4.0519E4,3.83E2,1.84E2,2.805E3,1.4129E4,2.75E2,2.78E2,1.0267E4,1.314E3,1.575E4,1.6695E4,2.663E3,6.313E3,1.9247E4,9.68E2,1.1E1,6E0,3.9E1,6.7E1,1.63E2,3.35E2,1.26E2,8.9E1,4.14E3,7.062E3,3.5895E4,4.624E3,3.01E2,8.2E1,9.2E1,9.2E1,1.052E3,1.753E3,5.3E1,1.4076E4,7.3E1,2.02E2,2.35E2,4.3E1,2.453E3,7.814E3,7.92E2,5.22E2,7.172E3,8.578E3,1.5434E4,1.261E3,1.069E3,1.594E3,3.721E3,2.592E3,1.1898E4,7.349E3,5.32E2,4.36E2,7E0,3.2E1,7E0,6E1,1.2E1,1.51E2,1.5E1,3.2E2,8.8E1,3.8E1,1.1E1,7.8E1,1.117E3,3.023E3,4.516E3,2.546E3,2.0487E4,1.5408E4,1.11E3,3.514E3,1.18E2,1.83E2,3.5E1,4.7E1,4.8E1,4.4E1,3.1E1,6.1E1,5.15E2,5.37E2,6.79E2,1.074E3,4.6E1,7E0,7.705E3,6.371E3,6E0,6.7E1,9.7E1,1.05E2,6E1,1.75E2,1.8E1,2.5E1],"tree_param":{"num_deleted":"0","num_feature":"13","num_nodes":"123","size_leaf_vector":"1"}},{"base_weights":[1.8590271E-2,-4.9962153E0,4.5505624E0,-4.677476E0,-2.598091E1,2.4860868E0,8.55286E0,-6.7075195E0,-2.6949866E0,-5.8212307E1,-2.1909996E1,2.7764456E0,-2.4196745E1,1.1723196E1,6.536125E0,-4.507346E0,-8.262845E0,-5.129179E-1,-3.9002447E0,-3.0659166E1,-6.5606346E1,-2.6942495E1,-1.5143561E1,5.452161E0,1.3320341E0,-1.5123896E1,-3.916794E1,1.6689693E1,9.087685E0,7.411903E0,-2.6536903E0,-1.3419927E0,-6.3690877E0,-7.395242E0,-1.3240412E1,-1.5350915E0,2.374982E0,-2.6620142E0,-6.313241E0,-3.3928513E1,-7.0449615E-1,-1.4431356E0,-6.937797E1,-2.3368286E1,-3.560242E1,1.7759597E0,-1.6209024E1,1.0924862E1,3.433184E0,1.9795114E0,-6.3670864E0,-1.6925203E1,-5.498168E-1,-4.490831E0,-3.634019E1,2.2572432E1,1.4321729E1,5.1620326E0,1.0409077E1,5.1216617E0,1.0804992E1,4.858718E0,-7.7818785E0,1.06092565E-1,-2.2206847E-1,-4.9658528E-1,-1.5637115E-1,-5.298877E-1,-2.65007E-1,-3.2378733E-1,-1.069715E0,-2.609992E-1,-4.7087997E-2,3.5108104E-1,2.7964039E-2,-1.5499339E-1,2.9100367E-1,-5.8179873E-1,5.9841454E-2,-9.8750514E-1,-1.8559319E0,-2.534815E0,-3.737929E0,-3.3090276E-1,-1.2358034E0,-8.6338663E-1,-1.9226252E0,-1.9446373E-1,8.052141E-1,-9.9876404E-1,-6.786062E-1,9.009983E-1,2.9028583E-1,2.0000668E-1,-8.110874E-2,3.3590537E-3,1.6359037E-1,-1.1973772E-1,-7.566876E-1,-9.3481696E-1,-2.4936016E-1,8.316088E-1,-4.084799E-1,-1.5190963E0,-2.4841514E0,1.3011198E0,8.4929556E-1,5.2969056E-1,9.1257393E-1,1.9644645E-1,9.646761E-1,4.9184284E-1,8.946816E-1,-1.4269245E-1,3.6416337E-1,-8.5660297E-1,5.585001E-1,-5.871677E-1,5.427339E-1,-1.1436762E0,-3.0642635E-1],"categories":[],"categories_nodes":[],"categories_segments":[],"categories_sizes":[],"default_left":[0,0,0,0,0,0,0,0,0,0,0,0,0,0,0,0,0,0,0,0,0,0,0,0,0,0,0,0,0,0,0,0,0,0,0,0,0,0,0,0,0,0,0,0,0,0,0,0,0,0,0,0,0,0,0,0,0,0,0,0,0,0,0,0,0,0,0,0,0,0,0,0,0,0,0,0,0,0,0,0,0,0,0,0,0,0,0,0,0,0,0,0,0,0,0,0,0,0,0,0,0,0,0,0,0,0,0,0,0,0,0,0,0,0,0,0,0,0,0,0,0],"id":12,"left_children":[1,3,5,7,9,11,13,15,17,19,21,23,25,27,29,31,33,35,37,39,41,43,45,47,49,51,53,55,57,59,61,63,65,67,69,71,73,75,77,79,-1,-1,81,83,85,87,89,91,93,95,97,99,101,-1,103,105,107,109,111,113,115,117,119,-1,-1,-1,-1,-1,-1,-1,-1,-1,-1,-1,-1,-1,-1,-1,-1,-1,-1,-1,-1,-1,-1,-1,-1,-1,-1,-1,-1,-1,-1,-1,-1,-1,-1,-1,-1,-1,-1,-1,-1,-1,-1,-1,-1,-1,-1,-1,-1,-1,-1,-1,-1,-1,-1,-1,-1,-1,-1],"loss_changes":[3.2709318E6,4.5685662E5,6.24642E5,2.708365E5,1.3281438E5,3.8648384E5,1.6440675E5,1.13746E5,8.95502E4,2.1204062E4,3.0541156E4,1.9068294E5,7.2343625E4,1.307515E5,1.2658675E5,8.115591E4,8.4021125E4,3.5772164E4,6.5520656E4,9.2558594E2,1.0321625E4,1.5257375E4,7.0608047E3,1.9108006E5,1.5975167E5,8.80975E3,2.5654188E4,4.7954812E4,3.3849062E4,1.1151894E5,5.277889E4,5.4783492E4,1.0011897E5,1.1125425E5,1.5926616E5,1.9562416E4,2.6723441E4,5.3862047E4,2.973423E5,2.1106445E2,0E0,0E0,4.239E3,8.208828E3,7.1687656E3,2.0120149E3,3.3703047E3,1.6918456E5,3.6226062E4,7.304849E4,8.6534734E4,6.226383E3,5.1101064E3,0E0,1.3826078E4,1.8692094E4,3.6047344E4,2.8639254E4,2.0759875E4,1.4783617E5,5.9182188E4,5.54746E4,2.0167676E4,0E0,0E0,0E0,0E0,0E0,0E0,0E0,0E0,0E0,0E0,0E0,0E0,0E0,0E0,0E0,0E0,0E0,0E0,0E0,0E0,0E0,0E0,0E0,0E0,0E0,0E0,0E0,0E0,0E0,0E0,0E0,0E0,0E0,0E0,0E0,0E0,0E0,0E0,0E0,0E0,0E0,0E0,0E0,0E0,0E0,0E0,0E0,0E0,0E0,0E0,0E0,0E0,0E0,0E0,0E0,0E0,0E0,0E0],"parents":[2147483647,0,0,1,1,2,2,3,3,4,4,5,5,6,6,7,7,8,8,9,9,10,10,11,11,12,12,13,13,14,14,15,15,16,16,17,17,18,18,19,19,20,20,21,21,22,22,23,23,24,24,25,25,26,26,27,27,28,28,29,29,30,30,31,31,32,32,33,33,34,34,35,35,36,36,37,37,38,38,39,39,42,42,43,43,44,44,45,45,46,46,47,47,48,48,49,49,50,50,51,51,52,52,54,54,55,55,56,56,57,57,58,58,59,59,60,60,61,61,62,62],"right_children":[2,4,6,8,10,12,14,16,18,20,22,24,26,28,30,32,34,36,38,40,42,44,46,48,50,52,54,56,58,60,62,64,66,68,70,72,74,76,78,80,-1,-1,82,84,86,88,90,92,94,96,98,100,102,-1,104,106,108,110,112,114,116,118,120,-1,-1,-1,-1,-1,-1,-1,-1,-1,-1,-1,-1,-1,-1,-1,-1,-1,-1,-1,-1,-1,-1,-1,-1,-1,-1,-1,-1,-1,-1,-1,-1,-1,-1,-1,-1,-1,-1,-1,-1,-1,-1,-1,-1,-1,-1,-1,-1,-1,-1,-1,-1,-1,-1,-1,-1,-1,-1],"split_conditions":[3.9564883E2,-5.965704E0,4.1222406E2,3.8551462E2,-9.6363044E-1,-5.8466654E0,-7.044805E0,-7.073178E0,-2.333355E-2,1.2154629E0,1.877123E0,-2.1068573E-2,-5.4960575E0,1.3684648E0,8.7881714E-1,1.7133211E1,7.7162457E-1,3.92784E2,5.3729963E-1,3.816249E2,-5.4960575E0,-5.4960575E0,-5.160624E-1,-4.4550326E-1,8.241262E-1,1.6173422E-1,3.3048565E1,-4.417389E-1,-5.160624E-1,3.4780285E1,3.448491E1,-3.9328048E-1,-8.606997E-3,3.443621E1,8.037693E0,-5.8070296E-1,-4.1278407E-1,2.0681872E0,1.7213356E-2,3.3549625E1,-7.0449615E-1,-1.4431356E0,-1.8175743E0,1.3212222E0,1.407795E0,1.1459775E1,2.0493143E0,3.4162376E1,2.8759562E1,-4.7873384E-1,3.448491E1,2.2916553E0,-4.202304E-2,-4.490831E0,2.4128035E-1,2.0579401E1,4.862727E-1,8.241262E-1,7.1325046E-1,-4.9377555E-1,-6.8835455E-1,-2.2977749E-1,-1.9995154E-1,1.06092565E-1,-2.2206847E-1,-4.9658528E-1,-1.5637115E-1,-5.298877E-1,-2.65007E-1,-3.2378733E-1,-1.069715E0,-2.609992E-1,-4.7087997E-2,3.5108104E-1,2.7964039E-2,-1.5499339E-1,2.9100367E-1,-5.8179873E-1,5.9841454E-2,-9.8750514E-1,-1.8559319E0,-2.534815E0,-3.737929E0,-3.3090276E-1,-1.2358034E0,-8.6338663E-1,-1.9226252E0,-1.9446373E-1,8.052141E-1,-9.9876404E-1,-6.786062E-1,9.009983E-1,2.9028583E-1,2.0000668E-1,-8.110874E-2,3.3590537E-3,1.6359037E-1,-1.1973772E-1,-7.566876E-1,-9.3481696E-1,-2.4936016E-1,8.316088E-1,-4.084799E-1,-1.5190963E0,-2.4841514E0,1.3011198E0,8.4929556E-1,5.2969056E-1,9.1257393E-1,1.9644645E-1,9.646761E-1,4.9184284E-1,8.946816E-1,-1.4269245E-1,3.6416337E-1,-8.5660297E-1,5.585001E-1,-5.871677E-1,5.427339E-1,-1.1436762E0,-3.0642635E-1],"split_indices":[7,5,7,7,8,5,5,5,6,4,4,6,5,4,8,0,8,7,8,7,5,5,12,10,8,10,2,10,12,2,2,10,12,2,0,8,10,4,12,2,0,0,0,4,4,0,4,2,0,12,2,4,9,0,10,0,12,8,8,12,8,9,9,0,0,0,0,0,0,0,0,0,0,0,0,0,0,0,0,0,0,0,0,0,0,0,0,0,0,0,0,0,0,0,0,0,0,0,0,0,0,0,0,0,0,0,0,0,0,0,0,0,0,0,0,0,0,0,0,0,0],"split_type":[0,0,0,0,0,0,0,0,0,0,0,0,0,0,0,0,0,0,0,0,0,0,0,0,0,0,0,0,0,0,0,0,0,0,0,0,0,0,0,0,0,0,0,0,0,0,0,0,0,0,0,0,0,0,0,0,0,0,0,0,0,0,0,0,0,0,0,0,0,0,0,0,0,0,0,0,0,0,0,0,0,0,0,0,0,0,0,0,0,0,0,0,0,0,0,0,0,0,0,0,0,0,0,0,0,0,0,0,0,0,0,0,0,0,0,0,0,0,0,0,0],"sum_hessian":[1.43921E5,6.8321E4,7.56E4,6.73E4,1.021E3,4.9875E4,2.5725E4,3.325E4,3.405E4,1.13E2,9.08E2,4.9339E4,5.36E2,1E4,1.5725E4,1.3772E4,1.9478E4,1.2116E4,2.1934E4,2.5E1,8.8E1,5.19E2,3.89E2,1.7296E4,3.2043E4,3.35E2,2.01E2,3.465E3,6.535E3,1.4357E4,1.368E3,5.101E3,8.671E3,1.6589E4,2.889E3,8.949E3,3.167E3,1.4497E4,7.437E3,2E1,5E0,9E0,7.9E1,3.7E2,1.49E2,2.3E1,3.66E2,4.66E3,1.2636E4,2.9558E4,2.485E3,2.98E2,3.7E1,9E0,1.92E2,9.92E2,2.473E3,1.647E3,4.888E3,8.573E3,5.784E3,5.55E2,8.13E2,2.409E3,2.692E3,4.13E3,4.541E3,6.559E3,1.003E4,1.58E3,1.309E3,1.24E3,7.709E3,8.89E2,2.278E3,1.3786E4,7.11E2,4.352E3,3.085E3,5E0,1.5E1,2E1,5.9E1,2.8E1,3.42E2,2.1E1,1.28E2,1.7E1,6E0,1.48E2,2.18E2,1.952E3,2.708E3,1.1362E4,1.274E3,1.192E4,1.7638E4,1.711E3,7.74E2,2.59E2,3.9E1,1.1E1,2.6E1,1.35E2,5.7E1,6.11E2,3.81E2,1.271E3,1.202E3,1.516E3,1.31E2,4.543E3,3.45E2,1.828E3,6.745E3,7.4E1,5.71E3,1.47E2,4.08E2,7.9E1,7.34E2],"tree_param":{"num_deleted":"0","num_feature":"13","num_nodes":"121","size_leaf_vector":"1"}},{"base_weights":[-2.4317998E-2,-4.4256406E0,4.641263E0,-4.1181173E0,-2.4659739E1,6.813702E0,4.3102568E-1,-5.488848E0,-7.1376616E-1,-1.795372E1,-3.9481365E1,4.25549E0,9.702912E0,2.5168715E0,-5.5353203E0,-2.0198696E0,-6.7702694E0,5.1644176E-1,-7.3494053E0,-2.1132132E1,-1.22569895E1,-5.8816357E1,-3.0503471E1,1.7225496E1,3.5500264E0,1.0042917E1,-8.491449E0,9.0955365E-1,9.392746E0,-1.5389468E1,-2.6556993E0,-5.5650616E0,3.1570268E-1,-6.0742407E0,-1.1922413E1,2.3423836E1,2.072026E-1,-2.7936788E0,-1.0908541E1,-9.792833E0,-2.2847136E1,1.2752644E0,-1.3729866E1,-3.4715786E1,-6.423355E1,-3.546279E1,-2.200811E1,-4.5416694E0,2.0558609E1,3.6904829E0,-3.804772E1,1.4776879E1,8.928907E0,-4.7748666E0,-2.7753126E1,5.031189E0,-7.873105E-1,1.4166664E1,8.07236E0,1.2741366E1,-1.9634838E1,-1.0291473E0,-1.7163546E1,9.73427E-1,-3.9902732E-1,-4.438327E-1,8.364628E-2,-3.9263195E-1,-2.2455631E-1,-4.0254807E-1,-7.761833E-1,1.4940798E0,-2.2520366E-1,4.037849E-1,-1.1790179E-2,6.272911E-2,-2.339371E-1,-3.347639E-1,-8.707386E-1,-9.050371E-1,-1.394658E-1,-1.067258E0,-1.571678E0,-1.7839661E-1,6.9208735E-1,-5.572188E-1,-8.9013594E-1,-7.9126614E-1,-1.9667511E0,-1.717424E0,-3.341192E0,-2.2620604E0,-1.4846922E0,-6.40164E-1,-1.3432083E0,-6.2194127E-1,1.4763404E-1,6.440773E-1,1.2980126E0,2.966033E-1,9.807386E-2,-1.122482E0,-3.11265E0,4.491702E0,7.2934943E-1,3.6132357E-1,5.9576964E-1,-3.4353045E-1,8.222168E-2,-1.8193575E0,-6.865408E-1,5.7006925E-1,1.391278E-1,-1.7224365E-1,1.10949256E-1,1.0236567E0,5.069669E-1,2.8748998E-1,5.0820774E-1,6.941372E-1,-2.3359084E-1,-1.2301635E0,-6.159543E-1,-2.0669976E-1,2.5808352E-1,-5.208032E0,-7.8278196E-1],"categories":[],"categories_nodes":[],"categories_segments":[],"categories_sizes":[],"default_left":[0,0,0,0,0,0,0,0,0,0,0,0,0,0,0,0,0,0,0,0,0,0,0,0,0,0,0,0,0,0,0,0,0,0,0,0,0,0,0,0,0,0,0,0,0,0,0,0,0,0,0,0,0,0,0,0,0,0,0,0,0,0,0,0,0,0,0,0,0,0,0,0,0,0,0,0,0,0,0,0,0,0,0,0,0,0,0,0,0,0,0,0,0,0,0,0,0,0,0,0,0,0,0,0,0,0,0,0,0,0,0,0,0,0,0,0,0,0,0,0,0,0,0,0,0,0,0],"id":13,"left_children":[1,3,5,7,9,11,13,15,17,19,21,23,25,27,29,31,33,35,37,39,41,43,45,47,49,51,53,55,57,59,61,63,65,67,69,71,73,75,77,79,81,83,85,87,89,91,93,95,97,99,101,103,105,107,109,111,113,115,117,119,121,123,125,-1,-1,-1,-1,-1,-1,-1,-1,-1,-1,-1,-1,-1,-1,-1,-1,-1,-1,-1,-1,-1,-1,-1,-1,-1,-1,-1,-1,-1,-1,-1,-1,-1,-1,-1,-1,-1,-1,-1,-1,-1,-1,-1,-1,-1,-1,-1,-1,-1,-1,-1,-1,-1,-1,-1,-1,-1,-1,-1,-1,-1,-1,-1,-1],"loss_changes":[2.9513948E6,4.6009575E5,6.381374E5,3.3995562E5,1.0931469E5,3.4011575E5,2.955546E5,2.3086575E5,1.7072998E5,1.35710625E4,5.7911062E4,2.2329412E5,1.3378125E5,1.9446747E5,1.7452777E5,1.16022375E5,1.3593725E5,1.2498047E5,5.300561E4,9.2825625E3,5.5198047E3,1.1860406E4,9.198891E3,9.143844E4,1.354124E5,1.11752E5,2.8284518E4,9.976473E4,2.0899031E4,1.6637222E5,1.1235309E5,3.366602E5,1.0541202E5,9.4043125E4,6.279325E4,4.251978E4,6.0690324E4,1.0964654E4,5.0210266E4,3.7876055E3,4.791922E3,1.7545482E3,2.42075E3,1.2917031E3,4.4293438E3,6.9979844E3,3.6750078E3,9.980597E3,4.4945594E4,8.942341E4,2.8043328E4,5.6259875E4,8.7244875E4,4.505189E3,7.2437773E3,5.955567E4,8.074084E4,1.8101453E4,1.2639625E4,3.7029062E3,4.3637656E4,8.234711E4,6.1325438E4,0E0,0E0,0E0,0E0,0E0,0E0,0E0,0E0,0E0,0E0,0E0,0E0,0E0,0E0,0E0,0E0,0E0,0E0,0E0,0E0,0E0,0E0,0E0,0E0,0E0,0E0,0E0,0E0,0E0,0E0,0E0,0E0,0E0,0E0,0E0,0E0,0E0,0E0,0E0,0E0,0E0,0E0,0E0,0E0,0E0,0E0,0E0,0E0,0E0,0E0,0E0,0E0,0E0,0E0,0E0,0E0,0E0,0E0,0E0,0E0,0E0,0E0,0E0,0E0],"parents":[2147483647,0,0,1,1,2,2,3,3,4,4,5,5,6,6,7,7,8,8,9,9,10,10,11,11,12,12,13,13,14,14,15,15,16,16,17,17,18,18,19,19,20,20,21,21,22,22,23,23,24,24,25,25,26,26,27,27,28,28,29,29,30,30,31,31,32,32,33,33,34,34,35,35,36,36,37,37,38,38,39,39,40,40,41,41,42,42,43,43,44,44,45,45,46,46,47,47,48,48,49,49,50,50,51,51,52,52,53,53,54,54,55,55,56,56,57,57,58,