{"learner":{"attributes":{"best_iteration":"499","best_score":"6.552726383945175","scikit_learn":"{\"_estimator_type\": \"regressor\"}"},"feature_names":[],"feature_types":[],"gradient_booster":{"model":{"gbtree_model_param":{"num_parallel_tree":"1","num_trees":"500"},"iteration_indptr":[0,1,2,3,4,5,6,7,8,9,10,11,12,13,14,15,16,17,18,19,20,21,22,23,24,25,26,27,28,29,30,31,32,33,34,35,36,37,38,39,40,41,42,43,44,45,46,47,48,49,50,51,52,53,54,55,56,57,58,59,60,61,62,63,64,65,66,67,68,69,70,71,72,73,74,75,76,77,78,79,80,81,82,83,84,85,86,87,88,89,90,91,92,93,94,95,96,97,98,99,100,101,102,103,104,105,106,107,108,109,110,111,112,113,114,115,116,117,118,119,120,121,122,123,124,125,126,127,128,129,130,131,132,133,134,135,136,137,138,139,140,141,142,143,144,145,146,147,148,149,150,151,152,153,154,155,156,157,158,159,160,161,162,163,164,165,166,167,168,169,170,171,172,173,174,175,176,177,178,179,180,181,182,183,184,185,186,187,188,189,190,191,192,193,194,195,196,197,198,199,200,201,202,203,204,205,206,207,208,209,210,211,212,213,214,215,216,217,218,219,220,221,222,223,224,225,226,227,228,229,230,231,232,233,234,235,236,237,238,239,240,241,242,243,244,245,246,247,248,249,250,251,252,253,254,255,256,257,258,259,260,261,262,263,264,265,266,267,268,269,270,271,272,273,274,275,276,277,278,279,280,281,282,283,284,285,286,287,288,289,290,291,292,293,294,295,296,297,298,299,300,301,302,303,304,305,306,307,308,309,310,311,312,313,314,315,316,317,318,319,320,321,322,323,324,325,326,327,328,329,330,331,332,333,334,335,336,337,338,339,340,341,342,343,344,345,346,347,348,349,350,351,352,353,354,355,356,357,358,359,360,361,362,363,364,365,366,367,368,369,370,371,372,373,374,375,376,377,378,379,380,381,382,383,384,385,386,387,388,389,390,391,392,393,394,395,396,397,398,399,400,401,402,403,404,405,406,407,408,409,410,411,412,413,414,415,416,417,418,419,420,421,422,423,424,425,426,427,428,429,430,431,432,433,434,435,436,437,438,439,440,441,442,443,444,445,446,447,448,449,450,451,452,453,454,455,456,457,458,459,460,461,462,463,464,465,466,467,468,469,470,471,472,473,474,475,476,477,478,479,480,481,482,483,484,485,486,487,488,489,490,491,492,493,494,495,496,497,498,499,500],"tree_info":[0,0,0,0,0,0,0,0,0,0,0,0,0,0,0,0,0,0,0,0,0,0,0,0,0,0,0,0,0,0,0,0,0,0,0,0,0,0,0,0,0,0,0,0,0,0,0,0,0,0,0,0,0,0,0,0,0,0,0,0,0,0,0,0,0,0,0,0,0,0,0,0,0,0,0,0,0,0,0,0,0,0,0,0,0,0,0,0,0,0,0,0,0,0,0,0,0,0,0,0,0,0,0,0,0,0,0,0,0,0,0,0,0,0,0,0,0,0,0,0,0,0,0,0,0,0,0,0,0,0,0,0,0,0,0,0,0,0,0,0,0,0,0,0,0,0,0,0,0,0,0,0,0,0,0,0,0,0,0,0,0,0,0,0,0,0,0,0,0,0,0,0,0,0,0,0,0,0,0,0,0,0,0,0,0,0,0,0,0,0,0,0,0,0,0,0,0,0,0,0,0,0,0,0,0,0,0,0,0,0,0,0,0,0,0,0,0,0,0,0,0,0,0,0,0,0,0,0,0,0,0,0,0,0,0,0,0,0,0,0,0,0,0,0,0,0,0,0,0,0,0,0,0,0,0,0,0,0,0,0,0,0,0,0,0,0,0,0,0,0,0,0,0,0,0,0,0,0,0,0,0,0,0,0,0,0,0,0,0,0,0,0,0,0,0,0,0,0,0,0,0,0,0,0,0,0,0,0,0,0,0,0,0,0,0,0,0,0,0,0,0,0,0,0,0,0,0,0,0,0,0,0,0,0,0,0,0,0,0,0,0,0,0,0,0,0,0,0,0,0,0,0,0,0,0,0,0,0,0,0,0,0,0,0,0,0,0,0,0,0,0,0,0,0,0,0,0,0,0,0,0,0,0,0,0,0,0,0,0,0,0,0,0,0,0,0,0,0,0,0,0,0,0,0,0,0,0,0,0,0,0,0,0,0,0,0,0,0,0,0,0,0,0,0,0,0,0,0,0,0,0,0,0,0,0,0,0,0,0,0,0,0,0,0,0,0,0,0,0,0,0,0,0,0,0,0,0,0,0,0,0,0,0,0,0,0,0,0,0,0,0,0,0,0,0,0,0,0,0,0,0,0,0,0,0,0,0,0,0,0,0,0,0,0,0,0,0,0,0,0],"trees":[{"base_weights":[-2.1152843E-2,-6.705231E0,1.1093428E1,-1.3538891E1,4.3191233E0,6.806596E0,2.2001698E1,-4.4589516E1,-8.691205E0,-2.319926E0,1.3188153E1,-6.8126035E-1,1.3211421E1,1.6247028E1,3.066689E1,-2.3753403E1,-6.973778E1,-1.823246E1,-3.9809096E0,-2.771179E1,-7.7696097E-1,-1.7235546E1,1.5095951E1,2.071115E1,-1.3888826E0,4.347566E1,1.0803565E1,1.2748741E1,2.5941809E1,2.5645845E1,4.116998E1,-2.8974737E1,-3.9769514E0,-3.6266434E1,-8.0788994E1,-8.739581E0,-2.4510174E1,-2.2952734E1,-3.9990056E-1,-3.499491E1,-5.9183693E0,-4.076576E0,4.74814E0,-2.1761251E1,9.203985E0,9.363742E0,2.0920866E1,8.721789E0,5.3064182E1,1.5863178E1,-2.2051256E0,7.30596E1,2.0168543E1,4.707614E0,1.4171726E1,1.3577899E1,-8.773875E0,1.9917492E1,3.39167E1,2.6494814E1,7.262719E-1,3.4204266E1,4.837419E1,-2.0385025E0,-8.500318E-1,-1.1324815E0,4.5785308E-1,-1.265361E0,-2.4883883E0,-2.6833196E0,-4.499565E0,1.5361623E0,-5.1031095E-1,-1.6118053E0,-6.523113E-1,-7.0747685E-1,-1.6126617E0,-2.8357813E-1,4.1326553E-1,-3.2543056E0,-1.6369202E0,-1.0156289E0,3.446916E-1,-4.316801E-1,9.2385665E-2,5.4112864E-1,3.8795426E-2,-1.4144901E0,-7.7164394E-1,2.771054E-1,4.1360903E0,6.7595184E-1,-1.02857746E-1,1.7873316E0,9.126421E-1,-2.5393149E-2,7.033779E-1,2.9771054E0,-2.931339E0,1.3728455E0,-1.4662825E-1,-2.2256468E-1,1.878114E-1,2.6134348E0,4.0595794E0,-4.984381E-1,1.4682918E0,1.0178689E-1,5.855534E-1,6.1574304E-1,9.8441136E-1,2.564647E0,6.638784E-1,-1.5112202E-1,-9.3399584E-1,3.5134012E-1,1.1377217E0,1.3081342E0,1.9437029E0,1.1774485E0,1.6165661E0,7.5595677E-1,-5.83225E-2,2.2080784E0,1.3961762E0,2.4873166E0,-1.571676E-1],"categories":[],"categories_nodes":[],"categories_segments":[],"categories_sizes":[],"default_left":[0,0,0,0,0,0,0,0,0,0,0,0,0,0,0,0,0,0,0,0,0,0,0,0,0,0,0,0,0,0,0,0,0,0,0,0,0,0,0,0,0,0,0,0,0,0,0,0,0,0,0,0,0,0,0,0,0,0,0,0,0,0,0,0,0,0,0,0,0,0,0,0,0,0,0,0,0,0,0,0,0,0,0,0,0,0,0,0,0,0,0,0,0,0,0,0,0,0,0,0,0,0,0,0,0,0,0,0,0,0,0,0,0,0,0,0,0,0,0,0,0,0,0,0,0,0,0],"id":0,"left_children":[1,3,5,7,9,11,13,15,17,19,21,23,25,27,29,31,33,35,37,39,41,43,45,47,49,51,53,55,57,59,61,63,65,67,69,71,73,75,77,79,81,83,85,87,89,91,93,95,97,99,101,103,105,107,109,111,113,115,117,119,121,123,125,-1,-1,-1,-1,-1,-1,-1,-1,-1,-1,-1,-1,-1,-1,-1,-1,-1,-1,-1,-1,-1,-1,-1,-1,-1,-1,-1,-1,-1,-1,-1,-1,-1,-1,-1,-1,-1,-1,-1,-1,-1,-1,-1,-1,-1,-1,-1,-1,-1,-1,-1,-1,-1,-1,-1,-1,-1,-1,-1,-1,-1,-1,-1,-1],"loss_changes":[1.071339E7,6.784354E6,2.532286E6,8.36767E6,2.0291615E6,1.8645854E6,7.61339E5,3.931943E6,2.1610578E6,7.721498E5,8.5655775E5,2.713709E5,1.5265558E6,3.11108E5,3.204195E5,4.2396825E5,1.255085E6,9.46903E5,2.1872612E6,1.7898825E5,3.3876406E5,1.04423234E5,4.6334925E5,2.2218112E5,2.443822E5,1.0631305E6,3.98501E5,1.2057775E5,1.16256375E5,8.72885E4,9.719675E4,4.58184E5,2.1087606E5,1.239105E5,6.33109E5,3.665613E5,8.468325E5,4.180795E5,1.2372454E6,5.5303688E4,5.2517082E4,3.1410138E5,1.676391E5,3.02975E4,3.399201E4,3.321818E5,2.7168175E5,2.0731125E4,1.1563734E5,1.7092658E5,2.2187903E5,1.10711E5,2.4005672E5,1.292772E5,1.2782775E5,7.2938375E4,1.4241832E4,5.0633E4,3.9184125E4,6.7852E4,3.7511423E3,6.16115E4,6.844675E4,0E0,0E0,0E0,0E0,0E0,0E0,0E0,0E0,0E0,0E0,0E0,0E0,0E0,0E0,0E0,0E0,0E0,0E0,0E0,0E0,0E0,0E0,0E0,0E0,0E0,0E0,0E0,0E0,0E0,0E0,0E0,0E0,0E0,0E0,0E0,0E0,0E0,0E0,0E0,0E0,0E0,0E0,0E0,0E0,0E0,0E0,0E0,0E0,0E0,0E0,0E0,0E0,0E0,0E0,0E0,0E0,0E0,0E0,0E0,0E0,0E0,0E0,0E0,0E0],"parents":[2147483647,0,0,1,1,2,2,3,3,4,4,5,5,6,6,7,7,8,8,9,9,10,10,11,11,12,12,13,13,14,14,15,15,16,16,17,17,18,18,19,19,20,20,21,21,22,22,23,23,24,24,25,25,26,26,27,27,28,28,29,29,30,30,31,31,32,32,33,33,34,34,35,35,36,36,37,37,38,38,39,39,40,40,41,41,42,42,43,43,44,44,45,45,46,46,47,47,48,48,49,49,50,50,51,51,52,52,53,53,54,54,55,55,56,56,57,57,58,58,59,59,60,60,61,61,62,62],"right_children":[2,4,6,8,10,12,14,16,18,20,22,24,26,28,30,32,34,36,38,40,42,44,46,48,50,52,54,56,58,60,62,64,66,68,70,72,74,76,78,80,82,84,86,88,90,92,94,96,98,100,102,104,106,108,110,112,114,116,118,120,122,124,126,-1,-1,-1,-1,-1,-1,-1,-1,-1,-1,-1,-1,-1,-1,-1,-1,-1,-1,-1,-1,-1,-1,-1,-1,-1,-1,-1,-1,-1,-1,-1,-1,-1,-1,-1,-1,-1,-1,-1,-1,-1,-1,-1,-1,-1,-1,-1,-1,-1,-1,-1,-1,-1,-1,-1,-1,-1,-1,-1,-1,-1,-1,-1,-1],"split_conditions":[1.6538101E0,4.862727E-1,2.0234096E0,3.2762077E1,4.0076596E2,3.9564883E2,4.008294E2,-2.8073826E-1,3.393194E1,1.2778833E0,1.790445E0,-7.9162145E-1,3.2946877E1,5.7062113E-1,5.8309215E-1,4.975133E-1,-6.5853257E0,-1.3435812E-1,1.4810593E1,8.5876393E-1,8.717063E-1,8.6314213E-1,8.6314213E-1,6.836203E-2,3.281054E1,5.569178E0,4.0353818E2,-6.009059E0,5.234156E-1,-5.944153E0,5.234156E-1,3.204902E1,-7.778787E-2,-6.961626E0,8.344648E0,-9.753668E-1,2.7910067E1,3.4768276E1,4.0035083E2,1.1800185E0,-6.241404E0,2.4231434E-2,2.010192E1,1.5017238E0,2.6336157E-1,-6.441529E0,3.29916E1,3.881023E2,-4.9377555E-1,9.6228695E0,7.1939915E-1,4.862727E-1,-5.160624E-1,6.3858974E-1,4.1689185E2,-8.902069E-1,-5.897473E0,3.796682E2,3.8585144E2,4.1379916E2,-2.4809735E-1,-4.9377555E-1,3.4489246E1,-2.0385025E0,-8.500318E-1,-1.1324815E0,4.5785308E-1,-1.265361E0,-2.4883883E0,-2.6833196E0,-4.499565E0,1.5361623E0,-5.1031095E-1,-1.6118053E0,-6.523113E-1,-7.0747685E-1,-1.6126617E0,-2.8357813E-1,4.1326553E-1,-3.2543056E0,-1.6369202E0,-1.0156289E0,3.446916E-1,-4.316801E-1,9.2385665E-2,5.4112864E-1,3.8795426E-2,-1.4144901E0,-7.7164394E-1,2.771054E-1,4.1360903E0,6.7595184E-1,-1.02857746E-1,1.7873316E0,9.126421E-1,-2.5393149E-2,7.033779E-1,2.9771054E0,-2.931339E0,1.3728455E0,-1.4662825E-1,-2.2256468E-1,1.878114E-1,2.6134348E0,4.0595794E0,-4.984381E-1,1.4682918E0,1.0178689E-1,5.855534E-1,6.1574304E-1,9.8441136E-1,2.564647E0,6.638784E-1,-1.5112202E-1,-9.3399584E-1,3.5134012E-1,1.1377217E0,1.3081342E0,1.9437029E0,1.1774485E0,1.6165661E0,7.5595677E-1,-5.83225E-2,2.2080784E0,1.3961762E0,2.4873166E0,-1.571676E-1],"split_indices":[4,12,4,2,7,7,7,9,2,0,0,10,2,10,10,11,5,9,0,12,12,12,12,9,2,0,7,5,12,5,12,2,10,5,0,9,0,2,7,4,5,6,0,4,10,5,2,7,12,0,10,12,12,10,7,10,5,7,7,7,9,12,2,0,0,0,0,0,0,0,0,0,0,0,0,0,0,0,0,0,0,0,0,0,0,0,0,0,0,0,0,0,0,0,0,0,0,0,0,0,0,0,0,0,0,0,0,0,0,0,0,0,0,0,0,0,0,0,0,0,0,0,0,0,0,0,0],"split_type":[0,0,0,0,0,0,0,0,0,0,0,0,0,0,0,0,0,0,0,0,0,0,0,0,0,0,0,0,0,0,0,0,0,0,0,0,0,0,0,0,0,0,0,0,0,0,0,0,0,0,0,0,0,0,0,0,0,0,0,0,0,0,0,0,0,0,0,0,0,0,0,0,0,0,0,0,0,0,0,0,0,0,0,0,0,0,0,0,0,0,0,0,0,0,0,0,0,0,0,0,0,0,0,0,0,0,0,0,0,0,0,0,0,0,0,0,0,0,0,0,0,0,0,0,0,0,0],"sum_hessian":[1.44207E5,9.0052E4,5.4155E4,5.5592E4,3.446E4,3.8878E4,1.5277E4,7.506E3,4.8086E4,1.9708E4,1.4752E4,1.7924E4,2.0954E4,9.182E3,6.095E3,4.106E3,3.4E3,1.5892E4,3.2194E4,1.128E3,1.858E4,8.7E2,1.3882E4,5.73E2,1.7351E4,1.543E3,1.9411E4,6.749E3,2.433E3,4.126E3,1.969E3,3.248E3,8.58E2,8.45E2,2.555E3,6.327E3,9.565E3,5.111E3,2.7083E4,8.45E2,2.83E2,1.1633E4,6.947E3,7.43E2,1.27E2,6.998E3,6.884E3,4.19E2,1.54E2,7.83E2,1.6568E4,6.79E2,8.64E2,6.909E3,1.2502E4,6.499E3,2.5E2,1.388E3,1.045E3,3.99E3,1.36E2,1.004E3,9.65E2,1.635E3,1.613E3,3.54E2,5.04E2,4.68E2,3.77E2,6.49E2,1.906E3,2.26E2,6.101E3,5.713E3,3.852E3,2.627E3,2.484E3,1.6839E4,1.0244E4,5.7E1,7.88E2,1.33E2,1.5E2,6.575E3,5.058E3,2.746E3,4.201E3,3.64E2,3.79E2,1.22E2,5E0,5.131E3,1.867E3,1.048E3,5.836E3,1.54E2,2.65E2,1.46E2,8E0,4.84E2,2.99E2,1.2034E4,4.534E3,1.93E2,4.86E2,2.02E2,6.62E2,5.002E3,1.907E3,9.356E3,3.146E3,5E1,6.449E3,1.59E2,9.1E1,2.51E2,1.137E3,4.1E2,6.35E2,2.655E3,1.335E3,1.5E1,1.21E2,3.86E2,6.18E2,9.4E2,2.5E1],"tree_param":{"num_deleted":"0","num_feature":"13","num_nodes":"127","size_leaf_vector":"1"}},{"base_weights":[5.7574134E-2,-6.4071946E0,1.04040985E1,-2.8210788E0,-2.6669485E1,6.2586665E0,2.067361E1,-1.1686779E1,2.7036629E0,-3.796399E1,6.188714E-1,3.1016098E1,4.615134E0,1.6384577E1,3.089528E1,-1.832785E1,6.9928294E-1,-1.3281364E1,4.284808E0,-2.3474977E1,-7.479271E1,-4.29324E0,6.050837E1,1.0162191E0,4.3548584E1,-3.6360543E0,7.5213017E0,1.3765346E1,2.0817663E1,2.4763842E1,3.849157E1,-6.276294E0,-2.4269976E1,-2.3812134E1,1.2788158E1,3.874626E0,-2.2277035E1,8.990702E0,-4.3288508E-1,-6.1827583E0,-2.778969E1,-4.9047916E1,-8.921419E1,-1.3121027E1,9.808832E0,1.7332052E1,8.082836E1,-1.1503885E1,1.3193614E1,2.8018396E1,6.420372E1,1.3813201E1,-6.4834976E0,1.6623958E0,1.0793569E1,1.5993112E1,7.7728024E0,9.954551E0,2.2728058E1,3.189132E1,1.991675E1,-2.8223196E-1,4.049061E1,-6.3563925E-1,2.2583126E-1,-7.942931E-1,-1.7200918E0,-2.667263E0,-1.0834247E0,1.7447263E-1,9.933611E-1,8.048777E-1,-1.790467E-1,-9.708188E-1,-1.486752E0,1.3747224E-1,6.4325386E-1,-4.4140464E-1,5.416577E-1,1.7801914E-1,-1.0429189E0,-1.6037314E0,-6.9648373E-1,-2.7813838E0,-8.4262335E-1,-4.952446E0,-2.6418486E0,7.79821E-2,-1.1726989E0,1.2692551E-1,1.5419267E0,1.1939782E0,2.8727174E-2,3.6396675E0,5.84273E0,-2.6842803E-1,-1.3862739E0,9.210684E-2,1.3729048E0,5.705877E-1,1.9076341E0,3.0596254E0,5.192996E0,1.2956618E0,5.510042E-1,-2.3696302E-1,-1.0311879E0,1.1883415E0,-2.1638823E-1,7.9594624E-1,3.0285883E-1,1.0209528E0,6.5871495E-1,2.457372E-1,6.431331E-1,1.0775489E0,2.6076037E-1,1.5241396E0,1.0748485E0,8.9399666E-1,1.7397549E0,-4.2815298E-2,1.0946163E0,2.1768306E-1,-8.4011376E-1,2.2138138E0,1.7184924E0],"categories":[],"categories_nodes":[],"categories_segments":[],"categories_sizes":[],"default_left":[0,0,0,0,0,0,0,0,0,0,0,0,0,0,0,0,0,0,0,0,0,0,0,0,0,0,0,0,0,0,0,0,0,0,0,0,0,0,0,0,0,0,0,0,0,0,0,0,0,0,0,0,0,0,0,0,0,0,0,0,0,0,0,0,0,0,0,0,0,0,0,0,0,0,0,0,0,0,0,0,0,0,0,0,0,0,0,0,0,0,0,0,0,0,0,0,0,0,0,0,0,0,0,0,0,0,0,0,0,0,0,0,0,0,0,0,0,0,0,0,0,0,0,0,0,0,0],"id":1,"left_children":[1,3,5,7,9,11,13,15,17,19,21,23,25,27,29,31,33,35,37,39,41,43,45,47,49,51,53,55,57,59,61,63,65,67,69,71,73,75,77,79,81,83,85,87,89,91,93,95,97,99,101,103,105,107,109,111,113,115,117,119,121,123,125,-1,-1,-1,-1,-1,-1,-1,-1,-1,-1,-1,-1,-1,-1,-1,-1,-1,-1,-1,-1,-1,-1,-1,-1,-1,-1,-1,-1,-1,-1,-1,-1,-1,-1,-1,-1,-1,-1,-1,-1,-1,-1,-1,-1,-1,-1,-1,-1,-1,-1,-1,-1,-1,-1,-1,-1,-1,-1,-1,-1,-1,-1,-1,-1],"loss_changes":[9.636538E6,6.4427985E6,2.358418E6,3.6900425E6,4.10937E6,1.6059146E6,6.979655E5,2.379126E6,1.1731538E6,5.030194E6,1.1487594E6,9.23717E5,8.876229E5,1.300465E5,2.18321E5,1.348152E6,2.9919042E6,6.4487725E5,9.377068E5,5.0486625E5,9.83953E5,4.4941375E5,2.582825E5,1.1068707E5,5.5410075E5,4.79159E5,5.247925E5,9.4110875E4,8.6247625E4,8.9459625E4,1.62865E5,4.3208297E5,1.0706265E6,2.0997012E5,4.4504488E5,1.3110208E5,5.78965E4,5.1126962E5,1.9950868E6,1.935369E5,3.212605E5,2.019965E5,6.04733E5,3.368008E5,2.1243923E5,1.0516951E4,4.96585E4,3.5477707E4,5.9534125E4,1.663415E5,8.2352E4,4.543786E4,2.0436406E5,1.2991706E6,4.2627975E5,6.3916125E4,2.7792734E4,3.4234594E4,3.31635E4,4.2255625E4,6.3836125E4,8.039252E3,4.476625E4,0E0,0E0,0E0,0E0,0E0,0E0,0E0,0E0,0E0,0E0,0E0,0E0,0E0,0E0,0E0,0E0,0E0,0E0,0E0,0E0,0E0,0E0,0E0,0E0,0E0,0E0,0E0,0E0,0E0,0E0,0E0,0E0,0E0,0E0,0E0,0E0,0E0,0E0,0E0,0E0,0E0,0E0,0E0,0E0,0E0,0E0,0E0,0E0,0E0,0E0,0E0,0E0,0E0,0E0,0E0,0E0,0E0,0E0,0E0,0E0,0E0,0E0,0E0,0E0],"parents":[2147483647,0,0,1,1,2,2,3,3,4,4,5,5,6,6,7,7,8,8,9,9,10,10,11,11,12,12,13,13,14,14,15,15,16,16,17,17,18,18,19,19,20,20,21,21,22,22,23,23,24,24,25,25,26,26,27,27,28,28,29,29,30,30,31,31,32,32,33,33,34,34,35,35,36,36,37,37,38,38,39,39,40,40,41,41,42,42,43,43,44,44,45,45,46,46,47,47,48,48,49,49,50,50,51,51,52,52,53,53,54,54,55,55,56,56,57,57,58,58,59,59,60,60,61,61,62,62],"right_children":[2,4,6,8,10,12,14,16,18,20,22,24,26,28,30,32,34,36,38,40,42,44,46,48,50,52,54,56,58,60,62,64,66,68,70,72,74,76,78,80,82,84,86,88,90,92,94,96,98,100,102,104,106,108,110,112,114,116,118,120,122,124,126,-1,-1,-1,-1,-1,-1,-1,-1,-1,-1,-1,-1,-1,-1,-1,-1,-1,-1,-1,-1,-1,-1,-1,-1,-1,-1,-1,-1,-1,-1,-1,-1,-1,-1,-1,-1,-1,-1,-1,-1,-1,-1,-1,-1,-1,-1,-1,-1,-1,-1,-1,-1,-1,-1,-1,-1,-1,-1,-1,-1,-1,-1,-1,-1],"split_conditions":[1.6455075E0,7.253744E-1,2.0129151E0,8.818817E-2,1.7213356E-2,3.2946877E1,5.6497645E-1,4.862727E-1,-5.51937E-1,4.2147818E-1,4.3035382E-3,1.7213356E-2,-6.3607824E-1,2.356249E0,5.234156E-1,-3.9174843E-1,7.84591E-2,-8.606997E-3,3.3380687E-1,-5.258634E-1,-2.4809735E-1,-8.56551E-1,-3.5605538E-1,-5.160624E-1,7.489557E-1,-4.9377555E-1,-8.606997E-3,8.6314213E-1,-4.7495106E-1,-4.9377555E-1,-5.51937E-1,-4.9377555E-1,5.2249855E-1,-6.03208E-1,-8.56551E-1,8.5207754E-1,4.6572876E-1,-9.919167E-3,1.7213356E-2,3.521941E1,1.4383872E0,-1.2910296E-2,-4.7495106E-1,8.0385685E-1,4.2147818E-1,-2.0603122E-1,5.0512314E-2,7.2549725E-1,7.372773E-1,6.6262007E-1,-1.115818E0,-1.2910296E-2,5.4079247E-1,1.9936794E-1,3.4632484E1,-1.4912987E-1,4.3035382E-3,-5.51937E-1,-5.256643E-1,-7.1325046E-1,-8.606997E-3,3.33354E-1,7.167902E-1,-6.3563925E-1,2.2583126E-1,-7.942931E-1,-1.7200918E0,-2.667263E0,-1.0834247E0,1.7447263E-1,9.933611E-1,8.048777E-1,-1.790467E-1,-9.708188E-1,-1.486752E0,1.3747224E-1,6.4325386E-1,-4.4140464E-1,5.416577E-1,1.7801914E-1,-1.0429189E0,-1.6037314E0,-6.9648373E-1,-2.7813838E0,-8.4262335E-1,-4.952446E0,-2.6418486E0,7.79821E-2,-1.1726989E0,1.2692551E-1,1.5419267E0,1.1939782E0,2.8727174E-2,3.6396675E0,5.84273E0,-2.6842803E-1,-1.3862739E0,9.210684E-2,1.3729048E0,5.705877E-1,1.9076341E0,3.0596254E0,5.192996E0,1.2956618E0,5.510042E-1,-2.3696302E-1,-1.0311879E0,1.1883415E0,-2.1638823E-1,7.9594624E-1,3.0285883E-1,1.0209528E0,6.5871495E-1,2.457372E-1,6.431331E-1,1.0775489E0,2.6076037E-1,1.5241396E0,1.0748485E0,8.9399666E-1,1.7397549E0,-4.2815298E-2,1.0946163E0,2.1768306E-1,-8.4011376E-1,2.2138138E0,1.7184924E0],"split_indices":[4,8,4,3,12,2,10,12,8,10,11,12,8,4,12,9,8,12,8,10,9,11,10,12,8,12,12,12,11,12,8,12,8,9,11,11,1,6,12,2,4,11,11,8,10,9,6,1,8,8,3,11,1,8,2,1,11,8,1,8,12,9,10,0,0,0,0,0,0,0,0,0,0,0,0,0,0,0,0,0,0,0,0,0,0,0,0,0,0,0,0,0,0,0,0,0,0,0,0,0,0,0,0,0,0,0,0,0,0,0,0,0,0,0,0,0,0,0,0,0,0,0,0,0,0,0,0],"split_type":[0,0,0,0,0,0,0,0,0,0,0,0,0,0,0,0,0,0,0,0,0,0,0,0,0,0,0,0,0,0,0,0,0,0,0,0,0,0,0,0,0,0,0,0,0,0,0,0,0,0,0,0,0,0,0,0,0,0,0,0,0,0,0,0,0,0,0,0,0,0,0,0,0,0,0,0,0,0,0,0,0,0,0,0,0,0,0,0,0,0,0,0,0,0,0,0,0,0,0,0,0,0,0,0,0,0,0,0,0,0,0,0,0,0,0,0,0,0,0,0,0,0,0,0,0,0,0],"sum_hessian":[1.44068E5,8.8667E4,5.5401E4,7.5335E4,1.3332E4,3.947E4,1.5931E4,2.8922E4,4.6413E4,9.429E3,3.903E3,2.456E3,3.7014E4,1.1224E4,4.707E3,1.8827E4,1.0095E4,4.177E3,4.2236E4,6.768E3,2.661E3,3.608E3,2.95E2,7.24E2,1.732E3,9.641E3,2.7373E4,7.058E3,4.166E3,2.607E3,2.1E3,6.218E3,1.2609E4,3.334E3,6.761E3,1.437E3,2.74E3,2.1144E4,2.1092E4,1.352E3,5.416E3,9.57E2,1.704E3,2.219E3,1.389E3,9.5E1,2E2,3.57E2,3.67E2,9.9E2,7.42E2,1.352E3,8.289E3,9.81E3,1.7563E4,5.144E3,1.914E3,6.24E2,3.542E3,1.053E3,1.554E3,1.03E2,1.997E3,3.895E3,2.323E3,6.901E3,5.708E3,2.24E2,3.11E3,2.923E3,3.838E3,5.44E2,8.93E2,1.983E3,7.57E2,8.099E3,1.3045E4,1.2086E4,9.006E3,8.13E2,5.39E2,4.136E3,1.28E3,7.94E2,1.63E2,1.34E3,3.64E2,9.17E2,1.302E3,1.033E3,3.56E2,6.8E1,2.7E1,1.66E2,3.4E1,2.6E2,9.7E1,2.05E2,1.62E2,3.76E2,6.14E2,6.92E2,5E1,2.52E2,1.1E3,7.38E3,9.09E2,2.091E3,7.719E3,8.434E3,9.129E3,1.999E3,3.145E3,1.227E3,6.87E2,1.8E2,4.44E2,4.82E2,3.06E3,1.82E2,8.71E2,1.35E2,1.419E3,8.1E1,2.2E1,1.23E3,7.67E2],"tree_param":{"num_deleted":"0","num_feature":"13","num_nodes":"127","size_leaf_vector":"1"}},{"base_weights":[5.9286444E-3,-6.0996833E0,9.853745E0,-1.2248095E1,3.8571887E0,4.961889E0,1.824326E1,-4.1498787E1,-7.879345E0,-2.4518244E0,1.2281991E1,1.2591014E0,1.4833503E1,1.4603721E1,2.984943E1,-2.339937E1,-6.610071E1,-1.3403886E1,-7.903599E-1,2.412587E0,-1.01829605E1,-1.5137539E1,1.3929598E1,2.6656307E1,-2.770084E-1,1.772734E1,9.194063E0,3.4269432E1,1.3213986E1,3.493216E1,2.193729E1,-2.8029516E1,-3.1495838E0,-3.0955456E1,-7.519625E1,1.5869304E1,-1.4906877E1,-9.786847E0,3.9989407E0,-2.2592335E1,3.9236429E0,-5.817259E0,-2.1175507E1,-1.9925837E1,1.2014442E1,1.8255217E1,7.2476435E0,4.9364487E1,7.157719E0,3.2378955E0,-6.1784725E0,1.1815251E1,2.2634192E1,1.0045346E1,-1.3862253E1,1.2973963E1,5.9169514E1,1.6160475E1,9.596862E0,3.0171627E1,4.07023E1,1.1517031E1,2.5513325E1,-1.945422E0,-7.62662E-1,-2.5465355E0,1.523727E-1,-1.060507E0,-2.1072235E0,-3.2963655E0,-5.2183266E0,1.2168541E-1,3.179243E0,-1.2071699E0,-5.037077E-1,-6.9839436E-1,1.6849974E-1,-6.4925057E-1,3.64866E-1,-1.6181481E0,2.1444777E-2,7.200411E-1,8.9353815E-2,-7.1528167E-1,-7.468587E-2,-7.059759E-1,-1.6114028E0,-1.3250284E0,-7.061898E-1,3.8602462E-1,4.757936E0,6.4636093E-1,1.1739874E0,7.169685E-1,3.135397E-2,1.5018483E0,3.1398573E0,-3.9766917E-1,8.469686E-1,-3.0784938E-2,3.6164367E-1,-5.9400064E-1,-1.2723877E-1,7.141647E-1,2.1884827E-1,9.0382016E-1,1.3452686E0,3.2338873E-1,6.377858E-1,-8.613944E-1,2.613165E-1,-4.6550152E-1,1.2010211E0,3.5934434E0,1.1628124E0,6.0987735E-1,9.760928E-1,2.4789782E-1,6.8497527E-1,1.1678618E0,1.734052E0,1.5289278E0,2.2363992E0,7.6834595E-1,1.08726256E-1,1.3934551E0,9.176575E-1],"categories":[],"categories_nodes":[],"categories_segments":[],"categories_sizes":[],"default_left":[0,0,0,0,0,0,0,0,0,0,0,0,0,0,0,0,0,0,0,0,0,0,0,0,0,0,0,0,0,0,0,0,0,0,0,0,0,0,0,0,0,0,0,0,0,0,0,0,0,0,0,0,0,0,0,0,0,0,0,0,0,0,0,0,0,0,0,0,0,0,0,0,0,0,0,0,0,0,0,0,0,0,0,0,0,0,0,0,0,0,0,0,0,0,0,0,0,0,0,0,0,0,0,0,0,0,0,0,0,0,0,0,0,0,0,0,0,0,0,0,0,0,0,0,0,0,0],"id":2,"left_children":[1,3,5,7,9,11,13,15,17,19,21,23,25,27,29,31,33,35,37,39,41,43,45,47,49,51,53,55,57,59,61,63,65,67,69,71,73,75,77,79,81,83,85,87,89,91,93,95,97,99,101,103,105,107,109,111,113,115,117,119,121,123,125,-1,-1,-1,-1,-1,-1,-1,-1,-1,-1,-1,-1,-1,-1,-1,-1,-1,-1,-1,-1,-1,-1,-1,-1,-1,-1,-1,-1,-1,-1,-1,-1,-1,-1,-1,-1,-1,-1,-1,-1,-1,-1,-1,-1,-1,-1,-1,-1,-1,-1,-1,-1,-1,-1,-1,-1,-1,-1,-1,-1,-1,-1,-1,-1],"loss_changes":[8.646196E6,5.434147E6,2.2585185E6,7.0124705E6,1.8012522E6,1.2707271E6,8.55787E5,3.173738E6,1.8699618E6,7.28782E5,6.5576875E5,9.8637306E5,1.5459325E5,4.21328E5,1.937895E5,3.8526025E5,9.6369E5,1.180905E6,9.011587E5,4.4952547E5,3.5903262E5,1.0723984E5,3.9552625E5,6.381261E5,4.9457684E5,1.8150412E5,6.330003E4,5.390286E5,1.534855E5,7.96335E4,7.031619E4,4.6432975E5,2.2697372E5,6.7032E4,6.42008E5,8.4030356E5,1.139127E6,3.997457E5,7.647045E5,1.5252084E5,2.5108969E5,1.9661481E5,1.6541794E5,2.6324438E4,4.3525195E4,2.309845E5,2.5263403E5,1.7101138E5,1.1498517E5,2.3005295E5,1.843556E5,5.214578E4,6.6145125E4,3.0013625E4,7.4794355E3,1.3561267E5,2.1221838E5,1.05566625E5,1.23141875E5,4.8872875E4,5.2747E4,1.744509E4,2.3267438E4,0E0,0E0,0E0,0E0,0E0,0E0,0E0,0E0,0E0,0E0,0E0,0E0,0E0,0E0,0E0,0E0,0E0,0E0,0E0,0E0,0E0,0E0,0E0,0E0,0E0,0E0,0E0,0E0,0E0,0E0,0E0,0E0,0E0,0E0,0E0,0E0,0E0,0E0,0E0,0E0,0E0,0E0,0E0,0E0,0E0,0E0,0E0,0E0,0E0,0E0,0E0,0E0,0E0,0E0,0E0,0E0,0E0,0E0,0E0,0E0,0E0,0E0,0E0,0E0],"parents":[2147483647,0,0,1,1,2,2,3,3,4,4,5,5,6,6,7,7,8,8,9,9,10,10,11,11,12,12,13,13,14,14,15,15,16,16,17,17,18,18,19,19,20,20,21,21,22,22,23,23,24,24,25,25,26,26,27,27,28,28,29,29,30,30,31,31,32,32,33,33,34,34,35,35,36,36,37,37,38,38,39,39,40,40,41,41,42,42,43,43,44,44,45,45,46,46,47,47,48,48,49,49,50,50,51,51,52,52,53,53,54,54,55,55,56,56,57,57,58,58,59,59,60,60,61,61,62,62],"right_children":[2,4,6,8,10,12,14,16,18,20,22,24,26,28,30,32,34,36,38,40,42,44,46,48,50,52,54,56,58,60,62,64,66,68,70,72,74,76,78,80,82,84,86,88,90,92,94,96,98,100,102,104,106,108,110,112,114,116,118,120,122,124,126,-1,-1,-1,-1,-1,-1,-1,-1,-1,-1,-1,-1,-1,-1,-1,-1,-1,-1,-1,-1,-1,-1,-1,-1,-1,-1,-1,-1,-1,-1,-1,-1,-1,-1,-1,-1,-1,-1,-1,-1,-1,-1,-1,-1,-1,-1,-1,-1,-1,-1,-1,-1,-1,-1,-1,-1,-1,-1,-1,-1,-1,-1,-1,-1],"split_conditions":[1.6455075E0,4.862727E-1,4.0265152E2,3.271509E1,4.0076596E2,2.0234096E0,2.0721917E0,-2.5759518E-1,3.9758936E2,-3.0898094E-2,2.0787613E0,3.290509E1,9.425163E-2,3.2946877E1,3.5134235E1,4.975133E-1,-6.6791587E0,-9.1261613E-1,3.3887165E1,1.5387329E0,5.123714E-1,8.6314213E-1,3.7195396E-1,6.322591E0,2.7952194E-3,3.874471E2,-6.009059E0,4.862727E-1,2.6645374E-1,4.1155618E2,4.3035382E-3,3.204902E1,8.1152475E-1,-7.047303E0,8.013115E-1,-6.3336945E0,3.4023464E1,4.1511423E2,1.5318419E1,8.5876393E-1,-9.9184227E-1,3.8502206E2,-6.4677935E0,1.4956324E0,-1.768489E-2,8.6314213E-1,-6.942301E0,3.9518997E2,-8.606997E-3,3.881023E2,3.9022238E2,8.6314213E-1,-7.940809E-3,3.912079E2,-4.7495106E-1,-5.160624E-1,8.186716E0,1.2293871E1,4.124629E2,3.40062E1,-4.7495106E-1,-6.009059E0,1.1496147E1,-1.945422E0,-7.62662E-1,-2.5465355E0,1.523727E-1,-1.060507E0,-2.1072235E0,-3.2963655E0,-5.2183266E0,1.2168541E-1,3.179243E0,-1.2071699E0,-5.037077E-1,-6.9839436E-1,1.6849974E-1,-6.4925057E-1,3.64866E-1,-1.6181481E0,2.1444777E-2,7.200411E-1,8.9353815E-2,-7.1528167E-1,-7.468587E-2,-7.059759E-1,-1.6114028E0,-1.3250284E0,-7.061898E-1,3.8602462E-1,4.757936E0,6.4636093E-1,1.1739874E0,7.169685E-1,3.135397E-2,1.5018483E0,3.1398573E0,-3.9766917E-1,8.469686E-1,-3.0784938E-2,3.6164367E-1,-5.9400064E-1,-1.2723877E-1,7.141647E-1,2.1884827E-1,9.0382016E-1,1.3452686E0,3.2338873E-1,6.377858E-1,-8.613944E-1,2.613165E-1,-4.6550152E-1,1.2010211E0,3.5934434E0,1.1628124E0,6.0987735E-1,9.760928E-1,2.4789782E-1,6.8497527E-1,1.1678618E0,1.734052E0,1.5289278E0,2.2363992E0,7.6834595E-1,1.08726256E-1,1.3934551E0,9.176575E-1],"split_indices":[4,12,7,2,7,4,4,9,7,1,0,2,1,2,2,11,5,9,2,0,11,12,1,0,1,7,5,12,1,7,11,2,0,5,1,5,2,7,0,12,1,7,5,4,9,12,5,7,12,7,7,12,9,7,11,12,0,0,7,2,11,5,0,0,0,0,0,0,0,0,0,0,0,0,0,0,0,0,0,0,0,0,0,0,0,0,0,0,0,0,0,0,0,0,0,0,0,0,0,0,0,0,0,0,0,0,0,0,0,0,0,0,0,0,0,0,0,0,0,0,0,0,0,0,0,0,0],"split_type":[0,0,0,0,0,0,0,0,0,0,0,0,0,0,0,0,0,0,0,0,0,0,0,0,0,0,0,0,0,0,0,0,0,0,0,0,0,0,0,0,0,0,0,0,0,0,0,0,0,0,0,0,0,0,0,0,0,0,0,0,0,0,0,0,0,0,0,0,0,0,0,0,0,0,0,0,0,0,0,0,0,0,0,0,0,0,0,0,0,0,0,0,0,0,0,0,0,0,0,0,0,0,0,0,0,0,0,0,0,0,0,0,0,0,0,0,0,0,0,0,0,0,0,0,0,0,0],"sum_hessian":[1.43797E5,8.8764E4,5.5033E4,5.4877E4,3.3887E4,3.4764E4,2.0269E4,7.13E3,4.7747E4,1.9377E4,1.451E4,2.5282E4,9.482E3,1.5432E4,4.837E3,4.109E3,3.021E3,2.6834E4,2.0913E4,1.1894E4,7.483E3,8.22E2,1.3688E4,1.441E3,2.3841E4,6.265E3,3.217E3,1.017E3,1.4415E4,2.943E3,1.894E3,3.344E3,7.65E2,6.22E2,2.399E3,1.31E3,2.5524E4,7.265E3,1.3648E4,6.77E2,1.1217E4,5.357E3,2.126E3,6.99E2,1.23E2,8.308E3,5.38E3,6.65E2,7.76E2,1.4942E4,8.899E3,2.843E3,3.422E3,3.103E3,1.14E2,5.49E2,4.68E2,7.942E3,6.473E3,1.616E3,1.327E3,4.85E2,1.409E3,1.805E3,1.539E3,8.7E1,6.78E2,3.34E2,2.88E2,1.823E3,5.76E2,1.023E3,2.87E2,8.766E3,1.6758E4,5.513E3,1.752E3,2.219E3,1.1429E4,4.75E2,2.02E2,1.899E3,9.318E3,1.807E3,3.55E3,1.299E3,8.27E2,3.26E2,3.73E2,1.18E2,5E0,4.115E3,4.193E3,2.597E3,2.783E3,2.74E2,3.91E2,3.05E2,4.71E2,7.606E3,7.336E3,3.463E3,5.436E3,2.134E3,7.09E2,1.658E3,1.764E3,1.339E3,1.764E3,9.7E1,1.7E1,1.82E2,3.67E2,3.45E2,1.23E2,3.647E3,4.295E3,3.039E3,3.434E3,6.46E2,9.7E2,3.8E2,9.47E2,3.43E2,1.42E2,1.058E3,3.51E2],"tree_param":{"num_deleted":"0","num_feature":"13","num_nodes":"127","size_leaf_vector":"1"}},{"base_weights":[2.2690643E-2,-6.1493506E0,8.87557E0,-2.6462588E0,-2.5632107E1,1.6885381E0,1.3999449E1,-1.0825438E1,2.5809188E0,-1.7642889E1,-5.362437E1,-2.230777E0,1.10860195E1,1.0748803E1,2.5008133E1,7.745369E-1,-1.6564243E1,-2.5747151E0,1.1042603E1,-2.3046688E1,4.8976855E0,-1.5291246E0,-7.017546E1,-1.085214E1,3.6741596E-1,4.941428E1,1.0634922E1,3.174035E1,9.069653E0,1.9910679E1,3.5488365E1,-1.5911033E1,4.003846E0,-2.4223064E1,-8.925665E0,-1.6737732E1,-1.0597903E0,-5.7763667E0,1.2894408E1,-4.710871E1,-2.019492E1,3.1672014E1,-1.4292021E0,6.6112456E0,-7.293788E1,-3.4413723E1,-8.5399025E1,5.819656E-1,-1.4725884E1,1.8957565E1,-4.2679515E-1,5.4558533E1,2.2106825E1,8.293224E0,1.6898382E1,5.605326E1,1.1808476E1,1.5549507E0,1.2070923E1,1.4871505E1,2.4392393E1,3.7299458E1,2.2928946E1,-1.6073545E0,-4.161416E-1,5.494274E-2,1.3456863E0,-1.551683E0,-9.068532E-1,-6.304839E-1,2.6159766E-1,-1.1345669E0,-5.033535E-1,-2.1851876E-1,4.6710226E-1,-7.18135E-1,8.25168E-3,5.3291196E-1,1.1139894E0,-1.9501694E0,-3.2815864E0,-6.8383837E-1,-1.4041604E0,2.1226132E0,5.8745974E-1,-4.9500272E-1,1.5653973E0,1.127024E0,-5.088894E-1,-5.1060904E-2,-4.5290976E0,-1.3078725E0,-3.142404E0,-4.76105E0,-3.3344457E0,4.5484716E-1,-2.3123176E-1,-5.1436156E-1,-8.9734334E-1,1.2329057E0,-7.65767E-2,1.7779957E-1,-2.1498583E-1,2.4458175E0,4.0182567E0,1.2670617E0,6.507502E-1,2.786536E-1,6.7944276E-1,4.525148E-1,9.912638E-1,2.077654E0,3.256462E0,9.638401E-1,-9.6264786E-1,-4.142417E-1,2.532545E-1,4.3331155E-1,8.564133E-1,7.9292524E-1,-1.5337677E-1,7.3879814E-1,1.364213E0,1.5645777E0,2.184945E0,2.8468404E-2,1.3293426E0],"categories":[],"categories_nodes":[],"categories_segments":[],"categories_sizes":[],"default_left":[0,0,0,0,0,0,0,0,0,0,0,0,0,0,0,0,0,0,0,0,0,0,0,0,0,0,0,0,0,0,0,0,0,0,0,0,0,0,0,0,0,0,0,0,0,0,0,0,0,0,0,0,0,0,0,0,0,0,0,0,0,0,0,0,0,0,0,0,0,0,0,0,0,0,0,0,0,0,0,0,0,0,0,0,0,0,0,0,0,0,0,0,0,0,0,0,0,0,0,0,0,0,0,0,0,0,0,0,0,0,0,0,0,0,0,0,0,0,0,0,0,0,0,0,0,0,0],"id":3,"left_children":[1,3,5,7,9,11,13,15,17,19,21,23,25,27,29,31,33,35,37,39,41,43,45,47,49,51,53,55,57,59,61,63,65,67,69,71,73,75,77,79,81,83,85,87,89,91,93,95,97,99,101,103,105,107,109,111,113,115,117,119,121,123,125,-1,-1,-1,-1,-1,-1,-1,-1,-1,-1,-1,-1,-1,-1,-1,-1,-1,-1,-1,-1,-1,-1,-1,-1,-1,-1,-1,-1,-1,-1,-1,-1,-1,-1,-1,-1,-1,-1,-1,-1,-1,-1,-1,-1,-1,-1,-1,-1,-1,-1,-1,-1,-1,-1,-1,-1,-1,-1,-1,-1,-1,-1,-1,-1],"loss_changes":[7.86657E6,5.789499E6,2.1778705E6,3.0741285E6,2.890217E6,9.0667444E5,1.235252E6,1.866304E6,1.913786E6,1.2253485E6,2.474494E6,3.8913725E5,1.2473294E5,9.3931325E5,4.19723E5,5.000955E5,1.0970535E6,5.848685E5,5.1737025E5,5.55819E5,3.2969712E5,4.0332538E5,1.182798E6,1.781999E5,1.9711606E5,1.0586234E4,1.0490331E5,9.559356E5,5.5669425E5,1.192615E5,5.76875E4,1.851481E5,5.1748375E5,3.87605E5,4.8992388E5,1.0437625E5,8.480996E5,8.4076266E4,3.1377125E5,1.26395625E5,3.72694E5,7.939134E4,4.3707347E5,1.6684353E5,8.999044E4,1.5141181E5,2.74251E5,4.5218957E4,4.2774562E4,6.392917E4,1.975173E5,6.248297E3,1.07447754E2,7.5044E4,4.456425E4,1.1427825E5,2.522981E5,2.4340355E5,3.035695E5,4.4243625E4,7.7514625E4,8.50545E4,2.6727219E4,0E0,0E0,0E0,0E0,0E0,0E0,0E0,0E0,0E0,0E0,0E0,0E0,0E0,0E0,0E0,0E0,0E0,0E0,0E0,0E0,0E0,0E0,0E0,0E0,0E0,0E0,0E0,0E0,0E0,0E0,0E0,0E0,0E0,0E0,0E0,0E0,0E0,0E0,0E0,0E0,0E0,0E0,0E0,0E0,0E0,0E0,0E0,0E0,0E0,0E0,0E0,0E0,0E0,0E0,0E0,0E0,0E0,0E0,0E0,0E0,0E0,0E0,0E0,0E0],"parents":[2147483647,0,0,1,1,2,2,3,3,4,4,5,5,6,6,7,7,8,8,9,9,10,10,11,11,12,12,13,13,14,14,15,15,16,16,17,17,18,18,19,19,20,20,21,21,22,22,23,23,24,24,25,25,26,26,27,27,28,28,29,29,30,30,31,31,32,32,33,33,34,34,35,35,36,36,37,37,38,38,39,39,40,40,41,41,42,42,43,43,44,44,45,45,46,46,47,47,48,48,49,49,50,50,51,51,52,52,53,53,54,54,55,55,56,56,57,57,58,58,59,59,60,60,61,61,62,62],"right_children":[2,4,6,8,10,12,14,16,18,20,22,24,26,28,30,32,34,36,38,40,42,44,46,48,50,52,54,56,58,60,62,64,66,68,70,72,74,76,78,80,82,84,86,88,90,92,94,96,98,100,102,104,106,108,110,112,114,116,118,120,122,124,126,-1,-1,-1,-1,-1,-1,-1,-1,-1,-1,-1,-1,-1,-1,-1,-1,-1,-1,-1,-1,-1,-1,-1,-1,-1,-1,-1,-1,-1,-1,-1,-1,-1,-1,-1,-1,-1,-1,-1,-1,-1,-1,-1,-1,-1,-1,-1,-1,-1,-1,-1,-1,-1,-1,-1,-1,-1,-1,-1,-1,-1,-1,-1,-1],"split_conditions":[1.6171888E0,7.253744E-1,3.9412207E2,9.762955E-2,4.7275928E-1,1.9837329E0,2.0588112E0,-4.0957603E-1,4.0076596E2,4.0985324E2,8.019374E0,-6.087614E-1,-8.768664E-1,-8.882103E-1,5.5958337E-1,1.3052619E-1,3.9811884E2,-5.075384E-1,-5.51937E-1,-2.235323E0,-5.258634E-1,8.433914E-1,-2.5759518E-1,4.975133E-1,4.5672274E0,2.074876E1,5.529801E-1,6.322591E0,-5.9482276E-1,4.060486E2,8.695894E-1,-6.696243E0,8.5207754E-1,6.9536555E-1,4.1563495E2,3.8969034E2,-6.793219E0,4.0952954E2,4.1816013E2,1.3211902E1,3.4876003E1,3.468259E1,-4.7495106E-1,6.143814E0,5.366311E0,7.933533E-1,6.31952E-1,-1.2910296E-2,-1.3963167E-1,-6.091151E0,4.617486E-1,-6.1819434E0,2.128336E1,2.356249E0,2.0853262E0,-6.2293673E0,-9.042398E-2,3.991797E2,4.0868384E2,-6.049858E0,-4.7495106E-1,5.075384E-1,9.998518E-1,-1.6073545E0,-4.161416E-1,5.494274E-2,1.3456863E0,-1.551683E0,-9.068532E-1,-6.304839E-1,2.6159766E-1,-1.1345669E0,-5.033535E-1,-2.1851876E-1,4.6710226E-1,-7.18135E-1,8.25168E-3,5.3291196E-1,1.1139894E0,-1.9501694E0,-3.2815864E0,-6.8383837E-1,-1.4041604E0,2.1226132E0,5.8745974E-1,-4.9500272E-1,1.5653973E0,1.127024E0,-5.088894E-1,-5.1060904E-2,-4.5290976E0,-1.3078725E0,-3.142404E0,-4.76105E0,-3.3344457E0,4.5484716E-1,-2.3123176E-1,-5.1436156E-1,-8.9734334E-1,1.2329057E0,-7.65767E-2,1.7779957E-1,-2.1498583E-1,2.4458175E0,4.0182567E0,1.2670617E0,6.507502E-1,2.786536E-1,6.7944276E-1,4.525148E-1,9.912638E-1,2.077654E0,3.256462E0,9.638401E-1,-9.6264786E-1,-4.142417E-1,2.532545E-1,4.3331155E-1,8.564133E-1,7.9292524E-1,-1.5337677E-1,7.3879814E-1,1.364213E0,1.5645777E0,2.184945E0,2.8468404E-2,1.3293426E0],"split_indices":[4,8,7,3,10,4,4,9,7,7,0,8,10,3,10,8,7,8,8,3,10,8,9,11,0,0,10,0,8,7,11,5,11,10,7,7,5,7,7,0,2,2,11,0,0,8,10,11,9,5,8,5,0,4,4,5,9,7,7,5,11,8,11,0,0,0,0,0,0,0,0,0,0,0,0,0,0,0,0,0,0,0,0,0,0,0,0,0,0,0,0,0,0,0,0,0,0,0,0,0,0,0,0,0,0,0,0,0,0,0,0,0,0,0,0,0,0,0,0,0,0,0,0,0,0,0,0],"split_type":[0,0,0,0,0,0,0,0,0,0,0,0,0,0,0,0,0,0,0,0,0,0,0,0,0,0,0,0,0,0,0,0,0,0,0,0,0,0,0,0,0,0,0,0,0,0,0,0,0,0,0,0,0,0,0,0,0,0,0,0,0,0,0,0,0,0,0,0,0,0,0,0,0,0,0,0,0,0,0,0,0,0,0,0,0,0,0,0,0,0,0,0,0,0,0,0,0,0,0,0,0,0,0,0,0,0,0,0,0,0,0,0,0,0,0,0,0,0,0,0,0,0,0,0,0,0,0],"sum_hessian":[1.43968E5,8.4828E4,5.914E4,7.1901E4,1.2927E4,2.4615E4,3.4525E4,2.8034E4,4.3867E4,1.0058E4,2.869E3,1.7371E4,7.244E3,2.6656E4,7.869E3,9.279E3,1.8755E4,2.7259E4,1.6608E4,8.113E3,1.945E3,6.92E2,2.177E3,4.022E3,1.3349E4,8.3E1,7.161E3,1.973E3,2.4683E4,5.296E3,2.573E3,1.504E3,7.775E3,9.364E3,9.391E3,2.633E3,2.4626E4,1.647E3,1.4961E4,8.58E2,7.255E3,3.71E2,1.574E3,6.22E2,7E1,6.51E2,1.526E3,1.018E3,3.004E3,5.46E2,1.2803E4,6.9E1,1.4E1,5.214E3,1.947E3,8.88E2,1.085E3,7.045E3,1.7638E4,2.495E3,2.801E3,2.247E3,3.26E2,4.78E2,1.026E3,6.901E3,8.74E2,4.417E3,4.947E3,7.452E3,1.939E3,1.39E3,1.243E3,1.8681E4,5.945E3,6.73E2,9.74E2,1.2084E4,2.877E3,5.99E2,2.59E2,3.974E3,3.281E3,2.4E2,1.31E2,1.251E3,3.23E2,3.19E2,3.03E2,1.4E1,5.6E1,5.06E2,1.45E2,9.98E2,5.28E2,3.86E2,6.32E2,1.265E3,1.739E3,4.27E2,1.19E2,6.312E3,6.491E3,5.9E1,1E1,9E0,5E0,3.446E3,1.768E3,5.3E2,1.417E3,3.44E2,5.44E2,8.75E2,2.1E2,1.852E3,5.193E3,1.0543E4,7.095E3,2.365E3,1.3E2,6.49E2,2.152E3,1.162E3,1.085E3,4.6E1,2.8E2],"tree_param":{"num_deleted":"0","num_feature":"13","num_nodes":"127","size_leaf_vector":"1"}},{"base_weights":[-4.002185E-3,-5.176876E0,9.648169E0,-2.153565E0,-2.2687994E1,5.9957337E0,1.807663E1,-9.980178E0,2.528272E0,-3.2807816E1,1.4257357E0,2.8566957E1,4.560745E0,1.4361196E1,2.7344318E1,-1.5972544E1,1.0788925E0,-1.158793E1,3.973908E0,-2.0684715E1,-6.3812565E1,-3.8373396E0,4.9898106E1,5.3397892E1,1.276069E1,-2.4749317E0,7.227991E0,1.4976052E1,-7.4800596E0,2.1426434E1,3.435201E1,-9.8193445E0,-2.5495665E1,-2.0898918E1,1.2352754E1,4.1601706E0,-1.989118E1,7.171905E-1,1.1584133E1,-7.869803E-1,-2.4332708E1,-7.1929E1,-2.9143726E1,-1.2053453E1,9.278588E0,1.7924696E1,7.100539E1,1.7775099E1,5.688788E1,-1.2476675E1,1.810208E1,1.3221661E1,-5.378655E0,4.3410716E0,1.1181362E1,1.2706249E1,1.8477493E1,-1.6301842E1,-3.5652657E0,2.8886293E1,1.636708E1,1.8836147E0,3.5363503E1,-1.2152139E0,-3.3570966E-1,-1.5832999E0,-3.302666E-1,-2.304305E0,-9.6087533E-1,1.4040289E0,3.9824358E-1,7.695513E-1,-1.11423306E-1,-8.245145E-1,-1.3304964E0,-2.603816E-1,2.811347E-1,7.284307E-1,-1.9163828E-1,9.96644E-1,-2.8411636E-1,-1.409456E0,-6.717474E-1,-2.5847945E0,-4.2631087E0,-2.060128E0,9.979486E-1,6.4036205E-2,-1.0923959E0,1.2997545E0,8.702874E-2,1.1296562E0,2.9308936E-1,2.8337896E0,4.317267E0,1.0720948E0,-3.9132953E-1,2.1406727E0,3.369602E0,-3.3171105E-1,-1.7167912E0,3.708273E-1,1.4939755E0,1.1765293E0,5.342459E-1,6.011921E-1,-3.404496E-1,8.8483304E-1,2.4232477E-2,-3.9098036E-1,6.8624246E-1,7.3051286E-1,3.5890448E-1,9.9621916E-1,5.8020455E-1,-1.301968E0,-6.3119346E-1,-1.8333303E-2,-5.6970286E-1,7.966573E-1,1.5496877E0,-5.6185704E-2,9.053084E-1,4.777669E-1,-2.2433673E-1,1.9532099E0,1.4858928E0],"categories":[],"categories_nodes":[],"categories_segments":[],"categories_sizes":[],"default_left":[0,0,0,0,0,0,0,0,0,0,0,0,0,0,0,0,0,0,0,0,0,0,0,0,0,0,0,0,0,0,0,0,0,0,0,0,0,0,0,0,0,0,0,0,0,0,0,0,0,0,0,0,0,0,0,0,0,0,0,0,0,0,0,0,0,0,0,0,0,0,0,0,0,0,0,0,0,0,0,0,0,0,0,0,0,0,0,0,0,0,0,0,0,0,0,0,0,0,0,0,0,0,0,0,0,0,0,0,0,0,0,0,0,0,0,0,0,0,0,0,0,0,0,0,0,0,0],"id":4,"left_children":[1,3,5,7,9,11,13,15,17,19,21,23,25,27,29,31,33,35,37,39,41,43,45,47,49,51,53,55,57,59,61,63,65,67,69,71,73,75,77,79,81,83,85,87,89,91,93,95,97,99,101,103,105,107,109,111,113,115,117,119,121,123,125,-1,-1,-1,-1,-1,-1,-1,-1,-1,-1,-1,-1,-1,-1,-1,-1,-1,-1,-1,-1,-1,-1,-1,-1,-1,-1,-1,-1,-1,-1,-1,-1,-1,-1,-1,-1,-1,-1,-1,-1,-1,-1,-1,-1,-1,-1,-1,-1,-1,-1,-1,-1,-1,-1,-1,-1,-1,-1,-1,-1,-1,-1,-1,-1],"loss_changes":[7.1750125E6,4.9532135E6,1.543481E6,2.9236552E6,3.361516E6,1.1329789E6,5.215805E5,1.9791055E6,1.0188389E6,3.645774E6,1.0392744E6,8.19997E5,6.173033E5,1.454575E5,1.7911675E5,1.1347245E6,2.6009015E6,6.065512E5,1.1223994E6,5.064165E5,7.65237E5,3.961373E5,2.6799212E5,1.00056E5,1.7263898E5,4.1223722E5,2.7217438E5,8.342625E4,1.0196924E4,8.83675E4,6.508775E4,5.291339E5,8.858735E5,1.4983162E5,4.78577E5,1.14978875E5,6.89515E4,9.218305E5,6.245239E5,1.09860086E5,2.47404E5,5.91503E5,3.0813544E5,2.951886E5,1.78381E5,8.87509E3,4.784775E4,7.1160176E3,1.0650525E5,2.837539E4,1.3267028E5,3.6670484E4,1.9005283E5,7.1008625E5,4.8658462E5,6.715181E4,4.0918375E4,2.9265195E3,5.1781685E3,2.5434812E4,4.2759375E4,3.024544E3,3.903E4,0E0,0E0,0E0,0E0,0E0,0E0,0E0,0E0,0E0,0E0,0E0,0E0,0E0,0E0,0E0,0E0,0E0,0E0,0E0,0E0,0E0,0E0,0E0,0E0,0E0,0E0,0E0,0E0,0E0,0E0,0E0,0E0,0E0,0E0,0E0,0E0,0E0,0E0,0E0,0E0,0E0,0E0,0E0,0E0,0E0,0E0,0E0,0E0,0E0,0E0,0E0,0E0,0E0,0E0,0E0,0E0,0E0,0E0,0E0,0E0,0E0,0E0,0E0,0E0],"parents":[2147483647,0,0,1,1,2,2,3,3,4,4,5,5,6,6,7,7,8,8,9,9,10,10,11,11,12,12,13,13,14,14,15,15,16,16,17,17,18,18,19,19,20,20,21,21,22,22,23,23,24,24,25,25,26,26,27,27,28,28,29,29,30,30,31,31,32,32,33,33,34,34,35,35,36,36,37,37,38,38,39,39,40,40,41,41,42,42,43,43,44,44,45,45,46,46,47,47,48,48,49,49,50,50,51,51,52,52,53,53,54,54,55,55,56,56,57,57,58,58,59,59,60,60,61,61,62,62],"right_children":[2,4,6,8,10,12,14,16,18,20,22,24,26,28,30,32,34,36,38,40,42,44,46,48,50,52,54,56,58,60,62,64,66,68,70,72,74,76,78,80,82,84,86,88,90,92,94,96,98,100,102,104,106,108,110,112,114,116,118,120,122,124,126,-1,-1,-1,-1,-1,-1,-1,-1,-1,-1,-1,-1,-1,-1,-1,-1,-1,-1,-1,-1,-1,-1,-1,-1,-1,-1,-1,-1,-1,-1,-1,-1,-1,-1,-1,-1,-1,-1,-1,-1,-1,-1,-1,-1,-1,-1,-1,-1,-1,-1,-1,-1,-1,-1,-1,-1,-1,-1,-1,-1,-1,-1,-1,-1],"split_conditions":[1.6812917E0,7.253744E-1,2.0234096E0,7.014084E-2,1.7213356E-2,3.2946877E1,5.8309215E-1,4.862727E-1,-5.51937E-1,4.2147818E-1,-4.7495106E-1,5.569178E0,-6.2251467E-1,-5.944153E0,5.234156E-1,5.3729963E-1,7.84591E-2,-8.606997E-3,-6.9069743E0,-7.1670947E0,-1.2910296E-2,-8.56551E-1,-3.4953845E-1,-2.507543E-1,-5.160624E-1,-4.9377555E-1,5.234156E-1,2.356249E0,8.674564E-1,-4.9377555E-1,-5.51937E-1,-8.703557E-1,-4.9377555E-1,9.6983945E-1,1.2744823E1,8.5207754E-1,5.8309215E-1,-4.9377555E-1,4.9298096E-1,-8.7380713E-1,1.4383872E0,-6.38658E0,4.975133E-1,8.141155E-1,3.290509E1,6.507337E0,2.1516098E-2,-3.6880344E-1,-6.2293673E0,1.0417194E0,-6.501046E0,-1.2910296E-2,-4.7495106E-1,1.1320321E-1,7.84591E-2,8.6314213E-1,-6.1819434E0,-8.653073E-1,1.0153446E0,-7.1325046E-1,-8.606997E-3,3.3922756E1,7.128882E-1,-1.2152139E0,-3.3570966E-1,-1.5832999E0,-3.302666E-1,-2.304305E0,-9.6087533E-1,1.4040289E0,3.9824358E-1,7.695513E-1,-1.11423306E-1,-8.245145E-1,-1.3304964E0,-2.603816E-1,2.811347E-1,7.284307E-1,-1.9163828E-1,9.96644E-1,-2.8411636E-1,-1.409456E0,-6.717474E-1,-2.5847945E0,-4.2631087E0,-2.060128E0,9.979486E-1,6.4036205E-2,-1.0923959E0,1.2997545E0,8.702874E-2,1.1296562E0,2.9308936E-1,2.8337896E0,4.317267E0,1.0720948E0,-3.9132953E-1,2.1406727E0,3.369602E0,-3.3171105E-1,-1.7167912E0,3.708273E-1,1.4939755E0,1.1765293E0,5.342459E-1,6.011921E-1,-3.404496E-1,8.8483304E-1,2.4232477E-2,-3.9098036E-1,6.8624246E-1,7.3051286E-1,3.5890448E-1,9.9621916E-1,5.8020455E-1,-1.301968E0,-6.3119346E-1,-1.8333303E-2,-5.6970286E-1,7.966573E-1,1.5496877E0,-5.6185704E-2,9.053084E-1,4.777669E-1,-2.2433673E-1,1.9532099E0,1.4858928E0],"split_indices":[4,8,4,3,12,2,10,12,8,10,11,0,8,5,12,8,8,12,5,5,11,11,10,10,12,12,12,4,12,12,8,8,12,4,0,11,10,12,1,11,4,5,11,8,2,0,11,10,5,1,5,11,11,8,8,12,5,11,1,8,12,2,10,0,0,0,0,0,0,0,0,0,0,0,0,0,0,0,0,0,0,0,0,0,0,0,0,0,0,0,0,0,0,0,0,0,0,0,0,0,0,0,0,0,0,0,0,0,0,0,0,0,0,0,0,0,0,0,0,0,0,0,0,0,0,0,0],"split_type":[0,0,0,0,0,0,0,0,0,0,0,0,0,0,0,0,0,0,0,0,0,0,0,0,0,0,0,0,0,0,0,0,0,0,0,0,0,0,0,0,0,0,0,0,0,0,0,0,0,0,0,0,0,0,0,0,0,0,0,0,0,0,0,0,0,0,0,0,0,0,0,0,0,0,0,0,0,0,0,0,0,0,0,0,0,0,0,0,0,0,0,0,0,0,0,0,0,0,0,0,0,0,0,0,0,0,0,0,0,0,0,0,0,0,0,0,0,0,0,0,0,0,0,0,0,0,0],"sum_hessian":[1.43701E5,9.356E4,5.0141E4,7.9786E4,1.3774E4,3.4983E4,1.5158E4,2.9863E4,4.9923E4,9.702E3,4.072E3,2.09E3,3.2893E4,1.0822E4,4.336E3,1.9368E4,1.0495E4,4.637E3,4.5286E4,6.976E3,2.726E3,3.674E3,3.98E2,8.12E2,1.278E3,9.042E3,2.3851E4,1.0526E4,2.96E2,2.353E3,1.983E3,1.1767E4,7.601E3,3.558E3,6.937E3,1.601E3,3.036E3,3.1715E4,1.3571E4,1.081E3,5.895E3,2.208E3,5.18E2,2.259E3,1.415E3,1.59E2,2.39E2,7.3E1,7.39E2,2.23E2,1.055E3,1.411E3,7.631E3,1.3786E4,1.0065E4,6.389E3,4.137E3,9E1,2.06E2,9.49E2,1.404E3,6E1,1.923E3,2.076E3,9.691E3,5.729E3,1.872E3,2.21E2,3.337E3,1.512E3,5.425E3,5.8E2,1.021E3,2.018E3,1.018E3,1.4365E4,1.735E4,1.137E4,2.201E3,2.06E2,8.75E2,4.353E3,1.542E3,8.79E2,1.329E3,4.16E2,1.02E2,9.57E2,1.302E3,4.39E2,9.76E2,1.14E2,4.5E1,1.26E2,1.13E2,6.4E1,9E0,3.18E2,4.21E2,1.77E2,4.6E1,5.54E2,5.01E2,2.77E2,1.134E3,5.79E2,7.052E3,3.088E3,1.0698E4,1.188E3,8.877E3,4.751E3,1.638E3,3.416E3,7.21E2,2.3E1,6.7E1,1.47E2,5.9E1,1.34E2,8.15E2,1.27E2,1.277E3,2.7E1,3.3E1,1.158E3,7.65E2],"tree_param":{"num_deleted":"0","num_feature":"13","num_nodes":"127","size_leaf_vector":"1"}},{"base_weights":[1.4680813E-2,-5.8045893E0,6.0900507E0,-1.6036898E1,-2.5048416E0,8.827556E0,-6.9555683E0,-7.477261E0,-2.7622402E1,1.3394214E-2,-1.1199484E1,6.0484314E0,1.7766489E1,-2.2295975E1,2.6253474E-1,-4.8544903E0,-2.5949316E1,-3.674971E1,-1.3572799E1,-3.931609E0,3.7063403E0,-1.4883494E1,-5.161296E0,-2.3200564E0,9.0137E0,5.9699063E0,1.993147E1,-1.6091969E1,-4.8089172E1,-4.272288E0,9.658788E0,-2.4068398E1,-3.0801573E0,-5.0790462E1,-1.930912E1,-1.5560089E1,-4.4732193E1,-1.9383966E1,4.510323E1,4.1996544E1,-4.79943E0,-4.8696203E0,4.7323794E0,-1.2216523E1,-2.1542963E1,-1.873936E1,-3.1119297E0,-2.4962114E1,-7.3007655E-1,6.1188416E0,1.3213794E1,2.6699074E1,4.148296E0,4.8965588E1,1.8709131E1,-8.070181E0,-2.8589703E1,6.2514124E0,-7.3125305E1,-2.0803314E1,-2.600482E0,-6.7131186E0,1.1116956E1,-1.5049211E0,2.38288E-1,-5.4091626E-1,3.7586223E-2,-1.5686308E0,-3.1870613E0,9.596144E-1,-1.0091215E0,-1.1104262E0,-4.8989484E-1,-7.8830856E-1,-2.496465E0,-1.8491602E0,-6.815221E-1,1.2509519E0,3.2724807E0,1.996657E-1,3.5412922E0,3.90346E-2,-4.4070774E-1,1.9687174E-1,-7.8453344E-1,5.15884E-1,9.971732E-2,-5.631583E-1,-1.4421669E0,-7.747503E-1,-1.2928777E0,-2.3963605E-1,-1.1805024E0,-8.3780006E-2,-6.404273E-1,-2.1306803E0,-4.073638E-1,2.5486717E-1,-3.2744038E-1,9.893976E-2,4.7557813E-1,3.453238E-1,8.933617E-1,1.2276261E0,2.1399975E0,4.138108E-1,-1.435376E-1,1.3757352E0,3.7080853E0,7.063722E-1,1.1956837E0,-1.8535296E0,-2.545336E-1,-2.890592E0,-1.1075482E0,-1.4003013E0,7.4810785E-1,-1.9189154E0,-4.446333E0,1.1170774E-1,-1.2585729E0,7.095677E-1,-2.0170704E-1,8.2321805E-1,-6.349641E-1,6.089864E-1,-3.4573728E-1],"categories":[],"categories_nodes":[],"categories_segments":[],"categories_sizes":[],"default_left":[0,0,0,0,0,0,0,0,0,0,0,0,0,0,0,0,0,0,0,0,0,0,0,0,0,0,0,0,0,0,0,0,0,0,0,0,0,0,0,0,0,0,0,0,0,0,0,0,0,0,0,0,0,0,0,0,0,0,0,0,0,0,0,0,0,0,0,0,0,0,0,0,0,0,0,0,0,0,0,0,0,0,0,0,0,0,0,0,0,0,0,0,0,0,0,0,0,0,0,0,0,0,0,0,0,0,0,0,0,0,0,0,0,0,0,0,0,0,0,0,0,0,0,0,0,0,0],"id":5,"left_children":[1,3,5,7,9,11,13,15,17,19,21,23,25,27,29,31,33,35,37,39,41,43,45,47,49,51,53,55,57,59,61,63,65,67,69,71,73,75,77,79,81,83,85,87,89,91,93,95,97,99,101,103,105,107,109,111,113,115,117,119,121,123,125,-1,-1,-1,-1,-1,-1,-1,-1,-1,-1,-1,-1,-1,-1,-1,-1,-1,-1,-1,-1,-1,-1,-1,-1,-1,-1,-1,-1,-1,-1,-1,-1,-1,-1,-1,-1,-1,-1,-1,-1,-1,-1,-1,-1,-1,-1,-1,-1,-1,-1,-1,-1,-1,-1,-1,-1,-1,-1,-1,-1,-1,-1,-1,-1],"loss_changes":[5.093624E6,2.484586E6,2.5172885E6,1.779255E6,1.2183574E6,1.4472335E6,1.3537765E6,4.999025E5,9.771605E5,6.286386E5,2.7791375E5,1.1029159E6,3.52756E5,6.252226E5,3.5434678E5,3.0807956E5,2.1064319E5,7.8092E5,1.02516425E6,8.317429E5,1.9613234E5,1.375735E5,1.3175328E5,4.1862803E5,3.989285E5,8.08446E4,4.133825E5,3.1606756E5,1.0317061E6,1.5495762E5,6.469925E4,1.3298316E5,2.4540697E5,6.588925E4,3.4481844E4,4.8279094E4,5.04417E5,2.763292E5,1.09095125E5,4.2370944E5,4.587468E5,2.2707134E5,3.0439538E5,8.755075E4,5.7472688E4,4.2068375E4,5.731676E4,2.2611144E5,3.685138E5,2.728802E5,3.9285075E5,4.921539E3,5.716115E4,2.5251488E5,2.6682425E5,1.6596772E5,2.3070488E5,7.203561E4,2.8153125E5,5.1883484E4,1.2271203E5,3.100992E4,4.7725406E4,0E0,0E0,0E0,0E0,0E0,0E0,0E0,0E0,0E0,0E0,0E0,0E0,0E0,0E0,0E0,0E0,0E0,0E0,0E0,0E0,0E0,0E0,0E0,0E0,0E0,0E0,0E0,0E0,0E0,0E0,0E0,0E0,0E0,0E0,0E0,0E0,0E0,0E0,0E0,0E0,0E0,0E0,0E0,0E0,0E0,0E0,0E0,0E0,0E0,0E0,0E0,0E0,0E0,0E0,0E0,0E0,0E0,0E0,0E0,0E0,0E0,0E0,0E0,0E0],"parents":[2147483647,0,0,1,1,2,2,3,3,4,4,5,5,6,6,7,7,8,8,9,9,10,10,11,11,12,12,13,13,14,14,15,15,16,16,17,17,18,18,19,19,20,20,21,21,22,22,23,23,24,24,25,25,26,26,27,27,28,28,29,29,30,30,31,31,32,32,33,33,34,34,35,35,36,36,37,37,38,38,39,39,40,40,41,41,42,42,43,43,44,44,45,45,46,46,47,47,48,48,49,49,50,50,51,51,52,52,53,53,54,54,55,55,56,56,57,57,58,58,59,59,60,60,61,61,62,62],"right_children":[2,4,6,8,10,12,14,16,18,20,22,24,26,28,30,32,34,36,38,40,42,44,46,48,50,52,54,56,58,60,62,64,66,68,70,72,74,76,78,80,82,84,86,88,90,92,94,96,98,100,102,104,106,108,110,112,114,116,118,120,122,124,126,-1,-1,-1,-1,-1,-1,-1,-1,-1,-1,-1,-1,-1,-1,-1,-1,-1,-1,-1,-1,-1,-1,-1,-1,-1,-1,-1,-1,-1,-1,-1,-1,-1,-1,-1,-1,-1,-1,-1,-1,-1,-1,-1,-1,-1,-1,-1,-1,-1,-1,-1,-1,-1,-1,-1,-1,-1,-1,-1,-1,-1,-1,-1,-1],"split_conditions":[3.967617E2,3.3725636E1,7.852087E-1,-1.4622448E-1,2.0479202E-1,4.1511423E2,3.36271E1,5.0253487E-1,2.1516098E-2,3.8551462E2,3.9155038E2,3.3725636E1,-5.6640625E-1,7.8260815E-1,4.1511423E2,3.1645948E1,3.204902E1,5.075384E-1,7.0090926E-1,-9.5041484E-1,-6.087614E-1,7.1141624E-1,-6.8835455E-1,3.1430178E1,5.0520176E-1,-8.56551E-1,5.765073E0,-1.7858365E-1,7.530981E0,-5.6640625E-1,-5.9482276E-1,4.975133E-1,1.3052619E-1,7.489557E-1,-5.5778646E-1,3.3466263E1,6.507337E0,-8.616292E-1,3.9518997E2,-6.514431E0,3.3380687E-1,8.5207754E-1,1.8901546E1,1.4986897E-1,-6.8403597E0,8.5207754E-1,1.2936478E0,-5.049611E-1,-1.2947911E-1,4.040797E2,-6.855298E0,-6.3300586E0,2.1849859E-1,-1.8906532E-1,-6.8627276E0,3.1430178E1,3.2542213E1,-5.049611E-1,4.7275928E-1,2.1516098E-2,6.143814E0,-4.7495106E-1,-5.944153E0,-1.5049211E0,2.38288E-1,-5.4091626E-1,3.7586223E-2,-1.5686308E0,-3.1870613E0,9.596144E-1,-1.0091215E0,-1.1104262E0,-4.8989484E-1,-7.8830856E-1,-2.496465E0,-1.8491602E0,-6.815221E-1,1.2509519E0,3.2724807E0,1.996657E-1,3.5412922E0,3.90346E-2,-4.4070774E-1,1.9687174E-1,-7.8453344E-1,5.15884E-1,9.971732E-2,-5.631583E-1,-1.4421669E0,-7.747503E-1,-1.2928777E0,-2.3963605E-1,-1.1805024E0,-8.3780006E-2,-6.404273E-1,-2.1306803E0,-4.073638E-1,2.5486717E-1,-3.2744038E-1,9.893976E-2,4.7557813E-1,3.453238E-1,8.933617E-1,1.2276261E0,2.1399975E0,4.138108E-1,-1.435376E-1,1.3757352E0,3.7080853E0,7.063722E-1,1.1956837E0,-1.8535296E0,-2.545336E-1,-2.890592E0,-1.1075482E0,-1.4003013E0,7.4810785E-1,-1.9189154E0,-4.446333E0,1.1170774E-1,-1.2585729E0,7.095677E-1,-2.0170704E-1,8.2321805E-1,-6.349641E-1,6.089864E-1,-3.4573728E-1],"split_indices":[7,2,1,9,1,7,2,1,11,7,7,2,8,8,7,2,2,8,8,9,8,1,8,2,10,11,0,9,0,8,8,11,8,8,6,2,0,8,7,5,8,11,0,6,5,11,1,11,9,7,5,5,1,10,5,2,2,11,10,11,0,11,5,0,0,0,0,0,0,0,0,0,0,0,0,0,0,0,0,0,0,0,0,0,0,0,0,0,0,0,0,0,0,0,0,0,0,0,0,0,0,0,0,0,0,0,0,0,0,0,0,0,0,0,0,0,0,0,0,0,0,0,0,0,0,0,0],"split_type":[0,0,0,0,0,0,0,0,0,0,0,0,0,0,0,0,0,0,0,0,0,0,0,0,0,0,0,0,0,0,0,0,0,0,0,0,0,0,0,0,0,0,0,0,0,0,0,0,0,0,0,0,0,0,0,0,0,0,0,0,0,0,0,0,0,0,0,0,0,0,0,0,0,0,0,0,0,0,0,0,0,0,0,0,0,0,0,0,0,0,0,0,0,0,0,0,0,0,0,0,0,0,0,0,0,0,0,0,0,0,0,0,0,0,0,0,0,0,0,0,0,0,0,0,0,0,0],"sum_hessian":[1.44072E5,7.3587E4,7.0485E4,1.7943E4,5.5644E4,5.826E4,1.2225E4,1.032E4,7.623E3,4.3148E4,1.2496E4,4.4444E4,1.3816E4,3.911E3,8.314E3,9.038E3,1.282E3,4.62E3,3.003E3,2.0862E4,2.2286E4,7.76E3,4.736E3,1.1628E4,3.2816E4,2.143E3,1.1673E4,3.154E3,7.57E2,5.608E3,2.706E3,7.63E2,8.275E3,2.69E2,1.013E3,1.265E3,3.355E3,2.733E3,2.7E2,3.86E2,2.0476E4,2.381E3,1.9905E4,5.543E3,2.217E3,6.2E2,4.116E3,7.62E2,1.0866E4,1.9428E4,1.3388E4,1.72E2,1.971E3,4.7E2,1.1203E4,1.922E3,1.232E3,2.39E2,5.18E2,5.14E2,5.094E3,2.21E2,2.485E3,6.31E2,1.32E2,2.74E3,5.535E3,1.09E2,1.6E2,2.2E1,9.91E2,5.86E2,6.79E2,5.11E2,2.844E3,6.72E2,2.061E3,1.37E2,1.33E2,1.67E2,2.19E2,8.568E3,1.1908E4,1.313E3,1.068E3,6.547E3,1.3358E4,5.244E3,2.99E2,9.25E2,1.292E3,1.61E2,4.59E2,3.586E3,5.3E2,3.71E2,3.91E2,5.429E3,5.437E3,8.751E3,1.0677E4,5.685E3,7.703E3,1.54E2,1.8E1,1.241E3,7.3E2,2.55E2,2.15E2,5.96E3,5.243E3,1.78E2,1.744E3,2.21E2,1.011E3,4.8E1,1.91E2,1.63E2,3.55E2,8.2E1,4.32E2,4E2,4.694E3,4.5E1,1.76E2,2.347E3,1.38E2],"tree_param":{"num_deleted":"0","num_feature":"13","num_nodes":"127","size_leaf_vector":"1"}},{"base_weights":[2.4292205E-2,-4.7254686E0,9.096992E0,-9.9834175E0,3.6936367E0,2.6095371E0,1.3747766E1,-2.5755102E1,-4.67043E0,-1.8003967E0,1.0919225E1,-1.2603133E0,1.0095697E1,1.0693189E1,2.2456282E1,-1.2740748E1,-3.7728195E1,-9.57991E0,1.7056955E0,-2.007958E1,-5.486497E-1,-1.2545545E1,1.2459726E1,2.2124998E1,-1.8127873E0,4.477869E1,9.74551E0,3.3599392E1,8.908165E0,1.7851591E1,3.2398247E1,-1.8574673E1,-9.240322E-1,-5.3487114E1,-2.5829594E1,3.0670654E1,-1.0450378E1,-8.299362E0,4.3579826E0,-2.7691893E1,-4.774491E0,-3.3776526E0,4.2698746E0,-1.6495005E1,8.547963E0,7.879651E0,1.710584E1,5.181976E0,5.3941856E1,1.3955615E1,-2.3767328E0,5.0946472E1,2.2546991E1,7.6537232E0,1.550446E1,5.5188046E1,1.659962E1,5.596401E0,1.3465285E1,1.3385081E1,2.1837978E1,2.8916143E1,3.8487526E1,-1.4886837E0,-6.3565964E-1,-1.4702113E0,2.4943888E-1,-2.9468954E0,-1.2092811E0,-1.5619059E0,-7.115885E-1,3.0299695E0,-2.1483911E-2,-1.0018278E0,-4.1062766E-1,-2.0790182E-1,-1.02077E0,1.2905376E-1,7.178167E-1,-2.5174978E0,-1.2542657E0,9.792847E-1,-4.7181898E-1,-3.4735295E-1,8.27417E-2,5.07127E-1,1.8736323E-2,-1.1893371E0,-5.8123916E-1,2.9031423E-1,3.2443898E0,-1.6646073E0,4.240949E-1,1.5307666E0,7.382698E-1,5.6641096E-1,-1.3543208E-1,3.035081E0,-2.6607437E0,1.1833881E0,4.0083756E-3,-1.9676922E-1,9.195615E-2,2.3362806E0,3.3423977E0,1.30485E0,5.8362406E-1,4.7440845E-1,6.0019255E-2,5.7226104E-1,1.1089958E0,1.810826E0,3.235979E0,1.3582495E-2,1.2968855E0,1.8484768E-1,5.062322E-1,5.935454E-1,8.9692587E-1,7.835373E-1,3.01935E-1,6.558626E-1,1.2178918E0,1.6921189E0,1.2847662E0,1.8478422E-1,1.9916213E0],"categories":[],"categories_nodes":[],"categories_segments":[],"categories_sizes":[],"default_left":[0,0,0,0,0,0,0,0,0,0,0,0,0,0,0,0,0,0,0,0,0,0,0,0,0,0,0,0,0,0,0,0,0,0,0,0,0,0,0,0,0,0,0,0,0,0,0,0,0,0,0,0,0,0,0,0,0,0,0,0,0,0,0,0,0,0,0,0,0,0,0,0,0,0,0,0,0,0,0,0,0,0,0,0,0,0,0,0,0,0,0,0,0,0,0,0,0,0,0,0,0,0,0,0,0,0,0,0,0,0,0,0,0,0,0,0,0,0,0,0,0,0,0,0,0,0,0],"id":6,"left_children":[1,3,5,7,9,11,13,15,17,19,21,23,25,27,29,31,33,35,37,39,41,43,45,47,49,51,53,55,57,59,61,63,65,67,69,71,73,75,77,79,81,83,85,87,89,91,93,95,97,99,101,103,105,107,109,111,113,115,117,119,121,123,125,-1,-1,-1,-1,-1,-1,-1,-1,-1,-1,-1,-1,-1,-1,-1,-1,-1,-1,-1,-1,-1,-1,-1,-1,-1,-1,-1,-1,-1,-1,-1,-1,-1,-1,-1,-1,-1,-1,-1,-1,-1,-1,-1,-1,-1,-1,-1,-1,-1,-1,-1,-1,-1,-1,-1,-1,-1,-1,-1,-1,-1,-1,-1,-1],"loss_changes":[6.196236E6,4.177889E6,1.4907152E6,4.868017E6,1.4403695E6,5.9772925E5,7.652755E5,2.280594E6,1.3604029E6,4.7160825E5,5.666601E5,1.7577289E5,8.49535E4,8.7089975E5,3.41482E5,4.8364862E5,1.428179E6,8.6057725E5,5.017308E5,1.5377044E5,2.6299553E5,8.06173E4,3.12821E5,1.6898373E5,1.1820469E5,8.442375E3,8.374675E4,5.6426E5,2.982635E5,9.0671125E4,4.90055E4,3.0794112E5,3.9083244E5,5.22276E5,2.72163E5,4.8404466E5,5.1541425E5,1.9871181E5,2.6547634E5,5.0820312E4,5.0152164E4,2.1837011E5,1.6325334E5,2.8627031E4,2.3249428E4,1.8396544E5,2.303565E5,1.0022063E4,8.21855E4,6.1850734E4,8.43206E4,4.8951562E2,3.4788477E2,6.0469438E4,4.9981125E4,1.20247125E5,1.3157373E5,9.844444E4,5.9115375E4,4.0404E4,5.8965375E4,2.3051125E4,3.9948875E4,0E0,0E0,0E0,0E0,0E0,0E0,0E0,0E0,0E0,0E0,0E0,0E0,0E0,0E0,0E0,0E0,0E0,0E0,0E0,0E0,0E0,0E0,0E0,0E0,0E0,0E0,0E0,0E0,0E0,0E0,0E0,0E0,0E0,0E0,0E0,0E0,0E0,0E0,0E0,0E0,0E0,0E0,0E0,0E0,0E0,0E0,0E0,0E0,0E0,0E0,0E0,0E0,0E0,0E0,0E0,0E0,0E0,0E0,0E0,0E0,0E0,0E0,0E0,0E0],"parents":[2147483647,0,0,1,1,2,2,3,3,4,4,5,5,6,6,7,7,8,8,9,9,10,10,11,11,12,12,13,13,14,14,15,15,16,16,17,17,18,18,19,19,20,20,21,21,22,22,23,23,24,24,25,25,26,26,27,27,28,28,29,29,30,30,31,31,32,32,33,33,34,34,35,35,36,36,37,37,38,38,39,39,40,40,41,41,42,42,43,43,44,44,45,45,46,46,47,47,48,48,49,49,50,50,51,51,52,52,53,53,54,54,55,55,56,56,57,57,58,58,59,59,60,60,61,61,62,62],"right_children":[2,4,6,8,10,12,14,16,18,20,22,24,26,28,30,32,34,36,38,40,42,44,46,48,50,52,54,56,58,60,62,64,66,68,70,72,74,76,78,80,82,84,86,88,90,92,94,96,98,100,102,104,106,108,110,112,114,116,118,120,122,124,126,-1,-1,-1,-1,-1,-1,-1,-1,-1,-1,-1,-1,-1,-1,-1,-1,-1,-1,-1,-1,-1,-1,-1,-1,-1,-1,-1,-1,-1,-1,-1,-1,-1,-1,-1,-1,-1,-1,-1,-1,-1,-1,-1,-1,-1,-1,-1,-1,-1,-1,-1,-1,-1,-1,-1,-1,-1,-1,-1,-1,-1,-1,-1,-1],"split_conditions":[1.6851802E0,4.862727E-1,3.9412207E2,-3.9952087E-1,4.0076596E2,1.9933822E0,2.0721917E0,-3.0261883E-1,3.9758936E2,1.5387329E0,1.790445E0,-8.176669E-1,-8.902069E-1,3.3032475E1,5.5958337E-1,-4.9377555E-1,-1.2031631E0,-9.4021064E-1,1.6460445E1,8.5876393E-1,8.717063E-1,8.6314213E-1,8.6314213E-1,8.540506E-2,3.263081E1,2.064416E1,5.6497645E-1,5.569178E0,4.0800095E2,4.060486E2,8.5876393E-1,-1.7079239E0,1.5387329E0,1.5774478E1,5.1540774E-1,2.2514145E1,1.37283945E1,3.4962376E1,8.6952734E-1,1.2825989E0,-4.6290582E-1,2.80509E-2,1.9986326E1,1.4956324E0,2.6336157E-1,-3.038599E0,3.29916E1,2.1504557E1,2.010192E1,8.344648E0,7.1939915E-1,4.690647E-3,2.128336E1,8.6314213E-1,5.234156E-1,4.862727E-1,1.7213356E-2,1.9083306E0,1.9022765E0,8.717063E-1,-4.7495106E-1,1.6197096E1,-4.7495106E-1,-1.4886837E0,-6.3565964E-1,-1.4702113E0,2.4943888E-1,-2.9468954E0,-1.2092811E0,-1.5619059E0,-7.115885E-1,3.0299695E0,-2.1483911E-2,-1.0018278E0,-4.1062766E-1,-2.0790182E-1,-1.02077E0,1.2905376E-1,7.178167E-1,-2.5174978E0,-1.2542657E0,9.792847E-1,-4.7181898E-1,-3.4735295E-1,8.27417E-2,5.07127E-1,1.8736323E-2,-1.1893371E0,-5.8123916E-1,2.9031423E-1,3.2443898E0,-1.6646073E0,4.240949E-1,1.5307666E0,7.382698E-1,5.6641096E-1,-1.3543208E-1,3.035081E0,-2.6607437E0,1.1833881E0,4.0083756E-3,-1.9676922E-1,9.195615E-2,2.3362806E0,3.3423977E0,1.30485E0,5.8362406E-1,4.7440845E-1,6.0019255E-2,5.7226104E-1,1.1089958E0,1.810826E0,3.235979E0,1.3582495E-2,1.2968855E0,1.8484768E-1,5.062322E-1,5.935454E-1,8.9692587E-1,7.835373E-1,3.01935E-1,6.558626E-1,1.2178918E0,1.6921189E0,1.2847662E0,1.8478422E-1,1.9916213E0],"split_indices":[4,12,7,3,7,4,4,9,7,0,0,10,10,2,10,12,3,9,0,12,12,12,12,9,2,0,10,0,7,7,12,3,0,0,9,0,0,2,10,4,9,6,0,4,10,3,2,0,0,0,10,6,0,12,12,12,12,4,4,12,11,0,11,0,0,0,0,0,0,0,0,0,0,0,0,0,0,0,0,0,0,0,0,0,0,0,0,0,0,0,0,0,0,0,0,0,0,0,0,0,0,0,0,0,0,0,0,0,0,0,0,0,0,0,0,0,0,0,0,0,0,0,0,0,0,0,0],"split_type":[0,0,0,0,0,0,0,0,0,0,0,0,0,0,0,0,0,0,0,0,0,0,0,0,0,0,0,0,0,0,0,0,0,0,0,0,0,0,0,0,0,0,0,0,0,0,0,0,0,0,0,0,0,0,0,0,0,0,0,0,0,0,0,0,0,0,0,0,0,0,0,0,0,0,0,0,0,0,0,0,0,0,0,0,0,0,0,0,0,0,0,0,0,0,0,0,0,0,0,0,0,0,0,0,0,0,0,0,0,0,0,0,0,0,0,0,0,0,0,0,0,0,0,0,0,0,0],"sum_hessian":[1.43785E5,9.4377E4,4.9408E4,5.8095E4,3.6282E4,2.0631E4,2.8777E4,1.4638E4,4.3457E4,2.0611E4,1.5671E4,1.3601E4,7.03E3,2.1306E4,7.471E3,7.015E3,7.623E3,2.4552E4,1.8905E4,1.32E3,1.9291E4,9.65E2,1.4706E4,3.13E2,1.3288E4,6.9E1,6.961E3,1.539E3,1.9767E4,5.108E3,2.363E3,4.696E3,2.319E3,3.278E3,4.345E3,5.19E2,2.4033E4,3.961E3,1.4944E4,8.81E2,4.39E2,1.2155E4,7.136E3,8.13E2,1.52E2,7.407E3,7.299E3,2.05E2,1.08E2,4.58E2,1.283E4,5.3E1,1.6E1,5.108E3,1.853E3,6.77E2,8.62E2,1.1449E4,8.318E3,2.411E3,2.697E3,1.507E3,8.56E2,1.612E3,3.084E3,3.98E2,1.921E3,2.763E3,5.15E2,2.962E3,1.383E3,2.64E2,2.55E2,4.547E3,1.9486E4,2.953E3,1.008E3,1.269E4,2.254E3,8.9E1,7.92E2,7E1,3.69E2,7.111E3,5.044E3,2.845E3,4.291E3,3.24E2,4.89E2,1.46E2,6E0,1.06E2,7.301E3,1.076E3,6.223E3,1.15E2,9E1,1.02E2,6E0,2.69E2,1.89E2,9.367E3,3.463E3,4.5E1,8E0,1.1E1,5E0,3.977E3,1.131E3,1.154E3,6.99E2,2.28E2,4.49E2,3.14E2,5.48E2,8.067E3,3.382E3,6.135E3,2.183E3,1.838E3,5.73E2,6.06E2,2.091E3,5.92E2,9.15E2,3.2E1,8.24E2],"tree_param":{"num_deleted":"0","num_feature":"13","num_nodes":"127","size_leaf_vector":"1"}},{"base_weights":[4.275317E-3,-4.522866E0,8.669605E0,-1.8979007E0,-1.9752968E1,2.5185025E0,1.3094662E1,-6.3441753E0,4.5975866E0,-1.3870163E1,-4.067833E1,-9.3570346E-1,9.866374E0,1.01967E1,2.140522E1,-1.3480095E1,-1.8877059E0,-2.3637102E0,9.198049E0,-1.8664942E1,5.817064E0,3.6564548E0,-5.833658E1,-8.248606E0,1.5124424E0,1.0809844E1,-3.723437E0,3.1628227E1,8.5216875E0,1.7177404E1,3.1025114E1,-3.199151E0,-1.8554266E1,-1.4804858E1,-6.1578757E-1,-6.2802997E0,7.422582E0,-6.1937675E0,1.083215E1,-3.846235E1,-1.6519096E1,1.7635126E1,-5.6229486E0,2.2566235E1,-1.7038958E1,-2.817545E1,-7.101651E1,1.3179412E0,-1.2195568E1,2.456717E1,7.1150446E-1,6.1289253E0,1.2844523E1,1.4695364E-1,-1.3577382E1,5.6132137E1,1.657486E1,1.736763E0,1.1140644E1,1.1877554E1,2.0173252E1,3.251367E1,1.9233477E1,-9.0811014E-1,8.0937654E-2,-1.2083143E0,-6.483718E-1,-1.0158137E0,-4.2031366E-1,-2.1880434E-1,3.4731486E-1,4.2838156E-2,-6.050258E-1,-1.716054E-1,5.00058E-1,-7.060663E-1,-2.27678E-2,3.8678214E-1,8.246581E-1,-2.042713E0,1.5370634E0,-4.3753788E-1,-1.1737932E0,-9.907241E-1,1.3048924E0,-6.674677E-1,1.6586973E-1,6.343853E-1,2.1659143E0,-4.3086264E-1,-3.783065E0,-1.033932E0,-2.7318761E0,-4.0482035E0,-2.6923876E0,1.6667259E-1,-9.265873E-1,-5.747991E-1,-1.5477042E0,3.1448767E-1,2.7376225E0,7.2455406E-1,-1.3905443E-2,2.053423E0,2.7878824E-1,3.0624214E-1,7.1614397E-1,-3.044425E-1,1.912119E-1,-1.3009094E0,-4.6859652E-1,3.1738513E0,1.9538287E0,1.2644666E0,1.9313012E-1,-3.502147E-1,2.4956642E-1,7.126658E-1,3.3480743E-1,4.622433E-1,8.099247E-1,1.0878369E0,3.692218E-1,1.3798451E0,1.902152E0,-1.4071147E-1,1.108653E0],"categories":[],"categories_nodes":[],"categories_segments":[],"categories_sizes":[],"default_left":[0,0,0,0,0,0,0,0,0,0,0,0,0,0,0,0,0,0,0,0,0,0,0,0,0,0,0,0,0,0,0,0,0,0,0,0,0,0,0,0,0,0,0,0,0,0,0,0,0,0,0,0,0,0,0,0,0,0,0,0,0,0,0,0,0,0,0,0,0,0,0,0,0,0,0,0,0,0,0,0,0,0,0,0,0,0,0,0,0,0,0,0,0,0,0,0,0,0,0,0,0,0,0,0,0,0,0,0,0,0,0,0,0,0,0,0,0,0,0,0,0,0,0,0,0,0,0],"id":7,"left_children":[1,3,5,7,9,11,13,15,17,19,21,23,25,27,29,31,33,35,37,39,41,43,45,47,49,51,53,55,57,59,61,63,65,67,69,71,73,75,77,79,81,83,85,87,89,91,93,95,97,99,101,103,105,107,109,111,113,115,117,119,121,123,125,-1,-1,-1,-1,-1,-1,-1,-1,-1,-1,-1,-1,-1,-1,-1,-1,-1,-1,-1,-1,-1,-1,-1,-1,-1,-1,-1,-1,-1,-1,-1,-1,-1,-1,-1,-1,-1,-1,-1,-1,-1,-1,-1,-1,-1,-1,-1,-1,-1,-1,-1,-1,-1,-1,-1,-1,-1,-1,-1,-1,-1,-1,-1,-1],"loss_changes":[5.636291E6,3.772809E6,1.3419698E6,2.3248985E6,1.7073175E6,5.236214E5,6.90378E5,1.5196796E6,1.0476301E6,1.0225119E6,2.3832895E6,2.5126456E5,8.462481E4,7.630275E5,3.0095725E5,9.583035E5,4.8331416E5,4.9897362E5,4.954575E5,3.6937925E5,2.869922E5,3.400731E5,8.305635E5,1.3292811E5,1.941437E5,5.8674062E4,1.6364806E4,5.674854E5,3.5044575E5,8.1558375E4,3.90735E4,4.377648E5,3.853295E5,9.2820875E4,7.6159506E5,3.8620197E5,1.04184484E5,8.601673E4,3.1199788E5,1.42122E5,4.245655E5,3.3138806E5,7.457907E4,9.2514625E4,2.0422512E5,1.2701684E5,2.57273E5,4.122772E4,3.2342875E4,1.9440277E5,1.3859272E5,3.5927492E4,4.2616812E4,7.108682E3,6.083244E3,7.0918125E4,1.0580566E5,1.5632994E5,1.9676375E5,2.1040625E4,6.646175E4,5.3507E4,1.6655953E4,0E0,0E0,0E0,0E0,0E0,0E0,0E0,0E0,0E0,0E0,0E0,0E0,0E0,0E0,0E0,0E0,0E0,0E0,0E0,0E0,0E0,0E0,0E0,0E0,0E0,0E0,0E0,0E0,0E0,0E0,0E0,0E0,0E0,0E0,0E0,0E0,0E0,0E0,0E0,0E0,0E0,0E0,0E0,0E0,0E0,0E0,0E0,0E0,0E0,0E0,0E0,0E0,0E0,0E0,0E0,0E0,0E0,0E0,0E0,0E0,0E0,0E0,0E0,0E0],"parents":[2147483647,0,0,1,1,2,2,3,3,4,4,5,5,6,6,7,7,8,8,9,9,10,10,11,11,12,12,13,13,14,14,15,15,16,16,17,17,18,18,19,19,20,20,21,21,22,22,23,23,24,24,25,25,26,26,27,27,28,28,29,29,30,30,31,31,32,32,33,33,34,34,35,35,36,36,37,37,38,38,39,39,40,40,41,41,42,42,43,43,44,44,45,45,46,46,47,47,48,48,49,49,50,50,51,51,52,52,53,53,54,54,55,55,56,56,57,57,58,58,59,59,60,60,61,61,62,62],"right_children":[2,4,6,8,10,12,14,16,18,20,22,24,26,28,30,32,34,36,38,40,42,44,46,48,50,52,54,56,58,60,62,64,66,68,70,72,74,76,78,80,82,84,86,88,90,92,94,96,98,100,102,104,106,108,110,112,114,116,118,120,122,124,126,-1,-1,-1,-1,-1,-1,-1,-1,-1,-1,-1,-1,-1,-1,-1,-1,-1,-1,-1,-1,-1,-1,-1,-1,-1,-1,-1,-1,-1,-1,-1,-1,-1,-1,-1,-1,-1,-1,-1,-1,-1,-1,-1,-1,-1,-1,-1,-1,-1,-1,-1,-1,-1,-1,-1,-1,-1,-1,-1,-1,-1,-1,-1,-1],"split_conditions":[1.6851802E0,7.253744E-1,3.9412207E2,4.0076596E2,4.7275928E-1,2.0129151E0,2.0721917E0,3.40413E1,3.3913155E1,4.0985324E2,8.186716E0,-6.3607824E-1,-6.1015368E0,3.3032475E1,5.8309215E-1,-3.9174843E-1,-5.2249855E-1,4.1527115E2,-5.6640625E-1,3.1645948E1,8.5264015E-1,6.143814E0,-2.5759518E-1,4.975133E-1,-8.176669E-1,3.824415E2,-5.944153E0,4.957997E0,-6.8835455E-1,4.0265152E2,8.695894E-1,1.3052619E-1,7.026831E-1,3.8969034E2,-6.961626E0,-1.5711835E-1,9.584575E-2,4.0952954E2,-7.0008454E0,1.5282464E0,3.466553E1,1.0455108E0,-5.049611E-1,1.5871483E0,8.433914E-1,7.933533E-1,6.31952E-1,1.1042197E1,1.1042197E1,6.836203E-2,6.143814E0,-9.019799E-1,-3.687654E-1,3.8223486E2,-8.56551E-1,8.695894E-1,1.1338553E1,3.991797E2,3.4985874E1,-1.01745285E-1,-6.0657887E0,5.2249855E-1,9.998518E-1,-9.0811014E-1,8.0937654E-2,-1.2083143E0,-6.483718E-1,-1.0158137E0,-4.2031366E-1,-2.1880434E-1,3.4731486E-1,4.2838156E-2,-6.050258E-1,-1.716054E-1,5.00058E-1,-7.060663E-1,-2.27678E-2,3.8678214E-1,8.246581E-1,-2.042713E0,1.5370634E0,-4.3753788E-1,-1.1737932E0,-9.907241E-1,1.3048924E0,-6.674677E-1,1.6586973E-1,6.343853E-1,2.1659143E0,-4.3086264E-1,-3.783065E0,-1.033932E0,-2.7318761E0,-4.0482035E0,-2.6923876E0,1.6667259E-1,-9.265873E-1,-5.747991E-1,-1.5477042E0,3.1448767E-1,2.7376225E0,7.2455406E-1,-1.3905443E-2,2.053423E0,2.7878824E-1,3.0624214E-1,7.1614397E-1,-3.044425E-1,1.912119E-1,-1.3009094E0,-4.6859652E-1,3.1738513E0,1.9538287E0,1.2644666E0,1.9313012E-1,-3.502147E-1,2.4956642E-1,7.126658E-1,3.3480743E-1,4.622433E-1,8.099247E-1,1.0878369E0,3.692218E-1,1.3798451E0,1.902152E0,-1.4071147E-1,1.108653E0],"split_indices":[4,8,7,7,10,4,4,2,2,7,0,8,5,2,10,9,8,7,8,2,8,0,9,11,10,7,5,0,8,7,11,8,10,7,5,9,8,7,5,4,2,4,11,4,8,8,10,0,0,9,0,10,9,7,11,11,0,7,2,9,5,8,11,0,0,0,0,0,0,0,0,0,0,0,0,0,0,0,0,0,0,0,0,0,0,0,0,0,0,0,0,0,0,0,0,0,0,0,0,0,0,0,0,0,0,0,0,0,0,0,0,0,0,0,0,0,0,0,0,0,0,0,0,0,0,0,0],"split_type":[0,0,0,0,0,0,0,0,0,0,0,0,0,0,0,0,0,0,0,0,0,0,0,0,0,0,0,0,0,0,0,0,0,0,0,0,0,0,0,0,0,0,0,0,0,0,0,0,0,0,0,0,0,0,0,0,0,0,0,0,0,0,0,0,0,0,0,0,0,0,0,0,0,0,0,0,0,0,0,0,0,0,0,0,0,0,0,0,0,0,0,0,0,0,0,0,0,0,0,0,0,0,0,0,0,0,0,0,0,0,0,0,0,0,0,0,0,0,0,0,0,0,0,0,0,0,0],"sum_hessian":[1.43674E5,9.4371E4,4.9303E4,8.0498E4,1.3873E4,2.0629E4,2.8674E4,4.7787E4,3.2711E4,1.083E4,3.043E3,1.4033E4,6.596E3,2.1262E4,7.412E3,1.837E4,2.9417E4,1.3016E4,1.9695E4,8.709E3,2.121E3,8.67E2,2.176E3,3.519E3,1.0514E4,6.168E3,4.28E2,1.54E3,1.9722E4,5.151E3,2.261E3,6.071E3,1.2299E4,2.636E3,2.6781E4,9.296E3,3.72E3,1.89E3,1.7805E4,8.5E2,7.859E3,1.043E3,1.078E3,4.53E2,4.14E2,6.45E2,1.531E3,1.028E3,2.491E3,3.52E2,1.0162E4,1.87E3,4.298E3,3.08E2,1.2E2,5.85E2,9.55E2,5.493E3,1.4229E4,1.862E3,3.289E3,2.006E3,2.55E2,1.478E3,4.593E3,6.134E3,6.165E3,1.415E3,1.221E3,1.7887E4,8.894E3,4.176E3,5.12E3,7.14E2,3.006E3,7.93E2,1.097E3,1.1511E4,6.294E3,8.22E2,2.8E1,3.714E3,4.145E3,1.92E2,8.51E2,5.78E2,5E2,3.08E2,1.45E2,3.63E2,5.1E1,5.04E2,1.41E2,9.67E2,5.64E2,9.34E2,9.4E1,2.403E3,8.8E1,2.2E2,1.32E2,6.8E2,9.482E3,2.8E1,1.842E3,7.76E2,3.522E3,1.14E2,1.94E2,2.9E1,9.1E1,4.07E2,1.78E2,5.66E2,3.89E2,1.49E3,4.003E3,8.367E3,5.862E3,1.159E3,7.03E2,2.926E3,3.63E2,1.065E3,9.41E2,3E1,2.25E2],"tree_param":{"num_deleted":"0","num_feature":"13","num_nodes":"127","size_leaf_vector":"1"}},{"base_weights":[1.9716598E-2,-5.0284734E0,5.2922206E0,-1.4445528E1,-2.2597826E0,5.2639127E-1,1.1312268E1,-2.8783503E1,-4.941086E0,-6.445771E0,-8.2624555E-2,-1.6899582E1,5.104349E0,-4.5582466E0,1.8136541E1,-9.159378E0,-3.8951397E1,-1.9136713E1,4.542321E0,1.231053E-1,-1.1951946E1,-7.810247E0,1.1175017E0,-2.2695051E1,-5.5550957E-1,1.065825E1,-8.099228E-1,5.0883737E0,-7.2969785E0,1.1803644E1,2.2878765E1,-1.4775104E1,9.670087E0,-1.8928707E1,-4.5672688E1,-6.421408E1,-1.8065647E1,-1.6318815E1,1.1836182E1,7.6990438E0,-5.055061E0,-1.9189005E1,-2.9311118E0,1.1629555E1,-1.4367448E1,-1.927722E0,6.2916045E0,-1.2514904E1,-4.048602E1,-2.727271E1,5.133122E0,1.6540829E1,2.728617E0,-5.6594996E0,1.0612434E1,1.3109707E1,1.527177E0,-1.5658722E1,-4.117165E0,1.5268289E1,-3.6938566E-1,1.5846614E1,2.8076393E1,-5.5073154E-1,-1.3811904E0,2.9074168E-1,1.7065041E0,5.5763185E-1,-1.2169973E0,-2.8268118E0,-1.509641E0,-4.2398334E0,-2.3888361E0,-1.3914411E0,-7.500934E-1,7.436318E-1,-1.198347E0,4.790806E-1,2.1661136E0,-1.8722992E-1,9.7140217E-1,-7.913949E-1,8.827438E-2,-1.1083728E0,-5.115169E-1,-5.023065E-2,-1.228254E0,1.0003557E0,4.2256784E-1,5.206107E-1,-7.903758E-1,3.7638515E-1,-2.9071507E-1,-6.881875E-1,5.2540755E-1,-6.1757296E-2,-9.0870565E-1,-5.53296E-1,-2.5494447E0,-2.030972E0,-9.9427336E-1,-3.4741473E-1,9.124926E-1,1.0896486E0,3.8724184E-1,-1.622842E-1,5.30451E-1,-7.6568976E-2,-4.7245255E-1,3.9373577E-1,1.1628135E0,1.2750355E0,5.601821E-1,5.0522333E-1,-3.6106396E-2,-1.952533E0,-6.282159E-1,-1.0496296E0,-1.5999746E-1,5.645763E-1,1.0771668E0,-5.981429E-1,2.831074E-1,7.0528185E-1,1.0873301E0,8.8806736E-1,1.84591E0],"categories":[],"categories_nodes":[],"categories_segments":[],"categories_sizes":[],"default_left":[0,0,0,0,0,0,0,0,0,0,0,0,0,0,0,0,0,0,0,0,0,0,0,0,0,0,0,0,0,0,0,0,0,0,0,0,0,0,0,0,0,0,0,0,0,0,0,0,0,0,0,0,0,0,0,0,0,0,0,0,0,0,0,0,0,0,0,0,0,0,0,0,0,0,0,0,0,0,0,0,0,0,0,0,0,0,0,0,0,0,0,0,0,0,0,0,0,0,0,0,0,0,0,0,0,0,0,0,0,0,0,0,0,0,0,0,0,0,0,0,0,0,0,0,0,0,0],"id":8,"left_children":[1,3,5,7,9,11,13,15,17,19,21,23,25,27,29,31,33,35,37,39,41,43,45,47,49,51,53,55,57,59,61,63,65,67,69,71,73,75,77,79,81,83,85,87,89,91,93,95,97,99,101,103,105,107,109,111,113,115,117,119,121,123,125,-1,-1,-1,-1,-1,-1,-1,-1,-1,-1,-1,-1,-1,-1,-1,-1,-1,-1,-1,-1,-1,-1,-1,-1,-1,-1,-1,-1,-1,-1,-1,-1,-1,-1,-1,-1,-1,-1,-1,-1,-1,-1,-1,-1,-1,-1,-1,-1,-1,-1,-1,-1,-1,-1,-1,-1,-1,-1,-1,-1,-1,-1,-1,-1],"loss_changes":[3.8306615E6,1.9169506E6,2.0196906E6,2.2763195E6,5.1783116E5,3.134619E6,3.368903E6,1.3283485E6,1.3526448E6,7.031718E5,3.466761E5,7.7433375E5,1.0221513E6,2.4716542E5,6.52983E5,2.4059869E5,5.893895E5,1.93114E5,9.1679375E5,3.4784762E5,6.903884E5,6.407075E5,5.0982344E5,1.092515E6,3.2554062E5,7.48539E5,8.348965E5,5.9080637E4,1.936594E5,3.929115E5,4.54129E5,8.434359E4,4.911617E4,1.7997894E5,5.503745E5,2.73995E4,1.17193E5,3.7274344E5,3.164682E5,4.8327516E5,3.8703094E5,1.563455E5,1.9623361E5,3.3589266E4,1.3426712E5,7.4858925E5,1.01390144E6,2.4510012E5,6.779835E5,3.6258094E4,2.7998366E5,4.2544875E5,3.2187334E5,1.6549503E5,1.5530553E5,1.4731695E4,2.767431E4,1.4477916E5,8.165637E4,1.8072262E5,1.4446642E5,5.4006625E4,6.514445E5,0E0,0E0,0E0,0E0,0E0,0E0,0E0,0E0,0E0,0E0,0E0,0E0,0E0,0E0,0E0,0E0,0E0,0E0,0E0,0E0,0E0,0E0,0E0,0E0,0E0,0E0,0E0,0E0,0E0,0E0,0E0,0E0,0E0,0E0,0E0,0E0,0E0,0E0,0E0,0E0,0E0,0E0,0E0,0E0,0E0,0E0,0E0,0E0,0E0,0E0,0E0,0E0,0E0,0E0,0E0,0E0,0E0,0E0,0E0,0E0,0E0,0E0,0E0,0E0],"parents":[2147483647,0,0,1,1,2,2,3,3,4,4,5,5,6,6,7,7,8,8,9,9,10,10,11,11,12,12,13,13,14,14,15,15,16,16,17,17,18,18,19,19,20,20,21,21,22,22,23,23,24,24,25,25,26,26,27,27,28,28,29,29,30,30,31,31,32,32,33,33,34,34,35,35,36,36,37,37,38,38,39,39,40,40,41,41,42,42,43,43,44,44,45,45,46,46,47,47,48,48,49,49,50,50,51,51,52,52,53,53,54,54,55,55,56,56,57,57,58,58,59,59,60,60,61,61,62,62],"right_children":[2,4,6,8,10,12,14,16,18,20,22,24,26,28,30,32,34,36,38,40,42,44,46,48,50,52,54,56,58,60,62,64,66,68,70,72,74,76,78,80,82,84,86,88,90,92,94,96,98,100,102,104,106,108,110,112,114,116,118,120,122,124,126,-1,-1,-1,-1,-1,-1,-1,-1,-1,-1,-1,-1,-1,-1,-1,-1,-1,-1,-1,-1,-1,-1,-1,-1,-1,-1,-1,-1,-1,-1,-1,-1,-1,-1,-1,-1,-1,-1,-1,-1,-1,-1,-1,-1,-1,-1,-1,-1,-1,-1,-1,-1,-1,-1,-1,-1,-1,-1,-1,-1,-1,-1,-1,-1],"split_conditions":[3.967617E2,-2.0451355E-1,5.012418E-1,-4.9377555E-1,3.8361252E2,-4.3709946E-1,8.726535E-3,5.3729963E-1,1.4780942E-1,3.665012E-1,-6.087614E-1,4.975133E-1,3.502074E-1,-4.7495106E-1,-4.7495106E-1,-6.614971E0,-7.2167854E0,-9.5881975E-1,-8.7380713E-1,-4.9377555E-1,1.7213356E-2,-4.9377555E-1,5.234156E-1,7.1325046E-1,9.584575E-2,8.5207754E-1,8.5207754E-1,-8.56551E-1,4.009158E2,7.933533E-1,-6.783569E0,2.9373121E1,1.13934994E-1,-5.8121336E-1,-4.7495106E-1,-7.323189E-1,3.335898E1,-7.2370906E0,3.958042E2,-6.669971E0,-2.6723838E-1,4.975133E-1,-6.009059E0,-1.2910296E-2,-4.9002868E-1,2.3344536E-1,-2.6176948E-2,-8.653073E-1,-3.3694945E-2,-8.4724426E-1,8.5207754E-1,8.726535E-3,-5.51937E-1,5.6640625E-1,8.5264015E-1,1.5318419E1,6.854764E0,-8.720732E-2,-4.9962234E-1,4.0960068E2,-8.56551E-1,4.1563495E2,-1.8906532E-1,-5.5073154E-1,-1.3811904E0,2.9074168E-1,1.7065041E0,5.5763185E-1,-1.2169973E0,-2.8268118E0,-1.509641E0,-4.2398334E0,-2.3888361E0,-1.3914411E0,-7.500934E-1,7.436318E-1,-1.198347E0,4.790806E-1,2.1661136E0,-1.8722992E-1,9.7140217E-1,-7.913949E-1,8.827438E-2,-1.1083728E0,-5.115169E-1,-5.023065E-2,-1.228254E0,1.0003557E0,4.2256784E-1,5.206107E-1,-7.903758E-1,3.7638515E-1,-2.9071507E-1,-6.881875E-1,5.2540755E-1,-6.1757296E-2,-9.0870565E-1,-5.53296E-1,-2.5494447E0,-2.030972E0,-9.9427336E-1,-3.4741473E-1,9.124926E-1,1.0896486E0,3.8724184E-1,-1.622842E-1,5.30451E-1,-7.6568976E-2,-4.7245255E-1,3.9373577E-1,1.1628135E0,1.2750355E0,5.601821E-1,5.0522333E-1,-3.6106396E-2,-1.952533E0,-6.282159E-1,-1.0496296E0,-1.5999746E-1,5.645763E-1,1.0771668E0,-5.981429E-1,2.831074E-1,7.0528185E-1,1.0873301E0,8.8806736E-1,1.84591E0],"split_indices":[7,3,12,12,7,3,8,8,8,8,8,11,8,11,11,5,5,8,11,12,12,12,12,8,8,11,11,11,7,8,5,0,6,10,11,3,2,5,7,5,8,11,5,11,11,8,8,11,10,3,11,8,8,8,8,0,0,6,3,7,11,7,10,0,0,0,0,0,0,0,0,0,0,0,0,0,0,0,0,0,0,0,0,0,0,0,0,0,0,0,0,0,0,0,0,0,0,0,0,0,0,0,0,0,0,0,0,0,0,0,0,0,0,0,0,0,0,0,0,0,0,0,0,0,0,0,0],"split_type":[0,0,0,0,0,0,0,0,0,0,0,0,0,0,0,0,0,0,0,0,0,0,0,0,0,0,0,0,0,0,0,0,0,0,0,0,0,0,0,0,0,0,0,0,0,0,0,0,0,0,0,0,0,0,0,0,0,0,0,0,0,0,0,0,0,0,0,0,0,0,0,0,0,0,0,0,0,0,0,0,0,0,0,0,0,0,0,0,0,0,0,0,0,0,0,0,0,0,0,0,0,0,0,0,0,0,0,0,0,0,0,0,0,0,0,0,0,0,0,0,0,0,0,0,0,0,0],"sum_hessian":[1.43918E5,7.3523E4,7.0395E4,1.6704E4,5.6819E4,3.9291E4,3.1104E4,6.658E3,1.0046E4,1.944E4,3.7379E4,8.174E3,3.1117E4,9.353E3,2.1751E4,2.273E3,4.385E3,4.023E3,6.023E3,8.865E3,1.0575E4,5.024E3,3.2355E4,6.034E3,2.14E3,1.6047E4,1.507E4,2.068E3,7.285E3,9.315E3,1.2436E4,1.751E3,5.22E2,1.103E3,3.282E3,9.2E1,3.931E3,1.56E3,4.463E3,3.599E3,5.266E3,5.867E3,4.708E3,1.267E3,3.757E3,2.0368E4,1.1987E4,3.839E3,2.195E3,3.75E2,1.765E3,9.212E3,6.835E3,1.0579E4,4.491E3,6.35E2,1.433E3,2.006E3,5.279E3,7.251E3,2.064E3,5.287E3,7.149E3,1.356E3,3.95E2,4.52E2,7E1,1.68E2,9.35E2,1.927E3,1.355E3,3.9E1,5.3E1,9.37E2,2.994E3,3.07E2,1.253E3,4.166E3,2.97E2,1.822E3,1.777E3,2.041E3,3.225E3,4.402E3,1.465E3,4.324E3,3.84E2,3.47E2,9.2E2,2.06E2,3.551E3,5.933E3,1.4435E4,2.082E3,9.905E3,1.283E3,2.556E3,5.78E2,1.617E3,1.32E2,2.43E2,9.19E2,8.46E2,5.767E3,3.445E3,3.888E3,2.947E3,5.064E3,5.515E3,3.693E3,7.98E2,8.3E1,5.52E2,2.97E2,1.136E3,2.33E2,1.773E3,2.71E2,5.008E3,4.44E3,2.811E3,7.06E2,1.358E3,4.085E3,1.202E3,3.301E3,3.848E3],"tree_param":{"num_deleted":"0","num_feature":"13","num_nodes":"127","size_leaf_vector":"1"}},{"base_weights":[-2.7328692E-2,-5.1742177E0,6.472753E0,-2.401815E0,-2.0536318E1,2.7936466E0,1.2816519E1,-8.559703E0,2.0012517E0,-3.273008E1,-1.3203083E1,-1.0308982E0,8.671338E0,1.0069151E1,2.1209858E1,6.803439E-1,-1.30564575E1,-2.0900295E0,8.794174E0,-8.754574E0,-4.6738808E1,-3.752324E0,-2.0054655E1,-9.492023E0,1.4342947E0,1.1623842E1,2.9175322E0,1.3006119E1,4.1411448E0,2.489681E1,1.5118966E1,3.40275E0,-1.8731585E1,-1.5715533E1,-1.4878108E-1,-3.5768867E-2,-1.0142378E1,-4.3701916E0,1.0373049E1,-3.3351715E1,6.673838E0,-2.7759483E1,-6.7671326E1,-8.455399E0,1.6291477E1,-2.922556E1,-1.46800995E1,-7.639646E0,-1.915077E1,2.4747482E1,3.263329E-1,4.880878E1,1.1014534E1,-1.9381288E0,6.3710938E0,3.142453E1,1.155607E1,-1.9557494E-1,7.7001605E0,1.4846891E1,2.8325104E1,1.6677315E1,2.2377224E0,-8.4772176E-1,2.9570028E-1,-7.3068345E-1,-1.9047291E0,-7.252516E-1,-1.6931591E0,-6.611244E-2,1.4079622E0,2.0754335E0,-2.5070844E-2,-1.0480123E0,-3.982254E-1,2.3431677E-2,-6.5694517E-1,3.846463E-1,8.4451294E-1,-9.513958E-1,-1.9019635E0,8.555647E-1,-7.2759503E-1,-5.2874607E-1,-1.9326833E0,-2.2821376E0,-3.7453377E0,-1.086974E0,-2.4826208E-1,2.2915847E0,4.361128E-1,-9.341979E-1,-1.6228062E0,-8.894812E-1,-3.5902417E-1,5.342624E-1,-4.276466E-1,-4.5038086E-1,-1.3797522E0,5.7773036E-1,1.6113532E0,1.7468406E-1,-2.378817E-1,2.895911E0,1.3297218E0,3.3021685E-1,7.15372E-1,-3.9912304E-1,2.5476908E-2,3.555069E-1,-6.509586E-1,2.6591477E0,6.8611944E-1,2.759345E-1,7.384842E-1,8.697781E-2,-3.964287E-1,-1.5509881E-1,4.5877662E-1,6.455559E-1,1.3432628E0,1.5850252E0,1.1198815E0,6.7169374E-1,1.0168576E0,2.772363E-1,-2.3308682E-1],"categories":[],"categories_nodes":[],"categories_segments":[],"categories_sizes":[],"default_left":[0,0,0,0,0,0,0,0,0,0,0,0,0,0,0,0,0,0,0,0,0,0,0,0,0,0,0,0,0,0,0,0,0,0,0,0,0,0,0,0,0,0,0,0,0,0,0,0,0,0,0,0,0,0,0,0,0,0,0,0,0,0,0,0,0,0,0,0,0,0,0,0,0,0,0,0,0,0,0,0,0,0,0,0,0,0,0,0,0,0,0,0,0,0,0,0,0,0,0,0,0,0,0,0,0,0,0,0,0,0,0,0,0,0,0,0,0,0,0,0,0,0,0,0,0,0,0],"id":9,"left_children":[1,3,5,7,9,11,13,15,17,19,21,23,25,27,29,31,33,35,37,39,41,43,45,47,49,51,53,55,57,59,61,63,65,67,69,71,73,75,77,79,81,83,85,87,89,91,93,95,97,99,101,103,105,107,109,111,113,115,117,119,121,123,125,-1,-1,-1,-1,-1,-1,-1,-1,-1,-1,-1,-1,-1,-1,-1,-1,-1,-1,-1,-1,-1,-1,-1,-1,-1,-1,-1,-1,-1,-1,-1,-1,-1,-1,-1,-1,-1,-1,-1,-1,-1,-1,-1,-1,-1,-1,-1,-1,-1,-1,-1,-1,-1,-1,-1,-1,-1,-1,-1,-1,-1,-1,-1,-1],"loss_changes":[4.821429E6,3.4254562E6,1.486355E6,1.8474024E6,1.099068E6,9.061581E5,5.388475E5,1.1803271E6,1.1041576E6,1.55028E6,4.97222E5,5.0939506E5,2.6990612E5,3.0661038E5,1.29061E5,4.9154072E5,6.558305E5,4.1016466E5,3.104475E5,6.4688444E5,1.155801E6,3.045267E5,2.1900362E5,9.843403E4,4.8848872E5,2.3737825E5,9.0399445E4,3.141945E5,9.009315E4,1.23231E5,4.3640688E4,4.1710206E5,9.065509E4,3.475605E5,1.08493125E5,3.822175E5,1.1857216E5,6.789584E4,2.3278888E5,4.3383875E4,2.3242602E5,2.8602038E5,2.17319E5,1.21176375E5,1.3688303E5,5.537525E4,6.5376188E4,7.749456E4,7.563503E4,8.428825E4,2.9075066E5,3.2650125E4,1.4996312E5,3.3159316E4,4.5232305E4,3.301252E5,2.1178412E5,3.9400625E4,5.1123656E4,2.0936469E4,5.280475E4,2.2763938E4,5.4106387E3,0E0,0E0,0E0,0E0,0E0,0E0,0E0,0E0,0E0,0E0,0E0,0E0,0E0,0E0,0E0,0E0,0E0,0E0,0E0,0E0,0E0,0E0,0E0,0E0,0E0,0E0,0E0,0E0,0E0,0E0,0E0,0E0,0E0,0E0,0E0,0E0,0E0,0E0,0E0,0E0,0E0,0E0,0E0,0E0,0E0,0E0,0E0,0E0,0E0,0E0,0E0,0E0,0E0,0E0,0E0,0E0,0E0,0E0,0E0,0E0,0E0,0E0,0E0,0E0],"parents":[2147483647,0,0,1,1,2,2,3,3,4,4,5,5,6,6,7,7,8,8,9,9,10,10,11,11,12,12,13,13,14,14,15,15,16,16,17,17,18,18,19,19,20,20,21,21,22,22,23,23,24,24,25,25,26,26,27,27,28,28,29,29,30,30,31,31,32,32,33,33,34,34,35,35,36,36,37,37,38,38,39,39,40,40,41,41,42,42,43,43,44,44,45,45,46,46,47,47,48,48,49,49,50,50,51,51,52,52,53,53,54,54,55,55,56,56,57,57,58,58,59,59,60,60,61,61,62,62],"right_children":[2,4,6,8,10,12,14,16,18,20,22,24,26,28,30,32,34,36,38,40,42,44,46,48,50,52,54,56,58,60,62,64,66,68,70,72,74,76,78,80,82,84,86,88,90,92,94,96,98,100,102,104,106,108,110,112,114,116,118,120,122,124,126,-1,-1,-1,-1,-1,-1,-1,-1,-1,-1,-1,-1,-1,-1,-1,-1,-1,-1,-1,-1,-1,-1,-1,-1,-1,-1,-1,-1,-1,-1,-1,-1,-1,-1,-1,-1,-1,-1,-1,-1,-1,-1,-1,-1,-1,-1,-1,-1,-1,-1,-1,-1,-1,-1,-1,-1,-1,-1,-1,-1,-1,-1,-1,-1],"split_conditions":[1.5826607E0,7.253744E-1,4.029405E2,1.5343857E-1,-1.2031631E0,1.8834662E0,2.0129151E0,-3.9972955E-1,4.0076596E2,8.664737E0,7.4874115E-1,-6.087614E-1,8.182335E-2,4.4809914E-1,1.2719727E0,2.864623E1,4.1239484E2,2.5281715E-1,-5.3729963E-1,1.0967969E0,-2.702657E-1,4.0932413E2,3.8502206E2,4.5656395E-1,4.5672274E0,-1.0211334E0,2.0469506E0,-8.882103E-1,4.124629E2,-7.0090926E-1,-6.0314584E0,-4.3619387E-2,6.8373966E-1,1.1677276E0,4.2398154E2,-9.6351576E-1,-4.461978E-1,3.6448288E-1,4.1511423E2,-3.0261883E-1,-1.5711835E-1,1.2120824E1,-8.653073E-1,-3.7349716E-1,-2.0229673E-1,-7.0876694E-1,4.0883005E2,-1.2910296E-2,3.3427286E0,3.874471E2,-3.0898094E-2,3.3427286E0,3.874471E2,-6.755902E-1,-6.009059E0,7.0288258E0,-5.6640625E-1,1.1328999E0,-5.6640625E-1,2.3004866E0,2.809639E-1,4.124629E2,-5.897473E0,-8.4772176E-1,2.9570028E-1,-7.3068345E-1,-1.9047291E0,-7.252516E-1,-1.6931591E0,-6.611244E-2,1.4079622E0,2.0754335E0,-2.5070844E-2,-1.0480123E0,-3.982254E-1,2.3431677E-2,-6.5694517E-1,3.846463E-1,8.4451294E-1,-9.513958E-1,-1.9019635E0,8.555647E-1,-7.2759503E-1,-5.2874607E-1,-1.9326833E0,-2.2821376E0,-3.7453377E0,-1.086974E0,-2.4826208E-1,2.2915847E0,4.361128E-1,-9.341979E-1,-1.6228062E0,-8.894812E-1,-3.5902417E-1,5.342624E-1,-4.276466E-1,-4.5038086E-1,-1.3797522E0,5.7773036E-1,1.6113532E0,1.7468406E-1,-2.378817E-1,2.895911E0,1.3297218E0,3.3021685E-1,7.15372E-1,-3.9912304E-1,2.5476908E-2,3.555069E-1,-6.509586E-1,2.6591477E0,6.8611944E-1,2.759345E-1,7.384842E-1,8.697781E-2,-3.964287E-1,-1.5509881E-1,4.5877662E-1,6.455559E-1,1.3432628E0,1.5850252E0,1.1198815E0,6.7169374E-1,1.0168576E0,2.772363E-1,-2.3308682E-1],"split_indices":[4,8,7,3,3,4,4,9,7,0,3,8,1,1,3,0,7,1,8,4,9,7,7,1,0,3,4,3,7,8,5,8,1,1,7,9,8,1,7,9,9,0,11,9,6,1,7,11,0,7,1,0,7,8,5,0,8,1,8,4,1,7,5,0,0,0,0,0,0,0,0,0,0,0,0,0,0,0,0,0,0,0,0,0,0,0,0,0,0,0,0,0,0,0,0,0,0,0,0,0,0,0,0,0,0,0,0,0,0,0,0,0,0,0,0,0,0,0,0,0,0,0,0,0,0,0,0],"split_type":[0,0,0,0,0,0,0,0,0,0,0,0,0,0,0,0,0,0,0,0,0,0,0,0,0,0,0,0,0,0,0,0,0,0,0,0,0,0,0,0,0,0,0,0,0,0,0,0,0,0,0,0,0,0,0,0,0,0,0,0,0,0,0,0,0,0,0,0,0,0,0,0,0,0,0,0,0,0,0,0,0,0,0,0,0,0,0,0,0,0,0,0,0,0,0,0,0,0,0,0,0,0,0,0,0,0,0,0,0,0,0,0,0,0,0,0,0,0,0,0,0,0,0,0,0,0,0],"sum_hessian":[1.44114E5,8.0429E4,6.3685E4,6.8134E4,1.2295E4,4.0309E4,2.3376E4,2.8406E4,3.9728E4,4.616E3,7.679E3,2.442E4,1.5889E4,1.7613E4,5.763E3,9.299E3,1.9107E4,2.4795E4,1.4933E4,1.703E3,2.913E3,3.228E3,4.451E3,5.509E3,1.8911E4,1.05E4,5.389E3,1.1777E4,5.836E3,3.588E3,2.175E3,8.156E3,1.143E3,1.5843E4,3.264E3,1.9756E4,5.039E3,1.599E3,1.3334E4,6.56E2,1.047E3,1.529E3,1.384E3,2.615E3,6.13E2,1.643E3,2.808E3,4.624E3,8.85E2,8.57E2,1.8054E4,1.68E2,1.0332E4,2.24E3,3.149E3,8.58E2,1.0919E4,2.631E3,3.205E3,9.14E2,2.674E3,1.94E3,2.35E2,8.95E2,7.261E3,9.44E2,1.99E2,1.4854E4,9.89E2,3.135E3,1.29E2,2.18E2,1.9538E4,8.43E2,4.196E3,1.031E3,5.68E2,9.45E3,3.884E3,1.63E2,4.93E2,7.02E2,3.45E2,5.94E2,9.35E2,3.44E2,1.04E3,5.43E2,2.072E3,1.24E2,4.89E2,3.87E2,1.256E3,1.984E3,8.24E2,2.19E2,4.405E3,4.03E2,4.82E2,3.11E2,5.46E2,1.1124E4,6.93E3,1.18E2,5E1,4.418E3,5.914E3,6.45E2,1.595E3,3.034E3,1.15E2,3.84E2,4.74E2,3.794E3,7.125E3,2.105E3,5.26E2,3.85E2,2.82E3,7.89E2,1.25E2,1.701E3,9.73E2,1.031E3,9.09E2,1.59E2,7.6E1],"tree_param":{"num_deleted":"0","num_feature":"13","num_nodes":"127","size_leaf_vector":"1"}},{"base_weights":[-3.942973E-3,-5.1938343E0,5.783705E0,-2.4579816E0,-2.0463003E1,3.328401E0,1.38833885E1,-1.8633516E1,-9.186942E-1,-2.8042233E1,-1.7060301E0,-3.650879E0,5.4386225E0,1.0858287E1,2.091807E1,-1.8775893E0,-2.3331776E1,-7.3683057E0,3.6939707E0,-1.70496E1,-5.2734154E1,-9.099697E0,1.2254044E1,6.8810916E0,-7.846271E0,-4.6587653E0,8.835955E0,1.1563329E1,-3.0910585E0,1.6624582E1,2.6347445E1,1.2919618E1,-5.4702535E0,-2.1975573E1,-5.2269135E1,1.6836694E0,-2.0026024E1,-5.030724E0,6.486554E0,1.9319091E0,-2.0720528E1,-3.9993004E1,-6.92312E1,3.126189E0,-1.74071E1,2.5544484E0,2.9711576E1,1.2964457E1,1.8154415E0,-6.2307816E0,-1.8984304E1,2.0746767E1,-1.0354148E1,2.8861612E1,6.9354796E0,8.248972E0,1.4003394E1,8.939359E0,-5.4527717E0,2.16355E1,1.1957144E1,-5.0377398E0,2.819994E1,8.1573844E-2,8.595688E-1,-9.321909E-2,-4.6181503E-1,-1.9166037E0,-1.0420079E0,-2.7658117E0,1.860075E-1,8.290076E-1,-1.6734925E-1,-5.5095494E-1,-1.5552257E0,7.607295E-2,-5.013389E-1,1.0816409E-1,6.1165726E-1,-1.4256108E0,3.6830115E-1,-4.1246563E-1,-1.1004361E0,-2.1652443E0,-1.5570103E-1,-3.9079945E0,-2.2714152E0,1.414991E0,-3.6644805E-2,-6.085556E-1,-1.3517532E0,1.2241367E0,5.3385455E-2,4.473905E0,1.3293108E0,5.1424927E-1,1.1447394E0,3.5171005E-1,-1.2323947E-1,-2.7226555E-1,-1.0828772E0,-6.847265E-1,-1.4792014E0,9.667992E-1,1.9872414E0,-3.2976553E-1,-1.1492656E0,4.7055778E-1,2.0195184E0,5.1118577E-1,1.5020435E-1,6.340908E-1,2.4767216E-1,9.624258E-1,6.300987E-1,1.5368648E-1,8.4693193E-1,-8.5822806E-2,-5.883278E-1,5.822918E-1,1.1885889E0,6.987435E-1,8.726851E-2,-3.2662157E-2,-8.936912E-1,1.5777596E0,1.1741511E0],"categories":[],"categories_nodes":[],"categories_segments":[],"categories_sizes":[],"default_left":[0,0,0,0,0,0,0,0,0,0,0,0,0,0,0,0,0,0,0,0,0,0,0,0,0,0,0,0,0,0,0,0,0,0,0,0,0,0,0,0,0,0,0,0,0,0,0,0,0,0,0,0,0,0,0,0,0,0,0,0,0,0,0,0,0,0,0,0,0,0,0,0,0,0,0,0,0,0,0,0,0,0,0,0,0,0,0,0,0,0,0,0,0,0,0,0,0,0,0,0,0,0,0,0,0,0,0,0,0,0,0,0,0,0,0,0,0,0,0,0,0,0,0,0,0,0,0],"id":10,"left_children":[1,3,5,7,9,11,13,15,17,19,21,23,25,27,29,31,33,35,37,39,41,43,45,47,49,51,53,55,57,59,61,63,65,67,69,71,73,75,77,79,81,83,85,87,89,91,93,95,97,99,101,103,105,107,109,111,113,115,117,119,121,123,125,-1,-1,-1,-1,-1,-1,-1,-1,-1,-1,-1,-1,-1,-1,-1,-1,-1,-1,-1,-1,-1,-1,-1,-1,-1,-1,-1,-1,-1,-1,-1,-1,-1,-1,-1,-1,-1,-1,-1,-1,-1,-1,-1,-1,-1,-1,-1,-1,-1,-1,-1,-1,-1,-1,-1,-1,-1,-1,-1,-1,-1,-1,-1,-1],"loss_changes":[4.3280095E6,3.173408E6,1.354687E6,1.604086E6,1.640941E6,7.69932E5,3.369825E5,4.4064875E5,1.7501546E6,2.2305135E6,3.430984E5,5.3633656E5,1.3770114E6,1.090365E5,1.10611125E5,6.5298953E4,1.70423E5,2.810618E6,8.357085E5,3.9651962E5,5.294245E5,2.2075738E5,1.9482088E5,1.0653742E5,1.5606169E5,1.4624936E6,1.142876E6,8.5202625E4,1.5220613E4,6.2020562E4,1.22356625E5,1.1542922E4,1.3398594E4,7.6786375E4,3.3478875E4,1.0719101E6,1.02023475E6,2.7227353E5,6.454956E5,1.5290611E5,7.6415E4,1.746415E5,2.30644E5,8.551302E4,6.4900062E4,2.4129123E4,7.438103E4,4.1562438E4,4.2190984E4,9.1752375E4,6.1211625E4,4.8836375E4,3.9182806E5,5.8331025E5,3.5460388E5,6.5323375E4,4.4409375E4,4.0749658E3,1.0523313E4,2.709975E4,2.8428953E4,6.6274824E3,3.0668875E4,0E0,0E0,0E0,0E0,0E0,0E0,0E0,0E0,0E0,0E0,0E0,0E0,0E0,0E0,0E0,0E0,0E0,0E0,0E0,0E0,0E0,0E0,0E0,0E0,0E0,0E0,0E0,0E0,0E0,0E0,0E0,0E0,0E0,0E0,0E0,0E0,0E0,0E0,0E0,0E0,0E0,0E0,0E0,0E0,0E0,0E0,0E0,0E0,0E0,0E0,0E0,0E0,0E0,0E0,0E0,0E0,0E0,0E0,0E0,0E0,0E0,0E0,0E0,0E0],"parents":[2147483647,0,0,1,1,2,2,3,3,4,4,5,5,6,6,7,7,8,8,9,9,10,10,11,11,12,12,13,13,14,14,15,15,16,16,17,17,18,18,19,19,20,20,21,21,22,22,23,23,24,24,25,25,26,26,27,27,28,28,29,29,30,30,31,31,32,32,33,33,34,34,35,35,36,36,37,37,38,38,39,39,40,40,41,41,42,42,43,43,44,44,45,45,46,46,47,47,48,48,49,49,50,50,51,51,52,52,53,53,54,54,55,55,56,56,57,57,58,58,59,59,60,60,61,61,62,62],"right_children":[2,4,6,8,10,12,14,16,18,20,22,24,26,28,30,32,34,36,38,40,42,44,46,48,50,52,54,56,58,60,62,64,66,68,70,72,74,76,78,80,82,84,86,88,90,92,94,96,98,100,102,104,106,108,110,112,114,116,118,120,122,124,126,-1,-1,-1,-1,-1,-1,-1,-1,-1,-1,-1,-1,-1,-1,-1,-1,-1,-1,-1,-1,-1,-1,-1,-1,-1,-1,-1,-1,-1,-1,-1,-1,-1,-1,-1,-1,-1,-1,-1,-1,-1,-1,-1,-1,-1,-1,-1,-1,-1,-1,-1,-1,-1,-1,-1,-1,-1,-1,-1,-1,-1,-1,-1,-1],"split_conditions":[1.5441476E0,7.253744E-1,2.0129151E0,-5.9482276E-1,1.7213356E-2,-6.087614E-1,5.5958337E-1,-8.606997E-3,-4.9377555E-1,-3.3694945E-2,5.234156E-1,1.7213356E-2,-5.160624E-1,-6.009059E0,5.234156E-1,-5.160624E-1,-6.049858E0,4.617486E-1,-8.726535E-3,-7.159606E0,-1.4622448E-1,7.933533E-1,-2.7021304E-1,-4.9377555E-1,5.1233625E-1,6.104854E-2,3.29916E1,7.372773E-1,-2.1800922E-1,1.6593754E1,-5.51937E-1,1.3126862E0,-2.4633288E-2,3.29916E1,8.717063E-1,8.726535E-3,-7.449592E0,5.234156E-1,5.234156E-1,-3.3234996E-1,-5.258634E-1,1.4021854E0,-4.9377555E-1,-6.87018E0,4.8370552E-1,-6.800651E0,8.6314213E-1,-7.372773E-1,2.7952194E-3,3.439808E1,2.2311181E-1,-6.091151E0,4.5722652E-2,-6.3758245E0,3.4816326E1,-4.9377555E-1,5.569178E0,8.7881714E-1,-5.897473E0,-7.1325046E-1,4.862727E-1,3.33354E-1,7.0691603E-1,8.1573844E-2,8.595688E-1,-9.321909E-2,-4.6181503E-1,-1.9166037E0,-1.0420079E0,-2.7658117E0,1.860075E-1,8.290076E-1,-1.6734925E-1,-5.5095494E-1,-1.5552257E0,7.607295E-2,-5.013389E-1,1.0816409E-1,6.1165726E-1,-1.4256108E0,3.6830115E-1,-4.1246563E-1,-1.1004361E0,-2.1652443E0,-1.5570103E-1,-3.9079945E0,-2.2714152E0,1.414991E0,-3.6644805E-2,-6.085556E-1,-1.3517532E0,1.2241367E0,5.3385455E-2,4.473905E0,1.3293108E0,5.1424927E-1,1.1447394E0,3.5171005E-1,-1.2323947E-1,-2.7226555E-1,-1.0828772E0,-6.847265E-1,-1.4792014E0,9.667992E-1,1.9872414E0,-3.2976553E-1,-1.1492656E0,4.7055778E-1,2.0195184E0,5.1118577E-1,1.5020435E-1,6.340908E-1,2.4767216E-1,9.624258E-1,6.300987E-1,1.5368648E-1,8.4693193E-1,-8.5822806E-2,-5.883278E-1,5.822918E-1,1.1885889E0,6.987435E-1,8.726851E-2,-3.2662157E-2,-8.936912E-1,1.5777596E0,1.1741511E0],"split_indices":[4,8,4,8,12,8,10,12,12,10,12,12,12,5,12,12,5,8,8,5,9,8,10,12,1,8,2,8,9,0,8,4,1,2,12,8,5,12,12,9,10,4,12,5,1,5,12,8,1,2,10,5,9,5,2,12,0,8,5,8,12,9,10,0,0,0,0,0,0,0,0,0,0,0,0,0,0,0,0,0,0,0,0,0,0,0,0,0,0,0,0,0,0,0,0,0,0,0,0,0,0,0,0,0,0,0,0,0,0,0,0,0,0,0,0,0,0,0,0,0,0,0,0,0,0,0,0],"split_type":[0,0,0,0,0,0,0,0,0,0,0,0,0,0,0,0,0,0,0,0,0,0,0,0,0,0,0,0,0,0,0,0,0,0,0,0,0,0,0,0,0,0,0,0,0,0,0,0,0,0,0,0,0,0,0,0,0,0,0,0,0,0,0,0,0,0,0,0,0,0,0,0,0,0,0,0,0,0,0,0,0,0,0,0,0,0,0,0,0,0,0,0,0,0,0,0,0,0,0,0,0,0,0,0,0,0,0,0,0,0,0,0,0,0,0,0,0,0,0,0,0,0,0,0,0,0,0],"sum_hessian":[1.44086E5,7.5966E4,6.812E4,6.4424E4,1.1542E4,5.2275E4,1.5845E4,5.597E3,5.8827E4,8.22E3,3.322E3,1.2136E4,4.0139E4,1.1082E4,4.763E3,1.226E3,4.371E3,2.4529E4,3.4298E4,5.689E3,2.531E3,2.172E3,1.15E3,3.457E3,8.679E3,1.0105E4,3.0034E4,1.0549E4,5.33E2,2.662E3,2.101E3,2.39E2,9.87E2,4.177E3,1.94E2,1.4302E4,1.0227E4,8.316E3,2.5982E4,9.22E2,4.767E3,1.43E3,1.101E3,8.79E2,1.293E3,7.4E2,4.1E2,1.57E3,1.887E3,7.581E3,1.098E3,1.85E3,8.255E3,2.602E3,2.7432E4,4.475E3,6.074E3,8.7E1,4.46E2,1.282E3,1.38E3,1.17E2,1.984E3,6.6E1,1.73E2,5.05E2,4.82E2,2.69E2,3.908E3,1.84E2,1E1,3.61E3,1.0692E4,5.642E3,4.585E3,3.598E3,4.718E3,1.4828E4,1.1154E4,1.39E2,7.83E2,4.47E2,4.32E3,1.312E3,1.18E2,7.99E2,3.02E2,1.16E2,7.63E2,8.39E2,4.54E2,4.6E1,6.94E2,1.9E1,3.91E2,1.238E3,3.32E2,8.5E2,1.037E3,7.215E3,3.66E2,7.34E2,3.64E2,1.724E3,1.26E2,6.363E3,1.892E3,9.69E2,1.633E3,1.4937E4,1.2495E4,1.907E3,2.568E3,1.278E3,4.796E3,5.1E1,3.6E1,2.81E2,1.65E2,2.27E2,1.055E3,1.152E3,2.28E2,8.8E1,2.9E1,1.156E3,8.28E2],"tree_param":{"num_deleted":"0","num_feature":"13","num_nodes":"127","size_leaf_vector":"1"}},{"base_weights":[-1.9366546E-2,-3.3615549E0,6.663058E0,-1.4247005E0,-1.3290682E1,9.956104E0,-3.9988356E0,-8.39377E0,7.6273835E-1,-2.2930223E1,-9.365049E0,-7.5817018E0,1.080144E1,-1.6954624E1,2.5105212E0,-2.0350422E1,-1.1318729E0,-3.8713996E0,3.469874E0,-3.737186E1,-1.3297537E1,-1.5598674E1,-5.5745096E0,4.022421E0,-1.4632177E1,1.7846697E1,8.475475E0,-4.4847878E1,-8.691543E0,9.196158E0,-2.9289758E0,-4.91222E0,-2.9428827E1,-1.37653055E1,8.178284E0,1.4459462E0,-7.494597E0,6.178188E0,9.715936E-1,-3.361873E1,-7.365988E1,-2.5566822E1,-7.19266E0,-1.4337735E1,-2.5641863E1,-1.191277E1,-3.1996815E0,1.0186986E1,-2.2911136E0,-4.158662E1,-1.2424007E1,1.547424E1,2.4334105E1,5.2560067E0,1.3611665E1,-1.7968086E1,-5.7547222E1,-1.836476E1,-2.349129E0,-2.0812893E0,1.2411767E1,-1.3543588E1,6.3069615E0,-5.2845836E-1,4.6459493E-1,-5.443167E-1,-1.7578013E0,-1.3560587E0,-5.342528E-1,-5.023095E-1,6.9939965E-1,4.623734E-1,-1.6715154E-1,-7.375108E-1,3.9919477E-2,2.0345385E-1,4.7705302E-1,-1.4010085E-1,1.3150339E-1,-2.2189336E0,-1.3295742E0,-4.7615986E0,-1.2323388E0,-1.1269203E0,-3.5483677E0,-1.237877E0,1.9605089E-2,-8.689184E-1,-5.2399266E-1,-1.5104657E0,-7.3065406E-1,9.843466E-2,-1.0035228E0,-3.501867E-1,2.344415E-1,8.569593E-1,3.3316308E-1,6.288858E-1,-2.736483E-1,-1.409644E0,-2.5538805E0,9.949189E-2,-7.4989724E-1,2.6989657E-1,8.231931E-1,2.6832688E-1,1.4656414E0,-1.9086029E-1,3.6461386E-1,5.1557106E-1,8.929171E-1,-1.53291E-3,-1.210328E0,-3.5514247E0,-8.3556217E-1,-5.9010637E-1,-1.3716594E0,6.6517866E-1,-2.8129897E-1,-4.8535615E-1,2.774907E-1,3.5151413E-1,8.361565E-1,-1.9700743E0,-4.9805436E-1,-7.659593E-1,5.743513E-1],"categories":[],"categories_nodes":[],"categories_segments":[],"categories_sizes":[],"default_left":[0,0,0,0,0,0,0,0,0,0,0,0,0,0,0,0,0,0,0,0,0,0,0,0,0,0,0,0,0,0,0,0,0,0,0,0,0,0,0,0,0,0,0,0,0,0,0,0,0,0,0,0,0,0,0,0,0,0,0,0,0,0,0,0,0,0,0,0,0,0,0,0,0,0,0,0,0,0,0,0,0,0,0,0,0,0,0,0,0,0,0,0,0,0,0,0,0,0,0,0,0,0,0,0,0,0,0,0,0,0,0,0,0,0,0,0,0,0,0,0,0,0,0,0,0,0,0],"id":11,"left_children":[1,3,5,7,9,11,13,15,17,19,21,23,25,27,29,31,33,35,37,39,41,43,45,47,49,51,53,55,57,59,61,63,65,67,69,71,73,75,77,79,81,83,85,87,89,91,93,95,97,99,101,103,105,107,109,111,113,115,117,119,121,123,125,-1,-1,-1,-1,-1,-1,-1,-1,-1,-1,-1,-1,-1,-1,-1,-1,-1,-1,-1,-1,-1,-1,-1,-1,-1,-1,-1,-1,-1,-1,-1,-1,-1,-1,-1,-1,-1,-1,-1,-1,-1,-1,-1,-1,-1,-1,-1,-1,-1,-1,-1,-1,-1,-1,-1,-1,-1,-1,-1,-1,-1,-1,-1,-1],"loss_changes":[3.213583E6,1.8445662E6,1.6843425E6,1.2235391E6,5.922255E5,5.4346075E5,9.5478744E5,1.6648145E6,7.66377E5,6.2967425E5,2.6282856E5,1.3799931E5,5.72851E5,8.72218E5,2.740855E5,1.01526975E6,1.4033106E6,4.340119E5,2.6090872E5,2.4429575E5,2.0347266E5,5.2905188E4,1.0413722E5,2.485521E4,6.191439E4,1.33183E5,4.34653E5,2.9423112E5,1.7922398E5,1.22635E5,4.075233E5,2.1576297E5,4.84081E5,2.0795412E5,7.27423E5,3.4114022E5,8.061809E5,1.3119544E5,1.25551555E5,1.2312025E5,1.7632725E5,1.2254625E5,2.4208275E5,4.3686812E4,2.3128844E4,2.1361312E5,1.511549E5,7.7961562E3,1.5018219E4,8.594531E3,3.605558E4,6.329925E4,2.1911562E5,2.986295E5,1.4177175E5,3.1217547E4,3.2196E5,6.852853E4,9.065495E4,4.3757625E4,6.092328E4,1.7876044E5,2.4920681E5,0E0,0E0,0E0,0E0,0E0,0E0,0E0,0E0,0E0,0E0,0E0,0E0,0E0,0E0,0E0,0E0,0E0,0E0,0E0,0E0,0E0,0E0,0E0,0E0,0E0,0E0,0E0,0E0,0E0,0E0,0E0,0E0,0E0,0E0,0E0,0E0,0E0,0E0,0E0,0E0,0E0,0E0,0E0,0E0,0E0,0E0,0E0,0E0,0E0,0E0,0E0,0E0,0E0,0E0,0E0,0E0,0E0,0E0,0E0,0E0,0E0,0E0,0E0,0E0],"parents":[2147483647,0,0,1,1,2,2,3,3,4,4,5,5,6,6,7,7,8,8,9,9,10,10,11,11,12,12,13,13,14,14,15,15,16,16,17,17,18,18,19,19,20,20,21,21,22,22,23,23,24,24,25,25,26,26,27,27,28,28,29,29,30,30,31,31,32,32,33,33,34,34,35,35,36,36,37,37,38,38,39,39,40,40,41,41,42,42,43,43,44,44,45,45,46,46,47,47,48,48,49,49,50,50,51,51,52,52,53,53,54,54,55,55,56,56,57,57,58,58,59,59,60,60,61,61,62,62],"right_children":[2,4,6,8,10,12,14,16,18,20,22,24,26,28,30,32,34,36,38,40,42,44,46,48,50,52,54,56,58,60,62,64,66,68,70,72,74,76,78,80,82,84,86,88,90,92,94,96,98,100,102,104,106,108,110,112,114,116,118,120,122,124,126,-1,-1,-1,-1,-1,-1,-1,-1,-1,-1,-1,-1,-1,-1,-1,-1,-1,-1,-1,-1,-1,-1,-1,-1,-1,-1,-1,-1,-1,-1,-1,-1,-1,-1,-1,-1,-1,-1,-1,-1,-1,-1,-1,-1,-1,-1,-1,-1,-1,-1,-1,-1,-1,-1,-1,-1,-1,-1,-1,-1,-1,-1,-1,-1],"split_conditions":[4.040797E2,4.4809914E-1,6.8373966E-1,-1.796341E-1,-1.2819672E-1,-8.7881714E-1,-4.9377555E-1,-4.9377555E-1,3.8551462E2,-4.9377555E-1,3.9155038E2,8.5207754E-1,-2.3506737E-1,-1.115818E0,-6.8403597E0,5.2249855E-1,1.4780942E-1,3.1730467E-1,-2.4128723E-1,-6.3413177E0,2.6176948E-2,9.635401E-2,4.3619387E-2,2.1516098E-2,-9.5881975E-1,8.6314213E-1,4.1511423E2,-6.832369E0,5.1704407E-2,2.3344536E-1,5.234156E-1,-6.687771E0,-7.271748E0,-6.036453E-1,-8.7380713E-1,-4.9377555E-1,1.7213356E-2,5.3997797E-1,3.9164902E2,3.9083017E2,-4.7495106E-1,-9.584575E-2,-8.7380713E-1,4.862727E-1,4.975133E-1,1.7213356E-2,5.234156E-1,9.999167E-1,-5.160624E-1,-6.0314584E0,-8.606997E-3,-8.241262E-1,-8.726535E-3,-3.2520676E-1,5.234156E-1,-7.536709E0,2.1516098E-2,5.9482276E-1,-4.3619387E-2,4.1239484E2,4.862727E-1,-1.8963623E0,8.726535E-3,-5.2845836E-1,4.6459493E-1,-5.443167E-1,-1.7578013E0,-1.3560587E0,-5.342528E-1,-5.023095E-1,6.9939965E-1,4.623734E-1,-1.6715154E-1,-7.375108E-1,3.9919477E-2,2.0345385E-1,4.7705302E-1,-1.4010085E-1,1.3150339E-1,-2.2189336E0,-1.3295742E0,-4.7615986E0,-1.2323388E0,-1.1269203E0,-3.5483677E0,-1.237877E0,1.9605089E-2,-8.689184E-1,-5.2399266E-1,-1.5104657E0,-7.3065406E-1,9.843466E-2,-1.0035228E0,-3.501867E-1,2.344415E-1,8.569593E-1,3.3316308E-1,6.288858E-1,-2.736483E-1,-1.409644E0,-2.5538805E0,9.949189E-2,-7.4989724E-1,2.6989657E-1,8.231931E-1,2.6832688E-1,1.4656414E0,-1.9086029E-1,3.6461386E-1,5.1557106E-1,8.929171E-1,-1.53291E-3,-1.210328E0,-3.5514247E0,-8.3556217E-1,-5.9010637E-1,-1.3716594E0,6.6517866E-1,-2.8129897E-1,-4.8535615E-1,2.774907E-1,3.5151413E-1,8.361565E-1,-1.9700743E0,-4.9805436E-1,-7.659593E-1,5.743513E-1],"split_indices":[7,1,1,3,3,8,12,12,7,12,7,11,1,3,5,8,8,8,1,5,8,6,8,11,8,12,7,5,3,8,12,5,5,3,11,12,12,10,7,7,11,8,11,12,11,12,12,12,12,5,12,8,8,3,12,5,11,8,8,7,12,3,8,0,0,0,0,0,0,0,0,0,0,0,0,0,0,0,0,0,0,0,0,0,0,0,0,0,0,0,0,0,0,0,0,0,0,0,0,0,0,0,0,0,0,0,0,0,0,0,0,0,0,0,0,0,0,0,0,0,0,0,0,0,0,0,0],"split_type":[0,0,0,0,0,0,0,0,0,0,0,0,0,0,0,0,0,0,0,0,0,0,0,0,0,0,0,0,0,0,0,0,0,0,0,0,0,0,0,0,0,0,0,0,0,0,0,0,0,0,0,0,0,0,0,0,0,0,0,0,0,0,0,0,0,0,0,0,0,0,0,0,0,0,0,0,0,0,0,0,0,0,0,0,0,0,0,0,0,0,0,0,0,0,0,0,0,0,0,0,0,0,0,0,0,0,0,0,0,0,0,0,0,0,0,0,0,0,0,0,0,0,0,0,0,0,0],"sum_hessian":[1.43886E5,9.5915E4,4.7971E4,8.026E4,1.5655E4,3.6651E4,1.132E4,1.9173E4,6.1087E4,4.529E3,1.1126E4,1.685E3,3.4966E4,3.785E3,7.535E3,7.244E3,1.1929E4,2.2526E4,3.8561E4,1.811E3,2.718E3,4.206E3,6.92E3,6.37E2,1.048E3,8.677E3,2.6289E4,8.64E2,2.921E3,3.38E3,4.155E3,2.683E3,4.561E3,5.061E3,6.868E3,9.129E3,1.3397E4,1.8502E4,2.0059E4,1.643E3,1.68E2,9.02E2,1.816E3,3.739E3,4.67E2,1.885E3,5.035E3,3.22E2,3.15E2,7.8E1,9.7E2,6.356E3,2.321E3,1.6161E4,1.0128E4,2.78E2,5.86E2,1.156E3,1.765E3,7.5E2,2.63E3,1.933E3,2.222E3,1.919E3,7.64E2,1.077E3,3.484E3,9.47E2,4.114E3,1.66E3,5.208E3,3.472E3,5.657E3,7.145E3,6.252E3,1.1372E4,7.13E3,6.124E3,1.3935E4,6.47E2,9.96E2,1.16E2,5.2E1,8.47E2,5.5E1,5.47E2,1.269E3,2.089E3,1.65E3,3.29E2,1.38E2,6.98E2,1.187E3,3.397E3,1.638E3,1.07E2,2.15E2,5.5E1,2.6E2,3.4E1,4.4E1,1.47E2,8.23E2,5.69E2,5.787E3,4.83E2,1.838E3,2.962E3,1.3199E4,5.701E3,4.427E3,7.2E1,2.06E2,4.4E2,1.46E2,6.72E2,4.84E2,3.05E2,1.46E3,3.75E2,3.75E2,1.171E3,1.459E3,2.34E2,1.699E3,4.29E2,1.793E3],"tree_param":{"num_deleted":"0","num_feature":"13","num_nodes":"127","size_leaf_vector":"1"}},{"base_weights":[3.5597933E-3,-5.039684E0,5.12657E0,-2.5588357E0,-2.0054209E1,7.779256E-1,9.585774E0,-8.174122E0,1.3490126E0,-1.4625569E1,-3.9068195E1,-2.3651874E0,6.8948836E0,6.801141E0,1.5478431E1,-1.0128952E1,6.8630724E0,-2.3051043E0,7.384943E0,-1.850551E1,2.991788E0,-2.4104649E1,-5.1308067E1,-1.074664E1,-2.1249717E-1,3.7077507E1,6.5059133E0,-1.7470859E-2,9.036225E0,1.2295201E1,2.2130968E1,-1.8287031E1,-7.5275874E0,-3.4450012E1,7.589535E0,-5.820511E-1,-1.0643135E1,-4.9228573E0,8.806851E0,5.0982434E-1,-2.0443869E1,3.007977E1,-3.5676134E0,-3.210883E1,5.51079E0,-4.3488132E1,-7.385538E1,-7.40783E0,-1.6926466E1,1.7108501E0,-7.910411E0,8.4021675E1,2.7041584E1,3.297117E0,9.638304E0,2.453218E0,-5.2357235E0,1.3771652E1,4.4805307E0,1.4800014E1,7.151906E0,2.7031933E1,1.6630045E1,-1.9177855E0,-8.0962896E-1,5.8386702E-2,-6.288468E-1,-2.111655E0,1.0245636E0,9.735587E-1,2.7271473E-1,-1.3753577E-1,2.601692E-1,-4.6074262E-1,-1.2945782E0,6.0512656E-1,-3.6950004E-1,6.2728065E-1,2.5420412E-1,4.952162E-1,-4.778552E-1,-1.3565845E0,-8.170067E-1,1.9039059E0,5.856804E-1,-3.5685512E-1,1.1523808E0,-6.512949E-1,-2.3357322E0,-2.5306985E0,5.080665E-1,-3.8639066E0,-1.825874E0,-3.828719E0,1.4601332E0,4.1400695E-1,-4.1028285E-1,-6.7215157E-1,-1.184208E0,-1.10771075E-1,2.469097E-1,-6.274194E-1,-1.1930882E-1,4.516975E0,2.3418024E0,-4.6256627E-3,1.7770033E0,1.8402573E0,1.2941703E-1,3.7143785E-1,7.913335E-1,1.8134307E-3,4.2335626E-1,-4.4664165E-1,-5.7413884E-2,4.9261865E-1,1.3202212E0,5.7742357E-2,4.9517164E-1,5.859459E-1,9.781464E-1,1.6840044E-1,5.77277E-1,1.1790106E0,1.8651345E0,9.844639E-1,2.7127227E-1],"categories":[],"categories_nodes":[],"categories_segments":[],"categories_sizes":[],"default_left":[0,0,0,0,0,0,0,0,0,0,0,0,0,0,0,0,0,0,0,0,0,0,0,0,0,0,0,0,0,0,0,0,0,0,0,0,0,0,0,0,0,0,0,0,0,0,0,0,0,0,0,0,0,0,0,0,0,0,0,0,0,0,0,0,0,0,0,0,0,0,0,0,0,0,0,0,0,0,0,0,0,0,0,0,0,0,0,0,0,0,0,0,0,0,0,0,0,0,0,0,0,0,0,0,0,0,0,0,0,0,0,0,0,0,0,0,0,0,0,0,0,0,0,0,0,0,0],"id":12,"left_children":[1,3,5,7,9,11,13,15,17,19,21,23,25,27,29,31,33,35,37,39,41,43,45,47,49,51,53,55,57,59,61,63,65,67,69,71,73,75,77,79,81,83,85,87,89,91,93,95,97,99,101,103,105,107,109,111,113,115,117,119,121,123,125,-1,-1,-1,-1,-1,-1,-1,-1,-1,-1,-1,-1,-1,-1,-1,-1,-1,-1,-1,-1,-1,-1,-1,-1,-1,-1,-1,-1,-1,-1,-1,-1,-1,-1,-1,-1,-1,-1,-1,-1,-1,-1,-1,-1,-1,-1,-1,-1,-1,-1,-1,-1,-1,-1,-1,-1,-1,-1,-1,-1,-1,-1,-1,-1],"loss_changes":[3.7209858E6,2.7032742E6,1.3854169E6,1.3667742E6,1.0616608E6,6.954701E5,5.7869975E5,7.513809E5,8.1006806E5,5.4736975E5,4.1725775E5,4.311263E5,1.4389988E5,3.6509462E5,2.3942175E5,4.7988325E5,8.852531E4,3.28678E5,2.4242656E5,2.41878E5,2.570366E5,2.4433844E5,2.182325E5,1.00624375E5,2.815161E5,7.12128E4,1.2181769E5,7.627331E4,3.891595E5,9.8549875E4,9.8273E4,2.2920925E5,7.530866E5,2.2675836E4,7.323647E4,2.379114E5,8.508831E4,6.0364824E4,1.7274712E5,5.759553E4,1.629875E5,4.0974516E4,1.1084112E5,2.2542875E5,5.793255E4,2.17395E5,9.247E4,3.976961E4,3.9978312E4,1.9278164E5,9.735503E4,2.0983125E3,2.998464E4,1.4216153E5,8.375325E4,5.8358098E4,2.8716145E4,4.3771375E5,1.6585402E5,7.532925E4,4.1688516E4,6.7713625E4,5.912222E4,0E0,0E0,0E0,0E0,0E0,0E0,0E0,0E0,0E0,0E0,0E0,0E0,0E0,0E0,0E0,0E0,0E0,0E0,0E0,0E0,0E0,0E0,0E0,0E0,0E0,0E0,0E0,0E0,0E0,0E0,0E0,0E0,0E0,0E0,0E0,0E0,0E0,0E0,0E0,0E0,0E0,0E0,0E0,0E0,0E0,0E0,0E0,0E0,0E0,0E0,0E0,0E0,0E0,0E0,0E0,0E0,0E0,0E0,0E0,0E0,0E0,0E0,0E0,0E0],"parents":[2147483647,0,0,1,1,2,2,3,3,4,4,5,5,6,6,7,7,8,8,9,9,10,10,11,11,12,12,13,13,14,14,15,15,16,16,17,17,18,18,19,19,20,20,21,21,22,22,23,23,24,24,25,25,26,26,27,27,28,28,29,29,30,30,31,31,32,32,33,33,34,34,35,35,36,36,37,37,38,38,39,39,40,40,41,41,42,42,43,43,44,44,45,45,46,46,47,47,48,48,49,49,50,50,51,51,52,52,53,53,54,54,55,55,56,56,57,57,58,58,59,59,60,60,61,61,62,62],"right_children":[2,4,6,8,10,12,14,16,18,20,22,24,26,28,30,32,34,36,38,40,42,44,46,48,50,52,54,56,58,60,62,64,66,68,70,72,74,76,78,80,82,84,86,88,90,92,94,96,98,100,102,104,106,108,110,112,114,116,118,120,122,124,126,-1,-1,-1,-1,-1,-1,-1,-1,-1,-1,-1,-1,-1,-1,-1,-1,-1,-1,-1,-1,-1,-1,-1,-1,-1,-1,-1,-1,-1,-1,-1,-1,-1,-1,-1,-1,-1,-1,-1,-1,-1,-1,-1,-1,-1,-1,-1,-1,-1,-1,-1,-1,-1,-1,-1,-1,-1,-1,-1,-1,-1,-1,-1,-1],"split_conditions":[1.513227E0,7.372773E-1,3.9699985E2,1.0695267E-1,4.7275928E-1,1.8899431E0,1.9022765E0,4.1527115E2,4.0076596E2,4.1222406E2,7.8260815E-1,-6.087614E-1,-8.656769E-1,-5.6640625E-1,5.5958337E-1,7.84591E-2,-3.4856663E0,3.4836578E-1,-5.3729963E-1,-7.190348E0,-5.258634E-1,-6.21725E0,1.1677276E0,6.2842846E-2,2.2524738E-1,-6.247139E-1,2.0853262E0,2.3929596E-1,2.3929596E-1,4.5656395E-1,1.1879158E-1,-1.3211966E-1,5.89734E-1,-6.4880614E0,-3.9490795E-1,-6.775703E0,6.3607824E-1,-4.808479E-1,2.2524738E-1,-5.049611E-1,3.854624E2,3.468259E1,-4.7495106E-1,5.947694E-1,9.964684E-1,3.8388364E2,1.4671416E0,-1.2910296E-2,2.2311181E-1,3.8551462E2,3.9022238E2,3.665504E1,-6.3117013E0,3.2762077E1,5.767151E-1,4.1275732E2,4.0952954E2,-6.428492E0,4.1404633E2,2.174212E0,4.083332E2,5.51937E-1,8.695894E-1,-1.9177855E0,-8.0962896E-1,5.8386702E-2,-6.288468E-1,-2.111655E0,1.0245636E0,9.735587E-1,2.7271473E-1,-1.3753577E-1,2.601692E-1,-4.6074262E-1,-1.2945782E0,6.0512656E-1,-3.6950004E-1,6.2728065E-1,2.5420412E-1,4.952162E-1,-4.778552E-1,-1.3565845E0,-8.170067E-1,1.9039059E0,5.856804E-1,-3.5685512E-1,1.1523808E0,-6.512949E-1,-2.3357322E0,-2.5306985E0,5.080665E-1,-3.8639066E0,-1.825874E0,-3.828719E0,1.4601332E0,4.1400695E-1,-4.1028285E-1,-6.7215157E-1,-1.184208E0,-1.10771075E-1,2.469097E-1,-6.274194E-1,-1.1930882E-1,4.516975E0,2.3418024E0,-4.6256627E-3,1.7770033E0,1.8402573E0,1.2941703E-1,3.7143785E-1,7.913335E-1,1.8134307E-3,4.2335626E-1,-4.4664165E-1,-5.7413884E-2,4.9261865E-1,1.3202212E0,5.7742357E-2,4.9517164E-1,5.859459E-1,9.781464E-1,1.6840044E-1,5.77277E-1,1.1790106E0,1.8651345E0,9.844639E-1,2.7127227E-1],"split_indices":[4,8,7,3,10,4,4,7,7,7,8,8,10,8,10,8,3,1,8,5,10,5,1,1,1,1,4,1,1,1,1,6,10,5,1,5,8,10,1,11,7,2,11,10,4,7,4,11,10,7,7,2,5,2,10,7,7,5,7,4,7,8,11,0,0,0,0,0,0,0,0,0,0,0,0,0,0,0,0,0,0,0,0,0,0,0,0,0,0,0,0,0,0,0,0,0,0,0,0,0,0,0,0,0,0,0,0,0,0,0,0,0,0,0,0,0,0,0,0,0,0,0,0,0,0,0,0],"split_type":[0,0,0,0,0,0,0,0,0,0,0,0,0,0,0,0,0,0,0,0,0,0,0,0,0,0,0,0,0,0,0,0,0,0,0,0,0,0,0,0,0,0,0,0,0,0,0,0,0,0,0,0,0,0,0,0,0,0,0,0,0,0,0,0,0,0,0,0,0,0,0,0,0,0,0,0,0,0,0,0,0,0,0,0,0,0,0,0,0,0,0,0,0,0,0,0,0,0,0,0,0,0,0,0,0,0,0,0,0,0,0,0,0,0,0,0,0,0,0,0,0,0,0,0,0,0,0],"sum_hessian":[1.44018E5,7.2574E4,7.1444E4,6.2284E4,1.029E4,3.6171E4,3.5273E4,2.5558E4,3.6726E4,8.006E3,2.284E3,2.3894E4,1.2277E4,2.3955E4,1.1318E4,2.2618E4,2.94E3,2.2877E4,1.3849E4,6.561E3,1.445E3,1.029E3,1.255E3,4.882E3,1.9012E4,1.55E2,1.2122E4,5.914E3,1.8041E4,7.657E3,3.661E3,5.467E3,1.7151E4,5E1,2.89E3,1.896E4,3.917E3,1.434E3,1.2415E4,6.07E2,5.954E3,2.81E2,1.164E3,8.1E2,2.19E2,9.34E2,3.21E2,3.171E3,1.711E3,1.5212E4,3.8E3,2.6E1,1.29E2,5.989E3,6.133E3,4.014E3,1.9E3,8.845E3,9.196E3,5.148E3,2.509E3,1.934E3,1.727E3,5.15E2,4.952E3,6.301E3,1.085E4,4.4E1,6E0,4.39E2,2.451E3,1.3791E4,5.169E3,3.583E3,3.34E2,1.81E2,1.253E3,6.193E3,6.222E3,3.14E2,2.93E2,2.262E3,3.692E3,1.95E2,8.6E1,1.027E3,1.37E2,3.52E2,4.58E2,1.6E1,2.03E2,1.58E2,7.76E2,3.13E2,8E0,1.53E2,3.018E3,1.131E3,5.8E2,6.863E3,8.349E3,2.065E3,1.735E3,2.1E1,5E0,3.1E1,9.8E1,1.23E2,5.866E3,4.521E3,1.612E3,2.864E3,1.15E3,9.97E2,9.03E2,6.752E3,2.093E3,5.701E3,3.495E3,3.128E3,2.02E3,1.349E3,1.16E3,1.45E3,4.84E2,1.356E3,3.71E2],"tree_param":{"num_deleted":"0","num_feature":"13","num_nodes":"127","size_leaf_vector":"1"}},{"base_weights":[3.0043047E-2,-2.6689796E0,8.852878E0,-6.4889665E0,3.2117732E0,5.9809494E0,1.434227E1,-1.481837E1,-3.4201667E0,-9.050301E-1,8.71131E0,9.408524E0,1.8502562E0,1.133709E1,1.9443232E1,-2.410341E1,-4.229262E0,-2.30157E0,-1.6992208E1,3.000476E0,-6.696801E0,-6.546386E0,9.907979E0,4.320838E0,1.2951163E1,-1.1602656E0,