{"learner":{"attributes":{"best_iteration":"499","best_score":"7.023234682679369","scikit_learn":"{\"_estimator_type\": \"regressor\"}"},"feature_names":[],"feature_types":[],"gradient_booster":{"model":{"gbtree_model_param":{"num_parallel_tree":"1","num_trees":"500"},"iteration_indptr":[0,1,2,3,4,5,6,7,8,9,10,11,12,13,14,15,16,17,18,19,20,21,22,23,24,25,26,27,28,29,30,31,32,33,34,35,36,37,38,39,40,41,42,43,44,45,46,47,48,49,50,51,52,53,54,55,56,57,58,59,60,61,62,63,64,65,66,67,68,69,70,71,72,73,74,75,76,77,78,79,80,81,82,83,84,85,86,87,88,89,90,91,92,93,94,95,96,97,98,99,100,101,102,103,104,105,106,107,108,109,110,111,112,113,114,115,116,117,118,119,120,121,122,123,124,125,126,127,128,129,130,131,132,133,134,135,136,137,138,139,140,141,142,143,144,145,146,147,148,149,150,151,152,153,154,155,156,157,158,159,160,161,162,163,164,165,166,167,168,169,170,171,172,173,174,175,176,177,178,179,180,181,182,183,184,185,186,187,188,189,190,191,192,193,194,195,196,197,198,199,200,201,202,203,204,205,206,207,208,209,210,211,212,213,214,215,216,217,218,219,220,221,222,223,224,225,226,227,228,229,230,231,232,233,234,235,236,237,238,239,240,241,242,243,244,245,246,247,248,249,250,251,252,253,254,255,256,257,258,259,260,261,262,263,264,265,266,267,268,269,270,271,272,273,274,275,276,277,278,279,280,281,282,283,284,285,286,287,288,289,290,291,292,293,294,295,296,297,298,299,300,301,302,303,304,305,306,307,308,309,310,311,312,313,314,315,316,317,318,319,320,321,322,323,324,325,326,327,328,329,330,331,332,333,334,335,336,337,338,339,340,341,342,343,344,345,346,347,348,349,350,351,352,353,354,355,356,357,358,359,360,361,362,363,364,365,366,367,368,369,370,371,372,373,374,375,376,377,378,379,380,381,382,383,384,385,386,387,388,389,390,391,392,393,394,395,396,397,398,399,400,401,402,403,404,405,406,407,408,409,410,411,412,413,414,415,416,417,418,419,420,421,422,423,424,425,426,427,428,429,430,431,432,433,434,435,436,437,438,439,440,441,442,443,444,445,446,447,448,449,450,451,452,453,454,455,456,457,458,459,460,461,462,463,464,465,466,467,468,469,470,471,472,473,474,475,476,477,478,479,480,481,482,483,484,485,486,487,488,489,490,491,492,493,494,495,496,497,498,499,500],"tree_info":[0,0,0,0,0,0,0,0,0,0,0,0,0,0,0,0,0,0,0,0,0,0,0,0,0,0,0,0,0,0,0,0,0,0,0,0,0,0,0,0,0,0,0,0,0,0,0,0,0,0,0,0,0,0,0,0,0,0,0,0,0,0,0,0,0,0,0,0,0,0,0,0,0,0,0,0,0,0,0,0,0,0,0,0,0,0,0,0,0,0,0,0,0,0,0,0,0,0,0,0,0,0,0,0,0,0,0,0,0,0,0,0,0,0,0,0,0,0,0,0,0,0,0,0,0,0,0,0,0,0,0,0,0,0,0,0,0,0,0,0,0,0,0,0,0,0,0,0,0,0,0,0,0,0,0,0,0,0,0,0,0,0,0,0,0,0,0,0,0,0,0,0,0,0,0,0,0,0,0,0,0,0,0,0,0,0,0,0,0,0,0,0,0,0,0,0,0,0,0,0,0,0,0,0,0,0,0,0,0,0,0,0,0,0,0,0,0,0,0,0,0,0,0,0,0,0,0,0,0,0,0,0,0,0,0,0,0,0,0,0,0,0,0,0,0,0,0,0,0,0,0,0,0,0,0,0,0,0,0,0,0,0,0,0,0,0,0,0,0,0,0,0,0,0,0,0,0,0,0,0,0,0,0,0,0,0,0,0,0,0,0,0,0,0,0,0,0,0,0,0,0,0,0,0,0,0,0,0,0,0,0,0,0,0,0,0,0,0,0,0,0,0,0,0,0,0,0,0,0,0,0,0,0,0,0,0,0,0,0,0,0,0,0,0,0,0,0,0,0,0,0,0,0,0,0,0,0,0,0,0,0,0,0,0,0,0,0,0,0,0,0,0,0,0,0,0,0,0,0,0,0,0,0,0,0,0,0,0,0,0,0,0,0,0,0,0,0,0,0,0,0,0,0,0,0,0,0,0,0,0,0,0,0,0,0,0,0,0,0,0,0,0,0,0,0,0,0,0,0,0,0,0,0,0,0,0,0,0,0,0,0,0,0,0,0,0,0,0,0,0,0,0,0,0,0,0,0,0,0,0,0,0,0,0,0,0,0,0,0,0,0,0,0,0,0,0,0,0,0,0,0,0,0,0,0,0,0,0,0,0,0,0,0,0,0,0,0,0,0,0],"trees":[{"base_weights":[2.986014E-2,-1.000645E1,8.721428E0,-1.8030146E1,-3.8476598E0,1.5987169E1,2.8574145E0,-3.1573236E1,-1.03242035E1,-7.7306123E0,5.61159E-1,2.3255167E1,1.0896121E1,-7.626542E-1,1.799898E1,-7.114339E1,-2.3131418E1,-1.433824E1,2.4450648E0,-1.1219703E1,-3.5610986E0,5.572781E0,-2.6909163E0,2.0289E1,3.390128E1,6.247428E0,1.9325922E1,-9.157279E0,6.361474E0,4.1862907E1,1.4813055E1,-2.012078E1,-8.1623825E1,-2.9004696E1,-7.8619924E0,-5.6052823E0,-1.7973059E1,1.1110548E1,-5.3990293E0,-1.2754462E1,-5.782854E-1,-7.482899E0,3.770854E-1,9.899049E0,-5.6878753E0,-1.2028765E1,-1.164143E0,2.6083878E1,1.5228838E1,5.641315E1,2.9655067E1,3.7360299E0,1.0865902E1,1.6175098E1,2.2571857E1,-2.8983974E1,-1.3740143E0,-2.1989477E0,1.1604858E1,5.3393288E1,2.790905E1,-5.7769604E0,1.6954535E1,-7.535967E-1,-2.3506553E0,-2.0626369E0,-4.483586E0,-7.7025187E-1,-1.8968006E0,-1.1825444E0,1.7619574E-1,-5.852122E-1,-1.6383044E-1,-1.1454667E0,-4.662687E-1,7.0000595E-1,-1.7279444E0,-6.8583536E-1,-5.8142543E-2,-8.8834304E-1,-4.9741045E-1,-1.2328593E0,6.928862E-2,-9.0320843E-1,-2.8162503E-1,2.4255493E-1,-4.2413232E-1,8.380586E-1,1.5887527E-1,-5.5915874E-1,6.4491355E-1,-1.2222246E0,-3.1474862E-1,-1.3910273E-1,1.1802401E-1,1.2074167E0,1.9536356E0,3.5527858E-1,9.513691E-1,1.1343403E0,3.343116E0,1.9203929E0,1.3755307E0,-7.306849E-2,2.652718E-1,2.5156724E-1,6.364585E-1,7.1922725E-1,9.9242E-1,8.5955155E-1,1.2345593E0,-1.8440913E0,8.053233E-1,-3.4160098E-1,6.05102E-1,-3.1939682E-1,2.616284E-1,1.9910471E-1,8.867575E-1,1.5005127E0,2.9317303E0,9.3936235E-1,2.124458E0,-3.6241773E-1,3.824056E0,1.2295583E0,6.3169205E-1],"categories":[],"categories_nodes":[],"categories_segments":[],"categories_sizes":[],"default_left":[0,0,0,0,0,0,0,0,0,0,0,0,0,0,0,0,0,0,0,0,0,0,0,0,0,0,0,0,0,0,0,0,0,0,0,0,0,0,0,0,0,0,0,0,0,0,0,0,0,0,0,0,0,0,0,0,0,0,0,0,0,0,0,0,0,0,0,0,0,0,0,0,0,0,0,0,0,0,0,0,0,0,0,0,0,0,0,0,0,0,0,0,0,0,0,0,0,0,0,0,0,0,0,0,0,0,0,0,0,0,0,0,0,0,0,0,0,0,0,0,0,0,0,0,0,0,0],"id":0,"left_children":[1,3,5,7,9,11,13,15,17,19,21,23,25,27,29,31,33,35,37,39,41,43,45,47,49,51,53,55,57,59,61,63,65,67,69,71,73,75,77,79,81,83,85,87,89,91,93,95,97,99,101,103,105,107,109,111,113,115,117,119,121,123,125,-1,-1,-1,-1,-1,-1,-1,-1,-1,-1,-1,-1,-1,-1,-1,-1,-1,-1,-1,-1,-1,-1,-1,-1,-1,-1,-1,-1,-1,-1,-1,-1,-1,-1,-1,-1,-1,-1,-1,-1,-1,-1,-1,-1,-1,-1,-1,-1,-1,-1,-1,-1,-1,-1,-1,-1,-1,-1,-1,-1,-1,-1,-1,-1],"loss_changes":[1.2419377E7,3.2651075E6,3.250735E6,2.994137E6,6.399735E5,1.260615E6,2.314406E6,3.474073E6,9.374629E5,2.8912538E5,2.853474E5,4.425375E5,7.8523475E5,2.0380126E6,6.1877975E5,9.76386E5,7.689675E5,4.41597E5,2.974418E5,1.7671988E5,1.3988684E5,3.3571425E5,1.5136316E5,3.215655E5,2.905375E5,1.4980322E5,7.24805E4,2.4140835E6,8.2744725E5,1.527985E5,3.1708438E5,4.1782867E4,4.89165E5,7.51751E5,4.2865912E5,5.806253E4,4.191865E5,2.7483706E5,8.0917734E4,1.3284325E5,6.459055E4,8.8747984E4,1.7920705E5,2.2955022E5,1.9553108E5,1.0605734E5,5.2053574E4,1.27694E5,1.8080525E5,1.6904175E5,4.725075E4,6.828083E4,4.9398812E4,2.3507562E4,3.9552875E4,1.5710738E6,8.26443E5,2.1804066E5,5.341419E5,6.2451875E4,5.718228E4,8.260852E4,2.1455275E5,0E0,0E0,0E0,0E0,0E0,0E0,0E0,0E0,0E0,0E0,0E0,0E0,0E0,0E0,0E0,0E0,0E0,0E0,0E0,0E0,0E0,0E0,0E0,0E0,0E0,0E0,0E0,0E0,0E0,0E0,0E0,0E0,0E0,0E0,0E0,0E0,0E0,0E0,0E0,0E0,0E0,0E0,0E0,0E0,0E0,0E0,0E0,0E0,0E0,0E0,0E0,0E0,0E0,0E0,0E0,0E0,0E0,0E0,0E0,0E0,0E0,0E0,0E0,0E0],"parents":[2147483647,0,0,1,1,2,2,3,3,4,4,5,5,6,6,7,7,8,8,9,9,10,10,11,11,12,12,13,13,14,14,15,15,16,16,17,17,18,18,19,19,20,20,21,21,22,22,23,23,24,24,25,25,26,26,27,27,28,28,29,29,30,30,31,31,32,32,33,33,34,34,35,35,36,36,37,37,38,38,39,39,40,40,41,41,42,42,43,43,44,44,45,45,46,46,47,47,48,48,49,49,50,50,51,51,52,52,53,53,54,54,55,55,56,56,57,57,58,58,59,59,60,60,61,61,62,62],"right_children":[2,4,6,8,10,12,14,16,18,20,22,24,26,28,30,32,34,36,38,40,42,44,46,48,50,52,54,56,58,60,62,64,66,68,70,72,74,76,78,80,82,84,86,88,90,92,94,96,98,100,102,104,106,108,110,112,114,116,118,120,122,124,126,-1,-1,-1,-1,-1,-1,-1,-1,-1,-1,-1,-1,-1,-1,-1,-1,-1,-1,-1,-1,-1,-1,-1,-1,-1,-1,-1,-1,-1,-1,-1,-1,-1,-1,-1,-1,-1,-1,-1,-1,-1,-1,-1,-1,-1,-1,-1,-1,-1,-1,-1,-1,-1,-1,-1,-1,-1,-1,-1,-1,-1,-1,-1,-1],"split_conditions":[3.951246E2,1.5721846E0,-6.7821465E0,-4.9377555E-1,3.8615152E2,1.9316156E1,8.6314213E-1,3.273904E1,8.6314213E-1,1.809589E0,1.920744E1,4.1507465E2,4.110956E2,1.4408691E0,3.3111454E1,9.167274E0,-1.2910296E-2,-6.54889E0,1.9644428E1,-6.2836833E0,-1.8260075E-1,-6.719011E0,3.4434864E1,3.460126E1,3.273904E1,4.0440912E2,4.1733813E2,-4.9377555E-1,4.0388007E2,1.2359289E1,8.043626E0,7.6808004E0,-5.2200127E-1,-6.6683226E0,3.4455093E1,3.824415E2,3.8775726E2,2.1516098E-2,3.8250922E2,-8.498171E-1,3.7804E2,-9.322172E0,2.0508568E1,3.487044E1,1.0701227E-1,-8.498171E-1,3.9227377E2,3.883953E-1,4.0035083E2,-8.606997E-3,-5.318633E-1,3.4502007E1,3.4423935E1,4.9225482E-1,3.4502007E1,-1.2910296E-2,4.1275732E2,2.5612879E1,3.435949E1,4.091902E-1,4.1091318E2,5.7006836E-2,1.4907105E0,-7.535967E-1,-2.3506553E0,-2.0626369E0,-4.483586E0,-7.7025187E-1,-1.8968006E0,-1.1825444E0,1.7619574E-1,-5.852122E-1,-1.6383044E-1,-1.1454667E0,-4.662687E-1,7.0000595E-1,-1.7279444E0,-6.8583536E-1,-5.8142543E-2,-8.8834304E-1,-4.9741045E-1,-1.2328593E0,6.928862E-2,-9.0320843E-1,-2.8162503E-1,2.4255493E-1,-4.2413232E-1,8.380586E-1,1.5887527E-1,-5.5915874E-1,6.4491355E-1,-1.2222246E0,-3.1474862E-1,-1.3910273E-1,1.1802401E-1,1.2074167E0,1.9536356E0,3.5527858E-1,9.513691E-1,1.1343403E0,3.343116E0,1.9203929E0,1.3755307E0,-7.306849E-2,2.652718E-1,2.5156724E-1,6.364585E-1,7.1922725E-1,9.9242E-1,8.5955155E-1,1.2345593E0,-1.8440913E0,8.053233E-1,-3.4160098E-1,6.05102E-1,-3.1939682E-1,2.616284E-1,1.9910471E-1,8.867575E-1,1.5005127E0,2.9317303E0,9.3936235E-1,2.124458E0,-3.6241773E-1,3.824056E0,1.2295583E0,6.3169205E-1],"split_indices":[7,4,5,12,7,0,12,2,12,4,0,7,7,4,2,0,11,5,0,5,9,5,2,2,2,7,7,12,7,0,0,0,9,5,2,7,7,11,7,12,7,5,0,2,6,12,7,6,7,12,10,2,2,9,2,11,7,0,2,10,7,6,4,0,0,0,0,0,0,0,0,0,0,0,0,0,0,0,0,0,0,0,0,0,0,0,0,0,0,0,0,0,0,0,0,0,0,0,0,0,0,0,0,0,0,0,0,0,0,0,0,0,0,0,0,0,0,0,0,0,0,0,0,0,0,0,0],"split_type":[0,0,0,0,0,0,0,0,0,0,0,0,0,0,0,0,0,0,0,0,0,0,0,0,0,0,0,0,0,0,0,0,0,0,0,0,0,0,0,0,0,0,0,0,0,0,0,0,0,0,0,0,0,0,0,0,0,0,0,0,0,0,0,0,0,0,0,0,0,0,0,0,0,0,0,0,0,0,0,0,0,0,0,0,0,0,0,0,0,0,0,0,0,0,0,0,0,0,0,0,0,0,0,0,0,0,0,0,0,0,0,0,0,0,0,0,0,0,0,0,0,0,0,0,0,0,0],"sum_hessian":[1.42371E5,6.6074E4,7.6297E4,2.8692E4,3.7382E4,3.4075E4,4.2222E4,1.0404E4,1.8288E4,1.9876E4,1.7506E4,1.4035E4,2.004E4,3.4076E4,8.146E3,1.828E3,8.576E3,1.3914E4,4.374E3,1.082E4,9.056E3,6.889E3,1.0617E4,1.0979E4,3.056E3,1.2918E4,7.122E3,1.5643E4,1.8433E4,9.58E2,7.188E3,3.12E2,1.516E3,6.193E3,2.383E3,4.09E3,9.824E3,2.078E3,2.296E3,9.456E3,1.364E3,4.537E3,4.519E3,4.977E3,1.912E3,1.491E3,9.126E3,5.116E3,5.863E3,4.83E2,2.573E3,8.369E3,4.549E3,3.617E3,3.505E3,4.409E3,1.1234E4,7.002E3,1.1431E4,5.23E2,4.35E2,6.77E2,6.511E3,2.64E2,4.8E1,2.53E2,1.263E3,2.456E3,3.737E3,9.98E2,1.385E3,1.129E3,2.961E3,6.253E3,3.571E3,1.955E3,1.23E2,7.74E2,1.522E3,3.392E3,6.064E3,1.02E2,1.262E3,6.74E2,3.863E3,3.003E3,1.516E3,2.462E3,2.515E3,1.476E3,4.36E2,4.7E2,1.021E3,6.255E3,2.871E3,4.455E3,6.61E2,1.869E3,3.994E3,1.15E2,3.68E2,5.03E2,2.07E3,1.941E3,6.428E3,1.102E3,3.447E3,2.435E3,1.182E3,9.93E2,2.512E3,3.752E3,6.57E2,7.996E3,3.238E3,4.478E3,2.524E3,5.096E3,6.335E3,9.7E1,4.26E2,2.69E2,1.66E2,6.66E2,1.1E1,2.351E3,4.16E3],"tree_param":{"num_deleted":"0","num_feature":"13","num_nodes":"127","size_leaf_vector":"1"}},{"base_weights":[3.9288183E-3,-7.127338E0,5.5527096E0,-2.1563063E1,-2.2637346E-1,2.1539074E1,4.6443114E0,-2.1306188E0,-4.6989204E1,-5.0603676E0,1.4737725E1,1.4917066E1,3.2565075E1,1.6224154E0,8.532567E0,1.640805E1,-7.967503E0,-2.8676418E1,-7.107606E1,-2.4445386E0,-2.1030369E1,5.5238104E0,2.7894781E1,-5.8370566E0,1.67322E1,4.274376E1,1.6490068E1,2.2438213E-1,9.37449E0,1.0660276E1,-1.123621E0,3.1966484E1,1.2128133E1,-2.6545131E0,-1.6515047E1,-3.6277893E1,-1.7683567E1,-4.3786556E1,-7.9844246E1,-1.0534016E1,1.6417241E0,-3.5021915E1,-1.6422495E1,-1.2979741E1,1.0287992E1,3.5994396E1,1.8100721E1,6.018838E0,-2.5430527E1,1.0773638E2,1.624464E1,2.1228233E1,5.242602E1,6.080753E0,2.6267937E1,2.9101205E0,-4.734468E0,7.7422466E0,1.9119308E1,3.1031979E1,9.911673E0,2.1818933E0,-1.9776604E1,2.5775766E0,1.2014192E0,1.1053551E0,3.659798E-1,-9.469423E-1,-8.846798E-3,-3.9516833E-1,-1.1330112E0,-1.5231115E0,-2.3405883E0,-1.4505522E-1,-1.2685872E0,-4.4006228E-1,-2.5088518E0,-3.685309E0,-5.2858205E0,6.485658E-1,-8.083071E-1,-4.6148124E-1,3.9616796E-1,-5.839193E-1,-2.2384076E0,-1.1890922E0,-1.978869E-1,-2.9018247E0,-5.054502E-1,3.5936862E-1,8.706784E-1,2.438334E0,1.342097E0,9.869939E-1,-4.2603388E-1,1.3357973E0,-5.7056952E-2,-4.4854364E-1,-1.4959036E0,7.361947E0,3.231496E0,8.610198E-2,9.2071897E-1,1.3332208E0,1.5189503E-1,3.1913373E0,1.9099572E0,1.5940182E-1,8.682651E-1,1.0912966E0,2.1004698E0,7.258701E-1,8.971251E-2,-9.7965044E-1,-1.1450612E-1,2.3069835E-1,6.478891E-1,-1.2842087E-1,1.1772125E0,3.398223E-1,1.7735323E0,3.7226278E-1,7.602422E-1,-4.0092982E-2,4.11767E-1,-1.164587E0,-2.3812921E-1],"categories":[],"categories_nodes":[],"categories_segments":[],"categories_sizes":[],"default_left":[0,0,0,0,0,0,0,0,0,0,0,0,0,0,0,0,0,0,0,0,0,0,0,0,0,0,0,0,0,0,0,0,0,0,0,0,0,0,0,0,0,0,0,0,0,0,0,0,0,0,0,0,0,0,0,0,0,0,0,0,0,0,0,0,0,0,0,0,0,0,0,0,0,0,0,0,0,0,0,0,0,0,0,0,0,0,0,0,0,0,0,0,0,0,0,0,0,0,0,0,0,0,0,0,0,0,0,0,0,0,0,0,0,0,0,0,0,0,0,0,0,0,0,0,0,0,0],"id":1,"left_children":[1,3,5,7,9,11,13,15,17,19,21,23,25,27,29,31,33,35,37,39,41,43,45,47,49,51,53,55,57,59,61,63,65,67,69,71,73,75,77,79,81,83,85,87,89,91,93,95,97,99,101,103,105,107,109,111,113,115,117,119,121,123,125,-1,-1,-1,-1,-1,-1,-1,-1,-1,-1,-1,-1,-1,-1,-1,-1,-1,-1,-1,-1,-1,-1,-1,-1,-1,-1,-1,-1,-1,-1,-1,-1,-1,-1,-1,-1,-1,-1,-1,-1,-1,-1,-1,-1,-1,-1,-1,-1,-1,-1,-1,-1,-1,-1,-1,-1,-1,-1,-1,-1,-1,-1,-1,-1],"loss_changes":[5.628493E6,6.200866E6,1.1616122E6,9.946957E6,3.0464472E6,3.1354388E5,8.894176E5,1.2350004E6,3.844762E6,1.3297212E6,1.24643E6,1.013975E5,2.6321225E5,4.6162697E5,6.80133E5,1.8159512E5,3.941392E5,4.1348575E5,8.97618E5,9.0419144E5,2.8825112E5,5.333785E5,3.352975E5,5.0563695E4,1.079645E5,2.044905E5,6.3653688E4,4.806398E5,1.0336506E5,4.13369E5,3.6863462E5,9.032444E4,1.0276144E5,2.160056E5,1.7588369E5,1.780015E5,2.3040612E5,2.0479225E5,4.44626E5,1.2155045E6,1.2411728E6,2.5178188E5,3.09225E5,1.5966627E5,1.0616522E5,2.695355E5,8.390806E4,2.0186996E4,5.7845234E3,1.2599375E4,7.7513E4,3.0372906E4,1.07845625E5,9.898696E3,2.1662047E4,3.031838E5,4.6044675E5,9.091453E4,8.959969E4,1.0313281E5,3.41486E5,9.174419E4,4.738497E4,0E0,0E0,0E0,0E0,0E0,0E0,0E0,0E0,0E0,0E0,0E0,0E0,0E0,0E0,0E0,0E0,0E0,0E0,0E0,0E0,0E0,0E0,0E0,0E0,0E0,0E0,0E0,0E0,0E0,0E0,0E0,0E0,0E0,0E0,0E0,0E0,0E0,0E0,0E0,0E0,0E0,0E0,0E0,0E0,0E0,0E0,0E0,0E0,0E0,0E0,0E0,0E0,0E0,0E0,0E0,0E0,0E0,0E0,0E0,0E0,0E0,0E0,0E0,0E0],"parents":[2147483647,0,0,1,1,2,2,3,3,4,4,5,5,6,6,7,7,8,8,9,9,10,10,11,11,12,12,13,13,14,14,15,15,16,16,17,17,18,18,19,19,20,20,21,21,22,22,23,23,24,24,25,25,26,26,27,27,28,28,29,29,30,30,31,31,32,32,33,33,34,34,35,35,36,36,37,37,38,38,39,39,40,40,41,41,42,42,43,43,44,44,45,45,46,46,47,47,48,48,49,49,50,50,51,51,52,52,53,53,54,54,55,55,56,56,57,57,58,58,59,59,60,60,61,61,62,62],"right_children":[2,4,6,8,10,12,14,16,18,20,22,24,26,28,30,32,34,36,38,40,42,44,46,48,50,52,54,56,58,60,62,64,66,68,70,72,74,76,78,80,82,84,86,88,90,92,94,96,98,100,102,104,106,108,110,112,114,116,118,120,122,124,126,-1,-1,-1,-1,-1,-1,-1,-1,-1,-1,-1,-1,-1,-1,-1,-1,-1,-1,-1,-1,-1,-1,-1,-1,-1,-1,-1,-1,-1,-1,-1,-1,-1,-1,-1,-1,-1,-1,-1,-1,-1,-1,-1,-1,-1,-1,-1,-1,-1,-1,-1,-1,-1,-1,-1,-1,-1,-1,-1,-1,-1,-1,-1,-1],"split_conditions":[1.5748394E0,-4.9377555E-1,-1.0131798E0,6.087614E-1,8.6314213E-1,6.6262007E-1,1.835346E0,8.726535E-3,4.7214544E-1,8.0464745E-1,5.8070296E-1,-8.717063E-1,3.456628E1,1.1313915E-1,8.433914E-1,-4.7766495E-1,5.075384E-1,8.5264015E-1,6.4944804E-1,-5.51937E-1,-8.7380713E-1,-8.726535E-3,3.4444706E1,5.51937E-1,-9.493262E-1,-5.160624E-1,3.527212E-2,2.394656E-1,6.6262007E-1,-8.745079E-1,8.0464745E-1,-5.2200127E-1,-5.51937E-1,-6.5016556E-1,-3.341824E-1,2.3355675E-1,-3.0410576E-1,-4.4808638E-1,9.9385834E-1,-8.606997E-3,-8.7380713E-1,6.3607824E-1,1.9936794E-1,-9.2215633E-1,4.3035382E-3,-3.4018517E-1,1.4264297E0,2.6176948E-2,-5.2200127E-1,3.467324E1,-2.6723838E-1,4.9384418E-1,8.3388585E-1,8.674564E-1,1.2770028E0,-1.8280935E-1,-5.8070296E-1,1.6230853E-1,-4.7873384E-1,-4.915051E-1,2.0916255E0,8.6314213E-1,-1.4414868E-1,2.5775766E0,1.2014192E0,1.1053551E0,3.659798E-1,-9.469423E-1,-8.846798E-3,-3.9516833E-1,-1.1330112E0,-1.5231115E0,-2.3405883E0,-1.4505522E-1,-1.2685872E0,-4.4006228E-1,-2.5088518E0,-3.685309E0,-5.2858205E0,6.485658E-1,-8.083071E-1,-4.6148124E-1,3.9616796E-1,-5.839193E-1,-2.2384076E0,-1.1890922E0,-1.978869E-1,-2.9018247E0,-5.054502E-1,3.5936862E-1,8.706784E-1,2.438334E0,1.342097E0,9.869939E-1,-4.2603388E-1,1.3357973E0,-5.7056952E-2,-4.4854364E-1,-1.4959036E0,7.361947E0,3.231496E0,8.610198E-2,9.2071897E-1,1.3332208E0,1.5189503E-1,3.1913373E0,1.9099572E0,1.5940182E-1,8.682651E-1,1.0912966E0,2.1004698E0,7.258701E-1,8.971251E-2,-9.7965044E-1,-1.1450612E-1,2.3069835E-1,6.478891E-1,-1.2842087E-1,1.1772125E0,3.398223E-1,1.7735323E0,3.7226278E-1,7.602422E-1,-4.0092982E-2,4.11767E-1,-1.164587E0,-2.3812921E-1],"split_indices":[4,12,1,8,12,8,4,8,10,1,8,12,2,6,8,1,8,8,8,8,11,8,2,8,9,12,6,1,8,3,1,9,8,3,9,1,1,9,1,12,11,8,8,9,11,1,1,8,9,2,8,10,8,12,6,6,8,9,12,9,4,12,9,0,0,0,0,0,0,0,0,0,0,0,0,0,0,0,0,0,0,0,0,0,0,0,0,0,0,0,0,0,0,0,0,0,0,0,0,0,0,0,0,0,0,0,0,0,0,0,0,0,0,0,0,0,0,0,0,0,0,0,0,0,0,0,0],"split_type":[0,0,0,0,0,0,0,0,0,0,0,0,0,0,0,0,0,0,0,0,0,0,0,0,0,0,0,0,0,0,0,0,0,0,0,0,0,0,0,0,0,0,0,0,0,0,0,0,0,0,0,0,0,0,0,0,0,0,0,0,0,0,0,0,0,0,0,0,0,0,0,0,0,0,0,0,0,0,0,0,0,0,0,0,0,0,0,0,0,0,0,0,0,0,0,0,0,0,0,0,0,0,0,0,0,0,0,0,0,0,0,0,0,0,0,0,0,0,0,0,0,0,0,0,0,0,0],"sum_hessian":[1.4224E5,6.2244E4,7.9996E4,2.0131E4,4.2113E4,4.3E3,7.5696E4,1.1411E4,8.72E3,3.1831E4,1.0282E4,2.688E3,1.612E3,4.2594E4,3.3102E4,2.732E3,8.679E3,4.955E3,3.765E3,2.7352E4,4.479E3,6.048E3,4.234E3,2.16E2,2.472E3,9.86E2,6.26E2,3.6087E4,6.507E3,2.7125E4,5.977E3,5.88E2,2.144E3,5.353E3,3.326E3,2.928E3,2.027E3,9.17E2,2.848E3,9.179E3,1.8173E4,1.108E3,3.371E3,1.238E3,4.81E3,2.316E3,1.918E3,1.35E2,8.1E1,1.2E1,2.46E3,3.07E2,6.79E2,3.04E2,3.22E2,2.3409E4,1.2678E4,5.575E3,9.32E2,9.6E2,2.6165E4,5.078E3,8.99E2,1.68E2,4.2E2,6.96E2,1.448E3,7.06E2,4.647E3,1.386E3,1.94E3,1.889E3,1.039E3,6.94E2,1.333E3,1.42E2,7.75E2,2.305E3,5.43E2,1.774E3,7.405E3,6.655E3,1.1518E4,3.27E2,7.81E2,2.119E3,1.252E3,7.3E1,1.165E3,3.353E3,1.457E3,9.65E2,1.351E3,1.807E3,1.11E2,3.4E1,1.01E2,1.8E1,6.3E1,5E0,7E0,3.2E2,2.14E3,2.36E2,7.1E1,3.75E2,3.04E2,2.43E2,6.1E1,2.53E2,6.9E1,2.052E3,2.1357E4,1.79E3,1.0888E4,3.486E3,2.089E3,1.58E2,7.74E2,1.49E2,8.11E2,1.785E4,8.315E3,3.402E3,1.676E3,7.28E2,1.71E2],"tree_param":{"num_deleted":"0","num_feature":"13","num_nodes":"127","size_leaf_vector":"1"}},{"base_weights":[2.6559545E-2,-9.257594E0,8.703611E0,-1.6440516E1,-3.5458274E0,1.1447839E1,-6.7084255E0,-2.879652E1,-9.653698E0,-5.4762924E-1,-1.2346734E1,8.042543E0,2.3047955E1,-1.9930193E1,3.1776986E0,-6.496279E1,-2.113199E1,-6.8829966E0,-2.6315048E1,5.1688538E0,-4.28079E0,-1.8701242E1,-7.1159735E0,1.3971556E1,3.6449652E0,3.445188E1,1.8662998E1,-4.679986E1,-6.4039326E0,1.0208583E1,-4.15967E0,-1.8222017E1,-7.452052E1,-2.6663555E1,-7.218168E0,-1.0084563E1,3.4254036E0,-3.340478E1,-1.5785973E1,9.156324E0,-3.3528612E0,-9.590053E0,-1.8823575E0,-1.5759798E1,-3.0577398E1,-3.9538426E0,-1.2761697E1,2.0824446E1,8.569272E0,-2.1629068E1,4.806295E0,5.3965416E1,3.0058777E1,2.3263144E1,1.413957E1,-2.9691664E1,-6.441689E1,-3.8098543E0,-6.401713E1,3.5927413E0,1.5715334E1,6.514972E0,-1.7333143E1,-7.083537E-1,-2.1076686E0,-2.1712174E0,-4.171209E0,-7.051072E-1,-1.7376353E0,-1.1284828E0,1.4483747E-1,7.621445E-1,-5.558491E-1,6.7483866E-1,-2.312506E-1,-8.22632E-1,-1.9184307E0,-9.6548265E-1,-1.3410838E-1,7.015189E-1,1.690162E-1,-4.726501E-1,5.6274027E-1,-5.652316E-1,3.289357E-1,-2.2563599E-1,1.4459927E-1,-6.530892E-1,-1.0473589E0,-1.6416081E0,-7.0183444E-1,2.428478E0,-2.099903E-1,-3.7487794E-2,-6.9667214E-1,2.2262924E0,9.671543E-1,2.4792354E-1,6.4141303E-1,-2.3886335E0,-3.7519377E-1,-2.7730206E-2,4.7247264E-1,1.7147073E0,3.3730314E0,4.5092826E0,1.4673734E0,1.4356748E0,9.9518853E-1,5.9085786E-1,1.3379303E0,-2.318079E0,-1.0666202E0,-1.1858572E0,-3.5381787E0,-6.042802E-1,1.9487618E-1,-9.9313784E-1,-4.598579E0,1.1163706E0,6.3920796E-2,6.6884685E-1,1.2716463E0,-1.7443937E-1,8.302416E-1,-9.937834E-1,6.227738E-1],"categories":[],"categories_nodes":[],"categories_segments":[],"categories_sizes":[],"default_left":[0,0,0,0,0,0,0,0,0,0,0,0,0,0,0,0,0,0,0,0,0,0,0,0,0,0,0,0,0,0,0,0,0,0,0,0,0,0,0,0,0,0,0,0,0,0,0,0,0,0,0,0,0,0,0,0,0,0,0,0,0,0,0,0,0,0,0,0,0,0,0,0,0,0,0,0,0,0,0,0,0,0,0,0,0,0,0,0,0,0,0,0,0,0,0,0,0,0,0,0,0,0,0,0,0,0,0,0,0,0,0,0,0,0,0,0,0,0,0,0,0,0,0,0,0,0,0],"id":2,"left_children":[1,3,5,7,9,11,13,15,17,19,21,23,25,27,29,31,33,35,37,39,41,43,45,47,49,51,53,55,57,59,61,63,65,67,69,71,73,75,77,79,81,83,85,87,89,91,93,95,97,99,101,103,105,107,109,111,113,115,117,119,121,123,125,-1,-1,-1,-1,-1,-1,-1,-1,-1,-1,-1,-1,-1,-1,-1,-1,-1,-1,-1,-1,-1,-1,-1,-1,-1,-1,-1,-1,-1,-1,-1,-1,-1,-1,-1,-1,-1,-1,-1,-1,-1,-1,-1,-1,-1,-1,-1,-1,-1,-1,-1,-1,-1,-1,-1,-1,-1,-1,-1,-1,-1,-1,-1,-1],"loss_changes":[1.1437698E7,2.813993E6,3.104001E6,2.5474905E6,1.0082075E6,2.460656E6,1.4500535E6,2.984312E6,9.051766E5,6.08249E5,3.22581E5,1.2556632E6,7.062835E5,1.7246101E6,3.275249E5,8.39835E5,6.83948E5,5.550471E5,2.0818462E5,3.8264706E5,2.1953884E5,1.5262512E5,9.504822E4,7.5908775E5,8.117591E5,3.3484E5,2.121835E5,4.7699575E5,4.7172238E5,1.180535E5,4.3702694E5,3.0547102E4,4.29112E5,6.457515E5,3.9292325E5,3.3570712E5,3.2324303E5,1.3988988E5,5.1983688E4,2.1590888E5,3.2000694E5,1.4880675E5,1.4918012E5,4.89175E4,3.1944188E4,4.433024E4,2.6899375E4,3.16529E5,1.7632444E5,4.483153E5,6.581125E5,1.888135E5,1.3445825E5,9.2108E4,1.5066762E5,1.1159756E5,2.0030925E5,1.9286794E5,1.6602825E5,6.3878965E4,3.9853906E4,1.7336728E5,1.0560025E5,0E0,0E0,0E0,0E0,0E0,0E0,0E0,0E0,0E0,0E0,0E0,0E0,0E0,0E0,0E0,0E0,0E0,0E0,0E0,0E0,0E0,0E0,0E0,0E0,0E0,0E0,0E0,0E0,0E0,0E0,0E0,0E0,0E0,0E0,0E0,0E0,0E0,0E0,0E0,0E0,0E0,0E0,0E0,0E0,0E0,0E0,0E0,0E0,0E0,0E0,0E0,0E0,0E0,0E0,0E0,0E0,0E0,0E0,0E0,0E0,0E0,0E0,0E0,0E0],"parents":[2147483647,0,0,1,1,2,2,3,3,4,4,5,5,6,6,7,7,8,8,9,9,10,10,11,11,12,12,13,13,14,14,15,15,16,16,17,17,18,18,19,19,20,20,21,21,22,22,23,23,24,24,25,25,26,26,27,27,28,28,29,29,30,30,31,31,32,32,33,33,34,34,35,35,36,36,37,37,38,38,39,39,40,40,41,41,42,42,43,43,44,44,45,45,46,46,47,47,48,48,49,49,50,50,51,51,52,52,53,53,54,54,55,55,56,56,57,57,58,58,59,59,60,60,61,61,62,62],"right_children":[2,4,6,8,10,12,14,16,18,20,22,24,26,28,30,32,34,36,38,40,42,44,46,48,50,52,54,56,58,60,62,64,66,68,70,72,74,76,78,80,82,84,86,88,90,92,94,96,98,100,102,104,106,108,110,112,114,116,118,120,122,124,126,-1,-1,-1,-1,-1,-1,-1,-1,-1,-1,-1,-1,-1,-1,-1,-1,-1,-1,-1,-1,-1,-1,-1,-1,-1,-1,-1,-1,-1,-1,-1,-1,-1,-1,-1,-1,-1,-1,-1,-1,-1,-1,-1,-1,-1,-1,-1,-1,-1,-1,-1,-1,-1,-1,-1,-1,-1,-1,-1,-1,-1,-1,-1,-1],"split_conditions":[3.9572723E2,1.5777798E0,7.3762894E-1,-4.9377555E-1,2.579403E-1,4.1511423E2,1.7213356E-2,3.273904E1,5.9724617E-1,1.9096237E1,3.8615152E2,-6.85793E0,-3.3267403E-1,1.3581393E0,-6.5106263E0,9.167274E0,-1.2910296E-2,8.6314213E-1,3.8775726E2,-6.892791E0,-5.012418E-1,9.215107E-1,6.0801125E-1,1.9644428E1,1.1869354E0,3.261218E1,-6.7580132E0,1.2064109E0,2.078784E0,4.0675653E2,2.1516098E-2,7.6808004E0,-4.981702E-1,-6.6683226E0,3.4444706E1,-1.760062E0,1.9536413E1,-6.493106E0,4.5165062E-2,3.505348E1,8.130741E-2,-6.329666E0,3.881023E2,-6.6683226E0,9.8741055E-2,-9.493262E-1,3.3167816E1,-1.3579102E0,4.0546274E2,-4.9377555E-1,4.040797E2,5.234156E-1,-9.753668E-1,2.0401867E1,8.717063E-1,3.3643E1,1.3510414E1,4.083332E2,1.2359289E1,3.305061E1,1.39534E-1,-8.56551E-1,1.7663916E0,-7.083537E-1,-2.1076686E0,-2.1712174E0,-4.171209E0,-7.051072E-1,-1.7376353E0,-1.1284828E0,1.4483747E-1,7.621445E-1,-5.558491E-1,6.7483866E-1,-2.312506E-1,-8.22632E-1,-1.9184307E0,-9.6548265E-1,-1.3410838E-1,7.015189E-1,1.690162E-1,-4.726501E-1,5.6274027E-1,-5.652316E-1,3.289357E-1,-2.2563599E-1,1.4459927E-1,-6.530892E-1,-1.0473589E0,-1.6416081E0,-7.0183444E-1,2.428478E0,-2.099903E-1,-3.7487794E-2,-6.9667214E-1,2.2262924E0,9.671543E-1,2.4792354E-1,6.4141303E-1,-2.3886335E0,-3.7519377E-1,-2.7730206E-2,4.7247264E-1,1.7147073E0,3.3730314E0,4.5092826E0,1.4673734E0,1.4356748E0,9.9518853E-1,5.9085786E-1,1.3379303E0,-2.318079E0,-1.0666202E0,-1.1858572E0,-3.5381787E0,-6.042802E-1,1.9487618E-1,-9.9313784E-1,-4.598579E0,1.1163706E0,6.3920796E-2,6.6884685E-1,1.2716463E0,-1.7443937E-1,8.302416E-1,-9.937834E-1,6.227738E-1],"split_indices":[7,4,1,12,1,7,12,2,1,0,7,5,1,4,5,0,11,12,7,5,12,1,1,0,4,2,5,1,1,7,11,0,9,5,2,1,0,5,6,2,6,5,7,5,6,9,2,1,7,12,7,12,9,0,12,2,0,7,0,2,6,11,4,0,0,0,0,0,0,0,0,0,0,0,0,0,0,0,0,0,0,0,0,0,0,0,0,0,0,0,0,0,0,0,0,0,0,0,0,0,0,0,0,0,0,0,0,0,0,0,0,0,0,0,0,0,0,0,0,0,0,0,0,0,0,0,0],"split_type":[0,0,0,0,0,0,0,0,0,0,0,0,0,0,0,0,0,0,0,0,0,0,0,0,0,0,0,0,0,0,0,0,0,0,0,0,0,0,0,0,0,0,0,0,0,0,0,0,0,0,0,0,0,0,0,0,0,0,0,0,0,0,0,0,0,0,0,0,0,0,0,0,0,0,0,0,0,0,0,0,0,0,0,0,0,0,0,0,0,0,0,0,0,0,0,0,0,0,0,0,0,0,0,0,0,0,0,0,0,0,0,0,0,0,0,0,0,0,0,0,0,0,0,0,0,0,0],"sum_hessian":[1.41977E5,6.8589E4,7.3388E4,3.0381E4,3.8208E4,6.2296E4,1.1092E4,1.077E4,1.9611E4,2.85E4,9.708E3,4.816E4,1.4136E4,4.745E3,6.347E3,1.882E3,8.888E3,1.6816E4,2.795E3,1.1259E4,1.7241E4,4.382E3,5.326E3,2.0508E4,2.7652E4,3.924E3,1.0212E4,1.588E3,3.157E3,3.241E3,3.106E3,3.2E2,1.562E3,6.359E3,2.529E3,1.2831E4,3.985E3,1.669E3,1.126E3,7.67E3,3.589E3,5.364E3,1.1877E4,3.514E3,8.68E2,3.415E3,1.911E3,9.039E3,1.1469E4,1.214E3,2.6438E4,7.19E2,3.205E3,5.061E3,5.151E3,8.07E2,7.81E2,3.022E3,1.35E2,1.473E3,1.768E3,1.716E3,1.39E3,2.75E2,4.5E1,3.49E2,1.213E3,2.492E3,3.867E3,1.004E3,1.525E3,5.02E2,1.2329E4,1.77E3,2.215E3,3.79E2,1.29E3,8.87E2,2.39E2,4.159E3,3.511E3,2.532E3,1.057E3,4.85E3,5.14E2,7.658E3,4.219E3,2.314E3,1.2E3,7.63E2,1.05E2,1.5E1,3.4E3,1.7E2,1.741E3,5.3E2,8.509E3,6.208E3,5.261E3,4.25E2,7.89E2,1.2271E4,1.4167E4,2.94E2,4.25E2,3.6E1,3.169E3,1.927E3,3.134E3,4.352E3,7.99E2,2.68E2,5.39E2,1.06E2,6.75E2,1.457E3,1.565E3,5.3E1,8.2E1,1.61E2,1.312E3,1.427E3,3.41E2,8.62E2,8.54E2,1.281E3,1.09E2],"tree_param":{"num_deleted":"0","num_feature":"13","num_nodes":"127","size_leaf_vector":"1"}},{"base_weights":[-3.3246707E-3,-9.142566E0,7.8989153E0,-1.601978E1,-3.660047E0,-3.4252336E0,1.0756665E1,-3.994221E1,-1.3127006E1,-7.315597E0,4.9244264E-1,-2.485326E1,1.3822125E-1,6.61698E0,1.6863884E1,-5.7269325E0,-5.6925293E1,-9.871806E0,-2.0436289E1,-9.95938E0,-3.0521846E0,4.947389E0,-2.6403327E0,-9.443835E0,-4.324854E1,-4.082692E0,1.5533967E1,1.1565771E1,3.3533237E0,2.115481E0,1.8911163E1,-1.1147396E1,2.779968E1,-2.1975925E1,-6.810139E1,-2.2179161E1,-6.394567E0,-1.110402E1,-3.544609E1,-2.1407871E1,-8.573623E0,5.139504E-1,-1.300147E1,8.6060095E0,-4.9490943E0,-2.3931055E1,-2.1186576E0,-1.4827881E1,1.8018522E1,-2.4183558E1,-7.4722305E1,1.1634764E1,-6.7978034E0,2.2117304E1,8.8601055E0,1.6839882E1,5.720822E0,4.7027147E-1,7.843964E0,1.8672987E1,-2.1392412E0,2.6394932E1,1.610759E1,-1.7419585E0,-3.374363E-1,3.947874E0,4.2072612E-1,7.559121E-1,-1.4961532E0,-2.3947225E0,-3.938456E0,-1.6189626E0,-6.9252783E-1,-7.41744E-1,-1.8945175E-1,1.8894528E-1,-9.4413704E-1,-1.2959744E0,-2.3520234E0,-5.537091E-2,-1.2671853E0,-5.3154993E-1,-3.481082E-2,3.3794698E-1,-3.8308126E-1,-9.564352E-1,-3.241193E-1,7.39274E-1,-2.013381E-1,-7.618611E-1,3.022109E-1,-1.4381822E0,-7.01443E-1,-5.4597986E-1,-3.6683846E-2,-1.0706389E0,1.4131676E-1,4.2375183E0,6.796016E-1,-7.648716E-1,-1.9862565E0,8.806252E-1,-3.9572022E0,1.1016101E0,2.8421682E-1,-5.9877485E-1,-2.1905486E-2,1.4451505E0,7.4083847E-1,7.391204E-1,-2.0288289E0,1.0875505E0,2.5346747E-1,1.98418E-1,4.872565E-1,-5.2078135E-2,3.202804E-1,4.078902E-3,4.9596006E-1,4.6994883E-1,1.6141968E0,-5.8294464E-2,-1.7904972E0,9.892249E-1,1.5582248E0,8.612241E-1,1.6709541E-1],"categories":[],"categories_nodes":[],"categories_segments":[],"categories_sizes":[],"default_left":[0,0,0,0,0,0,0,0,0,0,0,0,0,0,0,0,0,0,0,0,0,0,0,0,0,0,0,0,0,0,0,0,0,0,0,0,0,0,0,0,0,0,0,0,0,0,0,0,0,0,0,0,0,0,0,0,0,0,0,0,0,0,0,0,0,0,0,0,0,0,0,0,0,0,0,0,0,0,0,0,0,0,0,0,0,0,0,0,0,0,0,0,0,0,0,0,0,0,0,0,0,0,0,0,0,0,0,0,0,0,0,0,0,0,0,0,0,0,0,0,0,0,0,0,0,0,0],"id":3,"left_children":[1,3,5,7,9,11,13,15,17,19,21,23,25,27,29,31,33,35,37,39,41,43,45,47,49,51,53,55,57,59,61,63,65,67,69,71,73,75,77,79,81,83,85,87,89,91,93,95,97,99,101,103,105,107,109,111,113,115,117,119,121,123,125,-1,-1,-1,-1,-1,-1,-1,-1,-1,-1,-1,-1,-1,-1,-1,-1,-1,-1,-1,-1,-1,-1,-1,-1,-1,-1,-1,-1,-1,-1,-1,-1,-1,-1,-1,-1,-1,-1,-1,-1,-1,-1,-1,-1,-1,-1,-1,-1,-1,-1,-1,-1,-1,-1,-1,-1,-1,-1,-1,-1,-1,-1,-1,-1],"loss_changes":[1.0263828E7,2.484701E6,2.466541E6,2.0223885E6,5.5664144E5,1.1727854E6,1.538521E6,1.8318155E6,6.20322E5,2.1978581E5,2.3962977E5,6.203651E5,8.559053E5,5.858266E5,7.42311E5,1.9057931E5,8.214835E5,7.721449E5,1.1251085E6,1.907785E5,2.6490528E5,2.567178E5,1.1191473E5,1.7666217E5,5.9702975E5,4.412063E5,1.24316375E5,4.4427138E5,2.8301144E5,2.1124345E5,4.525355E5,9.376022E4,1.4411538E5,1.5138766E5,3.402515E5,3.3723325E5,3.094063E5,5.738295E5,3.389745E5,1.03758375E5,1.7403619E5,2.8070862E5,7.856303E4,4.04119E5,2.1656756E5,1.1124828E4,1.1994405E5,1.1608105E5,5.6734254E4,8.542578E4,1.5491325E5,9.40988E4,2.902586E5,7.0210375E4,4.1312288E5,4.378875E5,4.819164E4,1.1947696E5,1.3768006E5,7.70702E4,7.815198E4,1.8483125E5,2.2390325E5,0E0,0E0,0E0,0E0,0E0,0E0,0E0,0E0,0E0,0E0,0E0,0E0,0E0,0E0,0E0,0E0,0E0,0E0,0E0,0E0,0E0,0E0,0E0,0E0,0E0,0E0,0E0,0E0,0E0,0E0,0E0,0E0,0E0,0E0,0E0,0E0,0E0,0E0,0E0,0E0,0E0,0E0,0E0,0E0,0E0,0E0,0E0,0E0,0E0,0E0,0E0,0E0,0E0,0E0,0E0,0E0,0E0,0E0,0E0,0E0,0E0,0E0,0E0,0E0],"parents":[2147483647,0,0,1,1,2,2,3,3,4,4,5,5,6,6,7,7,8,8,9,9,10,10,11,11,12,12,13,13,14,14,15,15,16,16,17,17,18,18,19,19,20,20,21,21,22,22,23,23,24,24,25,25,26,26,27,27,28,28,29,29,30,30,31,31,32,32,33,33,34,34,35,35,36,36,37,37,38,38,39,39,40,40,41,41,42,42,43,43,44,44,45,45,46,46,47,47,48,48,49,49,50,50,51,51,52,52,53,53,54,54,55,55,56,56,57,57,58,58,59,59,60,60,61,61,62,62],"right_children":[2,4,6,8,10,12,14,16,18,20,22,24,26,28,30,32,34,36,38,40,42,44,46,48,50,52,54,56,58,60,62,64,66,68,70,72,74,76,78,80,82,84,86,88,90,92,94,96,98,100,102,104,106,108,110,112,114,116,118,120,122,124,126,-1,-1,-1,-1,-1,-1,-1,-1,-1,-1,-1,-1,-1,-1,-1,-1,-1,-1,-1,-1,-1,-1,-1,-1,-1,-1,-1,-1,-1,-1,-1,-1,-1,-1,-1,-1,-1,-1,-1,-1,-1,-1,-1,-1,-1,-1,-1,-1,-1,-1,-1,-1,-1,-1,-1,-1,-1,-1,-1,-1,-1,-1,-1,-1],"split_conditions":[3.951246E2,1.5777798E0,1.3688033E0,-1.3662529E0,3.8615152E2,1.1869354E0,4.0952954E2,1.1116311E1,5.8070296E-1,1.8593278E0,1.9644428E1,5.689013E-1,4.1527115E2,-7.088904E0,-6.8835455E-1,6.100175E-1,7.0090926E-1,-6.2251467E-1,1.973192E1,-6.3607824E-1,7.7162457E-1,-6.719011E0,-5.2249855E-1,-6.1635E0,-8.653073E-1,-6.6832495E0,1.9096237E1,2.028444E1,4.0388007E2,4.1155618E2,1.768036E1,-8.5264015E-1,7.0090926E-1,1.5503723E1,5.031963E-1,8.695894E-1,3.8022653E2,7.489557E-1,6.3607824E-1,-6.9458303E0,-6.398232E0,2.0508568E1,-1.7178123E-1,8.141155E-1,-5.8070296E-1,3.53544E1,3.7039566E-1,4.125611E2,-9.868804E-1,1.062634E-1,6.4944804E-1,2.1212566E1,-6.2714863E0,-1.5136549E-1,6.4944804E-1,8.433914E-1,4.0440912E2,-6.3026395E0,-5.3729963E-1,2.1516098E-2,1.5503723E1,4.1511423E2,5.8070296E-1,-1.7419585E0,-3.374363E-1,3.947874E0,4.2072612E-1,7.559121E-1,-1.4961532E0,-2.3947225E0,-3.938456E0,-1.6189626E0,-6.9252783E-1,-7.41744E-1,-1.8945175E-1,1.8894528E-1,-9.4413704E-1,-1.2959744E0,-2.3520234E0,-5.537091E-2,-1.2671853E0,-5.3154993E-1,-3.481082E-2,3.3794698E-1,-3.8308126E-1,-9.564352E-1,-3.241193E-1,7.39274E-1,-2.013381E-1,-7.618611E-1,3.022109E-1,-1.4381822E0,-7.01443E-1,-5.4597986E-1,-3.6683846E-2,-1.0706389E0,1.4131676E-1,4.2375183E0,6.796016E-1,-7.648716E-1,-1.9862565E0,8.806252E-1,-3.9572022E0,1.1016101E0,2.8421682E-1,-5.9877485E-1,-2.1905486E-2,1.4451505E0,7.4083847E-1,7.391204E-1,-2.0288289E0,1.0875505E0,2.5346747E-1,1.98418E-1,4.872565E-1,-5.2078135E-2,3.202804E-1,4.078902E-3,4.9596006E-1,4.6994883E-1,1.6141968E0,-5.8294464E-2,-1.7904972E0,9.892249E-1,1.5582248E0,8.612241E-1,1.6709541E-1],"split_indices":[7,4,4,3,7,4,7,0,8,4,0,10,7,5,8,10,8,8,0,8,8,5,8,5,11,5,0,0,7,7,0,8,8,0,10,11,7,8,8,5,5,0,9,8,8,2,3,7,9,9,8,0,5,9,8,8,7,5,8,11,0,7,8,0,0,0,0,0,0,0,0,0,0,0,0,0,0,0,0,0,0,0,0,0,0,0,0,0,0,0,0,0,0,0,0,0,0,0,0,0,0,0,0,0,0,0,0,0,0,0,0,0,0,0,0,0,0,0,0,0,0,0,0,0,0,0,0],"split_type":[0,0,0,0,0,0,0,0,0,0,0,0,0,0,0,0,0,0,0,0,0,0,0,0,0,0,0,0,0,0,0,0,0,0,0,0,0,0,0,0,0,0,0,0,0,0,0,0,0,0,0,0,0,0,0,0,0,0,0,0,0,0,0,0,0,0,0,0,0,0,0,0,0,0,0,0,0,0,0,0,0,0,0,0,0,0,0,0,0,0,0,0,0,0,0,0,0,0,0,0,0,0,0,0,0,0,0,0,0,0,0,0,0,0,0,0,0,0,0,0,0,0,0,0,0,0,0],"sum_hessian":[1.42116E5,6.59E4,7.6216E4,2.9231E4,3.6669E4,1.5358E4,6.0858E4,3.152E3,2.6079E4,1.9501E4,1.7168E4,2.189E3,1.3169E4,3.6273E4,2.4585E4,1.046E3,2.106E3,1.8045E4,8.034E3,1.2036E4,7.465E3,7.088E3,1.008E4,1.192E3,9.97E2,1.0336E4,2.833E3,1.4414E4,2.1859E4,2.997E3,2.1588E4,9.01E2,1.45E2,5.11E2,1.595E3,3.974E3,1.4071E4,4.955E3,3.079E3,1.298E3,1.0738E4,5.496E3,1.969E3,5.175E3,1.913E3,2.4E2,9.84E3,9.97E2,1.95E2,6.22E2,3.75E2,1.522E3,8.814E3,1.425E3,1.408E3,7.576E3,6.838E3,1.3313E4,8.546E3,6.12E2,2.385E3,5.881E3,1.5707E4,1.4E2,7.61E2,3.9E1,1.06E2,9E1,4.21E2,5.53E2,1.042E3,1.785E3,2.189E3,3.318E3,1.0753E4,1.701E3,3.254E3,1.692E3,1.387E3,2.11E2,1.087E3,8.514E3,2.224E3,3.116E3,2.38E3,1.014E3,9.55E2,3.475E3,1.7E3,9.88E2,9.25E2,1.6E2,8E1,1.337E3,8.503E3,7.26E2,2.71E2,1.1E1,1.84E2,3.97E2,2.25E2,1.7E1,3.58E2,5.53E2,9.69E2,4.858E3,3.956E3,7.37E2,6.88E2,1.258E3,1.5E2,5.345E3,2.231E3,4.765E3,2.073E3,1.0611E4,2.702E3,1.803E3,6.743E3,3.65E2,2.47E2,2.319E3,6.6E1,2.467E3,3.414E3,1.4443E4,1.264E3],"tree_param":{"num_deleted":"0","num_feature":"13","num_nodes":"127","size_leaf_vector":"1"}},{"base_weights":[-1.4225288E-2,6.147727E0,-4.8836975E0,1.2033242E1,1.5082101E0,-1.5380148E1,-6.828056E-2,1.4008445E1,-5.175296E0,3.3069725E0,-4.092988E0,6.4434414E0,-3.2431126E1,-1.169181E1,5.6512227E0,1.731534E1,6.809175E0,-1.2236109E1,8.951684E0,-2.2503922E0,4.091004E0,-7.5338483E0,8.134321E0,1.7900576E1,-3.5823927E0,-2.0379103E1,-4.837169E1,9.886232E0,-1.6493992E1,-1.13536E1,1.0487696E1,3.3036728E1,1.5616314E1,2.7080183E1,4.574137E0,-8.522754E0,-2.9388922E1,-1.7390747E0,1.629772E1,7.742932E0,-4.3791394E0,-6.808441E0,4.351185E0,-1.3819624E1,-5.3370624E0,1.53806305E1,3.5942886E0,2.8337551E1,1.2713536E1,-1.0210894E0,-1.7952879E1,-5.0662446E0,-2.4376736E1,-3.0024086E1,-6.9284035E1,1.4748641E1,3.5762079E0,-1.2691871E1,-2.455711E1,-1.6321676E0,-2.0316833E1,2.6929384E1,7.100567E0,6.48469E-1,2.068774E0,8.668766E-1,3.9381516E-1,2.2188547E0,1.0568922E0,6.477098E-1,6.694612E-2,1.284031E-1,-5.7445395E-1,-4.3000975E-1,-1.5659027E0,1.6898636E-2,-6.685229E0,-8.9237875E-1,9.439122E-1,9.19984E-1,2.7865207E-1,-5.904111E-1,-1.1897238E-1,1.6200414E-1,-4.8064208E-1,2.864643E-1,1.3012086E-1,-4.3210602E-1,-1.0158701E0,-1.710209E-1,-4.9483544E-1,8.120815E-1,-4.111142E-1,1.3559411E-1,1.1285726E0,1.7731421E0,8.964264E-1,1.2136496E0,4.1425523E-1,1.3301903E0,-9.776894E-2,-5.3724784E-1,-1.588E0,7.566264E-2,-9.9156374E-1,-8.332136E-1,-1.5815744E0,-1.389691E0,-3.2964451E0,-1.5727549E0,-3.7191663E0,8.603465E-1,4.4787136E-1,6.458432E-1,9.637716E-2,-2.6435453E-1,-8.306446E-1,-8.5754263E-1,-1.4586345E0,1.0270153E0,-1.6308098E-1,-7.658797E-1,-1.8157994E0,1.9463154E0,8.4582084E-1,6.4812577E-1,2.1454321E-1],"categories":[],"categories_nodes":[],"categories_segments":[],"categories_sizes":[],"default_left":[0,0,0,0,0,0,0,0,0,0,0,0,0,0,0,0,0,0,0,0,0,0,0,0,0,0,0,0,0,0,0,0,0,0,0,0,0,0,0,0,0,0,0,0,0,0,0,0,0,0,0,0,0,0,0,0,0,0,0,0,0,0,0,0,0,0,0,0,0,0,0,0,0,0,0,0,0,0,0,0,0,0,0,0,0,0,0,0,0,0,0,0,0,0,0,0,0,0,0,0,0,0,0,0,0,0,0,0,0,0,0,0,0,0,0,0,0,0,0,0,0,0,0,0,0,0,0],"id":4,"left_children":[1,3,5,7,9,11,13,15,17,19,21,23,25,27,29,31,33,35,37,39,41,43,45,47,49,51,53,55,57,59,61,63,65,67,69,71,73,75,77,79,81,83,85,87,89,91,93,95,97,99,101,103,105,107,109,111,113,115,117,119,121,123,125,-1,-1,-1,-1,-1,-1,-1,-1,-1,-1,-1,-1,-1,-1,-1,-1,-1,-1,-1,-1,-1,-1,-1,-1,-1,-1,-1,-1,-1,-1,-1,-1,-1,-1,-1,-1,-1,-1,-1,-1,-1,-1,-1,-1,-1,-1,-1,-1,-1,-1,-1,-1,-1,-1,-1,-1,-1,-1,-1,-1,-1,-1,-1,-1],"loss_changes":[4.2568745E6,1.709988E6,4.0054695E6,9.38377E5,3.528478E5,9.274025E6,3.6116368E6,5.894185E5,2.836933E5,1.1550866E5,3.5822406E5,1.2557951E6,2.686902E6,1.8566498E6,2.9946E6,4.52712E5,3.5308216E5,1.2051047E5,7.4480695E4,6.976733E4,6.590856E4,9.1668E4,6.1462977E4,2.7584262E5,2.1460244E5,4.876975E5,2.308884E6,1.0002984E5,4.4896225E5,7.0253794E5,1.578509E6,2.7623288E5,2.0389125E5,7.8610375E4,1.9038383E5,5.135278E4,1.3241781E4,1.0613469E5,4.985639E4,1.3214469E4,4.0125918E4,1.5305391E4,5.4666656E4,5.768622E4,4.300547E4,1.4766266E4,1.9210416E4,1.24923875E5,1.7435444E5,1.278073E5,8.743172E4,1.6042066E5,3.5302875E5,2.55206E5,5.40472E5,2.6066844E4,2.1856463E4,2.8912075E5,1.5998975E5,1.3984827E5,3.3496988E5,5.8098E5,3.8711075E5,0E0,0E0,0E0,0E0,0E0,0E0,0E0,0E0,0E0,0E0,0E0,0E0,0E0,0E0,0E0,0E0,0E0,0E0,0E0,0E0,0E0,0E0,0E0,0E0,0E0,0E0,0E0,0E0,0E0,0E0,0E0,0E0,0E0,0E0,0E0,0E0,0E0,0E0,0E0,0E0,0E0,0E0,0E0,0E0,0E0,0E0,0E0,0E0,0E0,0E0,0E0,0E0,0E0,0E0,0E0,0E0,0E0,0E0,0E0,0E0,0E0,0E0,0E0,0E0],"parents":[2147483647,0,0,1,1,2,2,3,3,4,4,5,5,6,6,7,7,8,8,9,9,10,10,11,11,12,12,13,13,14,14,15,15,16,16,17,17,18,18,19,19,20,20,21,21,22,22,23,23,24,24,25,25,26,26,27,27,28,28,29,29,30,30,31,31,32,32,33,33,34,34,35,35,36,36,37,37,38,38,39,39,40,40,41,41,42,42,43,43,44,44,45,45,46,46,47,47,48,48,49,49,50,50,51,51,52,52,53,53,54,54,55,55,56,56,57,57,58,58,59,59,60,60,61,61,62,62],"right_children":[2,4,6,8,10,12,14,16,18,20,22,24,26,28,30,32,34,36,38,40,42,44,46,48,50,52,54,56,58,60,62,64,66,68,70,72,74,76,78,80,82,84,86,88,90,92,94,96,98,100,102,104,106,108,110,112,114,116,118,120,122,124,126,-1,-1,-1,-1,-1,-1,-1,-1,-1,-1,-1,-1,-1,-1,-1,-1,-1,-1,-1,-1,-1,-1,-1,-1,-1,-1,-1,-1,-1,-1,-1,-1,-1,-1,-1,-1,-1,-1,-1,-1,-1,-1,-1,-1,-1,-1,-1,-1,-1,-1,-1,-1,-1,-1,-1,-1,-1,-1,-1,-1,-1,-1,-1,-1],"split_conditions":[-6.7987547E0,2.0508568E1,-4.9377555E-1,8.220663E-1,4.7715876E-1,5.2249855E-1,-2.6723838E-1,8.5264015E-1,-1.3933128E-1,2.1673203E-1,8.606997E-3,-8.726535E-3,4.7214544E-1,1.7213356E-2,-8.7380713E-1,-9.92054E-1,-1.2611084E0,1.8544636E0,5.234156E-1,2.7482851E1,-5.2249855E-1,-8.717063E-1,7.0508194E-1,-2.3754597E-1,3.7304115E-1,-6.483922E-1,-6.4196677E0,1.7366982E-1,2.8983688E-1,6.087614E-1,1.6158972E1,8.606997E-3,8.695894E-1,-2.7037475E0,-4.7495106E-1,7.7162457E-1,-4.7916257E-1,2.078784E0,4.7715876E-1,-5.994091E-1,-3.0113983E-1,8.5876393E-1,3.5196228E1,5.51937E-1,2.5453964E1,2.6655207E1,5.9482276E-1,7.72045E-1,1.7931904E1,-1.3579102E0,-6.326403E0,1.689789E1,-6.4506445E0,1.2564297E0,6.3607824E-1,1.7931904E1,-6.3696084E0,5.234156E-1,5.234156E-1,-9.584575E-2,6.299839E-1,-2.568798E-1,-2.3098564E-1,6.48469E-1,2.068774E0,8.668766E-1,3.9381516E-1,2.2188547E0,1.0568922E0,6.477098E-1,6.694612E-2,1.284031E-1,-5.7445395E-1,-4.3000975E-1,-1.5659027E0,1.6898636E-2,-6.685229E0,-8.9237875E-1,9.439122E-1,9.19984E-1,2.7865207E-1,-5.904111E-1,-1.1897238E-1,1.6200414E-1,-4.8064208E-1,2.864643E-1,1.3012086E-1,-4.3210602E-1,-1.0158701E0,-1.710209E-1,-4.9483544E-1,8.120815E-1,-4.111142E-1,1.3559411E-1,1.1285726E0,1.7731421E0,8.964264E-1,1.2136496E0,4.1425523E-1,1.3301903E0,-9.776894E-2,-5.3724784E-1,-1.588E0,7.566264E-2,-9.9156374E-1,-8.332136E-1,-1.5815744E0,-1.389691E0,-3.2964451E0,-1.5727549E0,-3.7191663E0,8.603465E-1,4.4787136E-1,6.458432E-1,9.637716E-2,-2.6435453E-1,-8.306446E-1,-8.5754263E-1,-1.4586345E0,1.0270153E0,-1.6308098E-1,-7.658797E-1,-1.8157994E0,1.9463154E0,8.4582084E-1,6.4812577E-1,2.1454321E-1],"split_indices":[5,0,12,1,8,8,8,8,10,3,12,8,10,12,11,3,1,1,12,0,8,12,3,1,1,1,5,1,1,8,0,12,11,1,11,8,10,1,8,1,3,12,2,8,0,0,8,10,0,1,5,0,5,1,8,0,5,12,12,8,1,1,1,0,0,0,0,0,0,0,0,0,0,0,0,0,0,0,0,0,0,0,0,0,0,0,0,0,0,0,0,0,0,0,0,0,0,0,0,0,0,0,0,0,0,0,0,0,0,0,0,0,0,0,0,0,0,0,0,0,0,0,0,0,0,0,0],"split_type":[0,0,0,0,0,0,0,0,0,0,0,0,0,0,0,0,0,0,0,0,0,0,0,0,0,0,0,0,0,0,0,0,0,0,0,0,0,0,0,0,0,0,0,0,0,0,0,0,0,0,0,0,0,0,0,0,0,0,0,0,0,0,0,0,0,0,0,0,0,0,0,0,0,0,0,0,0,0,0,0,0,0,0,0,0,0,0,0,0,0,0,0,0,0,0,0,0,0,0,0,0,0,0,0,0,0,0,0,0,0,0,0,0,0,0,0,0,0,0,0,0,0,0,0,0,0,0],"sum_hessian":[1.41868E5,6.2623E4,7.9245E4,2.7604E4,3.5019E4,2.4921E4,5.4324E4,2.4762E4,2.842E3,2.6507E4,8.512E3,1.0931E4,1.399E4,1.7915E4,3.6409E4,1.6967E4,7.795E3,1.895E3,9.47E2,3.277E3,2.323E4,6.643E3,1.869E3,5.101E3,5.83E3,7.968E3,6.022E3,3.261E3,1.4654E4,8.062E3,2.8347E4,1.653E3,1.5314E4,7.73E2,7.022E3,1.559E3,3.36E2,3.86E2,5.61E2,5.75E2,2.702E3,5.41E2,2.2689E4,1.719E3,4.924E3,7.19E2,1.15E3,1.692E3,3.409E3,4.949E3,8.81E2,1.65E3,6.318E3,3.209E3,2.813E3,1.841E3,1.42E3,9.96E3,4.694E3,3.868E3,4.194E3,4.841E3,2.3506E4,4.86E2,1.167E3,1.2527E4,2.787E3,1.96E2,5.77E2,1.955E3,5.067E3,3.29E2,1.23E3,2.9E1,3.07E2,3.81E2,5E0,3.9E1,5.22E2,9.6E1,4.79E2,5.72E2,2.13E3,1.18E2,4.23E2,1.2688E4,1.0001E4,9.58E2,7.61E2,3.468E3,1.456E3,6.94E2,2.5E1,1.1E3,5E1,1.003E3,6.89E2,9.43E2,2.466E3,1.61E2,4.788E3,5.8E2,3.01E2,1.142E3,5.08E2,3.064E3,3.254E3,3.023E3,1.86E2,3.35E2,2.478E3,1.291E3,5.5E2,2.12E2,1.208E3,3.449E3,6.511E3,1.804E3,2.89E3,2.64E2,3.604E3,3.197E3,9.97E2,2.201E3,2.64E3,7.615E3,1.5891E4],"tree_param":{"num_deleted":"0","num_feature":"13","num_nodes":"127","size_leaf_vector":"1"}},{"base_weights":[1.203024E-2,-7.868169E0,8.262346E0,-1.7376289E0,-1.2834864E1,1.0576402E1,-7.969545E0,3.640083E0,-6.1674995E0,-8.366139E0,-2.4919456E1,7.4617834E0,2.0400892E1,2.7992144E0,-1.8394264E1,6.2706747E0,-1.485932E1,-1.16903105E1,-3.8136938E0,-1.5660316E1,-3.3757157E0,-3.6362922E0,-3.0869364E1,5.6515813E0,1.8091486E1,3.1431719E1,1.6604916E1,-4.510241E0,9.528227E0,-2.4346016E1,9.514259E0,9.96661E0,-2.5156958E0,-1.0026837E1,-2.5614399E1,-1.0024552E1,-2.2368124E1,-8.369592E-1,-6.4895425E0,-1.9220757E1,-7.2800856E0,3.000813E0,-6.123734E0,3.4336956E1,-9.153632E0,-5.2043346E1,-2.3879581E1,1.1048201E1,2.128051E0,4.622871E1,1.6302752E1,8.095644E0,3.4297306E1,2.2461555E1,1.4003545E1,-7.463286E0,9.713818E0,1.08975725E1,-1.8449688E1,-1.1886528E1,-4.1141647E1,1.4050813E1,-1.6118238E1,3.5531482E-1,9.411153E-1,8.475213E-1,-1.9373219E-1,2.0758669E-1,-6.034506E-1,-1.0101455E0,-1.6321887E0,-2.5969657E-1,-6.1422664E-1,-9.0113145E-1,-1.4916806E0,-1.435547E-1,1.1511298E-1,-4.526572E-1,-1.7932364E-1,-8.629724E-1,-1.7773179E0,-2.2428017E0,-3.0841473E-1,2.5502832E0,7.258298E-2,-5.823022E-1,-1.5401974E-1,3.0338018E0,9.853814E-1,-8.7300986E-2,-1.280094E0,-9.032492E-1,-3.1135938E0,-8.089809E-1,-1.8907928E0,8.4427625E-1,3.6701104E-1,2.807698E-1,-4.063253E-1,2.8625095E0,1.7863165E0,1.0471077E0,6.0064226E-1,6.709648E-2,1.0304072E0,2.4418547E0,1.4807765E0,1.2960695E0,9.2704374E-1,4.3422398E-1,8.5378313E-1,-5.9189375E-2,-6.811886E-1,8.077809E-1,-6.3751626E-1,4.6388918E-1,1.0620247E0,5.241515E-1,-2.2209265E0,-2.3183427E0,-4.7855678E-1,-4.9696475E-1,-2.7826898E0,-4.020463E-1,8.32411E-1,-3.7042773E-1,-2.0563018E0],"categories":[],"categories_nodes":[],"categories_segments":[],"categories_sizes":[],"default_left":[0,0,0,0,0,0,0,0,0,0,0,0,0,0,0,0,0,0,0,0,0,0,0,0,0,0,0,0,0,0,0,0,0,0,0,0,0,0,0,0,0,0,0,0,0,0,0,0,0,0,0,0,0,0,0,0,0,0,0,0,0,0,0,0,0,0,0,0,0,0,0,0,0,0,0,0,0,0,0,0,0,0,0,0,0,0,0,0,0,0,0,0,0,0,0,0,0,0,0,0,0,0,0,0,0,0,0,0,0,0,0,0,0,0,0,0,0,0,0,0,0,0,0,0,0,0,0],"id":5,"left_children":[1,3,5,7,9,11,13,15,17,19,21,23,25,27,29,31,33,35,37,39,41,43,45,47,49,51,53,55,57,59,61,63,65,67,69,71,73,75,77,79,81,83,85,87,89,91,93,95,97,99,101,103,105,107,109,111,113,115,117,119,121,123,125,-1,-1,-1,-1,-1,-1,-1,-1,-1,-1,-1,-1,-1,-1,-1,-1,-1,-1,-1,-1,-1,-1,-1,-1,-1,-1,-1,-1,-1,-1,-1,-1,-1,-1,-1,-1,-1,-1,-1,-1,-1,-1,-1,-1,-1,-1,-1,-1,-1,-1,-1,-1,-1,-1,-1,-1,-1,-1,-1,-1,-1,-1,-1,-1],"loss_changes":[9.245595E6,2.21468E6,2.609594E6,7.7556644E5,2.169725E6,1.8604505E6,9.732462E5,7.1570194E5,2.3201012E5,1.0678058E6,1.373471E6,8.882945E5,6.123225E5,2.0981925E5,7.319241E5,4.1812672E5,9.49035E4,9.464656E4,9.970334E4,3.554285E5,3.052662E5,4.970631E5,1.2533585E6,7.5018E5,3.3735675E5,2.50219E5,1.656095E5,8.597103E4,8.529003E4,7.5934675E5,9.034574E4,2.2942994E5,1.00931336E5,3.6679117E4,2.0903562E4,5.0327812E4,2.2782781E4,3.7854086E4,4.9026E4,2.671605E5,1.4823408E5,3.901237E5,2.0456206E5,1.1477841E5,2.5228788E5,7.297615E5,6.8347625E5,3.3718425E5,8.5366475E5,4.4361875E4,1.2548975E5,3.4702055E4,2.25634E5,4.4930125E4,1.23124E5,6.551439E4,5.1144086E4,3.528347E4,7.860935E4,1.660875E5,6.9948925E5,3.794897E4,2.517424E4,0E0,0E0,0E0,0E0,0E0,0E0,0E0,0E0,0E0,0E0,0E0,0E0,0E0,0E0,0E0,0E0,0E0,0E0,0E0,0E0,0E0,0E0,0E0,0E0,0E0,0E0,0E0,0E0,0E0,0E0,0E0,0E0,0E0,0E0,0E0,0E0,0E0,0E0,0E0,0E0,0E0,0E0,0E0,0E0,0E0,0E0,0E0,0E0,0E0,0E0,0E0,0E0,0E0,0E0,0E0,0E0,0E0,0E0,0E0,0E0,0E0,0E0,0E0,0E0],"parents":[2147483647,0,0,1,1,2,2,3,3,4,4,5,5,6,6,7,7,8,8,9,9,10,10,11,11,12,12,13,13,14,14,15,15,16,16,17,17,18,18,19,19,20,20,21,21,22,22,23,23,24,24,25,25,26,26,27,27,28,28,29,29,30,30,31,31,32,32,33,33,34,34,35,35,36,36,37,37,38,38,39,39,40,40,41,41,42,42,43,43,44,44,45,45,46,46,47,47,48,48,49,49,50,50,51,51,52,52,53,53,54,54,55,55,56,56,57,57,58,58,59,59,60,60,61,61,62,62],"right_children":[2,4,6,8,10,12,14,16,18,20,22,24,26,28,30,32,34,36,38,40,42,44,46,48,50,52,54,56,58,60,62,64,66,68,70,72,74,76,78,80,82,84,86,88,90,92,94,96,98,100,102,104,106,108,110,112,114,116,118,120,122,124,126,-1,-1,-1,-1,-1,-1,-1,-1,-1,-1,-1,-1,-1,-1,-1,-1,-1,-1,-1,-1,-1,-1,-1,-1,-1,-1,-1,-1,-1,-1,-1,-1,-1,-1,-1,-1,-1,-1,-1,-1,-1,-1,-1,-1,-1,-1,-1,-1,-1,-1,-1,-1,-1,-1,-1,-1,-1,-1,-1,-1,-1,-1,-1,-1],"split_conditions":[3.967617E2,-6.7987547E0,8.407631E-1,2.1114983E1,6.2251467E-1,4.1511423E2,-6.5553684E0,6.42395E-1,3.8251257E2,3.4337013E1,1.1116311E1,1.3500738E-1,-3.4731483E-1,4.0932413E2,8.130741E-2,8.3388585E-1,1.3059368E0,5.2249855E-1,-4.7317505E-2,-6.2993655E0,-3.77594E-1,7.372773E-1,3.2800198E1,-6.8490286E0,-1.6555052E0,-7.0090926E-1,-7.201519E0,1.2027836E-1,2.5020618E0,6.4944804E-1,1.8544636E0,3.9358853E2,-1.4874973E0,3.2988857E1,1.8544636E0,-4.009266E-1,-4.0317273E-1,3.9083017E2,3.9022238E2,7.2278595E-1,3.7730847E2,-9.493262E-1,3.8405182E2,7.0090926E-1,3.165493E-1,7.1325046E-1,1.9536413E1,1.9644428E1,6.087614E-1,3.4233063E1,1.8878992E1,6.2832832E-3,1.0627334E1,2.1114983E1,3.435949E1,5.6640625E-1,8.3388585E-1,2.4307156E-1,-7.8353252E0,-9.337847E-1,1.4975833E1,-8.653073E-1,2.6045913E-1,3.5531482E-1,9.411153E-1,8.475213E-1,-1.9373219E-1,2.0758669E-1,-6.034506E-1,-1.0101455E0,-1.6321887E0,-2.5969657E-1,-6.1422664E-1,-9.0113145E-1,-1.4916806E0,-1.435547E-1,1.1511298E-1,-4.526572E-1,-1.7932364E-1,-8.629724E-1,-1.7773179E0,-2.2428017E0,-3.0841473E-1,2.5502832E0,7.258298E-2,-5.823022E-1,-1.5401974E-1,3.0338018E0,9.853814E-1,-8.7300986E-2,-1.280094E0,-9.032492E-1,-3.1135938E0,-8.089809E-1,-1.8907928E0,8.4427625E-1,3.6701104E-1,2.807698E-1,-4.063253E-1,2.8625095E0,1.7863165E0,1.0471077E0,6.0064226E-1,6.709648E-2,1.0304072E0,2.4418547E0,1.4807765E0,1.2960695E0,9.2704374E-1,4.3422398E-1,8.5378313E-1,-5.9189375E-2,-6.811886E-1,8.077809E-1,-6.3751626E-1,4.6388918E-1,1.0620247E0,5.241515E-1,-2.2209265E0,-2.3183427E0,-4.7855678E-1,-4.9696475E-1,-2.7826898E0,-4.020463E-1,8.32411E-1,-3.7042773E-1,-2.0563018E0],"split_indices":[7,5,1,0,8,7,5,1,7,2,0,6,1,7,6,8,1,8,1,5,1,8,2,5,1,8,5,6,1,8,1,7,1,2,1,1,9,7,7,1,7,9,7,8,1,8,0,0,8,2,0,6,0,0,2,8,8,6,5,9,0,11,9,0,0,0,0,0,0,0,0,0,0,0,0,0,0,0,0,0,0,0,0,0,0,0,0,0,0,0,0,0,0,0,0,0,0,0,0,0,0,0,0,0,0,0,0,0,0,0,0,0,0,0,0,0,0,0,0,0,0,0,0,0,0,0,0],"split_type":[0,0,0,0,0,0,0,0,0,0,0,0,0,0,0,0,0,0,0,0,0,0,0,0,0,0,0,0,0,0,0,0,0,0,0,0,0,0,0,0,0,0,0,0,0,0,0,0,0,0,0,0,0,0,0,0,0,0,0,0,0,0,0,0,0,0,0,0,0,0,0,0,0,0,0,0,0,0,0,0,0,0,0,0,0,0,0,0,0,0,0,0,0,0,0,0,0,0,0,0,0,0,0,0,0,0,0,0,0,0,0,0,0,0,0,0,0,0,0,0,0,0,0,0,0,0,0],"sum_hessian":[1.42207E5,7.2735E4,6.9472E4,3.2554E4,4.0181E4,6.0804E4,8.668E3,1.4704E4,1.785E4,2.9335E4,1.0846E4,4.6169E4,1.4635E4,4.264E3,4.404E3,1.2874E4,1.83E3,5.333E3,1.2517E4,1.1916E4,1.7419E4,2.37E3,8.476E3,3.9452E4,6.717E3,3.745E3,1.089E4,2.044E3,2.22E3,3.63E3,7.74E2,9.062E3,3.812E3,1.264E3,5.66E2,4.615E3,7.18E2,5.926E3,6.591E3,8.362E3,3.554E3,5.246E3,1.2173E4,3E2,2.07E3,2.102E3,6.374E3,1.5583E4,2.3869E4,4E2,6.317E3,4.1E2,3.335E3,3.347E3,7.543E3,1.693E3,3.51E2,2.117E3,1.03E2,2.085E3,1.545E3,6.58E2,1.16E2,6.851E3,2.211E3,2.48E2,3.564E3,1.59E2,1.105E3,3.22E2,2.44E2,1.472E3,3.143E3,4.56E2,2.62E2,3.596E3,2.33E3,3.499E3,3.092E3,7.467E3,8.95E2,1.01E2,3.453E3,1.63E2,5.083E3,4.324E3,7.849E3,1.06E2,1.94E2,1.428E3,6.42E2,4.87E2,1.615E3,4.107E3,2.267E3,6.052E3,9.531E3,1.7812E4,6.057E3,1.93E2,2.07E2,3.033E3,3.284E3,2.67E2,1.43E2,8.1E2,2.525E3,1.775E3,1.572E3,2.763E3,4.78E3,8.39E2,8.54E2,2.73E2,7.8E1,1.832E3,2.85E2,4.9E1,5.4E1,1.3E2,1.955E3,4.91E2,1.054E3,6.9E1,5.89E2,8.7E1,2.9E1],"tree_param":{"num_deleted":"0","num_feature":"13","num_nodes":"127","size_leaf_vector":"1"}},{"base_weights":[-3.7712105E-2,-8.190193E0,7.0123463E0,-1.426938E1,-3.4511387E0,4.25582E0,1.6451069E1,-2.475223E1,-8.266471E0,-6.756179E0,2.9197162E-1,-6.877006E0,7.100987E0,1.029075E1,2.0268677E1,-5.4815792E1,-1.8179049E1,-1.1407468E1,1.6127567E0,-9.534561E0,-3.481622E0,4.489636E0,-2.4251673E0,-2.7575838E1,5.837952E-1,5.147795E0,1.5143934E1,-4.5897818E0,1.3041694E1,4.2304775E1,1.7769579E1,-1.3428361E1,-6.1675423E1,-2.2734201E1,-6.2480392E0,-1.5148216E1,-5.069504E0,9.027969E0,-5.031083E0,1.6593727E1,-9.973672E0,-6.916632E0,-3.3830136E-1,-3.3714547E0,7.9668155E0,-1.0182931E1,-1.1722841E0,-8.687963E0,-4.1581596E1,-2.9922876E0,2.3478127E1,1.4294672E0,8.530838E0,2.0261328E1,1.0931008E1,-3.8720444E1,-2.0603459E-1,8.682097E0,1.669848E1,4.393859E1,-3.8333836E1,-6.06246E-2,1.8828915E1,4.101052E-1,-7.9379916E-1,-1.6004618E0,-3.4278963E0,-1.653799E0,-8.062666E-1,-9.56175E-1,1.2975462E-1,-6.2204283E-1,-1.2884687E0,-3.6698672E-1,-3.3088554E-2,5.6982917E-1,-1.4000392E0,-6.2584776E-1,-6.29166E-2,2.9406884E0,-5.590504E-1,-6.9774735E-1,-3.9273226E-1,1.0194548E-1,-4.5800182E-1,4.205122E-1,-2.6730752E-1,-3.402221E-1,6.0767764E-1,6.710216E-1,1.4280964E-1,-1.0487735E0,-2.6631296E-1,-1.2553313E-1,9.1053024E-2,3.1207314E0,-5.200631E-1,-3.1096742E0,-1.449252E0,-5.61994E-1,8.6315945E-2,1.3099622E0,1.910754E-1,-5.999255E-2,3.2164252E-1,2.2967911E-1,5.2104205E-1,8.3291304E-1,1.8075682E0,4.065895E-1,8.8554925E-1,-1.8576379E-1,-3.7131684E0,-1.3478647E0,2.782342E-1,2.5528994E-1,8.4641534E-1,5.446866E-1,1.2974854E0,2.9194362E0,1.9078814E0,-2.8240285E0,-7.521707E-1,1.4419577E0,-3.5424837E-1,8.427071E-1,1.2975426E0],"categories":[],"categories_nodes":[],"categories_segments":[],"categories_sizes":[],"default_left":[0,0,0,0,0,0,0,0,0,0,0,0,0,0,0,0,0,0,0,0,0,0,0,0,0,0,0,0,0,0,0,0,0,0,0,0,0,0,0,0,0,0,0,0,0,0,0,0,0,0,0,0,0,0,0,0,0,0,0,0,0,0,0,0,0,0,0,0,0,0,0,0,0,0,0,0,0,0,0,0,0,0,0,0,0,0,0,0,0,0,0,0,0,0,0,0,0,0,0,0,0,0,0,0,0,0,0,0,0,0,0,0,0,0,0,0,0,0,0,0,0,0,0,0,0,0,0],"id":6,"left_children":[1,3,5,7,9,11,13,15,17,19,21,23,25,27,29,31,33,35,37,39,41,43,45,47,49,51,53,55,57,59,61,63,65,67,69,71,73,75,77,79,81,83,85,87,89,91,93,95,97,99,101,103,105,107,109,111,113,115,117,119,121,123,125,-1,-1,-1,-1,-1,-1,-1,-1,-1,-1,-1,-1,-1,-1,-1,-1,-1,-1,-1,-1,-1,-1,-1,-1,-1,-1,-1,-1,-1,-1,-1,-1,-1,-1,-1,-1,-1,-1,-1,-1,-1,-1,-1,-1,-1,-1,-1,-1,-1,-1,-1,-1,-1,-1,-1,-1,-1,-1,-1,-1,-1,-1,-1,-1],"loss_changes":[8.157378E6,1.896139E6,1.9801652E6,1.8141205E6,4.5757362E5,1.8659452E6,4.04363E5,2.073541E6,5.689659E5,1.7867694E5,1.9784189E5,1.8517872E6,7.369745E5,2.6958006E5,5.84089E5,5.33753E5,4.6811375E5,3.29757E5,2.1799634E5,1.2207919E5,9.7367336E4,1.8633875E5,1.0233402E5,8.40074E5,7.217742E5,4.7487906E5,1.974085E5,1.5379769E5,8.8442875E4,1.4410525E5,1.8019625E5,1.4372711E4,3.27542E5,4.25608E5,2.7126438E5,2.5122675E5,5.167828E4,1.8371239E5,6.590047E4,2.0704881E5,8.805731E4,8.659108E4,2.0639631E5,1.115265E5,1.3168012E5,7.662241E4,3.632911E4,1.655883E5,4.717695E5,2.9676356E5,6.3601062E4,2.366228E5,1.4704525E5,2.3630488E5,9.531594E4,1.4528605E5,1.4094123E5,7.47298E4,1.6194456E5,8.631E4,8.441379E3,1.09011195E5,1.262065E5,0E0,0E0,0E0,0E0,0E0,0E0,0E0,0E0,0E0,0E0,0E0,0E0,0E0,0E0,0E0,0E0,0E0,0E0,0E0,0E0,0E0,0E0,0E0,0E0,0E0,0E0,0E0,0E0,0E0,0E0,0E0,0E0,0E0,0E0,0E0,0E0,0E0,0E0,0E0,0E0,0E0,0E0,0E0,0E0,0E0,0E0,0E0,0E0,0E0,0E0,0E0,0E0,0E0,0E0,0E0,0E0,0E0,0E0,0E0,0E0,0E0,0E0,0E0,0E0],"parents":[2147483647,0,0,1,1,2,2,3,3,4,4,5,5,6,6,7,7,8,8,9,9,10,10,11,11,12,12,13,13,14,14,15,15,16,16,17,17,18,18,19,19,20,20,21,21,22,22,23,23,24,24,25,25,26,26,27,27,28,28,29,29,30,30,31,31,32,32,33,33,34,34,35,35,36,36,37,37,38,38,39,39,40,40,41,41,42,42,43,43,44,44,45,45,46,46,47,47,48,48,49,49,50,50,51,51,52,52,53,53,54,54,55,55,56,56,57,57,58,58,59,59,60,60,61,61,62,62],"right_children":[2,4,6,8,10,12,14,16,18,20,22,24,26,28,30,32,34,36,38,40,42,44,46,48,50,52,54,56,58,60,62,64,66,68,70,72,74,76,78,80,82,84,86,88,90,92,94,96,98,100,102,104,106,108,110,112,114,116,118,120,122,124,126,-1,-1,-1,-1,-1,-1,-1,-1,-1,-1,-1,-1,-1,-1,-1,-1,-1,-1,-1,-1,-1,-1,-1,-1,-1,-1,-1,-1,-1,-1,-1,-1,-1,-1,-1,-1,-1,-1,-1,-1,-1,-1,-1,-1,-1,-1,-1,-1,-1,-1,-1,-1,-1,-1,-1,-1,-1,-1,-1,-1,-1,-1,-1,-1],"split_conditions":[3.951246E2,1.5748394E0,4.1511423E2,-4.9377555E-1,3.8615152E2,1.365412E0,1.7213356E-2,-1.2414131E0,8.6314213E-1,1.809589E0,1.920744E1,-4.9377555E-1,1.1313915E-1,1.3393073E0,-9.331322E-1,7.8669615E0,-1.2910296E-2,3.8775726E2,1.9644428E1,-9.493262E-1,-2.2598931E-1,1.7663916E0,3.8027954E-1,4.327476E-1,8.6314213E-1,4.0388007E2,1.7809807E1,-8.5876393E-1,5.4753494E-1,1.973192E1,5.835246E0,-3.6937252E-1,-5.1540774E-1,2.3427317E1,3.9064407E-1,5.234156E-1,5.031963E-1,2.1516098E-2,3.8250922E2,2.4236843E1,-8.498171E-1,-6.4231443E-1,1.876112E1,1.0701227E-1,8.124199E-1,-8.498171E-1,3.9227377E2,-9.868804E-1,-1.1177025E0,-8.7380713E-1,2.4096375E0,1.7663916E0,1.5777798E0,6.15971E-1,4.0822375E2,5.5217725E-1,3.2489468E1,-4.9377555E-1,2.8343821E-2,-3.7260532E-2,-1.5558071E-1,2.1516098E-2,1.5357971E-1,4.101052E-1,-7.9379916E-1,-1.6004618E0,-3.4278963E0,-1.653799E0,-8.062666E-1,-9.56175E-1,1.2975462E-1,-6.2204283E-1,-1.2884687E0,-3.6698672E-1,-3.3088554E-2,5.6982917E-1,-1.4000392E0,-6.2584776E-1,-6.29166E-2,2.9406884E0,-5.590504E-1,-6.9774735E-1,-3.9273226E-1,1.0194548E-1,-4.5800182E-1,4.205122E-1,-2.6730752E-1,-3.402221E-1,6.0767764E-1,6.710216E-1,1.4280964E-1,-1.0487735E0,-2.6631296E-1,-1.2553313E-1,9.1053024E-2,3.1207314E0,-5.200631E-1,-3.1096742E0,-1.449252E0,-5.61994E-1,8.6315945E-2,1.3099622E0,1.910754E-1,-5.999255E-2,3.2164252E-1,2.2967911E-1,5.2104205E-1,8.3291304E-1,1.8075682E0,4.065895E-1,8.8554925E-1,-1.8576379E-1,-3.7131684E0,-1.3478647E0,2.782342E-1,2.5528994E-1,8.4641534E-1,5.446866E-1,1.2974854E0,2.9194362E0,1.9078814E0,-2.8240285E0,-7.521707E-1,1.4419577E0,-3.5424837E-1,8.427071E-1,1.2975426E0],"split_indices":[7,4,7,12,7,4,12,3,12,4,0,12,6,4,3,0,11,7,0,9,10,4,3,10,12,7,0,12,3,0,0,10,9,0,3,12,10,11,7,0,12,10,0,6,3,12,7,9,3,11,3,4,4,10,7,10,2,12,9,6,10,11,6,0,0,0,0,0,0,0,0,0,0,0,0,0,0,0,0,0,0,0,0,0,0,0,0,0,0,0,0,0,0,0,0,0,0,0,0,0,0,0,0,0,0,0,0,0,0,0,0,0,0,0,0,0,0,0,0,0,0,0,0,0,0,0,0],"split_type":[0,0,0,0,0,0,0,0,0,0,0,0,0,0,0,0,0,0,0,0,0,0,0,0,0,0,0,0,0,0,0,0,0,0,0,0,0,0,0,0,0,0,0,0,0,0,0,0,0,0,0,0,0,0,0,0,0,0,0,0,0,0,0,0,0,0,0,0,0,0,0,0,0,0,0,0,0,0,0,0,0,0,0,0,0,0,0,0,0,0,0,0,0,0,0,0,0,0,0,0,0,0,0,0,0,0,0,0,0,0,0,0,0,0,0,0,0,0,0,0,0,0,0,0,0,0,0],"sum_hessian":[1.41926E5,6.5817E4,7.6109E4,2.8831E4,3.6986E4,5.8907E4,1.7202E4,1.0497E4,1.8334E4,1.9642E4,1.7344E4,1.199E4,4.6917E4,6.583E3,1.0619E4,1.882E3,8.615E3,1.3911E4,4.423E3,1.0625E4,9.017E3,6.815E3,1.0529E4,3.176E3,8.814E3,3.7751E4,9.166E3,1.027E3,5.556E3,1.08E3,9.539E3,2.68E2,1.614E3,6.234E3,2.381E3,8.747E3,5.164E3,2.09E3,2.333E3,1.75E2,1.045E4,4.308E3,4.709E3,2.09E3,4.725E3,1.463E3,9.066E3,1.353E3,1.823E3,7.624E3,1.19E3,1.7985E4,1.9766E4,4.137E3,5.029E3,1.16E2,9.11E2,2.536E3,3.02E3,1.059E3,2.1E1,5.35E2,9.004E3,2.7E1,2.41E2,3.05E2,1.309E3,2.429E3,3.805E3,9.69E2,1.412E3,6.972E3,1.775E3,3.408E3,1.756E3,1.965E3,1.25E2,7.81E2,1.552E3,6.9E1,1.06E2,3.628E3,6.822E3,8.63E2,3.445E3,1.714E3,2.995E3,1.712E3,3.78E2,2.285E3,2.44E3,4.53E2,1.01E3,6.265E3,2.801E3,3.1E1,1.322E3,6.9E2,1.133E3,2.774E3,4.85E3,1.045E3,1.45E2,1.179E4,6.195E3,6.412E3,1.3354E4,3.374E3,7.63E2,3.561E3,1.468E3,5.9E1,5.7E1,1.61E2,7.5E2,1.77E3,7.66E2,1.857E3,1.163E3,3E2,7.59E2,1.1E1,1E1,1.04E2,4.31E2,7.052E3,1.952E3],"tree_param":{"num_deleted":"0","num_feature":"13","num_nodes":"127","size_leaf_vector":"1"}},{"base_weights":[1.1483367E-2,-7.0742245E0,7.400514E0,-1.2932886E1,-2.5904517E0,-2.2072853E1,8.2836275E0,-3.2049473E1,-1.0661325E1,-5.7315917E0,1.801193E0,-7.29533E0,-4.0454445E1,5.668981E0,1.6066145E1,-8.033271E0,-4.7460793E1,-2.160484E1,-9.023729E0,-8.602398E0,-2.4556935E0,6.602722E0,-1.0705523E0,-1.2294873E1,1.8736523E1,-2.2112043E1,-6.4821754E1,3.8980298E0,1.5964832E1,-9.134524E-1,1.7753267E1,-1.0797108E1,3.0751627E1,-1.7016335E1,-5.7664448E1,-1.312811E1,-3.411543E1,-1.9255901E1,-7.1744585E0,-2.0263382E1,-7.1497946E0,-3.3603647E-1,-1.0220802E1,1.0244337E1,-2.6254861E0,-2.9953572E-1,-1.731354E1,2.0057619E0,-2.0388586E1,8.610653E1,1.3442756E1,-1.2778696E1,-3.8142693E1,7.946303E-1,-6.8813194E1,9.1882105E0,4.8130178E-1,2.0236689E1,1.1355254E1,-1.5187782E1,3.3381362E0,3.3678738E1,1.6247507E1,-7.8803635E-1,3.9582083E-1,2.9433901E0,8.204452E-1,4.8872852E-1,-1.3676437E0,-2.4791787E0,-3.967409E0,-2.6580328E-1,-9.150101E-1,-1.3738356E0,-2.0107737E0,-1.5025047E0,-6.063151E-1,-2.2155586E-1,-7.5478023E-1,-1.2702515E0,-2.9693997E-1,-4.2935744E-1,-1.6535284E-2,3.1651977E-1,-2.797335E-1,-7.435815E-1,-2.934724E-1,8.446652E-1,2.5133431E-2,3.5306022E-1,-2.634933E-1,-9.6685475E-1,1.3514369E-2,-1.3658571E0,-4.7549868E-1,-5.513673E-1,3.542053E-1,-4.347187E-1,-1.7641556E0,1.632472E0,5.7711763E0,-6.601273E-2,1.2478657E0,-3.489339E-1,-1.0646639E0,-4.6393967E-1,-2.0751522E0,-2.8900795E0,-4.07888E0,7.1385115E-1,2.9832074E-1,1.8059969E-1,-5.1691705E-1,8.529809E-1,1.6119562E0,-3.5408306E-1,6.2412995E-1,-6.1043346E-1,-2.0909183E0,1.001723E0,4.4591732E-2,2.3671932E0,1.1952312E0,1.0839043E0,7.2493064E-1],"categories":[],"categories_nodes":[],"categories_segments":[],"categories_sizes":[],"default_left":[0,0,0,0,0,0,0,0,0,0,0,0,0,0,0,0,0,0,0,0,0,0,0,0,0,0,0,0,0,0,0,0,0,0,0,0,0,0,0,0,0,0,0,0,0,0,0,0,0,0,0,0,0,0,0,0,0,0,0,0,0,0,0,0,0,0,0,0,0,0,0,0,0,0,0,0,0,0,0,0,0,0,0,0,0,0,0,0,0,0,0,0,0,0,0,0,0,0,0,0,0,0,0,0,0,0,0,0,0,0,0,0,0,0,0,0,0,0,0,0,0,0,0,0,0],"id":7,"left_children":[1,3,5,7,9,11,13,15,17,19,21,23,25,27,29,31,33,35,37,39,41,43,45,47,49,51,53,55,57,59,61,63,65,67,69,71,73,75,77,79,81,83,85,87,89,91,93,95,97,99,101,103,105,-1,107,109,111,113,115,117,119,121,123,-1,-1,-1,-1,-1,-1,-1,-1,-1,-1,-1,-1,-1,-1,-1,-1,-1,-1,-1,-1,-1,-1,-1,-1,-1,-1,-1,-1,-1,-1,-1,-1,-1,-1,-1,-1,-1,-1,-1,-1,-1,-1,-1,-1,-1,-1,-1,-1,-1,-1,-1,-1,-1,-1,-1,-1,-1,-1,-1,-1,-1,-1],"loss_changes":[7.4255155E6,1.9018072E6,1.80725E6,1.362618E6,5.657756E5,5.4840156E5,1.37156E6,1.2332278E6,5.02577E5,2.2484806E5,2.3583697E5,1.461249E5,4.0081738E5,9.1995925E5,4.85608E5,1.4011247E5,6.296205E5,3.8673175E5,4.6165212E5,2.1570325E5,1.8383019E5,2.1513697E5,1.340333E5,1.08959E5,6.3384574E4,7.656161E4,1.2545525E5,7.782003E5,1.4558225E5,9.308748E4,3.69194E5,1.1326169E5,3.411035E4,1.4177794E5,2.623925E5,8.7901625E4,5.858E4,2.8707062E5,4.4912038E5,1.0376894E5,1.11076E5,3.0765453E5,4.8379188E4,2.972934E5,4.6451934E4,1.1086326E5,3.759747E4,2.2647355E4,1.0437089E5,1.6590297E4,2.8763543E4,1.5997383E4,1.79415E4,0E0,4.69955E4,2.7690812E5,8.861535E5,1.459505E5,7.416578E4,2.7410164E4,4.8257938E4,1.7663538E5,1.334925E5,0E0,0E0,0E0,0E0,0E0,0E0,0E0,0E0,0E0,0E0,0E0,0E0,0E0,0E0,0E0,0E0,0E0,0E0,0E0,0E0,0E0,0E0,0E0,0E0,0E0,0E0,0E0,0E0,0E0,0E0,0E0,0E0,0E0,0E0,0E0,0E0,0E0,0E0,0E0,0E0,0E0,0E0,0E0,0E0,0E0,0E0,0E0,0E0,0E0,0E0,0E0,0E0,0E0,0E0,0E0,0E0,0E0,0E0,0E0,0E0,0E0,0E0],"parents":[2147483647,0,0,1,1,2,2,3,3,4,4,5,5,6,6,7,7,8,8,9,9,10,10,11,11,12,12,13,13,14,14,15,15,16,16,17,17,18,18,19,19,20,20,21,21,22,22,23,23,24,24,25,25,26,26,27,27,28,28,29,29,30,30,31,31,32,32,33,33,34,34,35,35,36,36,37,37,38,38,39,39,40,40,41,41,42,42,43,43,44,44,45,45,46,46,47,47,48,48,49,49,50,50,51,51,52,52,54,54,55,55,56,56,57,57,58,58,59,59,60,60,61,61,62,62],"right_children":[2,4,6,8,10,12,14,16,18,20,22,24,26,28,30,32,34,36,38,40,42,44,46,48,50,52,54,56,58,60,62,64,66,68,70,72,74,76,78,80,82,84,86,88,90,92,94,96,98,100,102,104,106,-1,108,110,112,114,116,118,120,122,124,-1,-1,-1,-1,-1,-1,-1,-1,-1,-1,-1,-1,-1,-1,-1,-1,-1,-1,-1,-1,-1,-1,-1,-1,-1,-1,-1,-1,-1,-1,-1,-1,-1,-1,-1,-1,-1,-1,-1,-1,-1,-1,-1,-1,-1,-1,-1,-1,-1,-1,-1,-1,-1,-1,-1,-1,-1,-1,-1,-1,-1,-1],"split_conditions":[3.967617E2,1.5748394E0,1.1869354E0,3.2674908E1,3.8854382E2,5.821082E-1,4.1511423E2,1.1627322E1,3.7887973E2,1.809589E0,1.8176167E1,-6.1635E0,-8.653073E-1,1.39534E-1,-6.755902E-1,6.458813E-1,7.0090926E-1,5.6640625E-1,-7.372773E-1,-6.3607824E-1,7.933533E-1,8.3388585E-1,6.2251467E-1,1.3136546E1,-9.868804E-1,1.1881761E-1,6.3607824E-1,-6.866666E0,1.865062E1,4.1563495E2,9.018055E0,3.6434174E-2,7.0090926E-1,1.6158972E1,-8.485421E-3,2.5059525E1,2.0071642E1,8.695894E-1,6.3607824E-1,8.695894E-1,-6.340379E0,1.9316156E1,-1.7178123E-1,-6.9820957E0,3.45481E1,-5.2249855E-1,3.6455357E1,4.0047168E2,7.7162457E-1,3.3223454E1,-1.3933128E-1,-6.2171926E0,-6.3061957E0,7.946303E-1,-1.910857E-2,1.9536413E1,6.2251467E-1,6.100175E-1,3.387943E1,1.4806059E1,-5.202787E-1,8.5264015E-1,1.8051245E1,-7.8803635E-1,3.9582083E-1,2.9433901E0,8.204452E-1,4.8872852E-1,-1.3676437E0,-2.4791787E0,-3.967409E0,-2.6580328E-1,-9.150101E-1,-1.3738356E0,-2.0107737E0,-1.5025047E0,-6.063151E-1,-2.2155586E-1,-7.5478023E-1,-1.2702515E0,-2.9693997E-1,-4.2935744E-1,-1.6535284E-2,3.1651977E-1,-2.797335E-1,-7.435815E-1,-2.934724E-1,8.446652E-1,2.5133431E-2,3.5306022E-1,-2.634933E-1,-9.6685475E-1,1.3514369E-2,-1.3658571E0,-4.7549868E-1,-5.513673E-1,3.542053E-1,-4.347187E-1,-1.7641556E0,1.632472E0,5.7711763E0,-6.601273E-2,1.2478657E0,-3.489339E-1,-1.0646639E0,-4.6393967E-1,-2.0751522E0,-2.8900795E0,-4.07888E0,7.1385115E-1,2.9832074E-1,1.8059969E-1,-5.1691705E-1,8.529809E-1,1.6119562E0,-3.5408306E-1,6.2412995E-1,-6.1043346E-1,-2.0909183E0,1.001723E0,4.4591732E-2,2.3671932E0,1.1952312E0,1.0839043E0,7.2493064E-1],"split_indices":[7,4,4,2,7,10,7,0,7,4,0,5,11,6,8,10,8,8,8,8,8,8,8,0,9,9,8,5,0,7,0,6,8,0,9,0,0,11,8,11,5,0,9,5,2,8,2,7,8,2,10,5,5,0,9,0,8,10,2,0,10,8,0,0,0,0,0,0,0,0,0,0,0,0,0,0,0,0,0,0,0,0,0,0,0,0,0,0,0,0,0,0,0,0,0,0,0,0,0,0,0,0,0,0,0,0,0,0,0,0,0,0,0,0,0,0,0,0,0,0,0,0,0,0,0],"split_type":[0,0,0,0,0,0,0,0,0,0,0,0,0,0,0,0,0,0,0,0,0,0,0,0,0,0,0,0,0,0,0,0,0,0,0,0,0,0,0,0,0,0,0,0,0,0,0,0,0,0,0,0,0,0,0,0,0,0,0,0,0,0,0,0,0,0,0,0,0,0,0,0,0,0,0,0,0,0,0,0,0,0,0,0,0,0,0,0,0,0,0,0,0,0,0,0,0,0,0,0,0,0,0,0,0,0,0,0,0,0,0,0,0,0,0,0,0,0,0,0,0,0,0,0,0],"sum_hessian":[1.41824E5,7.2398E4,6.9426E4,3.1386E4,4.1012E4,2.019E3,6.7407E4,3.332E3,2.8054E4,2.391E4,1.7102E4,1.12E3,8.99E2,5.0457E4,1.695E4,1.303E3,2.029E3,3.65E3,2.4404E4,1.2742E4,1.1168E4,6.4E3,1.0702E4,9.4E2,1.8E2,5.14E2,3.85E2,4.3053E4,7.404E3,1.532E3,1.5418E4,1.217E3,8.6E1,5.1E2,1.519E3,2.177E3,1.473E3,3.734E3,2.067E4,1.41E3,1.1332E4,8.774E3,2.394E3,4.589E3,1.811E3,1.0218E4,4.84E2,3.4E2,6E2,1.2E1,1.68E2,3.26E2,1.88E2,1.8E1,3.67E2,1.6894E4,2.6159E4,3.841E3,3.563E3,3.51E2,1.181E3,1.33E3,1.4088E4,9.62E2,2.55E2,2.8E1,5.8E1,1.42E2,3.68E2,1.109E3,4.1E2,8.68E2,1.309E3,7.08E2,7.65E2,1.484E3,2.25E3,1.5354E4,5.316E3,1.037E3,3.73E2,9.359E3,1.973E3,3.869E3,4.905E3,1.156E3,1.238E3,2.727E3,1.862E3,3.88E2,1.423E3,2.96E2,9.922E3,2.11E2,2.73E2,9.5E1,2.45E2,3.37E2,2.63E2,5E0,7E0,7.4E1,9.4E1,1.95E2,1.31E2,2E1,1.68E2,2E2,1.67E2,6.548E3,1.0346E4,2.0289E4,5.87E3,3.039E3,8.02E2,2.05E2,3.358E3,3.17E2,3.4E1,1.5E2,1.031E3,5.53E2,7.77E2,3.429E3,1.0659E4],"tree_param":{"num_deleted":"0","num_feature":"13","num_nodes":"125","size_leaf_vector":"1"}},{"base_weights":[3.2200705E-2,-7.4008408E0,6.476118E0,-1.8723717E0,-1.1368057E1,4.001432E0,1.4916894E1,2.667916E0,-5.7391367E0,-7.5096936E0,-2.2182566E1,8.941817E0,-5.863013E-1,-7.4659395E-1,1.6426958E1,7.3716E0,-5.708506E0,-4.310757E0,-1.21182785E1,-1.7083595E1,-4.094928E0,-3.3407394E1,9.744844E0,1.4176461E1,5.300017E0,3.5292127E0,-1.1003134E1,9.592412E0,-8.253387E0,8.977217E0,2.1254139E1,5.677805E0,1.9038193E1,1.3792171E0,-8.553634E0,-7.472239E0,-1.9174376E0,-1.5550261E1,-5.7789283E0,6.683865E0,-2.3305624E1,4.167212E0,-6.418774E0,-2.4764967E1,-5.1223984E1,2.844163E0,2.2879572E1,1.8312002E1,1.0371754E1,6.553078E0,-5.169144E0,-4.4116907E0,7.636016E0,-2.4254833E1,2.0471968E1,2.4390917E1,4.0022388E0,-1.6148895E1,1.1747268E0,1.5242733E1,-3.1684792E0,5.0704713E0,2.443344E1,4.1585517E-1,-2.69915E-3,1.2040743E0,5.523583E-1,1.8396307E0,2.8754925E-2,-8.450829E-1,-3.302823E-1,-2.4900554E-1,-4.8391315E-1,-8.7866163E-1,-8.0178164E-2,-1.1211427E0,-6.1909795E-1,-4.042046E-1,2.3635364E-1,7.1124834E-1,5.14448E-2,-1.3911048E0,-8.0953944E-1,7.282114E-1,4.274259E-2,-2.0902832E-1,-1.070415E0,-4.4597846E-1,-1.3417187E0,-2.8126645E0,-1.3520186E0,-1.5912275E-1,6.0061204E-1,6.387693E-1,1.7232603E0,8.3604E-1,1.4714268E0,8.0809635E-1,2.8440472E-1,1.7919108E-1,5.08625E-1,-6.6251695E-1,2.736388E-1,8.697428E-1,-5.461454E-1,1.5183618E0,3.242158E-1,-5.43375E-1,-2.0515409E0,1.4724177E0,2.660198E-1,1.4547889E0,2.3686543E-1,5.1091886E-1,-2.2527981E-1,-3.5923287E-2,-9.9074984E-1,1.2651531E-1,-1.1175148E0,1.2364134E0,5.677753E-1,2.345748E-1,-9.4700575E-1,4.697433E-1,-5.323615E-1,2.0362806E0,1.0927782E0],"categories":[],"categories_nodes":[],"categories_segments":[],"categories_sizes":[],"default_left":[0,0,0,0,0,0,0,0,0,0,0,0,0,0,0,0,0,0,0,0,0,0,0,0,0,0,0,0,0,0,0,0,0,0,0,0,0,0,0,0,0,0,0,0,0,0,0,0,0,0,0,0,0,0,0,0,0,0,0,0,0,0,0,0,0,0,0,0,0,0,0,0,0,0,0,0,0,0,0,0,0,0,0,0,0,0,0,0,0,0,0,0,0,0,0,0,0,0,0,0,0,0,0,0,0,0,0,0,0,0,0,0,0,0,0,0,0,0,0,0,0,0,0,0,0,0,0],"id":8,"left_children":[1,3,5,7,9,11,13,15,17,19,21,23,25,27,29,31,33,35,37,39,41,43,45,47,49,51,53,55,57,59,61,63,65,67,69,71,73,75,77,79,81,83,85,87,89,91,93,95,97,99,101,103,105,107,109,111,113,115,117,119,121,123,125,-1,-1,-1,-1,-1,-1,-1,-1,-1,-1,-1,-1,-1,-1,-1,-1,-1,-1,-1,-1,-1,-1,-1,-1,-1,-1,-1,-1,-1,-1,-1,-1,-1,-1,-1,-1,-1,-1,-1,-1,-1,-1,-1,-1,-1,-1,-1,-1,-1,-1,-1,-1,-1,-1,-1,-1,-1,-1,-1,-1,-1,-1,-1,-1],"loss_changes":[6.8051905E6,1.4469828E6,1.5895778E6,4.8395306E5,1.60258E6,1.3338515E6,4.0809675E5,4.995954E5,1.3559406E5,9.255219E5,3.619963E6,5.4010675E5,1.3082365E6,1.17895234E5,5.656925E5,1.6034728E5,9.1967125E4,9.203042E4,5.915103E4,1.1008418E6,4.007298E5,1.149406E6,2.3813052E5,1.82721E5,2.192704E5,7.13383E5,3.6050625E6,5.2761582E4,6.5527453E4,4.7102662E5,4.911435E5,1.0728836E5,4.120025E4,3.719399E4,5.2802062E4,2.876375E4,3.3999008E4,3.8172562E4,2.3239451E4,6.58699E4,1.8910325E5,1.5778395E5,5.4639844E5,1.6482475E5,2.952395E5,9.5294414E4,1.0549734E5,9.80115E4,1.6416681E5,1.6037169E5,1.5375427E5,1.0589874E6,3.7725606E5,1.3654788E6,3.48152E5,1.6040602E4,2.4638547E4,2.7080508E4,1.2874366E4,1.5026569E5,2.6128384E5,1.06744125E5,3.34257E5,0E0,0E0,0E0,0E0,0E0,0E0,0E0,0E0,0E0,0E0,0E0,0E0,0E0,0E0,0E0,0E0,0E0,0E0,0E0,0E0,0E0,0E0,0E0,0E0,0E0,0E0,0E0,0E0,0E0,0E0,0E0,0E0,0E0,0E0,0E0,0E0,0E0,0E0,0E0,0E0,0E0,0E0,0E0,0E0,0E0,0E0,0E0,0E0,0E0,0E0,0E0,0E0,0E0,0E0,0E0,0E0,0E0,0E0,0E0,0E0,0E0,0E0,0E0,0E0],"parents":[2147483647,0,0,1,1,2,2,3,3,4,4,5,5,6,6,7,7,8,8,9,9,10,10,11,11,12,12,13,13,14,14,15,15,16,16,17,17,18,18,19,19,20,20,21,21,22,22,23,23,24,24,25,25,26,26,27,27,28,28,29,29,30,30,31,31,32,32,33,33,34,34,35,35,36,36,37,37,38,38,39,39,40,40,41,41,42,42,43,43,44,44,45,45,46,46,47,47,48,48,49,49,50,50,51,51,52,52,53,53,54,54,55,55,56,56,57,57,58,58,59,59,60,60,61,61,62,62],"right_children":[2,4,6,8,10,12,14,16,18,20,22,24,26,28,30,32,34,36,38,40,42,44,46,48,50,52,54,56,58,60,62,64,66,68,70,72,74,76,78,80,82,84,86,88,90,92,94,96,98,100,102,104,106,108,110,112,114,116,118,120,122,124,126,-1,-1,-1,-1,-1,-1,-1,-1,-1,-1,-1,-1,-1,-1,-1,-1,-1,-1,-1,-1,-1,-1,-1,-1,-1,-1,-1,-1,-1,-1,-1,-1,-1,-1,-1,-1,-1,-1,-1,-1,-1,-1,-1,-1,-1,-1,-1,-1,-1,-1,-1,-1,-1,-1,-1,-1,-1,-1,-1,-1,-1,-1,-1,-1],"split_conditions":[3.951246E2,-6.8490286E0,4.1511423E2,2.1212566E1,6.2251467E-1,-6.7127132E0,-6.755902E-1,7.933533E-1,4.9242356E-1,-5.51937E-1,1.7213356E-2,1.9536413E1,6.2251467E-1,5.234156E-1,1.7213356E-2,3.9358853E2,4.3035382E-3,3.8430664E2,-5.012418E-1,8.606997E-3,2.2291039E1,4.531539E-1,5.031963E-1,3.460126E1,5.51937E-1,-5.9482276E-1,1.7213356E-2,8.779601E-1,4.1854736E2,5.6640625E-1,-1.4780942E-1,1.7931904E1,1.6311728E1,8.141155E-1,3.821596E2,2.6655207E1,-5.075384E-1,3.4521008E1,3.9155038E2,-4.9377555E-1,3.879968E2,3.502074E-1,5.3729963E-1,8.043626E0,-4.9377555E-1,8.5876393E-1,-8.56551E-1,3.883953E-1,7.7162457E-1,4.0546274E2,-5.160624E-1,-8.606997E-3,1.732308E1,4.433296E-1,1.6311728E1,1.1805003E1,3.9535892E-1,-2.3496422E-1,3.4219933E1,-4.3619387E-2,5.5217725E-1,-6.4506445E0,-8.2097244E-1,4.1585517E-1,-2.69915E-3,1.2040743E0,5.523583E-1,1.8396307E0,2.8754925E-2,-8.450829E-1,-3.302823E-1,-2.4900554E-1,-4.8391315E-1,-8.7866163E-1,-8.0178164E-2,-1.1211427E0,-6.1909795E-1,-4.042046E-1,2.3635364E-1,7.1124834E-1,5.14448E-2,-1.3911048E0,-8.0953944E-1,7.282114E-1,4.274259E-2,-2.0902832E-1,-1.070415E0,-4.4597846E-1,-1.3417187E0,-2.8126645E0,-1.3520186E0,-1.5912275E-1,6.0061204E-1,6.387693E-1,1.7232603E0,8.3604E-1,1.4714268E0,8.0809635E-1,2.8440472E-1,1.7919108E-1,5.08625E-1,-6.6251695E-1,2.736388E-1,8.697428E-1,-5.461454E-1,1.5183618E0,3.242158E-1,-5.43375E-1,-2.0515409E0,1.4724177E0,2.660198E-1,1.4547889E0,2.3686543E-1,5.1091886E-1,-2.2527981E-1,-3.5923287E-2,-9.9074984E-1,1.2651531E-1,-1.1175148E0,1.2364134E0,5.677753E-1,2.345748E-1,-9.4700575E-1,4.697433E-1,-5.323615E-1,2.0362806E0,1.0927782E0],"split_indices":[7,5,7,0,8,5,8,8,8,8,12,0,8,12,12,7,11,7,12,12,0,10,10,2,8,8,12,11,7,8,8,0,0,8,7,0,8,2,7,12,7,8,8,0,12,12,11,6,8,7,12,12,0,10,0,0,10,10,2,8,10,5,3,0,0,0,0,0,0,0,0,0,0,0,0,0,0,0,0,0,0,0,0,0,0,0,0,0,0,0,0,0,0,0,0,0,0,0,0,0,0,0,0,0,0,0,0,0,0,0,0,0,0,0,0,0,0,0,0,0,0,0,0,0,0,0,0],"split_type":[0,0,0,0,0,0,0,0,0,0,0,0,0,0,0,0,0,0,0,0,0,0,0,0,0,0,0,0,0,0,0,0,0,0,0,0,0,0,0,0,0,0,0,0,0,0,0,0,0,0,0,0,0,0,0,0,0,0,0,0,0,0,0,0,0,0,0,0,0,0,0,0,0,0,0,0,0,0,0,0,0,0,0,0,0,0,0,0,0,0,0,0,0,0,0,0,0,0,0,0,0,0,0,0,0,0,0,0,0,0,0,0,0,0,0,0,0,0,0,0,0,0,0,0,0,0,0],"sum_hessian":[1.42075E5,6.5974E4,7.6101E4,2.7564E4,3.841E4,5.8849E4,1.7252E4,1.2678E4,1.4886E4,2.8311E4,1.0099E4,2.8335E4,3.0514E4,1.517E3,1.5735E4,8.119E3,4.559E3,1.2164E4,2.722E3,7.442E3,2.0869E4,7.472E3,2.627E3,1.1624E4,1.6711E4,2.1873E4,8.641E3,6.38E2,8.79E2,6.188E3,9.547E3,7.091E3,1.028E3,1.306E3,3.253E3,5.24E3,6.924E3,1.765E3,9.57E2,1.544E3,5.898E3,4.581E3,1.6288E4,5.033E3,2.439E3,1.723E3,9.04E2,5.568E3,6.056E3,1.4925E4,1.786E3,7.456E3,1.4417E4,6.081E3,2.56E3,1.74E2,4.64E2,4.78E2,4.01E2,4.082E3,2.106E3,1.568E3,7.979E3,4.855E3,2.236E3,6.29E2,3.99E2,2.8E1,1.278E3,6.14E2,2.639E3,2.462E3,2.778E3,1.35E2,6.789E3,5.55E2,1.21E3,7.85E2,1.72E2,6.61E2,8.83E2,3.606E3,2.292E3,1.106E3,3.475E3,1.4173E4,2.115E3,5.82E2,4.451E3,2.018E3,4.21E2,1.04E3,6.83E2,4.84E2,4.2E2,4.873E3,6.95E2,2.707E3,3.349E3,8.2E3,6.725E3,1.015E3,7.71E2,1.714E3,5.742E3,6.94E2,1.3723E4,3.383E3,2.698E3,1.607E3,9.53E2,1.4E2,3.4E1,2.68E2,1.96E2,9.2E1,3.86E2,3.8E2,2.1E1,1.185E3,2.897E3,1.406E3,7E2,1.23E3,3.38E2,1.088E3,6.891E3],"tree_param":{"num_deleted":"0","num_feature":"13","num_nodes":"127","size_leaf_vector":"1"}},{"base_weights":[9.421061E-3,-6.4157395E0,6.705741E0,-4.2679863E0,-1.804647E1,9.369071E0,-6.3154187E0,-7.650324E0,1.2960018E0,-2.454501E1,-1.1884775E1,6.835432E0,1.7447115E1,2.5404255E0,-1.5759536E1,-2.420378E1,-6.229349E0,5.5216017E0,-2.2653582E0,-1.6018862E1,-3.1865376E1,-1.7076279E1,-7.757045E0,2.4052399E1,5.9742537E0,2.3200146E1,1.177839E1,-4.9258046E0,6.581976E0,-1.1682491E1,-4.3466274E1,-1.0681589E0,-3.985862E1,-1.2689647E1,-4.4094987E0,8.566571E0,-2.5335155E0,-5.8039155E0,4.1941845E-1,-1.4062034E1,-3.1493345E1,-3.4411915E1,-1.179292E1,-1.1184284E1,-2.5963615E1,5.644945E0,-9.116969E0,5.346657E1,2.1262562E1,-1.4734488E1,6.5857625E0,1.3858828E1,2.6047924E1,1.5693916E1,7.0246687E0,-7.8253226E0,8.736358E0,7.2819138E0,-2.080228E1,-1.6170727E1,1.0083773E1,-1.8618303E1,-5.7884884E1,-1.1817403E0,1.07525386E-1,-4.9746856E-1,-2.5595126E0,-4.9145064E-1,-9.6935064E-1,-4.451109E-2,-3.912077E-1,1.7978857E-1,6.7714375E-1,7.333858E-1,-1.8978669E-1,-3.497328E-1,1.08245924E-1,4.9217768E-2,-7.8221184E-1,-5.8418E-1,-9.692758E-1,-1.8979235E0,-1.3636568E0,-1.4837439E0,-2.1521595E0,-1.2003115E0,-3.283697E-1,-6.887266E-1,-6.740444E-2,-2.8715074E-1,-1.6291374E0,9.7981614E-1,2.72802E-2,-5.377712E-1,-2.2893565E-2,6.758146E-1,2.9312475E0,3.1483886E-1,1.1936077E0,-9.4805735E-1,8.363951E-1,1.3615873E-1,4.7414777E-1,-2.4269214E-2,8.3501166E-1,1.750218E0,1.1134603E0,9.828291E-1,6.505199E-1,2.6770523E-1,1.1392667E0,-2.1717541E-1,-7.938016E-1,7.3379296E-1,-6.0420007E-1,-1.4453586E0,3.8964054E-1,5.084274E-1,-2.2882822E0,-4.9772927E-1,-1.435678E0,-3.4498054E-1,5.985051E-1,-9.923671E-1,1.5277528E0,-1.3375288E0,-3.6707761E0],"categories":[],"categories_nodes":[],"categories_segments":[],"categories_sizes":[],"default_left":[0,0,0,0,0,0,0,0,0,0,0,0,0,0,0,0,0,0,0,0,0,0,0,0,0,0,0,0,0,0,0,0,0,0,0,0,0,0,0,0,0,0,0,0,0,0,0,0,0,0,0,0,0,0,0,0,0,0,0,0,0,0,0,0,0,0,0,0,0,0,0,0,0,0,0,0,0,0,0,0,0,0,0,0,0,0,0,0,0,0,0,0,0,0,0,0,0,0,0,0,0,0,0,0,0,0,0,0,0,0,0,0,0,0,0,0,0,0,0,0,0,0,0,0,0,0,0],"id":9,"left_children":[1,3,5,7,9,11,13,15,17,19,21,23,25,27,29,31,33,35,37,39,41,43,45,47,49,51,53,55,57,59,61,63,65,67,69,71,73,75,77,79,81,83,85,87,89,91,93,95,97,99,101,103,105,107,109,111,113,115,117,119,121,123,125,-1,-1,-1,-1,-1,-1,-1,-1,-1,-1,-1,-1,-1,-1,-1,-1,-1,-1,-1,-1,-1,-1,-1,-1,-1,-1,-1,-1,-1,-1,-1,-1,-1,-1,-1,-1,-1,-1,-1,-1,-1,-1,-1,-1,-1,-1,-1,-1,-1,-1,-1,-1,-1,-1,-1,-1,-1,-1,-1,-1,-1,-1,-1,-1],"loss_changes":[6.121071E6,1.813564E6,2.4159825E6,1.153407E6,4.5285975E5,1.183579E6,9.894509E5,8.964355E5,3.4872553E5,3.43202E5,1.2438969E5,6.526509E5,4.50035E5,1.8428202E5,6.46192E5,1.0912149E6,4.12664E5,2.5996569E5,1.1946845E5,7.664769E4,1.50993E5,1.3443881E5,5.908483E4,1.7093725E5,5.311051E5,1.819115E5,1.2938031E5,8.503964E4,7.6090875E4,4.878427E5,2.6188712E5,8.844918E4,6.08525E5,1.47616E5,3.2915306E5,1.9019575E5,6.319223E4,5.149242E4,6.4908906E4,2.8410844E4,6.73425E3,1.061655E5,2.1219312E4,3.9445625E4,1.3699788E5,2.1259004E4,4.17195E4,3.6500625E4,7.471425E4,1.6029336E5,4.5576862E5,6.5344344E4,1.76895E5,4.0298625E4,8.265422E4,4.9544023E4,4.667472E4,7.166425E4,7.700939E4,3.2242E5,2.7442055E4,1.6983508E4,2.2238662E5,0E0,0E0,0E0,0E0,0E0,0E0,0E0,0E0,0E0,0E0,0E0,0E0,0E0,0E0,0E0,0E0,0E0,0E0,0E0,0E0,0E0,0E0,0E0,0E0,0E0,0E0,0E0,0E0,0E0,0E0,0E0,0E0,0E0,0E0,0E0,0E0,0E0,0E0,0E0,0E0,0E0,0E0,0E0,0E0,0E0,0E0,0E0,0E0,0E0,0E0,0E0,0E0,0E0,0E0,0E0,0E0,0E0,0E0,0E0,0E0,0E0,0E0,0E0,0E0],"parents":[2147483647,0,0,1,1,2,2,3,3,4,4,5,5,6,6,7,7,8,8,9,9,10,10,11,11,12,12,13,13,14,14,15,15,16,16,17,17,18,18,19,19,20,20,21,21,22,22,23,23,24,24,25,25,26,26,27,27,28,28,29,29,30,30,31,31,32,32,33,33,34,34,35,35,36,36,37,37,38,38,39,39,40,40,41,41,42,42,43,43,44,44,45,45,46,46,47,47,48,48,49,49,50,50,51,51,52,52,53,53,54,54,55,55,56,56,57,57,58,58,59,59,60,60,61,61,62,62],"right_children":[2,4,6,8,10,12,14,16,18,20,22,24,26,28,30,32,34,36,38,40,42,44,46,48,50,52,54,56,58,60,62,64,66,68,70,72,74,76,78,80,82,84,86,88,90,92,94,96,98,100,102,104,106,108,110,112,114,116,118,120,122,124,126,-1,-1,-1,-1,-1,-1,-1,-1,-1,-1,-1,-1,-1,-1,-1,-1,-1,-1,-1,-1,-1,-1,-1,-1,-1,-1,-1,-1,-1,-1,-1,-1,-1,-1,-1,-1,-1,-1,-1,-1,-1,-1,-1,-1,-1,-1,-1,-1,-1,-1,-1,-1,-1,-1,-1,-1,-1,-1,-1,-1,-1,-1,-1,-1],"split_conditions":[3.967617E2,4.7073555E-1,6.9482994E-1,1.7107532E0,3.8767377E2,4.1511423E2,-6.5553684E0,-1.3662529E0,1.9096237E1,-6.5763626E0,1.5748394E0,-1.1793108E0,5.0907135E-3,4.0440912E2,1.8544636E0,1.1269487E1,3.8022653E2,8.241262E-1,3.8551462E2,1.7096008E0,7.922506E-2,6.2251467E-1,-8.745079E-1,-2.7037475E0,1.1896794E0,-9.584575E-2,-6.690497E0,1.3144302E-1,2.5020618E0,8.130741E-2,1.5328682E1,-8.433914E-1,7.0090926E-1,5.6640625E-1,-2.062664E-1,3.874471E2,-1.3084579E0,-6.398232E0,6.087614E-1,9.215107E-1,3.821596E2,9.438114E-1,-5.049611E-1,4.11911E-2,9.885593E0,-7.973354E0,-6.4196677E0,-1.4299469E0,-5.51937E-1,-6.1785283E0,4.040797E2,4.1563495E2,-6.8711376E-1,2.1212566E1,4.2398154E2,-6.918975E0,8.433914E-1,-2.0304222E0,-7.8353252E0,6.4944804E-1,-8.653073E-1,5.865097E-1,6.6262007E-1,-1.1817403E0,1.07525386E-1,-4.9746856E-1,-2.5595126E0,-4.9145064E-1,-9.6935064E-1,-4.451109E-2,-3.912077E-1,1.7978857E-1,6.7714375E-1,7.333858E-1,-1.8978669E-1,-3.497328E-1,1.08245924E-1,4.9217768E-2,-7.8221184E-1,-5.8418E-1,-9.692758E-1,-1.8979235E0,-1.3636568E0,-1.4837439E0,-2.1521595E0,-1.2003115E0,-3.283697E-1,-6.887266E-1,-6.740444E-2,-2.8715074E-1,-1.6291374E0,9.7981614E-1,2.72802E-2,-5.377712E-1,-2.2893565E-2,6.758146E-1,2.9312475E0,3.1483886E-1,1.1936077E0,-9.4805735E-1,8.363951E-1,1.3615873E-1,4.7414777E-1,-2.4269214E-2,8.3501166E-1,1.750218E0,1.1134603E0,9.828291E-1,6.505199E-1,2.6770523E-1,1.1392667E0,-2.1717541E-1,-7.938016E-1,7.3379296E-1,-6.0420007E-1,-1.4453586E0,3.8964054E-1,5.084274E-1,-2.2882822E0,-4.9772927E-1,-1.435678E0,-3.4498054E-1,5.985051E-1,-9.923671E-1,1.5277528E0,-1.3375288E0,-3.6707761E0],"split_indices":[7,1,1,4,7,7,5,3,0,5,4,1,1,7,1,0,7,8,7,1,6,8,3,1,4,8,5,6,1,6,0,8,8,8,1,7,1,5,8,1,7,1,11,6,0,5,5,3,8,5,7,7,1,0,7,5,8,3,5,8,11,6,8,0,0,0,0,0,0,0,0,0,0,0,0,0,0,0,0,0,0,0,0,0,0,0,0,0,0,0,0,0,0,0,0,0,0,0,0,0,0,0,0,0,0,0,0,0,0,0,0,0,0,0,0,0,0,0,0,0,0,0,0,0,0,0,0],"split_type":[0,0,0,0,0,0,0,0,0,0,0,0,0,0,0,0,0,0,0,0,0,0,0,0,0,0,0,0,0,0,0,0,0,0,0,0,0,0,0,0,0,0,0,0,0,0,0,0,0,0,0,0,0,0,0,0,0,0,0,0,0,0,0,0,0,0,0,0,0,0,0,0,0,0,0,0,0,0,0,0,0,0,0,0,0,0,0,0,0,0,0,0,0,0,0,0,0,0,0,0,0,0,0,0,0,0,0,0,0,0,0,0,0,0,0,0,0,0,0,0,0,0,0,0,0,0,0],"sum_hessian":[1.42266E5,7.2603E4,6.9663E4,6.1287E4,1.1316E4,5.7834E4,1.1829E4,3.8116E4,2.3171E4,5.506E3,5.81E3,4.4027E4,1.3807E4,6.105E3,5.724E3,3.012E3,3.5104E4,1.0597E4,1.2574E4,2.545E3,2.961E3,2.572E3,3.238E3,2.096E3,4.1931E4,6.851E3,6.956E3,2.144E3,3.961E3,4.991E3,7.33E2,1.216E3,1.796E3,7.714E3,2.739E4,7.69E3,2.907E3,5.424E3,7.15E3,2.261E3,2.84E2,2.627E3,3.34E2,1.548E3,1.024E3,2.98E2,2.94E3,1.8E2,1.916E3,1.202E3,4.0729E4,1.602E3,5.249E3,3.813E3,3.143E3,1.769E3,3.75E2,3.863E3,9.8E1,4.138E3,8.53E2,2.7E2,4.63E2,1.51E2,1.065E3,4.94E2,1.302E3,5.407E3,2.307E3,1.3489E4,1.3901E4,3.848E3,3.842E3,1.98E2,2.709E3,4.719E3,7.05E2,6.908E3,2.42E2,1.565E3,6.96E2,1.09E2,1.75E2,1.699E3,9.28E2,9.9E1,2.35E2,1.225E3,3.23E2,2.53E2,7.71E2,7.9E1,2.19E2,2.472E3,4.68E2,2.1E1,1.59E2,2.85E2,1.631E3,1.06E3,1.42E2,1.7457E4,2.3272E4,2.65E2,1.337E3,1.555E3,3.694E3,1.537E3,2.276E3,2.843E3,3E2,1.236E3,5.33E2,2.92E2,8.3E1,5.3E1,3.81E3,4.4E1,5.4E1,2.768E3,1.37E3,8.5E1,7.68E2,2.64E2,6E0,1.55E2,3.08E2],"tree_param":{"num_deleted":"0","num_feature":"13","num_nodes":"127","size_leaf_vector":"1"}},{"base_weights":[-5.0295975E-2,1.4509563E0,-1.2807436E1,-3.9308167E0,4.059265E0,-2.7003386E1,-7.3140025E0,6.345265E0,-1.7641474E1,-5.8328934E0,7.400899E0,-3.5488071E0,-4.199117E1,-1.8008717E1,-1.6636868E0,1.5884353E1,-5.6977993E-1,-1.0016602E1,-3.2379387E1,1.0201643E1,-9.937491E0,-7.357046E-1,9.94498E0,9.407561E0,-8.838024E0,-2.726021E1,-6.566538E1,-4.5890507E1,-1.6156437E1,-1.7572727E1,3.1052175E0,2.084907E1,1.2164972E1,-1.3967409E1,2.3260829E-1,-1.3189858E1,3.415985E-1,-2.0349249E1,-5.276969E1,1.457604E1,7.66813E0,-2.749416E0,-1.3857418E1,-1.0396867E1,2.1857796E0,1.7549488E1,6.0079985E0,2.1620687E1,7.196486E0,-4.8478746E0,-3.0633604E1,-2.1149939E1,-3.659311E1,-3.427244E1,-7.791422E1,-7.0629807E0,-4.0957844E1,-5.4578567E-1,-2.002827E1,-4.316848E0,-2.91475E1,-2.4873369E0,1.1989054E1,2.2506387E0,9.357632E-1,8.402607E-1,3.7933198E-1,-2.0122442E0,-4.8128605E-1,2.0420752E0,3.7847285E-3,-5.1217496E-1,-1.1766967E0,4.8378682E-1,-2.4007581E-1,-2.4467508E-1,-1.2031717E0,-2.1733315E0,-3.1408143E0,8.687925E-1,4.600905E-1,4.4497362E-1,1.4376657E-1,7.600026E-2,-2.8452876E-1,-3.1908712E-1,-9.216768E-1,8.079962E-1,-5.783591E-1,9.987467E-1,8.407324E-2,1.3486131E0,4.9189636E-1,8.139206E-1,2.6764515E-1,1.3312992E0,6.4003617E-1,-1.330161E0,3.8880175E-1,1.9851997E-1,-4.865814E-1,-2.591873E0,-1.2559607E0,-1.4860678E0,-8.2276833E-1,-2.4931595E0,-1.5014509E0,-2.3688054E-1,-1.9702371E0,-3.2277067E0,-4.7596364E0,-1.4583741E0,-2.4936514E0,1.1835023E-1,-9.294239E-1,-1.221423E0,-3.4151837E-1,6.2788084E-2,-4.7014052E-1,-1.1828539E0,-2.1258914E0,1.06732465E-1,-7.495619E-1,1.2883876E-1,9.078979E-1],"categories":[],"categories_nodes":[],"categories_segments":[],"categories_sizes":[],"default_left":[0,0,0,0,0,0,0,0,0,0,0,0,0,0,0,0,0,0,0,0,0,0,0,0,0,0,0,0,0,0,0,0,0,0,0,0,0,0,0,0,0,0,0,0,0,0,0,0,0,0,0,0,0,0,0,0,0,0,0,0,0,0,0,0,0,0,0,0,0,0,0,0,0,0,0,0,0,0,0,0,0,0,0,0,0,0,0,0,0,0,0,0,0,0,0,0,0,0,0,0,0,0,0,0,0,0,0,0,0,0,0,0,0,0,0,0,0,0,0,0,0,0,0,0,0],"id":10,"left_children":[1,3,5,7,9,11,13,15,17,19,21,23,25,27,29,31,33,35,37,39,41,43,45,47,49,51,53,55,57,59,61,63,65,67,69,71,73,75,77,79,81,83,85,87,89,91,93,95,97,99,101,103,105,107,109,-1,111,113,115,117,119,121,123,-1,-1,-1,-1,-1,-1,-1,-1,-1,-1,-1,-1,-1,-1,-1,-1,-1,-1,-1,-1,-1,-1,-1,-1,-1,-1,-1,-1,-1,-1,-1,-1,-1,-1,-1,-1,-1,-1,-1,-1,-1,-1,-1,-1,-1,-1,-1,-1,-1,-1,-1,-1,-1,-1,-1,-1,-1,-1,-1,-1,-1,-1],"loss_changes":[2.724079E6,1.7864202E6,1.167695E6,5.8533235E6,2.833535E6,1.468548E6,6.525355E5,1.5664392E6,1.999717E6,1.424674E6,1.3263512E6,1.11785445E5,8.87149E5,1.9204262E5,5.3622006E5,1.840305E5,1.4801202E5,3.8559462E5,1.4873875E6,4.8782406E4,4.8555812E5,4.3082066E5,1.4612655E6,1.2614492E4,1.0055646E5,8.8923E4,3.730015E5,1.0333434E5,2.1165444E5,2.4996788E5,2.7020875E5,2.1946988E5,1.21134125E5,8.836856E4,8.277268E4,2.7344238E5,1.3216095E5,2.190535E5,2.07647E5,2.4168125E4,1.6474031E4,7.639358E4,3.81385E5,1.1033341E5,1.0510831E5,1.2095915E6,2.1630662E5,2.8337734E3,8.0795977E3,4.2244156E4,1.962E4,3.785422E4,5.25875E4,4.1645438E4,1.5589E5,0E0,2.1872562E4,3.6676164E4,1.6278362E5,2.158095E4,6.2853125E4,1.9294583E5,1.2194244E5,0E0,0E0,0E0,0E0,0E0,0E0,0E0,0E0,0E0,0E0,0E0,0E0,0E0,0E0,0E0,0E0,0E0,0E0,0E0,0E0,0E0,0E0,0E0,0E0,0E0,0E0,0E0,0E0,0E0,0E0,0E0,0E0,0E0,0E0,0E0,0E0,0E0,0E0,0E0,0E0,0E0,0E0,0E0,0E0,0E0,0E0,0E0,0E0,0E0,0E0,0E0,0E0,0E0,0E0,0E0,0E0,0E0,0E0,0E0,0E0,0E0,0E0],"parents":[2147483647,0,0,1,1,2,2,3,3,4,4,5,5,6,6,7,7,8,8,9,9,10,10,11,11,12,12,13,13,14,14,15,15,16,16,17,17,18,18,19,19,20,20,21,21,22,22,23,23,24,24,25,25,26,26,27,27,28,28,29,29,30,30,31,31,32,32,33,33,34,34,35,35,36,36,37,37,38,38,39,39,40,40,41,41,42,42,43,43,44,44,45,45,46,46,47,47,48,48,49,49,50,50,51,51,52,52,53,53,54,54,56,56,57,57,58,58,59,59,60,60,61,61,62,62],"right_children":[2,4,6,8,10,12,14,16,18,20,22,24,26,28,30,32,34,36,38,40,42,44,46,48,50,52,54,56,58,60,62,64,66,68,70,72,74,76,78,80,82,84,86,88,90,92,94,96,98,100,102,104,106,108,110,-1,112,114,116,118,120,122,124,-1,-1,-1,-1,-1,-1,-1,-1,-1,-1,-1,-1,-1,-1,-1,-1,-1,-1,-1,-1,-1,-1,-1,-1,-1,-1,-1,-1,-1,-1,-1,-1,-1,-1,-1,-1,-1,-1,-1,-1,-1,-1,-1,-1,-1,-1,-1,-1,-1,-1,-1,-1,-1,-1,-1,-1,-1,-1,-1,-1,-1,-1],"split_conditions":[7.8697205E-1,-4.9377555E-1,-4.9377555E-1,5.075384E-1,-2.6723838E-1,5.9482276E-1,1.8223552E-1,-8.726535E-3,-6.4558177E0,1.7213356E-2,1.7213356E-2,-1.9936794E-1,4.9384418E-1,-7.6741904E-1,1.7213356E-2,-1.2861061E-1,-6.859932E-1,8.141155E-1,5.21302E-1,-2.5050163E-1,-6.6286635E0,1.265858E0,1.7931904E1,9.744521E0,-6.466193E0,-6.4241185E0,6.4944804E-1,-1.3933128E-1,1.7213356E-2,-6.4506445E0,-5.205244E-2,-6.494233E-1,1.8176167E1,1.3052619E-1,1.2042024E0,-6.60248E0,-4.5092392E-1,-7.8058815E-1,6.8835455E-1,1.704428E1,-6.205963E0,8.5876393E-1,5.234156E-1,-1.9191885E0,-1.3579102E0,3.453965E1,-9.624748E-1,1.7861606E0,-9.1383356E-1,4.7715876E-1,-9.4021064E-1,-3.3933568E-1,-3.283047E-1,-4.3784735E-1,6.110887E-3,-7.0629807E0,1.1217022E0,-1.4780942E-1,2.3608572E1,5.6640625E-1,1.5910416E0,8.433914E-1,5.234156E-1,2.2506387E0,9.357632E-1,8.402607E-1,3.7933198E-1,-2.0122442E0,-4.8128605E-1,2.0420752E0,3.7847285E-3,-5.1217496E-1,-1.1766967E0,4.8378682E-1,-2.4007581E-1,-2.4467508E-1,-1.2031717E0,-2.1733315E0,-3.1408143E0,8.687925E-1,4.600905E-1,4.4497362E-1,1.4376657E-1,7.600026E-2,-2.8452876E-1,-3.1908712E-1,-9.216768E-1,8.079962E-1,-5.783591E-1,9.987467E-1,8.407324E-2,1.3486131E0,4.9189636E-1,8.139206E-1,2.6764515E-1,1.3312992E0,6.4003617E-1,-1.330161E0,3.8880175E-1,1.9851997E-1,-4.865814E-1,-2.591873E0,-1.2559607E0,-1.4860678E0,-8.2276833E-1,-2.4931595E0,-1.5014509E0,-2.3688054E-1,-1.9702371E0,-3.2277067E0,-4.7596364E0,-1.4583741E0,-2.4936514E0,1.1835023E-1,-9.294239E-1,-1.221423E0,-3.4151837E-1,6.2788084E-2,-4.7014052E-1,-1.1828539E0,-2.1258914E0,1.06732465E-1,-7.495619E-1,1.2883876E-1,9.078979E-1],"split_indices":[1,12,12,8,8,8,8,8,5,12,12,8,10,9,12,1,3,8,10,1,5,4,0,0,5,5,8,10,12,5,9,9,0,8,4,5,1,1,8,0,5,12,12,1,1,2,1,4,9,8,9,9,9,9,9,0,1,8,0,8,1,8,12,0,0,0,0,0,0,0,0,0,0,0,0,0,0,0,0,0,0,0,0,0,0,0,0,0,0,0,0,0,0,0,0,0,0,0,0,0,0,0,0,0,0,0,0,0,0,0,0,0,0,0,0,0,0,0,0,0,0,0,0,0,0],"split_type":[0,0,0,0,0,0,0,0,0,0,0,0,0,0,0,0,0,0,0,0,0,0,0,0,0,0,0,0,0,0,0,0,0,0,0,0,0,0,0,0,0,0,0,0,0,0,0,0,0,0,0,0,0,0,0,0,0,0,0,0,0,0,0,0,0,0,0,0,0,0,0,0,0,0,0,0,0,0,0,0,0,0,0,0,0,0,0,0,0,0,0,0,0,0,0,0,0,0,0,0,0,0,0,0,0,0,0,0,0,0,0,0,0,0,0,0,0,0,0,0,0,0,0,0,0],"sum_hessian":[1.42235E5,1.2726E5,1.4975E4,4.1543E4,8.5717E4,4.177E3,1.0798E4,2.3746E4,1.7797E4,2.1644E4,6.4073E4,1.629E3,2.548E3,3.732E3,7.066E3,9.979E3,1.3767E4,1.173E4,6.067E3,4.411E3,1.7233E4,1.5262E4,4.8811E4,4.72E2,1.157E3,1.572E3,9.76E2,2.31E2,3.501E3,1.629E3,5.437E3,4.272E3,5.707E3,7.77E2,1.299E4,8.979E3,2.751E3,3.817E3,2.25E3,1.616E3,2.795E3,6.082E3,1.1151E4,3.543E3,1.1719E4,1.6649E4,3.2162E4,7.1E1,4.01E2,9.79E2,1.78E2,9.52E2,6.2E2,2.75E2,7.01E2,1E1,2.21E2,6.96E2,2.805E3,7.6E2,8.69E2,3.337E3,2.1E3,3.45E2,3.927E3,2.833E3,2.874E3,1.09E2,6.68E2,4.9E1,1.2941E4,6.99E3,1.989E3,9.77E2,1.774E3,7.4E2,3.077E3,1.171E3,1.079E3,1.061E3,5.55E2,2.223E3,5.72E2,2.481E3,3.601E3,4.235E3,6.916E3,1.49E2,3.394E3,3.22E2,1.1397E4,7.492E3,9.157E3,1.927E3,3.0235E4,4.4E1,2.7E1,6E0,3.95E2,3.49E2,6.3E2,3.5E1,1.43E2,3.35E2,6.17E2,2.03E2,4.17E2,4.1E1,2.34E2,3.98E2,3.03E2,9.7E1,1.24E2,6E2,9.6E1,2.103E3,7.02E2,3.63E2,3.97E2,6.18E2,2.51E2,2.437E3,9E2,8.32E2,1.268E3],"tree_param":{"num_deleted":"0","num_feature":"13","num_nodes":"125","size_leaf_vector":"1"}},{"base_weights":[-2.7038451E-2,-8.000677E0,4.9480753E0,-5.7861886E0,-1.8662867E1,8.913986E0,-1.5635772E0,-2.130755E1,-4.865175E0,-1.2371104E1,-2.4870728E1,6.71099E0,1.940669E1,4.7157435E0,-8.05927E0,-4.0761406E1,1.1063691E0,-1.2234772E0,-7.4376173E0,-1.0895076E1,-2.606445E1,-3.6518463E1,-1.9569918E1,2.4273237E1,5.814806E0,2.939059E1,1.7146E1,-1.6013291E0,8.877498E0,-2.2591757E1,-2.6990407E0,-1.4838115E1,-5.20321E1,-2.0360413E1,1.1248165E1,-4.8851886E0,2.4267695E0,-4.025575E0,-1.0026062E1,-1.745751E1,-8.577623E0,-3.4831085E1,-2.1949358E1,-4.54616E0,-4.351104E1,-2.3881403E1,-7.3393254E0,1.835477E1,4.120889E1,2.8878908E0,9.942287E0,9.397171E0,3.368422E1,1.1060878E1,1.9186169E1,8.772139E0,-2.7101936E0,4.6539273E0,1.1236674E1,1.0753127E0,-3.675964E1,-1.2712673E1,1.9462832E0,1.4947695E0,-9.089023E-1,-9.304237E-1,-2.9111521E0,1.5425547E0,-1.2272881E0,-1.3118584E0,9.114456E-1,7.250359E-1,-5.261728E-1,-5.119164E-1,3.4408242E-1,4.361645E-2,-3.458687E-1,-8.173281E-1,-3.5397682E-1,-3.7531003E-1,-1.2270207E0,3.0369595E-1,-4.6866485E-1,-1.5775294E0,-2.4524503E0,-9.378168E-1,-1.5872657E0,-1.594787E0,-5.322922E-2,-2.7135384E0,-1.6445515E0,-7.143272E-2,-1.2806638E0,-2.357097E-1,-1.0584126E0,7.2560203E-1,1.7009047E0,8.9725107E-1,2.4797122E0,3.5090667E-1,-2.4326392E-2,4.505305E-1,1.3080139E0,9.2357063E-1,1.171386E-1,8.992077E-1,1.9918346E0,1.0688848E0,1.675217E-1,5.049871E-1,1.1502106E0,-3.19578E-2,1.0616457E0,-8.474745E-2,-6.079824E-1,5.1241463E-1,-8.735105E-2,2.4258451E-1,7.012877E-1,8.671365E-1,-4.9599344E-1,-9.698798E-1,-2.833803E0,-1.0515068E0,-2.1252003E-1,-6.374904E-1,3.1215322E-1],"categories":[],"categories_nodes":[],"categories_segments":[],"categories_sizes":[],"default_left":[0,0,0,0,0,0,0,0,0,0,0,0,0,0,0,0,0,0,0,0,0,0,0,0,0,0,0,0,0,0,0,0,0,0,0,0,0,0,0,0,0,0,0,0,0,0,0,0,0,0,0,0,0,0,0,0,0,0,0,0,0,0,0,0,0,0,0,0,0,0,0,0,0,0,0,0,0,0,0,0,0,0,0,0,0,0,0,0,0,0,0,0,0,0,0,0,0,0,0,0,0,0,0,0,0,0,0,0,0,0,0,0,0,0,0,0,0,0,0,0,0,0,0,0,0,0,0],"id":11,"left_children":[1,3,5,7,9,11,13,15,17,19,21,23,25,27,29,31,33,35,37,39,41,43,45,47,49,51,53,55,57,59,61,63,65,67,69,71,73,75,77,79,81,83,85,87,89,91,93,95,97,99,101,103,105,107,109,111,113,115,117,119,121,123,125,-1,-1,-1,-1,-1,-1,-1,-1,-1,-1,-1,-1,-1,-1,-1,-1,-1,-1,-1,-1,-1,-1,-1,-1,-1,-1,-1,-1,-1,-1,-1,-1,-1,-1,-1,-1,-1,-1,-1,-1,-1,-1,-1,-1,-1,-1,-1,-1,-1,-1,-1,-1,-1,-1,-1,-1,-1,-1,-1,-1,-1,-1,-1,-1],"loss_changes":[5.634693E6,1.2884522E6,2.2587922E6,6.459025E5,3.6625125E5,1.256396E6,1.3504652E6,1.1036591E6,3.9963144E5,9.395981E4,2.9088925E5,7.069779E5,2.1237625E5,4.4260894E5,1.2676398E6,3.9511625E5,2.564748E5,2.3607166E5,2.2075525E5,6.388903E4,1.5572E4,3.2978488E5,1.7109512E5,2.17846E5,5.163995E5,1.4904825E5,9.529125E4,7.694219E4,1.0107225E5,1.4703875E6,5.531078E5,6.2097875E4,1.94245E5,8.177645E4,2.0981794E5,9.6387625E5,4.9911806E5,1.5277689E5,2.6461512E5,7.720422E4,3.6359844E4,5.114203E3,9.127203E3,2.5291174E4,1.365855E5,9.332425E4,3.0682355E4,9.688881E4,1.0912606E5,3.486144E5,2.6775088E5,1.9734762E4,1.3760062E5,1.5377028E5,1.9959225E5,7.577336E4,5.7941984E4,1.3032857E5,1.1587944E5,2.9404503E5,9.47394E5,2.651173E5,5.13013E5,0E0,0E0,0E0,0E0,0E0,0E0,0E0,0E0,0E0,0E0,0E0,0E0,0E0,0E0,0E0,0E0,0E0,0E0,0E0,0E0,0E0,0E0,0E0,0E0,0E0,0E0,0E0,0E0,0E0,0E0,0E0,0E0,0E0,0E0,0E0,0E0,0E0,0E0,0E0,0E0,0E0,0E0,0E0,0E0,0E0,0E0,0E0,0E0,0E0,0E0,0E0,0E0,0E0,0E0,0E0,0E0,0E0,0E0,0E0,0E0,0E0,0E0,0E0,0E0],"parents":[2147483647,0,0,1,1,2,2,3,3,4,4,5,5,6,6,7,7,8,8,9,9,10,10,11,11,12,12,13,13,14,14,15,15,16,16,17,17,18,18,19,19,20,20,21,21,22,22,23,23,24,24,25,25,26,26,27,27,28,28,29,29,30,30,31,31,32,32,33,33,34,34,35,35,36,36,37,37,38,38,39,39,40,40,41,41,42,42,43,43,44,44,45,45,46,46,47,47,48,48,49,49,50,50,51,51,52,52,53,53,54,54,55,55,56,56,57,57,58,58,59,59,60,60,61,61,62,62],"right_children":[2,4,6,8,10,12,14,16,18,20,22,24,26,28,30,32,34,36,38,40,42,44,46,48,50,52,54,56,58,60,62,64,66,68,70,72,74,76,78,80,82,84,86,88,90,92,94,96,98,100,102,104,106,108,110,112,114,116,118,120,122,124,126,-1,-1,-1,-1,-1,-1,-1,-1,-1,-1,-1,-1,-1,-1,-1,-1,-1,-1,-1,-1,-1,-1,-1,-1,-1,-1,-1,-1,-1,-1,-1,-1,-1,-1,-1,-1,-1,-1,-1,-1,-1,-1,-1,-1,-1,-1,-1,-1,-1,-1,-1,-1,-1,-1,-1,-1,-1,-1,-1,-1,-1,-1,-1,-1],"split_conditions":[3.9164902E2,4.0390968E-1,2.5180626E-1,-1.3662529E0,-6.589378E0,4.1511423E2,-6.6767464E0,-4.9377555E-1,-3.3267403E-1,1.5013952E0,-4.9377555E-1,-1.3579102E0,-7.3139524E-1,4.0388007E2,-4.9377555E-1,-6.4292355E0,-8.7380713E-1,1.7213356E-2,-6.8839335E0,-8.498171E-1,-4.9377555E-1,-2.6176948E-2,3.8775726E2,8.6314213E-1,4.040797E2,-3.3380687E-1,-4.9377555E-1,6.9493127E0,-4.7873384E-1,5.9482276E-1,-5.51937E-1,-2.1737833E0,7.0090926E-1,-2.7037475E0,1.4780942E-1,2.6176948E-2,-2.6176948E-2,1.9944492E1,2.4401474E-1,5.3729963E-1,-1.1177025E0,-3.5355338E-1,2.5020618E0,3.7730847E2,3.8027954E-1,-4.7873384E-1,3.912079E2,2.169511E1,5.9482276E-1,-6.85793E0,-6.1785283E0,5.234156E-1,1.7213356E-2,3.9874908E-1,-4.3619387E-2,2.6495212E-1,1.1217022E0,4.7715876E-1,2.1643962E-1,-4.3619387E-2,4.327476E-1,8.695894E-1,-8.7380713E-1,1.4947695E0,-9.089023E-1,-9.304237E-1,-2.9111521E0,1.5425547E0,-1.2272881E0,-1.3118584E0,9.114456E-1,7.250359E-1,-5.261728E-1,-5.119164E-1,3.4408242E-1,4.361645E-2,-3.458687E-1,-8.173281E-1,-3.5397682E-1,-3.7531003E-1,-1.2270207E0,3.0369595E-1,-4.6866485E-1,-1.5775294E0,-2.4524503E0,-9.378168E-1,-1.5872657E0,-1.594787E0,-5.322922E-2,-2.7135384E0,-1.6445515E0,-7.143272E-2,-1.2806638E0,-2.357097E-1,-1.0584126E0,7.2560203E-1,1.7009047E0,8.9725107E-1,2.4797122E0,3.5090667E-1,-2.4326392E-2,4.505305E-1,1.3080139E0,9.2357063E-1,1.171386E-1,8.992077E-1,1.9918346E0,1.0688848E0,1.675217E-1,5.049871E-1,1.1502106E0,-3.19578E-2,1.0616457E0,-8.474745E-2,-6.079824E-1,5.1241463E-1,-8.735105E-2,2.4258451E-1,7.012877E-1,8.671365E-1,-4.9599344E-1,-9.698798E-1,-2.833803E0,-1.0515068E0,-2.1252003E-1,-6.374904E-1,3.1215322E-1],"split_indices":[7,1,1,3,5,7,5,12,1,1,12,1,1,7,12,5,11,12,5,12,12,8,7,12,7,8,12,0,12,8,8,1,8,1,8,8,8,0,3,8,3,10,1,7,3,12,7,0,8,5,5,12,12,8,8,10,1,8,8,8,10,11,11,0,0,0,0,0,0,0,0,0,0,0,0,0,0,0,0,0,0,0,0,0,0,0,0,0,0,0,0,0,0,0,0,0,0,0,0,0,0,0,0,0,0,0,0,0,0,0,0,0,0,0,0,0,0,0,0,0,0,0,0,0,0,0,0],"split_type":[0,0,0,0,0,0,0,0,0,0,0,0,0,0,0,0,0,0,0,0,0,0,0,0,0,0,0,0,0,0,0,0,0,0,0,0,0,0,0,0,0,0,0,0,0,0,0,0,0,0,0,0,0,0,0,0,0,0,0,0,0,0,0,0,0,0,0,0,0,0,0,0,0,0,0,0,0,0,0,0,0,0,0,0,0,0,0,0,0,0,0,0,0,0,0,0,0,0,0,0,0,0,0,0,0,0,0,0,0,0,0,0,0,0,0,0,0,0,0,0,0,0,0,0,0,0,0],"sum_hessian":[1.42038E5,5.4573E4,8.7465E4,4.5189E4,9.384E3,5.4358E4,3.3107E4,2.53E3,4.2659E4,4.662E3,4.722E3,4.4927E4,9.431E3,1.6834E4,1.6273E4,1.354E3,1.176E3,1.766E4,2.4999E4,4.21E3,4.52E2,1.475E3,3.247E3,2.18E3,4.2747E4,1.739E3,7.692E3,6.686E3,1.0148E4,4.384E3,1.1889E4,4.11E2,9.43E2,3.77E2,7.99E2,8.816E3,8.844E3,1.0785E4,1.4214E4,1.097E3,3.113E3,1.42E2,3.1E2,2.65E2,1.21E3,2.4E3,8.47E2,1.617E3,5.63E2,2.5012E4,1.7735E4,3.08E2,1.431E3,1.933E3,5.759E3,6.45E2,6.041E3,3.638E3,6.51E3,1.642E3,2.742E3,3.767E3,8.122E3,2.8E1,3.83E2,1.48E2,7.95E2,2.8E1,3.49E2,1.25E2,6.74E2,1.986E3,6.83E3,2.301E3,6.543E3,4.004E3,6.781E3,4.518E3,9.696E3,4.57E2,6.4E2,1.6E2,2.953E3,1.18E2,2.4E1,2.36E2,7.4E1,2.9E1,2.36E2,5.99E2,6.11E2,1.72E2,2.228E3,7.13E2,1.34E2,1.3E3,3.17E2,1.5E2,4.13E2,1.1246E4,1.3766E4,1.6773E4,9.62E2,1.34E2,1.74E2,4.04E2,1.027E3,8.26E2,1.107E3,1.705E3,4.054E3,3.68E2,2.77E2,5.456E3,5.85E2,1.941E3,1.697E3,1.98E3,4.53E3,6.62E2,9.8E2,1.466E3,1.276E3,1.899E3,1.868E3,1.837E3,6.285E3],"tree_param":{"num_deleted":"0","num_feature":"13","num_nodes":"127","size_leaf_vector":"1"}},{"base_weights":[1.3149885E-2,-7.823281E0,4.564399E0,-5.6603007E0,-1.7725622E1,6.958796E0,-4.990454E0,-3.274928E1,-4.8981814E0,-1.185343E1,-2.3701546E1,2.4670784E0,1.1287931E1,2.5739954E0,-1.184097E1,-1.150362E1,-4.3398052E1,-7.3510885E0,-6.7858666E-1,-9.812408E0,-2.0410774E1,-1.8465492E1,-3.603186E1,2.5290682E1,1.4970331E0,8.656184E0,1.6230742E1,-3.9649417E0,7.639906E0,-1.5275877E1,5.9814944E0,-2.1806692E1,-3.217587E0,-2.2325436E1,-5.9509346E1,-8.822915E0,3.2033718E-1,3.3883233E0,-2.9297721E0,-3.8303006E-1,-1.0314446E1,-1.7853188E1,-2.9744385E1,-2.2246336E1,-6.1102347E0,-2.9095572E1,-5.9434483E1,3.8108295E1,1.873434E1,5.4177613E0,-1.8732033E0,-1.1516014E1,9.351678E0,2.3003983E1,1.2423516E1,-5.390528E0,4.972546E0,5.766775E0,1.3259093E1,-7.9492927E0,-2.69646E1,7.56206E0,-3.217805E1,-4.913283E-1,-1.5242965E0,3.2247138E-1,-1.0215955E0,1.7818596E0,-1.2838284E0,9.828369E-1,-3.1072528E0,-2.4060369E-1,-6.4950126E-1,5.0585854E-1,-1.8529384E-1,2.4312482E0,1.451171E-1,-2.4352784E-1,4.413543E-2,-2.1186078E-1,6.8319786E-1,-3.9443702E-1,-6.419785E-1,-2.3520906E0,-8.6231846E-1,-3.4307384E-1,-1.5811528E0,-1.2047986E0,-1.9190896E-1,-2.2970979E-1,-1.7906226E0,-1.7186216E0,-1.0098516E0,-3.877732E0,-2.145545E0,-4.006256E-2,2.0895479E0,1.406957E0,6.376905E-1,6.084144E-1,2.1584618E-1,-1.9875675E-1,1.7208175E-1,7.2601646E-1,-9.92989E-1,4.078025E-1,8.2609314E-1,3.0265647E-1,1.2501149E0,3.5416415E-1,7.326199E-1,-1.6388917E-1,-5.353361E-1,8.498179E-1,-1.9549511E-1,-1.4161714E0,3.0201364E-1,8.14726E-1,4.773756E-1,-6.4747417E-1,-6.2024305E-3,-8.1513995E-1,-2.0146756E0,1.5819628E-2,5.742388E-1,-6.320948E-1,-3.3115575E0],"categories":[],"categories_nodes":[],"categories_segments":[],"categories_sizes":[],"default_left":[0,0,0,0,0,0,0,0,0,0,0,0,0,0,0,0,0,0,0,0,0,0,0,0,0,0,0,0,0,0,0,0,0,0,0,0,0,0,0,0,0,0,0,0,0,0,0,0,0,0,0,0,0,0,0,0,0,0,0,0,0,0,0,0,0,0,0,0,0,0,0,0,0,0,0,0,0,0,0,0,0,0,0,0,0,0,0,0,0,0,0,0,0,0,0,0,0,0,0,0,0,0,0,0,0,0,0,0,0,0,0,0,0,0,0,0,0,0,0,0,0,0,0,0,0,0,0],"id":12,"left_children":[1,3,5,7,9,11,13,15,17,19,21,23,25,27,29,31,33,35,37,39,41,43,45,47,49,51,53,55,57,59,61,63,65,67,69,71,73,75,77,79,81,83,85,87,89,91,93,95,97,99,101,103,105,107,109,111,113,115,117,119,121,123,125,-1,-1,-1,-1,-1,-1,-1,-1,-1,-1,-1,-1,-1,-1,-1,-1,-1,-1,-1,-1,-1,-1,-1,-1,-1,-1,-1,-1,-1,-1,-1,-1,-1,-1,-1,-1,-1,-1,-1,-1,-1,-1,-1,-1,-1,-1,-1,-1,-1,-1,-1,-1,-1,-1,-1,-1,-1,-1,-1,-1,-1,-1,-1,-1],"loss_changes":[5.07082E6,1.1187175E6,2.0577154E6,8.8495E5,3.2831525E5,1.3984538E6,9.339901E5,2.6487525E5,4.3161094E5,8.232231E4,2.9889775E5,7.814547E5,4.762445E5,2.8378516E5,5.79097E5,3.3478383E4,2.6381812E5,2.9775888E5,1.4037084E5,1.8064281E4,2.1163406E4,1.5209988E5,2.2259838E5,1.2020919E5,4.4742912E5,3.3541588E5,3.27802E5,4.767878E4,5.0728094E4,6.788946E5,9.246045E4,1.7892602E4,3.6577203E4,6.6955766E4,9.3452875E4,3.6974125E5,1.6751798E5,1.19953125E5,7.302745E4,1.0560056E4,2.2094406E4,1.1864203E4,8.1191406E3,8.485525E4,3.4279156E4,4.9449688E4,9.0974125E4,6.9676875E4,5.3295438E4,1.1625944E5,2.0343427E5,1.734301E5,1.9793038E5,1.54883E5,9.6865625E4,3.6197164E4,5.507021E4,3.393885E4,1.3428906E4,1.9078378E5,4.33484E5,4.1748117E4,3.9736094E4,0E0,0E0,0E0,0E0,0E0,0E0,0E0,0E0,0E0,0E0,0E0,0E0,0E0,0E0,0E0,0E0,0E0,0E0,0E0,0E0,0E0,0E0,0E0,0E0,0E0,0E0,0E0,0E0,0E0,0E0,0E0,0E0,0E0,0E0,0E0,0E0,0E0,0E0,0E0,0E0,0E0,0E0,0E0,0E0,0E0,0E0,0E0,0E0,0E0,0E0,0E0,0E0,0E0,0E0,0E0,0E0,0E0,0E0,0E0,0E0,0E0,0E0,0E0,0E0],"parents":[2147483647,0,0,1,1,2,2,3,3,4,4,5,5,6,6,7,7,8,8,9,9,10,10,11,11,12,12,13,13,14,14,15,15,16,16,17,17,18,18,19,19,20,20,21,21,22,22,23,23,24,24,25,25,26,26,27,27,28,28,29,29,30,30,31,31,32,32,33,33,34,34,35,35,36,36,37,37,38,38,39,39,40,40,41,41,42,42,43,43,44,44,45,45,46,46,47,47,48,48,49,49,50,50,51,51,52,52,53,53,54,54,55,55,56,56,57,57,58,58,59,59,60,60,61,61,62,62],"right_children":[2,4,6,8,10,12,14,16,18,20,22,24,26,28,30,32,34,36,38,40,42,44,46,48,50,52,54,56,58,60,62,64,66,68,70,72,74,76,78,80,82,84,86,88,90,92,94,96,98,100,102,104,106,108,110,112,114,116,118,120,122,124,126,-1,-1,-1,-1,-1,-1,-1,-1,-1,-1,-1,-1,-1,-1,-1,-1,-1,-1,-1,-1,-1,-1,-1,-1,-1,-1,-1,-1,-1,-1,-1,-1,-1,-1,-1,-1,-1,-1,-1,-1,-1,-1,-1,-1,-1,-1,-1,-1,-1,-1,-1,-1,-1,-1,-1,-1,-1,-1,-1,-1,-1,-1,-1,-1],"split_conditions":[3.9083017E2,3.803997E-1,5.7694626E-1,1.1869354E0,-6.589378E0,4.040797E2,-6.6550126E0,4.433296E-1,1.7178376E0,1.0849609E0,6.4944804E-1,-1.4177485E0,4.1511423E2,4.0440912E2,8.593607E-2,3.2674908E1,-8.653073E-1,-6.233272E0,-3.77594E-1,3.3167816E1,2.078784E0,3.8775726E2,4.7214544E-1,-2.1737833E0,-6.806943E0,1.1896794E0,-2.5050163E-1,2.045579E-1,5.8642864E-2,6.3607824E-1,2.5020618E0,-1.3424873E-2,3.4855953E1,-2.7037475E0,6.3607824E-1,-6.589378E0,-6.60923E-1,-8.9081424E-1,3.8615152E2,9.0637684E-2,4.9242356E-1,3.7536337E2,-5.4083884E-1,9.31859E-2,6.3607824E-1,1.6243935E-2,1.3238566E0,3.1897388E1,-6.7660685E0,-5.51937E-1,4.2514324E-2,4.091902E-1,-6.2714863E0,-7.1325046E-1,3.435949E1,-6.9729977E0,3.466407E1,-2.1432667E0,5.123714E-1,1.9936794E-1,5.031963E-1,4.040797E2,4.1544904E2,-4.913283E-1,-1.5242965E0,3.2247138E-1,-1.0215955E0,1.7818596E0,-1.2838284E0,9.828369E-1,-3.1072528E0,-2.4060369E-1,-6.4950126E-1,5.0585854E-1,-1.8529384E-1,2.4312482E0,1.451171E-1,-2.4352784E-1,4.413543E-2,-2.1186078E-1,6.8319786E-1,-3.9443702E-1,-6.419785E-1,-2.3520906E0,-8.6231846E-1,-3.4307384E-1,-1.5811528E0,-1.2047986E0,-1.9190896E-1,-2.2970979E-1,-1.7906226E0,-1.7186216E0,-1.0098516E0,-3.877732E0,-2.145545E0,-4.006256E-2,2.0895479E0,1.406957E0,6.376905E-1,6.084144E-1,2.1584618E-1,-1.9875675E-1,1.7208175E-1,7.2601646E-1,-9.92989E-1,4.078025E-1,8.2609314E-1,3.0265647E-1,1.2501149E0,3.5416415E-1,7.326199E-1,-1.6388917E-1,-5.353361E-1,8.498179E-1,-1.9549511E-1,-1.4161714E0,3.0201364E-1,8.14726E-1,4.773756E-1,-6.4747417E-1,-6.2024305E-3,-8.1513995E-1,-2.0146756E0,1.5819628E-2,5.742388E-1,-6.320948E-1,-3.3115575E0],"split_indices":[7,1,1,4,5,7,5,10,4,1,8,1,7,7,6,2,11,5,1,2,1,7,10,1,5,4,1,6,6,8,1,6,2,1,8,5,1,10,7,6,8,7,10,6,8,6,4,2,5,8,6,10,5,8,2,5,2,3,11,8,10,7,7,0,0,0,0,0,0,0,0,0,0,0,0,0,0,0,0,0,0,0,0,0,0,0,0,0,0,0,0,0,0,0,0,0,0,0,0,0,0,0,0,0,0,0,0,0,0,0,0,0,0,0,0,0,0,0,0,0,0,0,0,0,0,0,0],"split_type":[0,0,0,0,0,0,0,0,0,0,0,0,0,0,0,0,0,0,0,0,0,0,0,0,0,0,0,0,0,0,0,0,0,0,0,0,0,0,0,0,0,0,0,0,0,0,0,0,0,0,0,0,0,0,0,0,0,0,0,0,0,0,0,0,0,0,0,0,0,0,0,0,0,0,0,0,0,0,0,0,0,0,0,0,0,0,0,0,0,0,0,0,0,0,0,0,0,0,0,0,0,0,0,0,0,0,0,0,0,0,0,0,0,0,0,0,0,0,0,0,0,0,0,0,0,0,0],"sum_hessian":[1.42175E5,5.2235E4,8.994E4,4.2872E4,9.363E3,7.1918E4,1.8022E4,1.172E3,4.17E4,4.724E3,4.639E3,3.5297E4,3.6621E4,8.565E3,9.457E3,3.92E2,7.8E2,2.637E4,1.533E4,3.816E3,9.08E2,3.258E3,1.381E3,1.438E3,3.3859E4,2.3899E4,1.2722E4,3.739E3,4.826E3,7.929E3,1.528E3,1.74E2,2.18E2,3.39E2,4.41E2,2.2125E4,4.245E3,5.462E3,9.868E3,1.93E2,3.623E3,7.15E2,1.93E2,2.494E3,7.64E2,1.067E3,3.14E2,4.85E2,9.53E2,1.5651E4,1.8208E4,7.96E2,2.3103E4,4.576E3,8.146E3,3.225E3,5.14E2,3.621E3,1.205E3,4.875E3,3.054E3,1.468E3,6E1,7.4E1,1E2,1.4E2,7.8E1,1.8E1,3.21E2,1.4E1,4.27E2,1.1275E4,1.085E4,1.236E3,3.009E3,5.7E1,5.405E3,6.539E3,3.329E3,1.52E2,4.1E1,1.85E3,1.773E3,1.3E1,7.02E2,1.5E1,1.78E2,2.266E3,2.28E2,7.28E2,3.6E1,6.68E2,3.99E2,1.48E2,1.66E2,4.2E1,4.43E2,3.69E2,5.84E2,2.193E3,1.3458E4,1.3048E4,5.16E3,1.93E2,6.03E2,1.9803E4,3.3E3,4.83E2,4.093E3,2.4E3,5.746E3,2.309E3,9.16E2,2.18E2,2.96E2,2.8E1,3.593E3,6.61E2,5.44E2,2.974E3,1.901E3,1.698E3,1.356E3,5.16E2,9.52E2,3.9E1,2.1E1],"tree_param":{"num_deleted":"0","num_feature":"13","num_nodes":"127","size_leaf_vector":"1"}},{"base_weights":[5.1613875E-2,-5.506248E0,5.8496914E0,-3.698397E0,-1.5327679E1,9.822526E0,-2.5002816E-1,-7.8310323E0,-5.8151E-1,-2.0771263E1,-1.012302E1,7.532369E0,1.7567663E1,4.941173E0,-7.150461E0,-1.558812E1,-3.6302493E0,3.1273685E0,-2.938431E0,-1.3675911E1,-2.6634415E1,-2.0085802E1,-8.267235E0,2.3492785E1,6.775703E0,2.454357E1,1.4793593E1,-1.5085043E0,7.5591826E0,-2.4121586E1,-1.7226917E0,-2.9897713E1,-8.699878E0,6.790368E0,