{"learner":{"attributes":{"best_iteration":"499","best_score":"8.252910759054721","scikit_learn":"{\"_estimator_type\": \"regressor\"}"},"feature_names":[],"feature_types":[],"gradient_booster":{"model":{"gbtree_model_param":{"num_parallel_tree":"1","num_trees":"500"},"iteration_indptr":[0,1,2,3,4,5,6,7,8,9,10,11,12,13,14,15,16,17,18,19,20,21,22,23,24,25,26,27,28,29,30,31,32,33,34,35,36,37,38,39,40,41,42,43,44,45,46,47,48,49,50,51,52,53,54,55,56,57,58,59,60,61,62,63,64,65,66,67,68,69,70,71,72,73,74,75,76,77,78,79,80,81,82,83,84,85,86,87,88,89,90,91,92,93,94,95,96,97,98,99,100,101,102,103,104,105,106,107,108,109,110,111,112,113,114,115,116,117,118,119,120,121,122,123,124,125,126,127,128,129,130,131,132,133,134,135,136,137,138,139,140,141,142,143,144,145,146,147,148,149,150,151,152,153,154,155,156,157,158,159,160,161,162,163,164,165,166,167,168,169,170,171,172,173,174,175,176,177,178,179,180,181,182,183,184,185,186,187,188,189,190,191,192,193,194,195,196,197,198,199,200,201,202,203,204,205,206,207,208,209,210,211,212,213,214,215,216,217,218,219,220,221,222,223,224,225,226,227,228,229,230,231,232,233,234,235,236,237,238,239,240,241,242,243,244,245,246,247,248,249,250,251,252,253,254,255,256,257,258,259,260,261,262,263,264,265,266,267,268,269,270,271,272,273,274,275,276,277,278,279,280,281,282,283,284,285,286,287,288,289,290,291,292,293,294,295,296,297,298,299,300,301,302,303,304,305,306,307,308,309,310,311,312,313,314,315,316,317,318,319,320,321,322,323,324,325,326,327,328,329,330,331,332,333,334,335,336,337,338,339,340,341,342,343,344,345,346,347,348,349,350,351,352,353,354,355,356,357,358,359,360,361,362,363,364,365,366,367,368,369,370,371,372,373,374,375,376,377,378,379,380,381,382,383,384,385,386,387,388,389,390,391,392,393,394,395,396,397,398,399,400,401,402,403,404,405,406,407,408,409,410,411,412,413,414,415,416,417,418,419,420,421,422,423,424,425,426,427,428,429,430,431,432,433,434,435,436,437,438,439,440,441,442,443,444,445,446,447,448,449,450,451,452,453,454,455,456,457,458,459,460,461,462,463,464,465,466,467,468,469,470,471,472,473,474,475,476,477,478,479,480,481,482,483,484,485,486,487,488,489,490,491,492,493,494,495,496,497,498,499,500],"tree_info":[0,0,0,0,0,0,0,0,0,0,0,0,0,0,0,0,0,0,0,0,0,0,0,0,0,0,0,0,0,0,0,0,0,0,0,0,0,0,0,0,0,0,0,0,0,0,0,0,0,0,0,0,0,0,0,0,0,0,0,0,0,0,0,0,0,0,0,0,0,0,0,0,0,0,0,0,0,0,0,0,0,0,0,0,0,0,0,0,0,0,0,0,0,0,0,0,0,0,0,0,0,0,0,0,0,0,0,0,0,0,0,0,0,0,0,0,0,0,0,0,0,0,0,0,0,0,0,0,0,0,0,0,0,0,0,0,0,0,0,0,0,0,0,0,0,0,0,0,0,0,0,0,0,0,0,0,0,0,0,0,0,0,0,0,0,0,0,0,0,0,0,0,0,0,0,0,0,0,0,0,0,0,0,0,0,0,0,0,0,0,0,0,0,0,0,0,0,0,0,0,0,0,0,0,0,0,0,0,0,0,0,0,0,0,0,0,0,0,0,0,0,0,0,0,0,0,0,0,0,0,0,0,0,0,0,0,0,0,0,0,0,0,0,0,0,0,0,0,0,0,0,0,0,0,0,0,0,0,0,0,0,0,0,0,0,0,0,0,0,0,0,0,0,0,0,0,0,0,0,0,0,0,0,0,0,0,0,0,0,0,0,0,0,0,0,0,0,0,0,0,0,0,0,0,0,0,0,0,0,0,0,0,0,0,0,0,0,0,0,0,0,0,0,0,0,0,0,0,0,0,0,0,0,0,0,0,0,0,0,0,0,0,0,0,0,0,0,0,0,0,0,0,0,0,0,0,0,0,0,0,0,0,0,0,0,0,0,0,0,0,0,0,0,0,0,0,0,0,0,0,0,0,0,0,0,0,0,0,0,0,0,0,0,0,0,0,0,0,0,0,0,0,0,0,0,0,0,0,0,0,0,0,0,0,0,0,0,0,0,0,0,0,0,0,0,0,0,0,0,0,0,0,0,0,0,0,0,0,0,0,0,0,0,0,0,0,0,0,0,0,0,0,0,0,0,0,0,0,0,0,0,0,0,0,0,0,0,0,0,0,0,0,0,0,0,0,0,0,0,0,0,0,0,0,0,0,0,0,0,0,0,0,0,0,0,0,0,0,0,0],"trees":[{"base_weights":[-1.3672965E-2,3.5736198E0,-5.7209534E1,-6.0158043E0,1.8357069E1,-3.5247143E1,-9.956966E1,-1.6142897E1,4.1781173E0,3.1734043E1,9.391088E0,-2.5837257E1,-6.0356236E1,-1.22395386E2,-3.364134E1,-2.9518309E1,-7.658565E0,-5.1283264E0,1.1422678E1,2.150283E1,3.9850986E1,-9.367762E-1,1.7425415E1,-5.4193886E1,-1.6519676E1,-8.17992E1,-5.076595E1,-9.8820145E1,-1.3707248E2,-5.487417E1,3.0930002E0,-3.40836E1,8.5255027E-1,-1.5783213E1,-1.562543E0,-1.1335409E1,2.2174551E1,5.656641E0,1.8669895E1,7.831976E0,2.5061518E1,2.75401E1,4.4756317E1,-9.437074E0,1.5698512E0,1.3099649E1,2.5997066E1,-6.660649E1,2.9011624E0,-6.810841E0,-3.0641737E1,-9.0161415E1,-3.4901848E1,-5.441945E1,4.306013E0,-6.302613E1,-1.1517454E2,-1.19629196E2,-1.5350697E2,-5.842595E1,5.6514812E1,-1.1428851E0,1.74604E1,-1.3701626E0,-2.5013752E0,6.050192E-1,-4.840586E-1,-1.2853644E0,-4.515895E-1,-2.5594994E-1,2.619648E-1,-9.1019374E-1,9.232743E-2,1.8798574E0,7.6453435E-1,-1.2429575E-1,5.1949024E-1,9.893988E-1,-2.2249556E0,1.1219195E0,4.0362462E-2,2.049959E0,1.1621698E0,2.2113845E0,1.0586284E0,2.0076206E0,2.6093862E0,5.1504004E-1,-6.111369E-1,1.809433E-1,-3.9558327E-1,8.3692735E-1,4.1529247E-1,1.4920238E0,1.0027605E0,-5.444002E0,-2.8208132E0,-1.7206767E0,3.387847E-1,-9.9598897E-1,3.0467022E-2,-1.7056077E0,-3.7007892E-1,-3.0410898E0,-5.0726957E0,-2.1566396E0,-1.1631072E0,-1.7787484E0,-2.8969762E0,7.3683894E-1,-1.00145936E-1,-2.4837246E0,-3.705743E0,-8.666616E0,-5.33501E0,-5.0576053E0,-7.103348E0,-9.3317795E0,-7.2569957E0,-3.514314E0,-1.3620168E0,4.928584E0,-1.1491216E0,7.464199E-1,-1.691901E-1,1.5641736E0,7.260473E-1],"categories":[],"categories_nodes":[],"categories_segments":[],"categories_sizes":[],"default_left":[0,0,0,0,0,0,0,0,0,0,0,0,0,0,0,0,0,0,0,0,0,0,0,0,0,0,0,0,0,0,0,0,0,0,0,0,0,0,0,0,0,0,0,0,0,0,0,0,0,0,0,0,0,0,0,0,0,0,0,0,0,0,0,0,0,0,0,0,0,0,0,0,0,0,0,0,0,0,0,0,0,0,0,0,0,0,0,0,0,0,0,0,0,0,0,0,0,0,0,0,0,0,0,0,0,0,0,0,0,0,0,0,0,0,0,0,0,0,0,0,0,0,0,0,0,0,0],"id":0,"left_children":[1,3,5,7,9,11,13,15,17,19,21,23,25,27,29,31,33,35,37,39,41,43,45,47,49,51,53,55,57,59,61,63,65,67,69,71,73,75,77,79,81,83,85,87,89,91,93,95,97,99,101,103,105,107,109,111,113,115,117,119,121,123,125,-1,-1,-1,-1,-1,-1,-1,-1,-1,-1,-1,-1,-1,-1,-1,-1,-1,-1,-1,-1,-1,-1,-1,-1,-1,-1,-1,-1,-1,-1,-1,-1,-1,-1,-1,-1,-1,-1,-1,-1,-1,-1,-1,-1,-1,-1,-1,-1,-1,-1,-1,-1,-1,-1,-1,-1,-1,-1,-1,-1,-1,-1,-1,-1],"loss_changes":[2.9248172E7,1.9016012E7,7.823342E6,8.399457E6,6.32953E6,1.3078605E6,4.31783E6,4.631514E6,2.73385E6,1.757888E6,2.6220218E6,1.0646775E6,3.06357E5,7.24484E5,5.7735556E5,2.196416E6,1.2369361E6,3.0081948E6,9.5265225E5,4.55702E5,7.11836E5,2.946286E5,6.586595E5,7.067715E5,4.1618694E5,1.7919775E5,2.107E5,4.73913E5,3.5772E5,1.8885238E5,1.6575143E4,1.465382E6,2.4549266E5,7.1708375E5,3.452244E5,1.3094219E6,3.4849712E5,4.8944675E5,7.1436175E5,1.987275E5,2.14482E5,3.568305E5,2.86726E5,1.7326784E5,2.0749736E5,2.059435E5,1.3550525E5,3.46647E5,2.6109688E4,1.7519858E5,9.9510875E4,1.2435225E5,5.888008E3,6.300325E4,4.374051E3,3.4799688E4,2.589515E5,2.51355E5,1.5915E5,1.6636712E5,5.2424047E4,7.6483994E3,2.0603574E3,0E0,0E0,0E0,0E0,0E0,0E0,0E0,0E0,0E0,0E0,0E0,0E0,0E0,0E0,0E0,0E0,0E0,0E0,0E0,0E0,0E0,0E0,0E0,0E0,0E0,0E0,0E0,0E0,0E0,0E0,0E0,0E0,0E0,0E0,0E0,0E0,0E0,0E0,0E0,0E0,0E0,0E0,0E0,0E0,0E0,0E0,0E0,0E0,0E0,0E0,0E0,0E0,0E0,0E0,0E0,0E0,0E0,0E0,0E0,0E0,0E0,0E0,0E0,0E0],"parents":[2147483647,0,0,1,1,2,2,3,3,4,4,5,5,6,6,7,7,8,8,9,9,10,10,11,11,12,12,13,13,14,14,15,15,16,16,17,17,18,18,19,19,20,20,21,21,22,22,23,23,24,24,25,25,26,26,27,27,28,28,29,29,30,30,31,31,32,32,33,33,34,34,35,35,36,36,37,37,38,38,39,39,40,40,41,41,42,42,43,43,44,44,45,45,46,46,47,47,48,48,49,49,50,50,51,51,52,52,53,53,54,54,55,55,56,56,57,57,58,58,59,59,60,60,61,61,62,62],"right_children":[2,4,6,8,10,12,14,16,18,20,22,24,26,28,30,32,34,36,38,40,42,44,46,48,50,52,54,56,58,60,62,64,66,68,70,72,74,76,78,80,82,84,86,88,90,92,94,96,98,100,102,104,106,108,110,112,114,116,118,120,122,124,126,-1,-1,-1,-1,-1,-1,-1,-1,-1,-1,-1,-1,-1,-1,-1,-1,-1,-1,-1,-1,-1,-1,-1,-1,-1,-1,-1,-1,-1,-1,-1,-1,-1,-1,-1,-1,-1,-1,-1,-1,-1,-1,-1,-1,-1,-1,-1,-1,-1,-1,-1,-1,-1,-1,-1,-1,-1,-1,-1,-1,-1,-1,-1,-1],"split_conditions":[-5.65206E0,1.6025951E0,8.5207754E-1,3.9665634E2,1.5610872E1,-5.246873E0,9.056959E0,1.8193636E1,1.9034832E1,3.9457346E2,3.9412207E2,-5.049611E-1,5.847397E-1,-5.416808E0,1.995269E1,8.6314213E-1,-4.9377555E-1,8.6314213E-1,4.0952954E2,1.735449E0,1.7637775E0,-5.160624E-1,4.1155618E2,1.6650894E1,-5.416808E0,8.674564E-1,-1.953552E-1,-8.606997E-3,-8.606997E-3,1.4210014E0,4.0822375E2,3.0386353E-1,-1.7540741E-1,4.854355E-1,3.8969034E2,1.37379E0,8.053164E0,4.4683456E-1,1.6711235E0,-2.3361588E-1,-5.049611E-1,-3.852234E-1,4.0868384E2,-1.2910296E-2,3.7562847E-1,1.3868713E-1,2.0547867E-1,-4.9377555E-1,-5.312271E-1,-4.7495106E-1,9.999167E-1,-8.5876393E-1,4.3035382E-3,-5.223195E-1,2.1743626E1,1.6874695E-1,-2.9249191E-2,-5.143871E0,1.1265426E0,4.0952954E2,1.8328737E1,-1.0932922E-2,-1.9952755E0,-1.3701626E0,-2.5013752E0,6.050192E-1,-4.840586E-1,-1.2853644E0,-4.515895E-1,-2.5594994E-1,2.619648E-1,-9.1019374E-1,9.232743E-2,1.8798574E0,7.6453435E-1,-1.2429575E-1,5.1949024E-1,9.893988E-1,-2.2249556E0,1.1219195E0,4.0362462E-2,2.049959E0,1.1621698E0,2.2113845E0,1.0586284E0,2.0076206E0,2.6093862E0,5.1504004E-1,-6.111369E-1,1.809433E-1,-3.9558327E-1,8.3692735E-1,4.1529247E-1,1.4920238E0,1.0027605E0,-5.444002E0,-2.8208132E0,-1.7206767E0,3.387847E-1,-9.9598897E-1,3.0467022E-2,-1.7056077E0,-3.7007892E-1,-3.0410898E0,-5.0726957E0,-2.1566396E0,-1.1631072E0,-1.7787484E0,-2.8969762E0,7.3683894E-1,-1.00145936E-1,-2.4837246E0,-3.705743E0,-8.666616E0,-5.33501E0,-5.0576053E0,-7.103348E0,-9.3317795E0,-7.2569957E0,-3.514314E0,-1.3620168E0,4.928584E0,-1.1491216E0,7.464199E-1,-1.691901E-1,1.5641736E0,7.260473E-1],"split_indices":[5,4,11,7,0,5,0,0,0,7,7,11,3,5,0,12,12,12,7,4,4,12,7,0,5,12,10,12,12,3,7,1,1,3,7,4,0,3,1,3,11,3,7,11,1,1,1,12,3,11,12,12,11,10,0,1,6,5,4,7,0,3,1,0,0,0,0,0,0,0,0,0,0,0,0,0,0,0,0,0,0,0,0,0,0,0,0,0,0,0,0,0,0,0,0,0,0,0,0,0,0,0,0,0,0,0,0,0,0,0,0,0,0,0,0,0,0,0,0,0,0,0,0,0,0,0,0],"split_type":[0,0,0,0,0,0,0,0,0,0,0,0,0,0,0,0,0,0,0,0,0,0,0,0,0,0,0,0,0,0,0,0,0,0,0,0,0,0,0,0,0,0,0,0,0,0,0,0,0,0,0,0,0,0,0,0,0,0,0,0,0,0,0,0,0,0,0,0,0,0,0,0,0,0,0,0,0,0,0,0,0,0,0,0,0,0,0,0,0,0,0,0,0,0,0,0,0,0,0,0,0,0,0,0,0,0,0,0,0,0,0,0,0,0,0,0,0,0,0,0,0,0,0,0,0,0,0],"sum_hessian":[1.42548E5,1.34136E5,8.412E3,8.1361E4,5.2775E4,5.541E3,2.871E3,4.0814E4,4.0547E4,2.1177E4,3.1598E4,4.032E3,1.509E3,2.132E3,7.39E2,1.584E4,2.4974E4,1.7748E4,2.2799E4,9.37E3,1.1807E4,1.3826E4,1.7772E4,9.96E2,3.036E3,4.64E2,1.045E3,8.21E2,1.311E3,4.68E2,2.71E2,1.377E4,2.07E3,1.0705E4,1.4269E4,1.4461E4,3.287E3,1.2698E4,1.0101E4,1.936E3,7.434E3,3.366E3,8.441E3,3.148E3,1.0678E4,1.1813E4,5.959E3,8.18E2,1.78E2,1.8E3,1.236E3,3.93E2,7.1E1,9.8E2,6.5E1,2.59E2,5.62E2,6.4E2,6.71E2,4.54E2,1.4E1,2.1E2,6.1E1,9.706E3,4.064E3,1.001E3,1.069E3,4.333E3,6.372E3,9.37E3,4.899E3,9.507E3,4.954E3,1.013E3,2.274E3,4.668E3,8.03E3,9.926E3,1.75E2,6.28E2,1.308E3,7.59E2,6.675E3,9.28E2,2.438E3,5.216E3,3.225E3,3.89E2,2.759E3,8.781E3,1.897E3,6.714E3,5.099E3,3.616E3,2.343E3,1.57E2,6.61E2,1.6E1,1.62E2,6.5E2,1.15E3,1.075E3,1.61E2,1.11E2,2.82E2,4E1,3.1E1,1.56E2,8.24E2,2.4E1,4.1E1,1.2E2,1.39E2,6.9E1,4.93E2,3.54E2,2.86E2,1.31E2,5.4E2,3.28E2,1.26E2,9E0,5E0,2.5E1,1.85E2,9E0,5.2E1],"tree_param":{"num_deleted":"0","num_feature":"13","num_nodes":"127","size_leaf_vector":"1"}},{"base_weights":[3.7635956E-2,-1.0426397E1,1.4852039E1,-4.2807133E1,-4.394092E0,3.9938557E0,2.1982208E1,-3.1758963E1,-9.764254E1,3.601949E0,-2.111306E1,7.8857535E-1,1.9175182E1,1.7877295E1,3.475455E1,-8.890887E1,-2.4279768E1,-3.3516903E1,-1.0586677E2,-3.1104388E0,1.6893255E1,-3.1896667E1,-2.322735E0,1.4265303E1,-9.9847794E-1,2.2458294E1,1.0992976E1,2.8107388E1,1.5088089E1,-2.0236506E1,4.2144928E1,-1.3712663E2,-6.7444496E1,-1.4043596E1,-3.69775E1,3.6539875E1,-4.0044315E1,-8.733138E1,-1.19689964E2,-9.6982765E0,2.2438807E0,1.3535168E1,2.2709438E1,-3.921343E1,-1.3068088E1,7.290673E0,-3.2753662E1,3.674965E1,5.923543E0,1.5727312E1,-2.4873602E0,2.5564009E1,6.081564E0,3.7383163E1,8.415173E0,4.1090195E1,1.9924406E1,1.0548714E1,2.3455774E1,6.9621396E0,-2.660437E1,3.515728E1,5.0614098E1,-4.923181E0,-7.7965164E0,-2.4991186E0,-4.3627357E0,1.6462702E0,-8.198108E-1,-7.097417E-1,-2.2484348E0,2.414196E0,1.3916863E0,-3.5101037E0,-1.4645385E0,-5.9525495E0,-3.5980358E0,-5.415275E0,-6.8766046E0,-7.629883E-1,-2.8060502E-1,3.022928E-1,-1.0061814E-1,-2.781597E-1,7.327137E-1,8.2101625E-1,1.3207487E0,-2.6364052E0,-1.4674999E0,-1.1235056E0,-1.7832518E-1,1.4134043E-1,2.4376338E0,-8.5227346E-1,-2.2998533E0,4.060592E0,1.6022615E0,1.2824577E0,1.10458076E-1,4.778021E-1,1.6199251E0,-2.569555E-1,1.9690436E-1,1.0151269E-1,1.372579E0,-1.1431512E0,7.981047E-1,2.5160134E0,1.2696927E0,5.5017364E-1,-1.3401258E-1,2.3101804E0,9.467722E-1,1.793999E0,8.8572884E-1,1.6358419E-1,7.3169345E-1,1.4226991E0,8.471724E-1,9.343678E-1,-2.2958547E-2,-5.968664E-1,-1.7787112E0,1.0444019E0,1.8855028E0,2.2830083E0,3.0079648E0],"categories":[],"categories_nodes":[],"categories_segments":[],"categories_sizes":[],"default_left":[0,0,0,0,0,0,0,0,0,0,0,0,0,0,0,0,0,0,0,0,0,0,0,0,0,0,0,0,0,0,0,0,0,0,0,0,0,0,0,0,0,0,0,0,0,0,0,0,0,0,0,0,0,0,0,0,0,0,0,0,0,0,0,0,0,0,0,0,0,0,0,0,0,0,0,0,0,0,0,0,0,0,0,0,0,0,0,0,0,0,0,0,0,0,0,0,0,0,0,0,0,0,0,0,0,0,0,0,0,0,0,0,0,0,0,0,0,0,0,0,0,0,0,0,0,0,0],"id":1,"left_children":[1,3,5,7,9,11,13,15,17,19,21,23,25,27,29,31,33,35,37,39,41,43,45,47,49,51,53,55,57,59,61,63,65,67,69,71,73,75,77,79,81,83,85,87,89,91,93,95,97,99,101,103,105,107,109,111,113,115,117,119,121,123,125,-1,-1,-1,-1,-1,-1,-1,-1,-1,-1,-1,-1,-1,-1,-1,-1,-1,-1,-1,-1,-1,-1,-1,-1,-1,-1,-1,-1,-1,-1,-1,-1,-1,-1,-1,-1,-1,-1,-1,-1,-1,-1,-1,-1,-1,-1,-1,-1,-1,-1,-1,-1,-1,-1,-1,-1,-1,-1,-1,-1,-1,-1,-1,-1],"loss_changes":[2.2143294E7,1.6351508E7,4.577795E6,7.961138E6,9.434E6,1.1405341E6,1.870682E6,4.675253E6,1.158792E6,4.259067E6,4.626111E6,4.6613012E5,1.095125E5,7.70355E5,3.528446E6,1.300995E6,1.257385E6,1.1670047E5,4.8992E5,1.1188945E6,3.1256E5,1.997891E6,2.4359705E6,4.2478684E5,4.256006E5,1.481025E5,7.94105E4,6.13869E5,8.060745E5,1.7840716E5,4.51055E5,2.674275E5,2.993505E5,5.92819E5,7.85676E5,8.9786523E2,7.284778E4,3.99982E5,2.11765E5,3.2311038E5,2.831837E5,2.1719038E5,1.361735E5,1.390908E6,3.6270312E5,1.171048E6,4.150615E5,1.2560669E5,1.2112656E5,1.434129E5,2.6740838E5,1.08774375E5,1.336346E5,1.4845719E4,3.0730172E4,2.5242725E5,1.24564125E5,4.0912388E5,2.4249925E5,1.7065633E4,1.09292625E5,1.52051E5,1.60711E5,0E0,0E0,0E0,0E0,0E0,0E0,0E0,0E0,0E0,0E0,0E0,0E0,0E0,0E0,0E0,0E0,0E0,0E0,0E0,0E0,0E0,0E0,0E0,0E0,0E0,0E0,0E0,0E0,0E0,0E0,0E0,0E0,0E0,0E0,0E0,0E0,0E0,0E0,0E0,0E0,0E0,0E0,0E0,0E0,0E0,0E0,0E0,0E0,0E0,0E0,0E0,0E0,0E0,0E0,0E0,0E0,0E0,0E0,0E0,0E0,0E0,0E0,0E0,0E0],"parents":[2147483647,0,0,1,1,2,2,3,3,4,4,5,5,6,6,7,7,8,8,9,9,10,10,11,11,12,12,13,13,14,14,15,15,16,16,17,17,18,18,19,19,20,20,21,21,22,22,23,23,24,24,25,25,26,26,27,27,28,28,29,29,30,30,31,31,32,32,33,33,34,34,35,35,36,36,37,37,38,38,39,39,40,40,41,41,42,42,43,43,44,44,45,45,46,46,47,47,48,48,49,49,50,50,51,51,52,52,53,53,54,54,55,55,56,56,57,57,58,58,59,59,60,60,61,61,62,62],"right_children":[2,4,6,8,10,12,14,16,18,20,22,24,26,28,30,32,34,36,38,40,42,44,46,48,50,52,54,56,58,60,62,64,66,68,70,72,74,76,78,80,82,84,86,88,90,92,94,96,98,100,102,104,106,108,110,112,114,116,118,120,122,124,126,-1,-1,-1,-1,-1,-1,-1,-1,-1,-1,-1,-1,-1,-1,-1,-1,-1,-1,-1,-1,-1,-1,-1,-1,-1,-1,-1,-1,-1,-1,-1,-1,-1,-1,-1,-1,-1,-1,-1,-1,-1,-1,-1,-1,-1,-1,-1,-1,-1,-1,-1,-1,-1,-1,-1,-1,-1,-1,-1,-1,-1,-1,-1,-1],"split_conditions":[1.569684E0,-6.2251467E-1,3.933682E2,2.674389E-1,6.087614E-1,2.0983434E0,6.6262007E-1,1.1968515E0,8.5207754E-1,4.0388007E2,1.7213356E-2,-5.049611E-1,6.158869E-1,-1.2910296E-2,-1.2910296E-2,-9.4832367E-1,1.2954712E-2,-1.2910296E-2,4.4151402E-1,3.8775726E2,4.1527115E2,1.2976875E0,8.616292E-1,1.756077E-1,3.3394676E1,8.6314213E-1,-7.178116E-1,-5.51937E-1,4.0987808E2,8.433914E-1,8.5207754E-1,-9.46455E-2,-6.295109E-2,4.975133E-1,8.5207754E-1,-4.9377555E-1,3.83342E2,1.2176344E0,6.730175E-1,-4.9377555E-1,2.344513E-2,-5.3729963E-1,7.84591E-2,3.9155038E2,3.951246E2,4.3035382E-3,3.4961765E1,-7.0468616E-1,-5.51937E-1,7.372773E-1,1.8701893E0,-8.800122E-1,-4.7495106E-1,-4.9377555E-1,4.2401886E-1,3.5166637E1,-5.8538437E-1,-8.606997E-3,1.3868713E-1,-5.137205E-2,-3.490591E-2,-8.800122E-1,4.0822375E2,-4.923181E0,-7.7965164E0,-2.4991186E0,-4.3627357E0,1.6462702E0,-8.198108E-1,-7.097417E-1,-2.2484348E0,2.414196E0,1.3916863E0,-3.5101037E0,-1.4645385E0,-5.9525495E0,-3.5980358E0,-5.415275E0,-6.8766046E0,-7.629883E-1,-2.8060502E-1,3.022928E-1,-1.0061814E-1,-2.781597E-1,7.327137E-1,8.2101625E-1,1.3207487E0,-2.6364052E0,-1.4674999E0,-1.1235056E0,-1.7832518E-1,1.4134043E-1,2.4376338E0,-8.5227346E-1,-2.2998533E0,4.060592E0,1.6022615E0,1.2824577E0,1.10458076E-1,4.778021E-1,1.6199251E0,-2.569555E-1,1.9690436E-1,1.0151269E-1,1.372579E0,-1.1431512E0,7.981047E-1,2.5160134E0,1.2696927E0,5.5017364E-1,-1.3401258E-1,2.3101804E0,9.467722E-1,1.793999E0,8.8572884E-1,1.6358419E-1,7.3169345E-1,1.4226991E0,8.471724E-1,9.343678E-1,-2.2958547E-2,-5.968664E-1,-1.7787112E0,1.0444019E0,1.8855028E0,2.2830083E0,3.0079648E0],"split_indices":[4,8,7,6,8,4,8,4,11,7,12,11,10,11,11,8,1,11,6,7,7,4,8,10,2,12,1,8,7,8,11,1,6,11,11,12,7,4,1,12,1,8,8,7,7,11,2,1,8,8,4,12,11,12,1,2,1,12,1,6,6,12,7,0,0,0,0,0,0,0,0,0,0,0,0,0,0,0,0,0,0,0,0,0,0,0,0,0,0,0,0,0,0,0,0,0,0,0,0,0,0,0,0,0,0,0,0,0,0,0,0,0,0,0,0,0,0,0,0,0,0,0,0,0,0,0,0],"split_type":[0,0,0,0,0,0,0,0,0,0,0,0,0,0,0,0,0,0,0,0,0,0,0,0,0,0,0,0,0,0,0,0,0,0,0,0,0,0,0,0,0,0,0,0,0,0,0,0,0,0,0,0,0,0,0,0,0,0,0,0,0,0,0,0,0,0,0,0,0,0,0,0,0,0,0,0,0,0,0,0,0,0,0,0,0,0,0,0,0,0,0,0,0,0,0,0,0,0,0,0,0,0,0,0,0,0,0,0,0,0,0,0,0,0,0,0,0,0,0,0,0,0,0,0,0,0,0],"sum_hessian":[1.42841E5,8.3712E4,5.9129E4,1.3145E4,7.0567E4,2.3438E4,3.5691E4,1.0942E4,2.203E3,4.7737E4,2.283E4,1.9353E4,4.085E3,2.7012E4,8.679E3,1.265E3,9.677E3,2.51E2,1.952E3,3.1719E4,1.6018E4,1.4505E4,8.325E3,2.265E3,1.7088E4,2.914E3,1.171E3,5.785E3,2.1227E4,1.028E3,7.651E3,3.88E2,8.77E2,5.359E3,4.318E3,2.1E1,2.3E2,8.37E2,1.115E3,1.4221E4,1.7498E4,1.0157E4,5.861E3,1.0445E4,4.06E3,6.327E3,1.998E3,6.12E2,1.653E3,1.396E3,1.5692E4,2.449E3,4.65E2,1.03E2,1.068E3,2.235E3,3.55E3,1.3763E4,7.464E3,1.95E2,8.33E2,4.195E3,3.456E3,1.29E2,2.59E2,4.68E2,4.09E2,2.55E2,5.104E3,1.122E3,3.196E3,7E0,1.4E1,5.9E1,1.71E2,2.71E2,5.66E2,6.85E2,4.3E2,6.022E3,8.199E3,9.242E3,8.256E3,5.62E2,9.595E3,2.175E3,3.686E3,4.405E3,6.04E3,2.04E3,2.02E3,5.713E3,6.14E2,9.15E2,1.083E3,5.7E1,5.55E2,2.61E2,1.392E3,1.02E3,3.76E2,1.1108E4,4.584E3,1.82E2,2.267E3,1.18E2,3.47E2,4.8E1,5.5E1,8.66E2,2.02E2,1.815E3,4.2E2,4.3E2,3.12E3,4.949E3,8.814E3,4.221E3,3.243E3,7.5E1,1.2E2,3.17E2,5.16E2,6.38E2,3.557E3,2.279E3,1.177E3],"tree_param":{"num_deleted":"0","num_feature":"13","num_nodes":"127","size_leaf_vector":"1"}},{"base_weights":[-1.1153241E-2,3.2487073E0,-5.231398E1,-5.2735505E0,1.6862665E1,-7.301334E1,-2.4845789E1,-1.4568897E1,4.0181017E0,7.4342413E0,2.3968775E1,-8.815329E1,-3.7905575E1,-3.36314E1,3.7911265E0,-1.0407601E1,-2.5016823E1,5.979098E-1,1.8113289E1,2.6421415E1,4.575715E0,4.104949E1,2.089914E1,-6.881321E1,-1.1239944E2,-2.8127602E1,-8.700464E1,-1.711218E1,-4.5773476E1,-1.6056106E0,1.2865091E1,-1.301829E1,4.2384763E0,-1.7530313E1,-3.9725296E1,4.7488484E0,-1.3117693E1,4.7267487E1,1.6711645E1,3.0075905E1,2.0993309E1,1.6931671E0,1.385215E1,2.2124044E1,4.253314E1,3.0759832E1,1.7385292E1,-5.7294678E1,-9.7993866E1,-1.0195702E2,-1.4152586E2,-2.1342716E1,-6.270088E1,-6.946609E1,-1.23704865E2,-3.421569E1,-8.647551E0,-5.709794E1,-3.7770565E1,-2.5323503E0,-7.6004153E-1,2.304925E1,1.0237617E1,-9.7462696E-1,-3.53431E-1,5.5678713E-1,-2.2940634E-2,-1.3464012E0,-5.589016E-1,-2.2462852E0,-6.9680697E-1,-4.469975E-2,5.70157E-1,7.5700617E-1,-8.2904416E-1,3.0326421E0,1.8389912E0,5.5421156E-1,1.1438059E0,2.133148E0,1.3475184E0,9.68496E-2,1.1440495E0,7.586095E-1,-1.2395111E-2,2.2185524E0,6.44057E-1,3.3947098E0,9.31131E-1,2.2395327E0,1.4793658E0,2.7528253E0,1.438633E0,7.020009E-1,1.3734127E0,6.247433E-1,-3.0436842E0,-5.270782E0,-1.0133921E0,-5.387768E0,-2.7461984E0,-7.425893E0,-5.352334E0,-1.3607191E0,2.7272952E-1,-4.3220577E0,-1.268612E0,-2.8637304E0,-4.537893E0,-6.508655E0,-1.326504E0,-1.8739128E-1,-1.9259186E0,-9.523644E-1,9.269202E-2,-2.0035875E0,-3.0534942E0,-1.5588189E0,-2.3546233E0,8.219224E-1,-1.0694046E-1,8.7421477E-1,1.5513605E0,5.6063694E-1,-1.5878532E0],"categories":[],"categories_nodes":[],"categories_segments":[],"categories_sizes":[],"default_left":[0,0,0,0,0,0,0,0,0,0,0,0,0,0,0,0,0,0,0,0,0,0,0,0,0,0,0,0,0,0,0,0,0,0,0,0,0,0,0,0,0,0,0,0,0,0,0,0,0,0,0,0,0,0,0,0,0,0,0,0,0,0,0,0,0,0,0,0,0,0,0,0,0,0,0,0,0,0,0,0,0,0,0,0,0,0,0,0,0,0,0,0,0,0,0,0,0,0,0,0,0,0,0,0,0,0,0,0,0,0,0,0,0,0,0,0,0,0,0,0,0,0,0,0,0],"id":2,"left_children":[1,3,5,7,9,11,13,15,17,19,21,23,25,27,29,31,33,35,37,39,41,43,45,47,49,51,53,55,57,59,61,63,65,67,69,71,73,75,77,79,81,83,85,87,89,91,93,95,97,99,101,103,105,107,109,111,113,115,117,-1,119,121,123,-1,-1,-1,-1,-1,-1,-1,-1,-1,-1,-1,-1,-1,-1,-1,-1,-1,-1,-1,-1,-1,-1,-1,-1,-1,-1,-1,-1,-1,-1,-1,-1,-1,-1,-1,-1,-1,-1,-1,-1,-1,-1,-1,-1,-1,-1,-1,-1,-1,-1,-1,-1,-1,-1,-1,-1,-1,-1,-1,-1,-1,-1],"loss_changes":[2.4361714E7,1.5605119E7,4.764532E6,7.144514E6,3.469182E6,2.537356E6,9.0687125E5,1.797593E6,1.9943144E6,1.2078278E6,1.547284E6,1.55798E6,6.8983025E5,5.524035E5,4.1499203E4,1.1308962E6,1.296234E6,1.8954625E6,3.29301E5,5.7128875E4,5.1725584E5,1.25322E5,8.66758E5,6.1955E5,4.35688E5,2.810825E5,1.4522412E5,1.6908644E5,1.4184275E5,2.201728E4,8.21643E3,9.66741E5,1.4498922E5,4.65749E5,5.32069E5,9.596917E5,7.57215E5,4.9700438E4,2.671685E5,6.7218375E4,4.2220562E4,3.8618175E5,1.3532506E5,5.1452766E4,1.20508E5,3.158595E5,6.2217E5,3.344675E5,3.007055E5,2.9214E5,7.7615E4,1.5875416E5,1.7237544E5,3.7357938E4,4.4300625E4,5.0584625E4,8.5659016E4,4.1906E4,5.593725E4,0E0,1.2459195E4,2.2940625E3,1.0714371E4,0E0,0E0,0E0,0E0,0E0,0E0,0E0,0E0,0E0,0E0,0E0,0E0,0E0,0E0,0E0,0E0,0E0,0E0,0E0,0E0,0E0,0E0,0E0,0E0,0E0,0E0,0E0,0E0,0E0,0E0,0E0,0E0,0E0,0E0,0E0,0E0,0E0,0E0,0E0,0E0,0E0,0E0,0E0,0E0,0E0,0E0,0E0,0E0,0E0,0E0,0E0,0E0,0E0,0E0,0E0,0E0,0E0,0E0,0E0,0E0,0E0,0E0],"parents":[2147483647,0,0,1,1,2,2,3,3,4,4,5,5,6,6,7,7,8,8,9,9,10,10,11,11,12,12,13,13,14,14,15,15,16,16,17,17,18,18,19,19,20,20,21,21,22,22,23,23,24,24,25,25,26,26,27,27,28,28,29,29,30,30,31,31,32,32,33,33,34,34,35,35,36,36,37,37,38,38,39,39,40,40,41,41,42,42,43,43,44,44,45,45,46,46,47,47,48,48,49,49,50,50,51,51,52,52,53,53,54,54,55,55,56,56,57,57,58,58,60,60,61,61,62,62],"right_children":[2,4,6,8,10,12,14,16,18,20,22,24,26,28,30,32,34,36,38,40,42,44,46,48,50,52,54,56,58,60,62,64,66,68,70,72,74,76,78,80,82,84,86,88,90,92,94,96,98,100,102,104,106,108,110,112,114,116,118,-1,120,122,124,-1,-1,-1,-1,-1,-1,-1,-1,-1,-1,-1,-1,-1,-1,-1,-1,-1,-1,-1,-1,-1,-1,-1,-1,-1,-1,-1,-1,-1,-1,-1,-1,-1,-1,-1,-1,-1,-1,-1,-1,-1,-1,-1,-1,-1,-1,-1,-1,-1,-1,-1,-1,-1,-1,-1,-1,-1,-1,-1,-1,-1,-1],"split_conditions":[-5.65206E0,1.6109319E0,3.433175E1,3.9665634E2,3.9412207E2,1.3850489E0,-1.953552E-1,2.8319168E-1,8.6314213E-1,-7.17688E0,-6.9584203E0,-5.374468E0,-5.1986766E0,-5.374468E0,3.9457346E2,8.6314213E-1,-6.241503E0,-6.1368995E0,-1.1321335E0,-7.769078E0,1.9651167E0,-8.5876393E-1,-3.3182526E-1,5.253029E-1,6.485424E-1,4.915433E-1,3.172264E-1,1.4002788E0,3.9164902E2,3.4419273E1,-8.439894E-1,3.421257E1,-4.170742E-1,3.029747E-1,8.5876393E-1,3.4344257E1,-8.746157E-1,-1.5607762E0,4.0800095E2,4.068451E-1,-8.800122E-1,-7.0468616E-1,3.7536337E2,-3.6200196E-1,8.717063E-1,-6.69693E-1,4.1443985E2,-7.6123273E-1,8.5876393E-1,4.862727E-1,4.0952954E2,8.5876393E-1,1.5658675E0,-5.0668373E0,8.5876393E-1,-8.770502E-1,3.9879065E2,-5.009819E-1,-5.1986766E0,-2.5323503E0,-7.3490456E-2,4.0952954E2,-5.143871E0,-9.7462696E-1,-3.53431E-1,5.5678713E-1,-2.2940634E-2,-1.3464012E0,-5.589016E-1,-2.2462852E0,-6.9680697E-1,-4.469975E-2,5.70157E-1,7.5700617E-1,-8.2904416E-1,3.0326421E0,1.8389912E0,5.5421156E-1,1.1438059E0,2.133148E0,1.3475184E0,9.68496E-2,1.1440495E0,7.586095E-1,-1.2395111E-2,2.2185524E0,6.44057E-1,3.3947098E0,9.31131E-1,2.2395327E0,1.4793658E0,2.7528253E0,1.438633E0,7.020009E-1,1.3734127E0,6.247433E-1,-3.0436842E0,-5.270782E0,-1.0133921E0,-5.387768E0,-2.7461984E0,-7.425893E0,-5.352334E0,-1.3607191E0,2.7272952E-1,-4.3220577E0,-1.268612E0,-2.8637304E0,-4.537893E0,-6.508655E0,-1.326504E0,-1.8739128E-1,-1.9259186E0,-9.523644E-1,9.269202E-2,-2.0035875E0,-3.0534942E0,-1.5588189E0,-2.3546233E0,8.219224E-1,-1.0694046E-1,8.7421477E-1,1.5513605E0,5.6063694E-1,-1.5878532E0],"split_indices":[5,4,2,7,7,4,10,1,12,5,5,5,5,5,7,12,5,5,1,5,4,12,1,1,1,6,1,4,7,2,1,2,1,3,12,2,9,1,7,3,12,1,7,9,12,3,7,9,12,12,7,12,4,5,12,10,7,10,5,0,10,7,5,0,0,0,0,0,0,0,0,0,0,0,0,0,0,0,0,0,0,0,0,0,0,0,0,0,0,0,0,0,0,0,0,0,0,0,0,0,0,0,0,0,0,0,0,0,0,0,0,0,0,0,0,0,0,0,0,0,0,0,0,0,0],"split_type":[0,0,0,0,0,0,0,0,0,0,0,0,0,0,0,0,0,0,0,0,0,0,0,0,0,0,0,0,0,0,0,0,0,0,0,0,0,0,0,0,0,0,0,0,0,0,0,0,0,0,0,0,0,0,0,0,0,0,0,0,0,0,0,0,0,0,0,0,0,0,0,0,0,0,0,0,0,0,0,0,0,0,0,0,0,0,0,0,0,0,0,0,0,0,0,0,0,0,0,0,0,0,0,0,0,0,0,0,0,0,0,0,0,0,0,0,0,0,0,0,0,0,0,0,0],"sum_hessian":[1.42882E5,1.345E5,8.382E3,8.2719E4,5.1781E4,4.779E3,3.603E3,4.1351E4,4.1368E4,2.2255E4,2.9526E4,3.338E3,1.441E3,2.757E3,8.46E2,2.9574E4,1.1777E4,3.3291E4,8.077E3,2.911E3,1.9344E4,4.496E3,2.503E4,1.859E3,1.479E3,1.203E3,2.38E2,1.169E3,1.588E3,5.31E2,3.15E2,2.51E4,4.474E3,7.806E3,3.971E3,2.5557E4,7.734E3,3.69E2,7.708E3,1.737E3,1.174E3,1.4759E4,4.585E3,3.28E2,4.168E3,6.574E3,1.8456E4,1.335E3,5.24E2,1.092E3,3.87E2,1.007E3,1.96E2,1.63E2,7.5E1,3.86E2,7.83E2,6.55E2,9.33E2,8E0,5.23E2,6.3E1,2.52E2,1.2019E4,1.3081E4,1.812E3,2.662E3,3.147E3,4.659E3,3.304E3,6.67E2,1.383E4,1.1727E4,8.44E2,6.89E3,1.6E2,2.09E2,4.031E3,3.677E3,3.43E2,1.394E3,1.06E2,1.068E3,1.857E3,1.2902E4,1.4E2,4.445E3,2.2E1,3.06E2,3.547E3,6.21E2,4.95E2,6.079E3,1.386E4,4.596E3,6.5E1,1.27E3,4.78E2,4.6E1,9.71E2,1.21E2,3.19E2,6.8E1,8.26E2,1.81E2,1.19E2,7.7E1,1.06E2,5.7E1,7E1,5E0,4.8E1,3.38E2,3.93E2,3.9E2,1.26E2,5.29E2,5.49E2,3.84E2,3.8E1,4.85E2,3.9E1,2.4E1,2.47E2,5E0],"tree_param":{"num_deleted":"0","num_feature":"13","num_nodes":"125","size_leaf_vector":"1"}},{"base_weights":[4.3055758E-2,3.1427767E0,-4.9706882E1,-7.481134E0,9.7948E0,-3.0533958E1,-8.682175E1,2.318867E1,-9.339663E0,3.3691597E1,7.630425E0,-2.2383783E1,-5.3052742E1,-1.0672866E2,-3.0591627E1,5.4115597E1,2.1523552E1,-1.630823E1,-4.9495344E0,3.982257E1,2.5352556E1,4.9572973E0,1.8189545E1,-4.6711403E1,-1.462396E1,-7.095247E1,-4.508217E1,-8.817583E1,-1.1833306E2,-4.8019142E1,3.0844522E0,1.2955926E1,6.0347427E1,3.564888E-2,2.3043678E1,-1.9780523E1,-1.6753994E0,-8.682085E0,4.7517756E-1,3.5940277E1,4.6950985E1,2.1217287E1,3.9681644E1,-1.624535E0,9.380449E0,2.0500673E1,2.1594105E0,-5.8862427E1,5.3443565E0,-5.5240364E0,-2.7825985E1,-5.322302E1,-8.916484E1,-4.7974556E1,3.4676847E0,-5.5473976E1,-1.0237367E2,-1.0340224E2,-1.3227452E2,-5.117337E1,6.3098015E1,-2.2595835E0,1.5241553E1,-1.0380337E0,1.2398078E0,2.6173108E0,3.549114E0,5.0586814E-1,-7.960271E-2,1.1873474E0,-1.2441363E-1,-6.9777817E-1,-1.5779266E0,4.1359434E-1,-3.0609652E-1,-5.6979007E-1,2.360998E-2,-5.6668013E-2,4.3423316E-1,2.8170612E0,1.7148733E0,2.4379718E0,1.4232183E0,9.645406E-1,1.9129645E0,2.338895E0,8.3813727E-1,-3.1275538E-1,7.243889E-1,2.8662488E-1,7.162979E-1,3.8033077E-1,1.1045104E0,-3.924448E-1,1.1470072E0,-4.343083E0,-2.183165E0,-1.3414338E0,4.4758782E-1,-8.3252186E-1,4.00793E-2,-1.4937794E0,2.140344E-1,-2.1094346E0,-3.866904E0,-2.544358E0,-5.0354605E0,-2.788511E0,-2.111882E0,-3.0904055E-2,7.614043E-1,-2.2057064E0,-3.3329537E0,-7.6775775E0,-4.7113376E0,-4.5054493E0,-6.5563607E0,-6.246708E0,-8.002867E0,-3.0890076E0,-1.1151912E0,4.9258695E0,-2.6535435E-2,6.2685317E-1,-1.9502267E-1,1.4061035E0,6.2360173E-1],"categories":[],"categories_nodes":[],"categories_segments":[],"categories_sizes":[],"default_left":[0,0,0,0,0,0,0,0,0,0,0,0,0,0,0,0,0,0,0,0,0,0,0,0,0,0,0,0,0,0,0,0,0,0,0,0,0,0,0,0,0,0,0,0,0,0,0,0,0,0,0,0,0,0,0,0,0,0,0,0,0,0,0,0,0,0,0,0,0,0,0,0,0,0,0,0,0,0,0,0,0,0,0,0,0,0,0,0,0,0,0,0,0,0,0,0,0,0,0,0,0,0,0,0,0,0,0,0,0,0,0,0,0,0,0,0,0,0,0,0,0,0,0,0,0,0,0],"id":3,"left_children":[1,3,5,7,9,11,13,15,17,19,21,23,25,27,29,31,33,35,37,39,41,43,45,47,49,51,53,55,57,59,61,63,65,67,69,71,73,75,77,79,81,83,85,87,89,91,93,95,97,99,101,103,105,107,109,111,113,115,117,119,121,123,125,-1,-1,-1,-1,-1,-1,-1,-1,-1,-1,-1,-1,-1,-1,-1,-1,-1,-1,-1,-1,-1,-1,-1,-1,-1,-1,-1,-1,-1,-1,-1,-1,-1,-1,-1,-1,-1,-1,-1,-1,-1,-1,-1,-1,-1,-1,-1,-1,-1,-1,-1,-1,-1,-1,-1,-1,-1,-1,-1,-1,-1,-1,-1,-1],"loss_changes":[2.1957012E7,9.472182E6,5.939912E6,2.941965E6,4.2628415E6,1.0096995E6,3.180204E6,1.5069225E5,1.4885985E6,3.48945E5,2.1332195E6,7.6310675E5,2.055175E5,4.41664E5,4.3738588E5,3.7685812E4,9.1456875E4,9.555385E5,6.045093E5,1.074245E5,1.7116812E5,1.7558748E6,5.65598E5,6.1893475E5,3.6854475E5,1.4022E5,1.4270238E5,3.713135E5,2.54614E5,1.7531775E5,1.6602574E4,8.898646E3,7.3339688E3,3.069227E3,4.7016E4,1.042373E6,1.5963556E5,4.3936412E5,1.607187E5,8.375625E4,4.4975E4,7.329006E4,1.0476181E5,1.8087669E6,6.5069E5,2.733215E5,4.0054294E5,3.336665E5,2.1825723E4,1.2796831E5,8.251944E4,5.7926688E4,9.207625E4,4.047925E4,2.797787E3,2.85595E4,2.210785E5,2.19246E5,1.15184E5,1.4498338E5,3.1613734E4,4.369764E3,2.4276836E3,0E0,0E0,0E0,0E0,0E0,0E0,0E0,0E0,0E0,0E0,0E0,0E0,0E0,0E0,0E0,0E0,0E0,0E0,0E0,0E0,0E0,0E0,0E0,0E0,0E0,0E0,0E0,0E0,0E0,0E0,0E0,0E0,0E0,0E0,0E0,0E0,0E0,0E0,0E0,0E0,0E0,0E0,0E0,0E0,0E0,0E0,0E0,0E0,0E0,0E0,0E0,0E0,0E0,0E0,0E0,0E0,0E0,0E0,0E0,0E0,0E0,0E0,0E0,0E0],"parents":[2147483647,0,0,1,1,2,2,3,3,4,4,5,5,6,6,7,7,8,8,9,9,10,10,11,11,12,12,13,13,14,14,15,15,16,16,17,17,18,18,19,19,20,20,21,21,22,22,23,23,24,24,25,25,26,26,27,27,28,28,29,29,30,30,31,31,32,32,33,33,34,34,35,35,36,36,37,37,38,38,39,39,40,40,41,41,42,42,43,43,44,44,45,45,46,46,47,47,48,48,49,49,50,50,51,51,52,52,53,53,54,54,55,55,56,56,57,57,58,58,59,59,60,60,61,61,62,62],"right_children":[2,4,6,8,10,12,14,16,18,20,22,24,26,28,30,32,34,36,38,40,42,44,46,48,50,52,54,56,58,60,62,64,66,68,70,72,74,76,78,80,82,84,86,88,90,92,94,96,98,100,102,104,106,108,110,112,114,116,118,120,122,124,126,-1,-1,-1,-1,-1,-1,-1,-1,-1,-1,-1,-1,-1,-1,-1,-1,-1,-1,-1,-1,-1,-1,-1,-1,-1,-1,-1,-1,-1,-1,-1,-1,-1,-1,-1,-1,-1,-1,-1,-1,-1,-1,-1,-1,-1,-1,-1,-1,-1,-1,-1,-1,-1,-1,-1,-1,-1,-1,-1,-1,-1,-1,-1,-1],"split_conditions":[-5.65206E0,3.9164902E2,8.5207754E-1,-7.104313E0,-6.840171E0,-5.246873E0,9.056959E0,-1.7355279E0,3.4097672E-1,-7.17688E0,4.1511423E2,-5.049611E-1,3.435716E1,-5.416808E0,1.9720139E1,-8.476486E-1,-8.800122E-1,8.5876393E-1,3.8551462E2,4.0800095E2,8.5207754E-1,3.1528854E-1,-6.004274E0,1.6650894E1,-5.416808E0,-1.6710451E-1,-1.953552E-1,-8.606997E-3,-8.606997E-3,3.5320316E1,4.0675653E2,3.245333E1,3.8828262E2,6.167099E0,7.440462E-2,-6.2358665E0,3.3368626E1,1.1881761E-1,8.5808074E-1,9.670962E-3,9.999167E-1,4.1816013E2,1.3612495E1,8.5876393E-1,4.040797E2,-8.5876393E-1,8.5876393E-1,3.9075473E2,3.3509716E1,-4.7495106E-1,2.0754217E1,-5.0668373E0,-8.5876393E-1,3.912079E2,-8.56551E-1,-5.531934E0,-2.5766373E-2,-5.0668373E0,-5.143871E0,4.0952954E2,1.7855364E1,3.3861652E1,2.2743668E1,-1.0380337E0,1.2398078E0,2.6173108E0,3.549114E0,5.0586814E-1,-7.960271E-2,1.1873474E0,-1.2441363E-1,-6.9777817E-1,-1.5779266E0,4.1359434E-1,-3.0609652E-1,-5.6979007E-1,2.360998E-2,-5.6668013E-2,4.3423316E-1,2.8170612E0,1.7148733E0,2.4379718E0,1.4232183E0,9.645406E-1,1.9129645E0,2.338895E0,8.3813727E-1,-3.1275538E-1,7.243889E-1,2.8662488E-1,7.162979E-1,3.8033077E-1,1.1045104E0,-3.924448E-1,1.1470072E0,-4.343083E0,-2.183165E0,-1.3414338E0,4.4758782E-1,-8.3252186E-1,4.00793E-2,-1.4937794E0,2.140344E-1,-2.1094346E0,-3.866904E0,-2.544358E0,-5.0354605E0,-2.788511E0,-2.111882E0,-3.0904055E-2,7.614043E-1,-2.2057064E0,-3.3329537E0,-7.6775775E0,-4.7113376E0,-4.5054493E0,-6.5563607E0,-6.246708E0,-8.002867E0,-3.0890076E0,-1.1151912E0,4.9258695E0,-2.6535435E-2,6.2685317E-1,-1.9502267E-1,1.4061035E0,6.2360173E-1],"split_indices":[5,7,11,5,5,5,0,0,3,5,7,11,2,5,0,3,12,12,7,7,11,3,5,0,5,10,10,12,12,2,7,2,7,0,10,5,2,9,10,0,12,7,0,12,7,12,12,7,2,11,0,5,12,7,11,5,6,5,5,7,0,2,0,0,0,0,0,0,0,0,0,0,0,0,0,0,0,0,0,0,0,0,0,0,0,0,0,0,0,0,0,0,0,0,0,0,0,0,0,0,0,0,0,0,0,0,0,0,0,0,0,0,0,0,0,0,0,0,0,0,0,0,0,0,0,0,0],"split_type":[0,0,0,0,0,0,0,0,0,0,0,0,0,0,0,0,0,0,0,0,0,0,0,0,0,0,0,0,0,0,0,0,0,0,0,0,0,0,0,0,0,0,0,0,0,0,0,0,0,0,0,0,0,0,0,0,0,0,0,0,0,0,0,0,0,0,0,0,0,0,0,0,0,0,0,0,0,0,0,0,0,0,0,0,0,0,0,0,0,0,0,0,0,0,0,0,0,0,0,0,0,0,0,0,0,0,0,0,0,0,0,0,0,0,0,0,0,0,0,0,0,0,0,0,0,0,0],"sum_hessian":[1.42381E5,1.34031E5,8.35E3,5.1608E4,8.2423E4,5.507E3,2.843E3,2.948E3,4.866E4,6.844E3,7.5579E4,4.045E3,1.462E3,2.099E3,7.44E2,1.49E2,2.799E3,1.8806E4,2.9854E4,3.942E3,2.902E3,6.0312E4,1.5267E4,9.77E2,3.068E3,4.48E2,1.014E3,8.11E2,1.288E3,4.9E2,2.54E2,2E1,1.29E2,1.85E2,2.614E3,1.5199E4,3.607E3,1.7685E4,1.2169E4,2.556E3,1.386E3,2.254E3,6.48E2,2.4241E4,3.6071E4,1.3343E4,1.924E3,7.92E2,1.85E2,1.817E3,1.251E3,2.29E2,2.19E2,9.57E2,5.7E1,2.47E2,5.64E2,6.26E2,6.62E2,4.77E2,1.3E1,1.77E2,7.7E1,5E0,1.5E1,7.7E1,5.2E1,2.5E1,1.6E2,2.544E3,7E1,1.0171E4,5.028E3,1.114E3,2.493E3,1.3641E4,4.044E3,1.0176E4,1.993E3,1.88E2,2.368E3,1.261E3,1.25E2,2.027E3,2.27E2,4.94E2,1.54E2,1.883E4,5.411E3,2.076E4,1.5311E4,1.465E3,1.1878E4,1.299E3,6.25E2,2.77E2,5.15E2,1.8E1,1.67E2,6.58E2,1.159E3,1.176E3,7.5E1,1.59E2,7E1,5.2E1,1.67E2,4.02E2,5.55E2,4.3E1,1.4E1,1.25E2,1.22E2,7.5E1,4.89E2,4.26E2,2E2,5.28E2,1.34E2,3.48E2,1.29E2,8E0,5E0,1.7E1,1.6E2,1.2E1,6.5E1],"tree_param":{"num_deleted":"0","num_feature":"13","num_nodes":"127","size_leaf_vector":"1"}},{"base_weights":[1.1151138E-2,-5.3490303E1,1.8417E0,-1.4683118E0,-7.4197174E1,-6.501403E0,1.0038605E1,2.5413214E1,-1.7653069E1,-1.0118929E2,-6.28807E1,-5.6025505E0,-5.604402E1,1.5241635E1,3.756215E0,4.150223E1,1.8077278E1,-4.0941555E1,-9.651831E0,-7.822917E1,-1.2309336E2,-4.59849E1,-9.469613E1,-2.4651105E0,-1.5682811E1,-7.924458E1,1.0085699E1,3.4902155E0,1.6889044E1,4.7153735E0,-3.9278973E1,4.672671E1,3.218847E1,2.7425196E1,1.1010786E1,2.0970097E0,-5.8396378E1,-3.821151E0,-2.2773201E1,-6.62963E1,-1.01760765E2,-1.4189299E2,-9.672552E1,-3.827395E1,-6.402164E1,-8.511965E1,-1.0937515E2,-7.4681187E0,3.024906E0,-2.4365723E1,-1.0476177E1,-5.4139385E1,-1.0679255E2,-9.039428E1,1.3641849E1,4.529505E1,-2.0603635E0,1.186483E1,2.3952143E1,6.311361E0,-1.3843123E1,-6.963442E1,-1.5965265E1,1.1465409E0,2.487209E0,1.2830824E0,1.8928283E0,2.863377E0,1.2441915E0,4.4761106E-1,9.0751934E-1,1.0129677E0,-3.1455576E0,-1.7283751E0,-3.3550198E0,-2.5108883E-1,1.1394234E0,-1.6927637E0,-7.14027E-1,-2.906638E0,-5.2879214E0,-5.689065E0,-3.9896977E0,-7.3988686E0,-3.1750226E0,-3.6443193E0,-5.6026244E0,-2.4672325E0,-1.5271915E0,-4.10844E0,-2.8745027E0,-3.5366077E0,-4.947364E0,-5.765681E0,-4.270432E0,-2.2741082E-1,-7.062528E-1,1.7225352E-1,-1.4201412E0,-1.0720708E0,-2.650519E0,-9.423939E-1,-2.8346953E-1,4.4567272E-1,-3.190142E0,-3.3066983E0,-5.705728E0,-2.8488617E0,-5.436447E0,3.3636266E-1,2.0764186E0,2.7359598E0,1.7324927E0,7.606957E-2,-1.6740286E0,9.173663E-1,2.1833025E-1,2.3224206E0,8.433973E-1,2.1159115E-1,8.73178E-1,-2.5767288E-1,-1.2011977E0,-1.1077181E0,-3.9539602E0,-2.0645852E0,6.229362E-1],"categories":[],"categories_nodes":[],"categories_segments":[],"categories_sizes":[],"default_left":[0,0,0,0,0,0,0,0,0,0,0,0,0,0,0,0,0,0,0,0,0,0,0,0,0,0,0,0,0,0,0,0,0,0,0,0,0,0,0,0,0,0,0,0,0,0,0,0,0,0,0,0,0,0,0,0,0,0,0,0,0,0,0,0,0,0,0,0,0,0,0,0,0,0,0,0,0,0,0,0,0,0,0,0,0,0,0,0,0,0,0,0,0,0,0,0,0,0,0,0,0,0,0,0,0,0,0,0,0,0,0,0,0,0,0,0,0,0,0,0,0,0,0,0,0,0,0],"id":4,"left_children":[1,3,5,7,9,11,13,15,17,19,21,23,25,27,29,31,33,35,37,39,41,43,45,47,49,51,53,55,57,59,61,63,65,67,69,71,73,75,77,79,81,83,85,87,89,91,93,95,97,99,101,103,105,107,109,111,113,115,117,119,121,123,125,-1,-1,-1,-1,-1,-1,-1,-1,-1,-1,-1,-1,-1,-1,-1,-1,-1,-1,-1,-1,-1,-1,-1,-1,-1,-1,-1,-1,-1,-1,-1,-1,-1,-1,-1,-1,-1,-1,-1,-1,-1,-1,-1,-1,-1,-1,-1,-1,-1,-1,-1,-1,-1,-1,-1,-1,-1,-1,-1,-1,-1,-1,-1,-1],"loss_changes":[1.4005381E7,5.096177E6,9.456227E6,5.8692356E5,1.027284E6,3.0512448E6,2.2798265E6,5.908397E4,1.5649531E5,4.92264E5,1.278756E6,2.128593E6,1.8741212E6,7.3852E5,1.3044702E6,6.17625E3,2.281414E4,1.6164266E5,4.7956402E4,1.3082875E5,2.385655E5,2.14644E5,1.069245E5,1.409911E6,7.21996E5,6.19406E5,1.14853805E5,1.0888342E6,1.18709E6,9.156138E5,4.8648375E5,5.9605938E3,1.2418672E3,9.942781E3,2.7889688E3,7.5654414E4,2.9403594E4,1.4042074E4,1.7676164E4,9.950125E4,3.3942125E4,1.312885E5,7.0371375E4,9.2278E4,5.0497125E4,9.34515E4,3.6102E4,5.2196962E5,3.232832E5,5.0044525E5,4.0185775E5,2.899955E5,1.20447E5,5.279453E2,5.91056E4,5.3272E4,4.663052E5,9.50383E5,2.2155415E6,6.600215E5,2.164429E5,1.32321E5,2.8198978E5,0E0,0E0,0E0,0E0,0E0,0E0,0E0,0E0,0E0,0E0,0E0,0E0,0E0,0E0,0E0,0E0,0E0,0E0,0E0,0E0,0E0,0E0,0E0,0E0,0E0,0E0,0E0,0E0,0E0,0E0,0E0,0E0,0E0,0E0,0E0,0E0,0E0,0E0,0E0,0E0,0E0,0E0,0E0,0E0,0E0,0E0,0E0,0E0,0E0,0E0,0E0,0E0,0E0,0E0,0E0,0E0,0E0,0E0,0E0,0E0,0E0,0E0,0E0,0E0],"parents":[2147483647,0,0,1,1,2,2,3,3,4,4,5,5,6,6,7,7,8,8,9,9,10,10,11,11,12,12,13,13,14,14,15,15,16,16,17,17,18,18,19,19,20,20,21,21,22,22,23,23,24,24,25,25,26,26,27,27,28,28,29,29,30,30,31,31,32,32,33,33,34,34,35,35,36,36,37,37,38,38,39,39,40,40,41,41,42,42,43,43,44,44,45,45,46,46,47,47,48,48,49,49,50,50,51,51,52,52,53,53,54,54,55,55,56,56,57,57,58,58,59,59,60,60,61,61,62,62],"right_children":[2,4,6,8,10,12,14,16,18,20,22,24,26,28,30,32,34,36,38,40,42,44,46,48,50,52,54,56,58,60,62,64,66,68,70,72,74,76,78,80,82,84,86,88,90,92,94,96,98,100,102,104,106,108,110,112,114,116,118,120,122,124,126,-1,-1,-1,-1,-1,-1,-1,-1,-1,-1,-1,-1,-1,-1,-1,-1,-1,-1,-1,-1,-1,-1,-1,-1,-1,-1,-1,-1,-1,-1,-1,-1,-1,-1,-1,-1,-1,-1,-1,-1,-1,-1,-1,-1,-1,-1,-1,-1,-1,-1,-1,-1,-1,-1,-1,-1,-1,-1,-1,-1,-1,-1,-1,-1],"split_conditions":[-8.870108E-1,8.5207754E-1,3.9633243E2,4.975133E-1,-9.366722E-1,4.009738E-1,7.99942E-2,-1.2910296E-2,5.093818E-1,8.779601E-1,1.942482E-1,3.460636E-1,3.433175E1,-6.2251467E-1,3.1772566E-1,9.670962E-3,2.0217896E-3,-1.7355279E0,2.0547867E-1,1.2753963E-1,-9.5371693E-1,2.8319168E-1,4.915433E-1,3.8634903E2,3.4097672E-1,4.4083786E-1,-6.6262007E-1,-1.2910296E-2,4.975133E-1,1.2506766E0,-6.755902E-1,3.3114346E1,4.041847E2,-3.8943484E-1,4.0800095E2,3.6228377E-2,-9.366722E-1,4.1854034E2,3.8969034E2,7.121506E-1,-5.7454973E-2,-3.0136108E-4,-7.6951504E-2,-9.099613E-1,-9.170601E-1,9.998518E-1,4.0643903E2,5.6640625E-1,9.304176E-1,1.7726374E-1,3.8361252E2,9.670962E-3,-3.4936637E-1,1.6711235E0,1.7178123E-1,-5.049611E-1,2.0094585E-1,5.6640625E-1,1.347583E1,4.1822488E2,6.3607824E-1,8.5207754E-1,-4.7495106E-1,1.1465409E0,2.487209E0,1.2830824E0,1.8928283E0,2.863377E0,1.2441915E0,4.4761106E-1,9.0751934E-1,1.0129677E0,-3.1455576E0,-1.7283751E0,-3.3550198E0,-2.5108883E-1,1.1394234E0,-1.6927637E0,-7.14027E-1,-2.906638E0,-5.2879214E0,-5.689065E0,-3.9896977E0,-7.3988686E0,-3.1750226E0,-3.6443193E0,-5.6026244E0,-2.4672325E0,-1.5271915E0,-4.10844E0,-2.8745027E0,-3.5366077E0,-4.947364E0,-5.765681E0,-4.270432E0,-2.2741082E-1,-7.062528E-1,1.7225352E-1,-1.4201412E0,-1.0720708E0,-2.650519E0,-9.423939E-1,-2.8346953E-1,4.4567272E-1,-3.190142E0,-3.3066983E0,-5.705728E0,-2.8488617E0,-5.436447E0,3.3636266E-1,2.0764186E0,2.7359598E0,1.7324927E0,7.606957E-2,-1.6740286E0,9.173663E-1,2.1833025E-1,2.3224206E0,8.433973E-1,2.1159115E-1,8.73178E-1,-2.5767288E-1,-1.2011977E0,-1.1077181E0,-3.9539602E0,-2.0645852E0,6.229362E-1],"split_indices":[8,11,7,11,8,6,1,11,0,11,6,1,2,8,6,0,1,0,1,6,8,1,6,7,3,1,8,11,11,1,8,2,7,9,7,9,8,7,7,1,9,3,6,8,8,11,7,8,8,6,7,0,9,1,9,11,6,8,0,7,8,11,11,0,0,0,0,0,0,0,0,0,0,0,0,0,0,0,0,0,0,0,0,0,0,0,0,0,0,0,0,0,0,0,0,0,0,0,0,0,0,0,0,0,0,0,0,0,0,0,0,0,0,0,0,0,0,0,0,0,0,0,0,0,0,0,0],"split_type":[0,0,0,0,0,0,0,0,0,0,0,0,0,0,0,0,0,0,0,0,0,0,0,0,0,0,0,0,0,0,0,0,0,0,0,0,0,0,0,0,0,0,0,0,0,0,0,0,0,0,0,0,0,0,0,0,0,0,0,0,0,0,0,0,0,0,0,0,0,0,0,0,0,0,0,0,0,0,0,0,0,0,0,0,0,0,0,0,0,0,0,0,0,0,0,0,0,0,0,0,0,0,0,0,0,0,0,0,0,0,0,0,0,0,0,0,0,0,0,0,0,0,0,0,0,0,0],"sum_hessian":[1.43002E5,4.73E3,1.38272E5,1.347E3,3.383E3,6.8525E4,6.9747E4,5.06E2,8.41E2,9.97E2,2.386E3,6.7305E4,1.22E3,3.815E4,3.1597E4,1.57E2,3.49E2,2.14E2,6.27E2,4.89E2,5.08E2,1.56E3,8.26E2,5.133E4,1.5975E4,9.03E2,3.17E2,4.691E3,3.3459E4,3.0909E4,6.88E2,9.8E1,5.9E1,1.49E2,2E2,6.2E1,1.52E2,4.35E2,1.92E2,3.27E2,1.62E2,2.94E2,2.14E2,1.095E3,4.65E2,5.04E2,3.22E2,2.6856E4,2.4474E4,5.987E3,9.988E3,4.74E2,4.29E2,1E1,3.07E2,5.49E2,4.142E3,1.9553E4,1.3906E4,2.8462E4,2.447E3,2.98E2,3.9E2,1.2E1,8.6E1,3E1,2.9E1,1E1,1.39E2,1.57E2,4.3E1,4.9E1,1.3E1,4.2E1,1.1E2,4.17E2,1.8E1,8.2E1,1.1E2,2.73E2,5.4E1,1.02E2,6E1,2.72E2,2.2E1,8.6E1,1.28E2,4.48E2,6.47E2,1.2E2,3.45E2,2.5E2,2.54E2,2.55E2,6.7E1,1.8669E4,8.187E3,2.4152E4,3.22E2,5.434E3,5.53E2,3.642E3,6.346E3,6.3E1,4.11E2,6.7E1,3.62E2,5E0,5E0,2.47E2,6E1,2.89E2,2.6E2,3.719E3,4.23E2,1.0486E4,9.067E3,3.329E3,1.0577E4,2.399E4,4.472E3,1.321E3,1.126E3,5E1,2.48E2,2.06E2,1.84E2],"tree_param":{"num_deleted":"0","num_feature":"13","num_nodes":"127","size_leaf_vector":"1"}},{"base_weights":[1.5017171E-2,-8.717121E0,1.3186005E1,-3.615349E1,-3.5838099E0,4.437082E0,1.895306E1,-5.5551388E1,-1.8899822E1,3.4439206E0,-1.8423477E1,1.2084258E1,-1.4036889E0,2.6719223E1,1.2716826E1,-4.4798306E1,-8.572453E1,-1.1468913E1,-4.0241337E1,-2.162507E0,1.4469365E1,-2.9575836E1,-8.061544E0,3.4338554E1,9.779158E0,3.6872753E1,-1.8142192E0,2.1722208E1,3.8967255E1,8.559117E0,1.9031013E1,-7.022049E1,-3.3299633E1,-1.3026212E2,-7.693403E1,5.5148712E1,-1.2875675E1,-1.8431536E1,-5.178086E1,-6.9721794E0,2.6647809E0,-1.9146776E-1,1.5536906E1,-3.64725E1,-1.5619823E1,6.649093E0,-1.5458098E1,5.5384545E0,3.3032253E1,4.1480656E0,2.3721676E1,7.1487785E1,1.6554083E1,5.049327E0,-3.491537E0,4.3927944E1,1.917023E1,-1.691116E1,4.120534E1,1.1157369E1,3.0477595E0,2.1812622E1,1.2602504E1,-4.338992E0,-3.027972E0,-1.1721667E0,-2.2268598E0,-7.3761683E0,-4.6963844E0,-3.3009396E0,-4.3444414E0,2.8549895E-1,2.948465E0,-1.2564301E0,-3.8501534E-1,1.3067664E0,-1.1839648E0,-3.1432498E0,-1.6485165E0,2.5924903E-1,-4.3729135E-1,3.4229654E-1,-5.2593954E-2,1.9116884E0,-1.9513468E-1,6.41504E-1,1.0319946E0,-1.478701E0,-2.5174582E0,3.9977375E-1,-9.715522E-1,1.1760533E0,9.598979E-2,-1.6766204E0,-4.5285398E-1,1.9433893E0,6.2797064E-1,2.0360045E-2,9.364172E-1,-1.6380243E0,1.252446E0,5.99011E0,2.0282E0,2.738064E0,5.7211053E-1,2.3456879E0,2.199348E-1,-2.98256E-1,4.5722254E-2,2.5140886E0,1.7037023E0,7.432676E-1,1.703426E0,-2.960379E0,-7.0976317E-1,2.198514E0,1.2963281E0,1.052039E0,4.9672848E-1,1.7567383E-1,-1.8659014E0,-8.779793E-2,1.1136883E0,6.5386E-1,-1.8375771E0],"categories":[],"categories_nodes":[],"categories_segments":[],"categories_sizes":[],"default_left":[0,0,0,0,0,0,0,0,0,0,0,0,0,0,0,0,0,0,0,0,0,0,0,0,0,0,0,0,0,0,0,0,0,0,0,0,0,0,0,0,0,0,0,0,0,0,0,0,0,0,0,0,0,0,0,0,0,0,0,0,0,0,0,0,0,0,0,0,0,0,0,0,0,0,0,0,0,0,0,0,0,0,0,0,0,0,0,0,0,0,0,0,0,0,0,0,0,0,0,0,0,0,0,0,0,0,0,0,0,0,0,0,0,0,0,0,0,0,0,0,0,0,0,0,0],"id":5,"left_children":[1,3,5,7,9,11,13,15,17,19,21,23,25,27,29,31,33,35,37,39,41,43,45,47,49,51,53,55,57,59,61,63,65,67,69,71,73,75,77,79,81,83,85,87,89,91,93,-1,95,97,99,101,103,105,107,109,111,113,115,117,119,121,123,-1,-1,-1,-1,-1,-1,-1,-1,-1,-1,-1,-1,-1,-1,-1,-1,-1,-1,-1,-1,-1,-1,-1,-1,-1,-1,-1,-1,-1,-1,-1,-1,-1,-1,-1,-1,-1,-1,-1,-1,-1,-1,-1,-1,-1,-1,-1,-1,-1,-1,-1,-1,-1,-1,-1,-1,-1,-1,-1,-1,-1,-1],"loss_changes":[1.6406763E7,1.2081354E7,2.869421E6,4.523882E6,7.536314E6,1.0092775E6,1.659745E6,2.060976E6,1.1345395E6,3.0313598E6,2.6835225E6,5.0161438E5,2.0138655E5,9.3342E5,4.9897425E5,1.369808E6,6.44166E5,4.9833325E5,4.641335E5,7.548255E5,2.58732E5,1.075981E6,1.3101522E6,8.7981E4,6.961398E5,9.446086E4,1.4595953E5,6.13665E5,5.537185E5,1.6415656E5,1.3469175E5,2.284615E5,3.571495E5,1.579665E5,1.461535E5,2.0434188E4,3.296163E5,1.5053331E5,2.4978375E5,3.5119138E5,2.5215838E5,1.6029089E5,2.1257475E5,7.15026E5,3.33258E5,3.2143656E5,9.266324E5,0E0,1.075075E5,3.445922E5,1.920575E5,6.982755E4,1.6358787E4,6.761186E4,1.1104052E5,6.821375E4,6.233975E5,1.8795426E4,1.78478E5,9.395756E4,6.921417E4,5.728575E4,5.394128E4,0E0,0E0,0E0,0E0,0E0,0E0,0E0,0E0,0E0,0E0,0E0,0E0,0E0,0E0,0E0,0E0,0E0,0E0,0E0,0E0,0E0,0E0,0E0,0E0,0E0,0E0,0E0,0E0,0E0,0E0,0E0,0E0,0E0,0E0,0E0,0E0,0E0,0E0,0E0,0E0,0E0,0E0,0E0,0E0,0E0,0E0,0E0,0E0,0E0,0E0,0E0,0E0,0E0,0E0,0E0,0E0,0E0,0E0,0E0,0E0,0E0,0E0],"parents":[2147483647,0,0,1,1,2,2,3,3,4,4,5,5,6,6,7,7,8,8,9,9,10,10,11,11,12,12,13,13,14,14,15,15,16,16,17,17,18,18,19,19,20,20,21,21,22,22,23,23,24,24,25,25,26,26,27,27,28,28,29,29,30,30,31,31,32,32,33,33,34,34,35,35,36,36,37,37,38,38,39,39,40,40,41,41,42,42,43,43,44,44,45,45,46,46,48,48,49,49,50,50,51,51,52,52,53,53,54,54,55,55,56,56,57,57,58,58,59,59,60,60,61,61,62,62],"right_children":[2,4,6,8,10,12,14,16,18,20,22,24,26,28,30,32,34,36,38,40,42,44,46,48,50,52,54,56,58,60,62,64,66,68,70,72,74,76,78,80,82,84,86,88,90,92,94,-1,96,98,100,102,104,106,108,110,112,114,116,118,120,122,124,-1,-1,-1,-1,-1,-1,-1,-1,-1,-1,-1,-1,-1,-1,-1,-1,-1,-1,-1,-1,-1,-1,-1,-1,-1,-1,-1,-1,-1,-1,-1,-1,-1,-1,-1,-1,-1,-1,-1,-1,-1,-1,-1,-1,-1,-1,-1,-1,-1,-1,-1,-1,-1,-1,-1,-1,-1,-1,-1,-1,-1,-1],"split_conditions":[1.587881E0,-6.2251467E-1,3.933682E2,1.3515694E0,6.087614E-1,1.6349096E1,1.6061594E1,4.9538517E-1,3.172264E-1,4.0388007E2,3.9572723E2,-5.049611E-1,-9.487118E-1,8.5207754E-1,4.0868384E2,-9.0258527E-1,1.1311163E0,-1.7355279E0,8.5207754E-1,3.8868414E2,-5.2249855E-1,1.2807949E0,-3.5224783E-1,-8.2008845E-1,8.5207754E-1,2.0754217E1,-4.990635E-1,-5.049611E-1,-6.2251467E-1,2.4993038E-1,3.8355064E-1,-9.366722E-1,-1.17231846E-1,-9.366722E-1,7.8406334E-1,-4.2324498E-1,3.9022238E2,4.3035382E-3,3.9665634E2,-8.0880356E-1,-3.9785624E-2,1.4063879E1,4.1563495E2,5.1129395E-1,6.167099E0,7.240556E0,1.0465112E0,5.5384545E0,1.4531519E1,2.2022674E0,-6.2251467E-1,-8.7380713E-1,-8.9980745E-1,-8.770502E-1,3.874471E2,1.347583E1,2.1808772E0,-9.099613E-1,1.3194679E1,-7.3146486E-1,6.3607824E-1,-5.9482276E-1,6.4944804E-1,-4.338992E0,-3.027972E0,-1.1721667E0,-2.2268598E0,-7.3761683E0,-4.6963844E0,-3.3009396E0,-4.3444414E0,2.8549895E-1,2.948465E0,-1.2564301E0,-3.8501534E-1,1.3067664E0,-1.1839648E0,-3.1432498E0,-1.6485165E0,2.5924903E-1,-4.3729135E-1,3.4229654E-1,-5.2593954E-2,1.9116884E0,-1.9513468E-1,6.41504E-1,1.0319946E0,-1.478701E0,-2.5174582E0,3.9977375E-1,-9.715522E-1,1.1760533E0,9.598979E-2,-1.6766204E0,-4.5285398E-1,1.9433893E0,6.2797064E-1,2.0360045E-2,9.364172E-1,-1.6380243E0,1.252446E0,5.99011E0,2.0282E0,2.738064E0,5.7211053E-1,2.3456879E0,2.199348E-1,-2.98256E-1,4.5722254E-2,2.5140886E0,1.7037023E0,7.432676E-1,1.703426E0,-2.960379E0,-7.0976317E-1,2.198514E0,1.2963281E0,1.052039E0,4.9672848E-1,1.7567383E-1,-1.8659014E0,-8.779793E-2,1.1136883E0,6.5386E-1,-1.8375771E0],"split_indices":[4,8,7,4,8,0,0,1,1,7,7,11,9,11,7,8,4,0,11,7,8,4,1,10,11,0,1,11,8,1,1,8,1,8,1,9,7,11,7,1,1,0,7,10,0,0,4,0,0,4,8,11,1,10,7,0,4,8,0,1,8,8,8,0,0,0,0,0,0,0,0,0,0,0,0,0,0,0,0,0,0,0,0,0,0,0,0,0,0,0,0,0,0,0,0,0,0,0,0,0,0,0,0,0,0,0,0,0,0,0,0,0,0,0,0,0,0,0,0,0,0,0,0,0,0],"split_type":[0,0,0,0,0,0,0,0,0,0,0,0,0,0,0,0,0,0,0,0,0,0,0,0,0,0,0,0,0,0,0,0,0,0,0,0,0,0,0,0,0,0,0,0,0,0,0,0,0,0,0,0,0,0,0,0,0,0,0,0,0,0,0,0,0,0,0,0,0,0,0,0,0,0,0,0,0,0,0,0,0,0,0,0,0,0,0,0,0,0,0,0,0,0,0,0,0,0,0,0,0,0,0,0,0,0,0,0,0,0,0,0,0,0,0,0,0,0,0,0,0,0,0,0,0],"sum_hessian":[1.42652E5,8.5781E4,5.6871E4,1.3519E4,7.2262E4,2.2595E4,3.4276E4,6.363E3,7.156E3,4.9039E4,2.3223E4,9.784E3,1.2811E4,1.5264E4,1.9012E4,4.693E3,1.67E3,5.309E3,1.847E3,3.2509E4,1.653E4,1.1184E4,1.2039E4,9.17E2,8.867E3,1.35E2,1.2676E4,1.0843E4,4.421E3,1.1465E4,7.547E3,1.46E3,3.233E3,2.73E2,1.397E3,1.09E2,5.2E3,6.4E2,1.207E3,1.6284E4,1.6225E4,1.122E3,1.5408E4,7.484E3,3.7E3,4.028E3,8.011E3,1.4E1,9.03E2,6.317E3,2.55E3,4.9E1,8.6E1,2.489E3,1.0187E4,1.116E3,9.727E3,1.7E2,4.251E3,7.791E3,3.674E3,5.266E3,2.281E3,5.35E2,9.25E2,1.724E3,1.509E3,1.83E2,9E1,6.7E2,7.27E2,8E0,1.01E2,1.543E3,3.657E3,6.7E1,5.73E2,7.58E2,4.49E2,2.073E3,1.4211E4,7.635E3,8.59E3,9.8E1,1.024E3,1.007E4,5.338E3,5.001E3,2.483E3,5.14E2,3.186E3,8.81E2,3.147E3,2.094E3,5.917E3,7.02E2,2.01E2,5.028E3,1.289E3,5.8E1,2.492E3,1.8E1,3.1E1,9E0,7.7E1,3.7E1,2.452E3,6.524E3,3.663E3,6.76E2,4.4E2,7.548E3,2.179E3,9E0,1.61E2,3.598E3,6.53E2,8.56E2,6.935E3,3.633E3,4.1E1,1.01E2,5.165E3,2.26E3,2.1E1],"tree_param":{"num_deleted":"0","num_feature":"13","num_nodes":"125","size_leaf_vector":"1"}},{"base_weights":[-2.0072732E-2,2.573031E0,-4.8789078E1,-5.269394E0,1.4172749E1,-3.1525806E1,-8.098205E1,-8.23071E0,9.199687E0,2.9084776E1,1.1677286E1,-2.3005182E1,-5.006964E1,-8.8901764E1,-8.905075E0,-4.4856834E0,-2.0165344E1,1.8490751E1,5.837364E0,1.2279179E1,3.0250875E1,2.3162842E1,9.656575E0,-3.3498108E1,-8.605807E0,-4.767581E1,-1.08825195E2,-7.4326744E1,-1.0557721E2,-3.343578E0,-9.002674E1,-9.850136E0,7.069771E-1,-1.325065E1,-3.4300888E1,5.7738266E1,1.6815094E1,7.5186334E0,-2.9340465E0,2.9738697E1,8.766413E0,3.42914E1,2.6396051E1,4.3729164E1,2.119392E1,7.053334E0,1.8255613E1,-2.6404463E1,-6.413419E1,-1.3224872E0,-1.9289839E1,4.4321885E0,-4.993805E1,-2.956593E0,-5.623216E0,-4.9402756E1,-8.52203E1,-9.323965E1,-1.1964139E2,3.55577E0,-3.3376106E1,-5.842456E0,-2.4292867E0,-2.7054065E-1,-8.6463606E-1,-1.4388393E-1,4.9104658E-1,2.9651758E-1,-8.582382E-1,-1.053458E-1,-2.042996E0,3.3944428E0,1.7131379E0,1.3659836E0,7.0165247E-1,4.5444354E-1,-2.4040928E-1,7.504402E-1,-2.654718E-1,1.898659E0,5.3198487E-1,6.711847E-1,2.066439E-1,1.9026874E0,1.5192682E0,1.4695084E0,1.0783137E0,7.944145E-1,2.5285764E0,4.6325655E0,1.0342088E0,1.4236526E0,2.9283246E-1,1.1045213E0,7.0873666E-1,3.9904925E-1,-1.5126742E0,-4.1013203E0,-1.4870611E0,1.2692897E-1,-6.655534E-1,-5.9939104E-1,-1.7701577E0,1.0272008E0,1.9697053E-2,-2.2802808E0,-3.6536927E0,-2.755164E0,-1.71714E-1,-3.6234696E0,-5.41268E0,-3.7183464E0,-5.4921746E0,-7.7057314E0,-5.665968E0,4.1594977E0,4.6184435E-3,-9.788518E-1,-1.9917519E0],"categories":[],"categories_nodes":[],"categories_segments":[],"categories_sizes":[],"default_left":[0,0,0,0,0,0,0,0,0,0,0,0,0,0,0,0,0,0,0,0,0,0,0,0,0,0,0,0,0,0,0,0,0,0,0,0,0,0,0,0,0,0,0,0,0,0,0,0,0,0,0,0,0,0,0,0,0,0,0,0,0,0,0,0,0,0,0,0,0,0,0,0,0,0,0,0,0,0,0,0,0,0,0,0,0,0,0,0,0,0,0,0,0,0,0,0,0,0,0,0,0,0,0,0,0,0,0,0,0,0,0,0,0,0,0,0,0,0,0],"id":6,"left_children":[1,3,5,7,9,11,13,15,17,19,21,23,25,27,29,31,33,35,37,39,41,43,45,47,49,51,53,55,57,59,61,63,65,67,69,71,73,75,77,79,81,83,85,87,89,91,93,95,97,99,101,103,105,-1,-1,107,109,111,113,115,117,-1,-1,-1,-1,-1,-1,-1,-1,-1,-1,-1,-1,-1,-1,-1,-1,-1,-1,-1,-1,-1,-1,-1,-1,-1,-1,-1,-1,-1,-1,-1,-1,-1,-1,-1,-1,-1,-1,-1,-1,-1,-1,-1,-1,-1,-1,-1,-1,-1,-1,-1,-1,-1,-1,-1,-1,-1,-1],"loss_changes":[1.8045148E7,1.2325317E7,4.0011E6,3.4636975E6,2.03339E6,7.400425E5,1.434264E6,2.999111E6,4.2893375E5,1.53147E5,1.0863945E6,4.8561812E5,2.0239625E5,5.42632E5,1.12479125E5,1.4227975E6,1.5660675E6,2.3899925E5,1.4876181E5,3.1014367E4,1.131795E5,2.8268325E5,8.91164E5,4.0251562E5,1.0556767E5,1.6761675E5,3.6404375E3,3.248475E5,1.71711E5,4.88148E4,1.2090984E4,8.2996925E5,8.479889E5,8.082275E5,1.1114615E6,3.3168938E4,1.0192656E5,1.6387362E5,6.9253E4,1.2959094E4,9.135711E3,5.1345E4,5.3633E4,1.1558375E5,2.309735E5,7.83292E5,1.444715E5,2.0035738E5,2.1231212E5,3.743615E4,6.4283688E4,3.8936255E3,1.3307425E5,0E0,0E0,9.702344E4,2.394285E5,1.691745E5,8.9082E4,5.293857E4,3.1358047E3,0E0,0E0,0E0,0E0,0E0,0E0,0E0,0E0,0E0,0E0,0E0,0E0,0E0,0E0,0E0,0E0,0E0,0E0,0E0,0E0,0E0,0E0,0E0,0E0,0E0,0E0,0E0,0E0,0E0,0E0,0E0,0E0,0E0,0E0,0E0,0E0,0E0,0E0,0E0,0E0,0E0,0E0,0E0,0E0,0E0,0E0,0E0,0E0,0E0,0E0,0E0,0E0,0E0,0E0,0E0,0E0,0E0,0E0],"parents":[2147483647,0,0,1,1,2,2,3,3,4,4,5,5,6,6,7,7,8,8,9,9,10,10,11,11,12,12,13,13,14,14,15,15,16,16,17,17,18,18,19,19,20,20,21,21,22,22,23,23,24,24,25,25,26,26,27,27,28,28,29,29,30,30,31,31,32,32,33,33,34,34,35,35,36,36,37,37,38,38,39,39,40,40,41,41,42,42,43,43,44,44,45,45,46,46,47,47,48,48,49,49,50,50,51,51,52,52,55,55,56,56,57,57,58,58,59,59,60,60],"right_children":[2,4,6,8,10,12,14,16,18,20,22,24,26,28,30,32,34,36,38,40,42,44,46,48,50,52,54,56,58,60,62,64,66,68,70,72,74,76,78,80,82,84,86,88,90,92,94,96,98,100,102,104,106,-1,-1,108,110,112,114,116,118,-1,-1,-1,-1,-1,-1,-1,-1,-1,-1,-1,-1,-1,-1,-1,-1,-1,-1,-1,-1,-1,-1,-1,-1,-1,-1,-1,-1,-1,-1,-1,-1,-1,-1,-1,-1,-1,-1,-1,-1,-1,-1,-1,-1,-1,-1,-1,-1,-1,-1,-1,-1,-1,-1,-1,-1,-1,-1],"split_conditions":[-5.5964413E0,1.587881E0,8.5207754E-1,8.6314213E-1,-6.998372E0,-5.246873E0,3.4466255E1,-6.12938E0,-4.170742E-1,-8.800122E-1,-5.8538437E-1,-4.7495106E-1,5.9579676E-1,-5.3314476E0,-5.143871E0,4.068451E-1,2.4993038E-1,-1.9952755E0,8.163538E-1,3.449922E1,2.0217896E-3,3.322942E1,1.9651167E0,3.4047842E-1,-5.416808E0,-8.8111955E-1,3.6840105E-1,-8.606997E-3,-8.606997E-3,-6.6357097E-3,3.4819374E1,1.6874695E-1,1.626088E-1,-5.3649956E-1,-6.160322E-1,3.352932E1,3.3203083E1,8.676727E-1,-6.7610717E0,1.8856049E-2,3.447151E-2,3.4764423E1,-7.611171E0,-5.160624E-1,-9.3973565E-1,3.302261E1,6.1004037E-1,-8.03734E-1,1.1311163E0,1.4072622E-1,5.123714E-1,-8.5876393E-1,5.123714E-1,-2.956593E0,-5.623216E0,5.065917E-1,5.4568386E-1,-5.143871E0,1.078036E0,-8.579856E-1,-6.066475E-1,-5.842456E0,-2.4292867E0,-2.7054065E-1,-8.6463606E-1,-1.4388393E-1,4.9104658E-1,2.9651758E-1,-8.582382E-1,-1.053458E-1,-2.042996E0,3.3944428E0,1.7131379E0,1.3659836E0,7.0165247E-1,4.5444354E-1,-2.4040928E-1,7.504402E-1,-2.654718E-1,1.898659E0,5.3198487E-1,6.711847E-1,2.066439E-1,1.9026874E0,1.5192682E0,1.4695084E0,1.0783137E0,7.944145E-1,2.5285764E0,4.6325655E0,1.0342088E0,1.4236526E0,2.9283246E-1,1.1045213E0,7.0873666E-1,3.9904925E-1,-1.5126742E0,-4.1013203E0,-1.4870611E0,1.2692897E-1,-6.655534E-1,-5.9939104E-1,-1.7701577E0,1.0272008E0,1.9697053E-2,-2.2802808E0,-3.6536927E0,-2.755164E0,-1.71714E-1,-3.6234696E0,-5.41268E0,-3.7183464E0,-5.4921746E0,-7.7057314E0,-5.665968E0,4.1594977E0,4.6184435E-3,-9.788518E-1,-1.9917519E0],"split_indices":[5,4,11,12,5,5,2,5,1,12,1,11,10,5,5,3,1,1,1,2,1,2,4,6,5,9,6,12,12,9,2,1,9,10,9,2,2,10,5,1,1,2,5,12,9,2,10,9,4,9,11,12,11,0,0,9,1,5,4,10,1,0,0,0,0,0,0,0,0,0,0,0,0,0,0,0,0,0,0,0,0,0,0,0,0,0,0,0,0,0,0,0,0,0,0,0,0,0,0,0,0,0,0,0,0,0,0,0,0,0,0,0,0,0,0,0,0,0,0],"split_type":[0,0,0,0,0,0,0,0,0,0,0,0,0,0,0,0,0,0,0,0,0,0,0,0,0,0,0,0,0,0,0,0,0,0,0,0,0,0,0,0,0,0,0,0,0,0,0,0,0,0,0,0,0,0,0,0,0,0,0,0,0,0,0,0,0,0,0,0,0,0,0,0,0,0,0,0,0,0,0,0,0,0,0,0,0,0,0,0,0,0,0,0,0,0,0,0,0,0,0,0,0,0,0,0,0,0,0,0,0,0,0,0,0,0,0,0,0,0,0],"sum_hessian":[1.42689E5,1.35486E5,7.203E3,8.0835E4,5.4651E4,4.69E3,2.513E3,6.7102E4,1.3733E4,7.833E3,4.6818E4,3.215E3,1.475E3,2.264E3,2.49E2,5.1076E4,1.6026E4,3.648E3,1.0085E4,5.09E2,7.324E3,7.003E3,3.9815E4,1.859E3,1.356E3,1.419E3,5.6E1,1.211E3,1.053E3,2.34E2,1.5E1,2.5122E4,2.5954E4,1.0763E4,5.263E3,1.48E2,3.5E3,8.463E3,1.622E3,8.4E1,4.25E2,3.572E3,3.752E3,6.1E2,6.393E3,3.0564E4,9.251E3,1.511E3,3.48E2,8.07E2,5.49E2,5.9E1,1.36E3,5E0,5.1E1,3.7E2,8.41E2,5.65E2,4.88E2,1.91E2,4.3E1,8E0,7E0,1.5737E4,9.385E3,1.8628E4,7.326E3,1.824E3,8.939E3,8.91E2,4.372E3,1.02E2,4.6E1,7.31E2,2.769E3,7.507E3,9.56E2,1.89E2,1.433E3,5.8E1,2.6E1,2.11E2,2.14E2,1.815E3,1.757E3,2.313E3,1.439E3,1.21E2,4.89E2,4.4E1,6.349E3,1.616E3,2.8948E4,4.767E3,4.484E3,1.52E2,1.359E3,2.28E2,1.2E2,6.11E2,1.96E2,3.79E2,1.7E2,1.1E1,4.8E1,1.148E3,2.12E2,3.29E2,4.1E1,5.44E2,2.97E2,2.67E2,2.98E2,7.2E1,4.16E2,7E0,1.84E2,1.5E1,2.8E1],"tree_param":{"num_deleted":"0","num_feature":"13","num_nodes":"119","size_leaf_vector":"1"}},{"base_weights":[-6.0183477E-2,2.8058171E0,-4.032024E1,-4.189459E0,1.4070438E1,-7.317063E1,-2.4392841E1,-1.181037E1,3.7175212E0,2.5081818E1,6.5902367E0,-8.401457E1,-2.539764E1,-3.0865732E1,1.9910172E0,-2.1764029E1,-5.6073127E0,-3.3787743E1,4.876733E0,1.7837904E1,3.0835705E1,4.9709648E-1,1.4315781E1,-7.495755E1,-1.06187675E2,-1.1645643E1,-5.0859077E1,-5.9986923E1,-2.5902153E1,3.9843135E0,-2.9981152E1,-1.4192134E1,-3.1113638E1,-3.7749336E0,-4.309539E1,-2.6741386E1,-7.239839E1,8.173232E0,-4.5218616E0,6.7154107E0,2.0386454E1,1.9657919E1,3.426965E1,-2.739777E0,6.0788875E0,1.0537551E1,1.9368708E1,-6.81565E1,-9.967031E1,-1.3982326E2,-9.737874E1,-6.2413507E0,-2.150547E1,-4.2096195E1,-8.7336815E1,-8.293605E1,-4.41029E1,-1.4431751E1,-3.8083626E1,-3.194749E1,5.040512E0,-2.1060865E-1,-3.260907E1,-1.033014E0,-1.8618368E-1,-1.8545967E0,-9.112611E-1,-7.347526E-2,-6.7398435E-1,-9.240708E-1,-2.7298656E0,-3.1913987E-1,-1.827151E0,-5.173785E0,-2.9617717E0,-2.90302E-1,5.6066227E-1,1.2022016E0,-5.159884E-1,1.4079474E0,1.6762571E-1,1.4805238E0,9.146016E-1,4.0943417E-1,1.3625994E0,1.8529196E0,1.1864264E0,-5.128533E-1,-3.2542843E-2,6.124282E-1,1.7265357E-1,6.218231E-1,2.0973359E-1,9.8394316E-1,-1.7384313E0,-8.377232E-1,-3.622505E0,-6.4952416E0,-4.626941E0,-7.269197E0,-5.239976E0,-3.5348961E0,-5.2883916E0,-6.834233E-2,-8.2669985E-1,3.3583748E-1,-1.3010703E0,-2.951747E0,-1.6007521E0,-1.671612E0,-4.7244024E0,-2.4812887E0,-4.7008038E0,-1.9158251E0,-2.9021373E0,-1.2771212E0,-2.3396056E-2,-2.4920385E0,-1.548788E0,-9.967974E-1,-2.0755656E0,8.188582E-2,6.889579E-1,-1.2604893E0,-1.8636206E0],"categories":[],"categories_nodes":[],"categories_segments":[],"categories_sizes":[],"default_left":[0,0,0,0,0,0,0,0,0,0,0,0,0,0,0,0,0,0,0,0,0,0,0,0,0,0,0,0,0,0,0,0,0,0,0,0,0,0,0,0,0,0,0,0,0,0,0,0,0,0,0,0,0,0,0,0,0,0,0,0,0,0,0,0,0,0,0,0,0,0,0,0,0,0,0,0,0,0,0,0,0,0,0,0,0,0,0,0,0,0,0,0,0,0,0,0,0,0,0,0,0,0,0,0,0,0,0,0,0,0,0,0,0,0,0,0,0,0,0,0,0,0,0,0,0],"id":7,"left_children":[1,3,5,7,9,11,13,15,17,19,21,23,25,27,29,31,33,35,37,39,41,43,45,47,49,51,53,55,57,59,61,63,65,67,69,71,73,75,77,79,81,83,85,87,89,91,93,95,97,99,101,103,105,107,109,111,113,115,117,119,121,-1,123,-1,-1,-1,-1,-1,-1,-1,-1,-1,-1,-1,-1,-1,-1,-1,-1,-1,-1,-1,-1,-1,-1,-1,-1,-1,-1,-1,-1,-1,-1,-1,-1,-1,-1,-1,-1,-1,-1,-1,-1,-1,-1,-1,-1,-1,-1,-1,-1,-1,-1,-1,-1,-1,-1,-1,-1,-1,-1,-1,-1,-1,-1],"loss_changes":[1.6459721E7,1.049374E7,4.958343E6,4.950513E6,4.201966E6,1.601214E6,1.0906645E6,2.5828365E6,1.7531792E6,8.59609E5,1.4301108E6,4.98496E5,2.0038503E5,7.39666E5,8.035293E4,1.1365805E6,1.77031E6,3.2697975E5,1.2118545E6,2.5888825E5,4.40735E5,3.0691244E5,2.555375E5,2.94713E5,2.023585E5,1.9791742E4,6.0560188E4,2.68265E5,6.11866E5,4.5168375E4,4.8701562E3,6.0092825E5,5.53005E5,5.497879E5,3.3899625E5,2.04099E5,6.994119E4,1.230656E6,1.6824731E6,1.2285412E5,1.4307075E5,2.3537381E5,2.57686E5,1.6883108E5,1.0096583E5,9.229175E4,9.6895E4,3.099635E5,7.0969E4,1.37575E4,1.225485E5,1.2167296E4,1.7000074E4,2.6105875E4,1.1476625E4,1.07519875E5,3.3499375E4,3.5046375E5,1.7603075E5,3.0720781E3,3.4261305E4,0E0,1.3659766E3,0E0,0E0,0E0,0E0,0E0,0E0,0E0,0E0,0E0,0E0,0E0,0E0,0E0,0E0,0E0,0E0,0E0,0E0,0E0,0E0,0E0,0E0,0E0,0E0,0E0,0E0,0E0,0E0,0E0,0E0,0E0,0E0,0E0,0E0,0E0,0E0,0E0,0E0,0E0,0E0,0E0,0E0,0E0,0E0,0E0,0E0,0E0,0E0,0E0,0E0,0E0,0E0,0E0,0E0,0E0,0E0,0E0,0E0,0E0,0E0,0E0,0E0],"parents":[2147483647,0,0,1,1,2,2,3,3,4,4,5,5,6,6,7,7,8,8,9,9,10,10,11,11,12,12,13,13,14,14,15,15,16,16,17,17,18,18,19,19,20,20,21,21,22,22,23,23,24,24,25,25,26,26,27,27,28,28,29,29,30,30,31,31,32,32,33,33,34,34,35,35,36,36,37,37,38,38,39,39,40,40,41,41,42,42,43,43,44,44,45,45,46,46,47,47,48,48,49,49,50,50,51,51,52,52,53,53,54,54,55,55,56,56,57,57,58,58,59,59,60,60,62,62],"right_children":[2,4,6,8,10,12,14,16,18,20,22,24,26,28,30,32,34,36,38,40,42,44,46,48,50,52,54,56,58,60,62,64,66,68,70,72,74,76,78,80,82,84,86,88,90,92,94,96,98,100,102,104,106,108,110,112,114,116,118,120,122,-1,124,-1,-1,-1,-1,-1,-1,-1,-1,-1,-1,-1,-1,-1,-1,-1,-1,-1,-1,-1,-1,-1,-1,-1,-1,-1,-1,-1,-1,-1,-1,-1,-1,-1,-1,-1,-1,-1,-1,-1,-1,-1,-1,-1,-1,-1,-1,-1,-1,-1,-1,-1,-1,-1,-1,-1,-1,-1,-1,-1,-1,-1,-1],"split_conditions":[-5.696896E0,1.6149265E0,-7.8260815E-1,3.967617E2,1.5610872E1,1.5412147E0,1.9372686E1,1.8193636E1,-8.9493436E-1,3.9457346E2,3.9998544E2,6.857586E-1,-5.3314476E0,1.078036E0,3.665012E-1,2.0217896E-3,6.2251467E-1,5.5558777E-1,6.2251467E-1,1.7303147E0,-6.3607824E-1,-6.524326E0,4.1155618E2,-5.143871E0,-9.366722E-1,7.297802E-2,-5.0668373E0,3.9075473E2,-5.416808E0,-4.1469324E-1,-8.0880356E-1,1.3515694E0,1.4034717E0,5.075384E-1,-5.3649956E-1,-6.4670634E0,1.1927457E0,-5.6640625E-1,7.240556E0,-7.613621E-1,-4.562645E-1,1.7505273E0,1.3194679E1,3.8223486E2,-3.181572E-1,4.778862E-1,6.4944804E-1,-7.3417634E-1,1.1005151E0,1.1664379E0,3.6715183E0,-5.458774E0,9.670962E-3,1.7184488E0,-1.7355279E0,4.5812324E-1,-5.458774E0,1.5029675E0,3.9164902E2,-1.454773E-1,4.009158E2,-2.1060865E-1,-5.288522E0,-1.033014E0,-1.8618368E-1,-1.8545967E0,-9.112611E-1,-7.347526E-2,-6.7398435E-1,-9.240708E-1,-2.7298656E0,-3.1913987E-1,-1.827151E0,-5.173785E0,-2.9617717E0,-2.90302E-1,5.6066227E-1,1.2022016E0,-5.159884E-1,1.4079474E0,1.6762571E-1,1.4805238E0,9.146016E-1,4.0943417E-1,1.3625994E0,1.8529196E0,1.1864264E0,-5.128533E-1,-3.2542843E-2,6.124282E-1,1.7265357E-1,6.218231E-1,2.0973359E-1,9.8394316E-1,-1.7384313E0,-8.377232E-1,-3.622505E0,-6.4952416E0,-4.626941E0,-7.269197E0,-5.239976E0,-3.5348961E0,-5.2883916E0,-6.834233E-2,-8.2669985E-1,3.3583748E-1,-1.3010703E0,-2.951747E0,-1.6007521E0,-1.671612E0,-4.7244024E0,-2.4812887E0,-4.7008038E0,-1.9158251E0,-2.9021373E0,-1.2771212E0,-2.3396056E-2,-2.4920385E0,-1.548788E0,-9.967974E-1,-2.0755656E0,8.188582E-2,6.889579E-1,-1.2604893E0,-1.8636206E0],"split_indices":[5,4,8,7,0,4,0,0,8,7,7,1,5,4,8,1,8,1,8,4,8,5,7,5,8,6,5,7,5,8,1,4,4,8,10,5,4,8,0,1,1,4,0,7,1,1,8,0,4,4,0,5,0,4,0,10,5,4,7,1,7,0,5,0,0,0,0,0,0,0,0,0,0,0,0,0,0,0,0,0,0,0,0,0,0,0,0,0,0,0,0,0,0,0,0,0,0,0,0,0,0,0,0,0,0,0,0,0,0,0,0,0,0,0,0,0,0,0,0,0,0,0,0,0,0],"split_type":[0,0,0,0,0,0,0,0,0,0,0,0,0,0,0,0,0,0,0,0,0,0,0,0,0,0,0,0,0,0,0,0,0,0,0,0,0,0,0,0,0,0,0,0,0,0,0,0,0,0,0,0,0,0,0,0,0,0,0,0,0,0,0,0,0,0,0,0,0,0,0,0,0,0,0,0,0,0,0,0,0,0,0,0,0,0,0,0,0,0,0,0,0,0,0,0,0,0,0,0,0,0,0,0,0,0,0,0,0,0,0,0,0,0,0,0,0,0,0,0,0,0,0,0,0],"sum_hessian":[1.42648E5,1.33169E5,9.479E3,8.2153E4,5.1016E4,3.094E3,6.385E3,4.1833E4,4.032E4,2.0636E4,3.038E4,2.521E3,5.73E2,5.127E3,1.258E3,1.606E4,2.5773E4,1.208E3,3.9112E4,9.137E3,1.1499E4,1.6985E4,1.3395E4,1.793E3,7.28E2,3.73E2,2E2,7.45E2,4.382E3,1.185E3,7.3E1,8.875E3,7.185E3,2.4573E4,1.2E3,1.023E3,1.85E2,2.8956E4,1.0156E4,1.704E3,7.433E3,2.704E3,8.795E3,1.0751E4,6.234E3,7.666E3,5.729E3,1.409E3,3.84E2,1.48E2,5.8E2,2.42E2,1.31E2,1.63E2,3.7E1,3.03E2,4.42E2,2.258E3,2.124E3,3.3E1,1.152E3,7E0,6.6E1,5.485E3,3.39E3,4.907E3,2.278E3,1.9857E4,4.716E3,3.83E2,8.17E2,3.33E2,6.9E2,5.3E1,1.32E2,5.172E3,2.3784E4,1.713E3,8.443E3,2.3E2,1.474E3,1.373E3,6.06E3,1.078E3,1.626E3,6.953E3,1.842E3,2.337E3,8.414E3,1.86E3,4.374E3,5.899E3,1.767E3,5.697E3,3.2E1,1.09E2,1.3E3,7E1,3.14E2,1.25E2,2.3E1,1.41E2,4.39E2,1.65E2,7.7E1,1.8E1,1.13E2,5.9E1,1.04E2,5E0,3.2E1,7.7E1,2.26E2,3.15E2,1.27E2,1.257E3,1.001E3,7.98E2,1.326E3,1.6E1,1.7E1,8.3E2,3.22E2,2.8E1,3.8E1],"tree_param":{"num_deleted":"0","num_feature":"13","num_nodes":"125","size_leaf_vector":"1"}},{"base_weights":[-7.619289E-2,2.6594472E0,-3.8343513E1,-6.0875573E0,8.1487665E0,-8.2097885E1,-2.7083178E1,1.3745572E1,-8.084189E0,2.6909796E1,6.351304E0,-6.4907715E1,-9.576452E1,-2.2609154E1,-6.717211E1,2.2657227E1,6.737806E0,-3.2946823E1,-6.7909527E0,3.2106445E1,2.0422237E1,-2.6023205E1,7.410825E0,-4.6304546E1,-9.075146E1,-1.2896574E2,-8.699509E1,4.9493346E-1,-2.6407242E1,-7.748269E1,3.1612976E0,3.2798122E1,1.9336088E1,-3.3934174E1,7.9295683E0,2.1118134E1,-3.9068764E1,-3.465579E0,-1.7503487E1,2.8538614E1,3.8654217E1,1.5821444E1,2.8158325E1,-3.407335E1,-1.4282904E0,1.1197917E1,7.140373E-1,2.255522E0,-5.0944458E1,-6.8721924E1,-9.5814156E1,-1.3472285E2,-4.4386997E0,-7.2509285E1,-9.905585E1,-4.5916992E1,2.8759003E0,-1.9657043E1,-3.782466E1,-6.2091053E1,-9.851936E1,8.187095E0,-3.7323383E1,2.2632034E0,1.3546472E0,9.8237866E-1,-1.1211178E0,-2.0900867E0,-7.162418E-1,4.1710812E-1,-3.1229167E0,1.7895466E0,1.3049957E-1,-2.2523506E0,-7.737641E-1,3.3431852E-1,-2.5456333E-1,-1.3741589E0,6.694277E-1,1.4797144E0,3.3645174E-1,2.0069182E0,1.175379E0,1.0506339E0,4.1254997E-1,8.6334366E-1,1.6015456E0,-2.6453521E0,-1.0531334E0,3.2911953E-1,-3.1089687E-1,3.1418905E-1,7.8829426E-1,1.9011429E-1,-5.6200707E-1,1.1971191E0,-3.176553E-1,1.182102E0,-2.6495368E0,-1.2855642E0,-3.7674859E0,-1.3931565E0,-4.8573294E0,-6.3325534E0,-7.6175303E0,-3.1874928E0,-4.3475494E0,-5.503991E0,-4.5250077E0,-6.472583E-1,-4.6910233E0,2.6733282E-1,-1.9138781E0,-6.8093E-2,-1.228004E0,-2.010983E0,-5.223868E-1,-6.417845E-1,-3.3412685E0,-4.2549496E0,-5.868076E0,2.1320467E-1,1.2783923E0,-1.0167813E0,-2.4036956E0],"categories":[],"categories_nodes":[],"categories_segments":[],"categories_sizes":[],"default_left":[0,0,0,0,0,0,0,0,0,0,0,0,0,0,0,0,0,0,0,0,0,0,0,0,0,0,0,0,0,0,0,0,0,0,0,0,0,0,0,0,0,0,0,0,0,0,0,0,0,0,0,0,0,0,0,0,0,0,0,0,0,0,0,0,0,0,0,0,0,0,0,0,0,0,0,0,0,0,0,0,0,0,0,0,0,0,0,0,0,0,0,0,0,0,0,0,0,0,0,0,0,0,0,0,0,0,0,0,0,0,0,0,0,0,0,0,0,0,0,0,0,0,0,0,0],"id":8,"left_children":[1,3,5,7,9,11,13,15,17,19,21,23,25,27,29,31,33,35,37,39,41,43,45,47,49,51,53,55,57,59,61,63,65,67,69,71,73,75,77,79,81,83,85,87,89,91,93,95,97,99,101,103,-1,105,107,109,111,113,115,117,119,121,123,-1,-1,-1,-1,-1,-1,-1,-1,-1,-1,-1,-1,-1,-1,-1,-1,-1,-1,-1,-1,-1,-1,-1,-1,-1,-1,-1,-1,-1,-1,-1,-1,-1,-1,-1,-1,-1,-1,-1,-1,-1,-1,-1,-1,-1,-1,-1,-1,-1,-1,-1,-1,-1,-1,-1,-1,-1,-1,-1,-1,-1,-1],"loss_changes":[1.4921889E7,6.3874985E6,4.683238E6,2.0313654E6,2.7561485E6,4.50946E5,1.355322E6,2.9286356E5,1.4982435E6,2.40256E5,2.5587722E6,4.1165475E5,3.0379E5,5.97339E5,5.506625E5,6.8908375E4,1.2764913E5,7.634105E5,1.5780796E6,9.154125E4,1.1276875E5,4.680025E5,1.8317908E6,1.139035E5,3.3661E4,3.984875E4,1.42876E5,1.0643381E5,4.4980075E5,2.08215E5,2.0242502E4,3.4895625E4,2.070525E4,1.0966398E4,7.468794E4,6.3720805E4,2.9126575E5,5.579976E5,3.235596E6,5.8991125E4,3.0431875E4,7.830566E4,4.9422938E4,4.3529288E5,2.2448E4,1.0355645E6,9.632927E5,8.555104E3,7.161575E4,1.829225E4,2.3628E4,8.28025E3,0E0,4.428325E4,3.397E4,7.300966E4,9.33404E4,3.2970825E5,1.4192225E5,8.8912625E4,6.029E4,5.8882476E3,1.0244463E3,0E0,0E0,0E0,0E0,0E0,0E0,0E0,0E0,0E0,0E0,0E0,0E0,0E0,0E0,0E0,0E0,0E0,0E0,0E0,0E0,0E0,0E0,0E0,0E0,0E0,0E0,0E0,0E0,0E0,0E0,0E0,0E0,0E0,0E0,0E0,0E0,0E0,0E0,0E0,0E0,0E0,0E0,0E0,0E0,0E0,0E0,0E0,0E0,0E0,0E0,0E0,0E0,0E0,0E0,0E0,0E0,0E0,0E0,0E0,0E0,0E0,0E0],"parents":[2147483647,0,0,1,1,2,2,3,3,4,4,5,5,6,6,7,7,8,8,9,9,10,10,11,11,12,12,13,13,14,14,15,15,16,16,17,17,18,18,19,19,20,20,21,21,22,22,23,23,24,24,25,25,26,26,27,27,28,28,29,29,30,30,31,31,32,32,33,33,34,34,35,35,36,36,37,37,38,38,39,39,40,40,41,41,42,42,43,43,44,44,45,45,46,46,47,47,48,48,49,49,50,50,51,51,53,53,54,54,55,55,56,56,57,57,58,58,59,59,60,60,61,61,62,62],"right_children":[2,4,6,8,10,12,14,16,18,20,22,24,26,28,30,32,34,36,38,40,42,44,46,48,50,52,54,56,58,60,62,64,66,68,70,72,74,76,78,80,82,84,86,88,90,92,94,96,98,100,102,104,-1,106,108,110,112,114,116,118,120,122,124,-1,-1,-1,-1,-1,-1,-1,-1,-1,-1,-1,-1,-1,-1,-1,-1,-1,-1,-1,-1,-1,-1,-1,-1,-1,-1,-1,-1,-1,-1,-1,-1,-1,-1,-1,-1,-1,-1,-1,-1,-1,-1,-1,-1,-1,-1,-1,-1,-1,-1,-1,-1,-1,-1,-1,-1,-1,-1,-1,-1,-1,-1],"split_conditions":[-5.696896E0,3.9164902E2,-8.703557E-1,-6.8174973E0,-6.8273406E0,-8.606997E-3,4.915433E-1,-7.4800596E0,-8.0385685E-1,-7.17688E0,-8.703557E-1,-5.143871E0,-9.5371693E-1,-6.341174E-1,8.5876393E-1,-3.283047E-1,-9.099613E-1,-5.160624E-1,6.087614E-1,4.0800095E2,4.0822375E2,8.5876393E-1,2.0547867E-1,-8.800122E-1,-3.8943484E-1,2.9864883E-1,2.56742E-1,-4.305111E-1,-5.374468E0,6.113281E-1,8.502722E-1,-4.9377555E-1,2.6772463E-1,-6.6357097E-3,2.2137394E0,-8.5876393E-1,8.5876393E-1,-7.0468616E-1,5.234156E-1,9.4832367E-1,9.999167E-1,3.9834023E-2,-7.489557E-1,-9.099613E-1,-2.3489189E-1,4.040797E2,6.3607824E-1,-5.4968634E0,-9.5881975E-1,5.498123E-2,-8.800122E-1,-5.246873E0,-4.4386997E0,-5.416808E0,3.9164902E2,3.4710068E1,5.8070296E-1,-5.160624E-1,9.999167E-1,-8.800122E-1,-5.1986766E0,4.1563495E2,-5.458774E0,2.2632034E0,1.3546472E0,9.8237866E-1,-1.1211178E0,-2.0900867E0,-7.162418E-1,4.1710812E-1,-3.1229167E0,1.7895466E0,1.3049957E-1,-2.2523506E0,-7.737641E-1,3.3431852E-1,-2.5456333E-1,-1.3741589E0,6.694277E-1,1.4797144E0,3.3645174E-1,2.0069182E0,1.175379E0,1.0506339E0,4.1254997E-1,8.6334366E-1,1.6015456E0,-2.6453521E0,-1.0531334E0,3.2911953E-1,-3.1089687E-1,3.1418905E-1,7.8829426E-1,1.9011429E-1,-5.6200707E-1,1.1971191E0,-3.176553E-1,1.182102E0,-2.6495368E0,-1.2855642E0,-3.7674859E0,-1.3931565E0,-4.8573294E0,-6.3325534E0,-7.6175303E0,-3.1874928E0,-4.3475494E0,-5.503991E0,-4.5250077E0,-6.472583E-1,-4.6910233E0,2.6733282E-1,-1.9138781E0,-6.8093E-2,-1.228004E0,-2.010983E0,-5.223868E-1,-6.417845E-1,-3.3412685E0,-4.2549496E0,-5.868076E0,2.1320467E-1,1.2783923E0,-1.0167813E0,-2.4036956E0],"split_indices":[5,7,8,5,5,12,6,5,8,5,8,5,8,9,12,9,8,12,8,7,7,12,1,12,9,6,1,8,5,1,1,12,10,9,1,12,12,1,12,8,12,1,8,8,1,7,8,5,8,6,12,5,0,5,7,2,8,12,12,12,5,7,5,0,0,0,0,0,0,0,0,0,0,0,0,0,0,0,0,0,0,0,0,0,0,0,0,0,0,0,0,0,0,0,0,0,0,0,0,0,0,0,0,0,0,0,0,0,0,0,0,0,0,0,0,0,0,0,0,0,0,0,0,0,0],"split_type":[0,0,0,0,0,0,0,0,0,0,0,0,0,0,0,0,0,0,0,0,0,0,0,0,0,0,0,0,0,0,0,0,0,0,0,0,0,0,0,0,0,0,0,0,0,0,0,0,0,0,0,0,0,0,0,0,0,0,0,0,0,0,0,0,0,0,0,0,0,0,0,0,0,0,0,0,0,0,0,0,0,0,0,0,0,0,0,0,0,0,0,0,0,0,0,0,0,0,0,0,0,0,0,0,0,0,0,0,0,0,0,0,0,0,0,0,0,0,0,0,0,0,0,0,0],"sum_hessian":[1.42538E5,1.33029E5,9.509E3,5.1294E4,8.1735E4,1.945E3,7.564E3,4.691E3,4.6603E4,7.145E3,7.459E4,8.64E2,1.081E3,6.806E3,7.58E2,2.064E3,2.627E3,2.303E3,4.43E4,3.965E3,3.18E3,2.363E3,7.2227E4,5.04E2,3.6E2,2.23E2,8.58E2,9.61E2,5.845E3,6.61E2,9.7E1,5.07E2,1.557E3,7.4E1,2.553E3,2.34E2,2.069E3,3.3807E4,1.0493E4,2.57E3,1.395E3,1.996E3,1.184E3,1.78E3,5.83E2,4.6136E4,2.6091E4,4.4E1,4.6E2,7E1,2.9E2,1.93E2,3E1,3.93E2,4.65E2,4.6E1,9.15E2,3.675E3,2.17E3,3.84E2,2.77E2,8.7E1,1E1,1.57E2,3.5E2,1.546E3,1.1E1,5.2E1,2.2E1,2.539E3,1.4E1,1.3E2,1.04E2,1.65E3,4.19E2,4.666E3,2.9141E4,7.931E3,2.562E3,2.451E3,1.19E2,1.269E3,1.26E2,1.183E3,8.13E2,3.12E2,8.72E2,7.26E2,1.054E3,2.18E2,3.65E2,2.2227E4,2.3909E4,2.0735E4,5.356E3,1.2E1,3.2E1,1.2E1,4.48E2,1E1,6E1,6E0,2.84E2,1.38E2,5.5E1,2.48E2,1.45E2,1.98E2,2.67E2,2.8E1,1.8E1,8.64E2,5.1E1,7.77E2,2.898E3,1.995E3,1.75E2,3.4E1,3.5E2,1.65E2,1.12E2,7.2E1,1.5E1,5E0,5E0],"tree_param":{"num_deleted":"0","num_feature":"13","num_nodes":"125","size_leaf_vector":"1"}},{"base_weights":[-1.946261E-2,2.835698E0,-3.3654068E1,-3.5523167E0,1.3072728E1,-7.7055756E1,-2.372302E1,-1.2718681E1,1.964121E0,2.3422564E1,6.0834208E0,-1.03542175E2,-6.872384E1,-3.0356651E1,-6.551082E-1,-8.432386E0,-2.413712E1,-1.170967E1,4.4566374E0,2.0318419E1,3.446112E1,-1.0024743E0,1.1574888E1,-5.9902805E1,-1.1117389E2,-1.8705175E0,-7.116947E1,-4.0389862E1,-1.651401E1,-3.2938896E1,2.3084362E0,-2.6149282E1,-4.7412634E0,7.007051E0,-2.7866987E1,3.5822372E0,-1.7777287E1,9.206939E0,-5.9916544E0,3.3785942E1,1.8345642E1,2.179009E1,3.8233658E1,-4.166377E0,4.6188054E0,8.489024E0,1.7720688E1,-9.041551E1,-1.269031E1,-1.2481885E2,-9.029268E1,1.0560594E1,-2.7293823E1,-5.8253025E1,-8.13254E1,-5.494208E1,-2.6134293E1,-3.1522145E0,-3.6093826E1,2.0915933E0,-3.935631E1,5.125311E0,-1.2210872E1,1.241031E0,-1.5440761E0,2.1497618E-1,-3.2432607E-1,1.3693391E0,-4.6924868E-1,-1.2127546E0,-2.371664E0,2.9562502E0,2.3049783E-2,-2.284079E0,-6.944441E-1,2.6806787E-1,8.054266E-1,8.137714E-1,-5.251483E-1,2.6689065E0,1.590367E0,3.82512E-1,1.0481362E0,1.3850313E0,-1.1240538E-1,2.0246027E0,1.3810773E0,-1.2993646E-1,-6.4180505E-1,2.4984577E0,2.0090786E-1,5.273168E-1,1.7904942E-1,9.015917E-1,-1.8066238E0,-5.378725E0,-3.3401163E0,1.1820167E0,-3.2410228E0,-5.8601136E0,-6.95894E0,-4.1764655E0,-6.397598E0,1.3059343E0,8.865684E-2,-1.667715E0,-6.062628E-1,-2.2472901E0,-3.5278535E0,-3.6603165E0,-4.7458205E0,-2.205877E0,-3.8319023E0,-1.0138844E0,-2.1371362E0,1.5862755E-1,-5.749114E-1,-1.5382289E0,-2.596321E0,-4.321626E0,-1.6721283E0,4.1653156E-2,5.674982E-1,-7.782175E-1,3.9107282E0],"categories":[],"categories_nodes":[],"categories_segments":[],"categories_sizes":[],"default_left":[0,0,0,0,0,0,0,0,0,0,0,0,0,0,0,0,0,0,0,0,0,0,0,0,0,0,0,0,0,0,0,0,0,0,0,0,0,0,0,0,0,0,0,0,0,0,0,0,0,0,0,0,0,0,0,0,0,0,0,0,0,0,0,0,0,0,0,0,0,0,0,0,0,0,0,0,0,0,0,0,0,0,0,0,0,0,0,0,0,0,0,0,0,0,0,0,0,0,0,0,0,0,0,0,0,0,0,0,0,0,0,0,0,0,0,0,0,0,0,0,0,0,0,0,0],"id":9,"left_children":[1,3,5,7,9,11,13,15,17,19,21,23,25,27,29,31,33,35,37,39,41,43,45,47,49,51,53,55,57,59,61,63,65,67,69,71,73,75,77,79,81,83,85,87,89,91,93,95,97,99,101,103,105,107,109,111,113,115,117,-1,119,121,123,-1,-1,-1,-1,-1,-1,-1,-1,-1,-1,-1,-1,-1,-1,-1,-1,-1,-1,-1,-1,-1,-1,-1,-1,-1,-1,-1,-1,-1,-1,-1,-1,-1,-1,-1,-1,-1,-1,-1,-1,-1,-1,-1,-1,-1,-1,-1,-1,-1,-1,-1,-1,-1,-1,-1,-1,-1,-1,-1,-1,-1,-1],"loss_changes":[1.371897E7,8.611168E6,4.816151E6,4.1000932E6,3.659949E6,4.52108E5,1.39219E6,1.490786E6,1.7253238E6,6.98136E5,1.1752705E6,1.58513E5,2.59168E5,9.80697E5,1.9458522E5,1.448443E6,9.659825E5,7.242555E5,2.1251722E6,4.223705E5,2.130745E5,2.3457019E5,3.22557E5,1.0832644E5,1.08661E5,1.830419E4,1.95952E5,8.48272E5,7.7715975E5,8.369792E4,7.625685E4,9.219165E5,2.8929544E5,2.9757672E5,5.235775E5,3.844846E5,6.056751E5,7.8113525E5,1.3445428E6,7.710325E4,3.886E5,1.4626372E5,8.14865E4,1.1466019E5,1.2918198E5,1.14363875E5,9.59425E4,1.14345625E4,6.0248074E4,1.12245E4,3.259075E4,5.2828257E3,1.337668E3,1.0766425E5,8.72705E4,4.724105E5,2.0057125E5,9.3311195E4,1.00067E5,0E0,4.108417E4,4.1695734E4,9.309271E4,0E0,0E0,0E0,0E0,0E0,0E0,0E0,0E0,0E0,0E0,0E0,0E0,0E0,0E0,0E0,0E0,0E0,0E0,0E0,0E0,0E0,0E0,0E0,0E0,0E0,0E0,0E0,0E0,0E0,0E0,0E0,0E0,0E0,0E0,0E0,0E0,0E0,0E0,0E0,0E0,0E0,0E0,0E0,0E0,0E0,0E0,0E0,0E0,0E0,0E0,0E0,0E0,0E0,0E0,0E0,0E0,0E0,0E0,0E0,0E0,0E0,0E0],"parents":[2147483647,0,0,1,1,2,2,3,3,4,4,5,5,6,6,7,7,8,8,9,9,10,10,11,11,12,12,13,13,14,14,15,15,16,16,17,17,18,18,19,19,20,20,21,21,22,22,23,23,24,24,25,25,26,26,27,27,28,28,29,29,30,30,31,31,32,32,33,33,34,34,35,35,36,36,37,37,38,38,39,39,40,40,41,41,42,42,43,43,44,44,45,45,46,46,47,47,48,48,49,49,50,50,51,51,52,52,53,53,54,54,55,55,56,56,57,57,58,58,60,60,61,61,62,62],"right_children":[2,4,6,8,10,12,14,16,18,20,22,24,26,28,30,32,34,36,38,40,42,44,46,48,50,52,54,56,58,60,62,64,66,68,70,72,74,76,78,80,82,84,86,88,90,92,94,96,98,100,102,104,106,108,110,112,114,116,118,-1,120,122,124,-1,-1,-1,-1,-1,-1,-1,-1,-1,-1,-1,-1,-1,-1,-1,-1,-1,-1,-1,-1,-1,-1,-1,-1,-1,-1,-1,-1,-1,-1,-1,-1,-1,-1,-1,-1,-1,-1,-1,-1,-1,-1,-1,-1,-1,-1,-1,-1,-1,-1,-1,-1,-1,-1,-1,-1,-1,-1,-1,-1,-1,-1],"split_conditions":[-5.7555556E0,1.6149265E0,-8.703557E-1,3.9083017E2,1.5610872E1,1.1408373E0,1.5918626E1,5.9482276E-1,-5.8070296E-1,4.0800095E2,3.9412207E2,-7.3417634E-1,4.975133E-1,1.5371195E0,-4.1469324E-1,-5.8070296E-1,7.0921035E0,8.5207754E-1,6.087614E-1,-7.613621E-1,-6.3607824E-1,-6.528454E0,4.1155618E2,-5.0422287E-1,-9.4832367E-1,-5.246873E0,-5.416808E0,3.9666876E2,-5.3314476E0,-4.7495106E-1,3.8268343E-1,4.975133E-1,-6.532078E-1,8.0385685E-1,7.945931E-2,-7.3417634E-1,-9.099613E-1,4.0952954E2,7.377073E0,-1.9952755E0,1.735449E0,4.975133E-1,1.3342501E1,4.2401886E-1,-9.6192425E-1,3.2448006E-1,6.4944804E-1,3.2561123E1,-1.3414669E-1,1.9905107E-2,-5.0668373E0,-5.4968634E0,3.7831577E2,2.9513752E0,3.1248631E0,5.4568386E-1,-5.416808E0,-5.531934E0,-5.143871E0,2.0915933E0,-7.695805E-1,3.9412207E2,8.5207754E-1,1.241031E0,-1.5440761E0,2.1497618E-1,-3.2432607E-1,1.3693391E0,-4.6924868E-1,-1.2127546E0,-2.371664E0,2.9562502E0,2.3049783E-2,-2.284079E0,-6.944441E-1,2.6806787E-1,8.054266E-1,8.137714E-1,-5.251483E-1,2.6689065E0,1.590367E0,3.82512E-1,1.0481362E0,1.3850313E0,-1.1240538E-1,2.0246027E0,1.3810773E0,-1.2993646E-1,-6.4180505E-1,2.4984577E0,2.0090786E-1,5.273168E-1,1.7904942E-1,9.015917E-1,-1.8066238E0,-5.378725E0,-3.3401163E0,1.1820167E0,-3.2410228E0,-5.8601136E0,-6.95894E0,-4.1764655E0,-6.397598E0,1.3059343E0,8.865684E-2,-1.667715E0,-6.062628E-1,-2.2472901E0,-3.5278535E0,-3.6603165E0,-4.7458205E0,-2.205877E0,-3.8319023E0,-1.0138844E0,-2.1371362E0,1.5862755E-1,-5.749114E-1,-1.5382289E0,-2.596321E0,-4.321626E0,-1.6721283E0,4.1653156E-2,5.674982E-1,-7.782175E-1,3.9107282E0],"split_indices":[5,4,8,7,0,4,0,8,8,7,7,0,11,4,8,8,0,11,8,1,8,5,7,3,8,5,5,7,5,11,8,11,1,8,9,0,8,7,0,1,4,11,0,1,9,1,8,2,1,9,5,5,7,0,0,1,5,5,5,0,9,7,11,0,0,0,0,0,0,0,0,0,0,0,0,0,0,0,0,0,0,0,0,0,0,0,0,0,0,0,0,0,0,0,0,0,0,0,0,0,0,0,0,0,0,0,0,0,0,0,0,0,0,0,0,0,0,0,0,0,0,0,0,0,0],"split_type":[0,0,0,0,0,0,0,0,0,0,0,0,0,0,0,0,0,0,0,0,0,0,0,0,0,0,0,0,0,0,0,0,0,0,0,0,0,0,0,0,0,0,0,0,0,0,0,0,0,0,0,0,0,0,0,0,0,0,0,0,0,0,0,0,0,0,0,0,0,0,0,0,0,0,0,0,0,0,0,0,0,0,0,0,0,0,0,0,0,0,0,0,0,0,0,0,0,0,0,0,0,0,0,0,0,0,0,0,0,0,0,0,0,0,0,0,0,0,0,0,0,0,0,0,0],"sum_hessian":[1.42856E5,1.31679E5,1.1177E4,8.1083E4,5.0596E4,2.08E3,9.097E3,3.0463E4,5.062E4,2.0394E4,3.0202E4,4.95E2,1.585E3,7.065E3,2.032E3,2.215E4,8.313E3,7.804E3,4.2816E4,1.592E4,4.474E3,1.3187E4,1.7015E4,7.5E1,4.2E2,5.6E1,1.529E3,4.095E3,2.97E3,1.7E2,1.862E3,3.818E3,1.8332E4,8.89E2,7.424E3,2.217E3,5.587E3,2.9434E4,1.3382E4,2.032E3,1.3888E4,1.028E3,3.446E3,8.438E3,4.749E3,1.1329E4,5.686E3,4.5E1,3E1,2.51E2,1.69E2,3.8E1,1.8E1,6.76E2,8.53E2,2.025E3,2.07E3,1.766E3,1.204E3,1.3E1,1.57E2,1.56E3,3.02E2,3.24E2,3.494E3,2.966E3,1.5366E4,3.96E2,4.93E2,6.269E3,1.155E3,1.17E2,2.1E3,6.82E2,4.905E3,1.8903E4,1.0531E4,2.254E3,1.1128E4,1.84E2,1.848E3,2.731E3,1.1157E4,8.25E2,2.03E2,2.839E3,6.07E2,7.147E3,1.291E3,6.1E1,4.688E3,7.982E3,3.347E3,5.654E3,3.2E1,2.4E1,2.1E1,1.8E1,1.2E1,1.7E2,8.1E1,1.46E2,2.3E1,1.3E1,2.5E1,1.2E1,6E0,3.27E2,3.49E2,5.38E2,3.15E2,1.353E3,6.72E2,1.532E3,5.38E2,1.005E3,7.61E2,9.03E2,3.01E2,1.6E1,1.41E2,9.24E2,6.36E2,2.92E2,1E1],"tree_param":{"num_deleted":"0","num_feature":"13","num_nodes":"125","size_leaf_vector":"1"}},{"base_weights":[-2.6361167E-2,2.130881E0,-4.0298363E1,-5.826941E0,7.119058E0,-6.505217E1,-2.4492624E1,1.1277841E1,-7.723548E0,2.3506845E1,5.4042873E0,-3.0572325E1,-7.92699E1,-2.9574286E1,4.6258222E-2,2.041091E1,5.2117395E0,-2.9684984E1,-6.307868E0,3.0059479E1,1.8898075E1,-2.5649397E1,6.4839983E0,-2.0179659E1,-6.578847E1,-7.344698E1,-1.00124664E2,-5.128381E1,-2.408308E1,-1.8841738E1,3.541943E0,4.3262054E1,1.8287846E1,-3.1511106E1,6.1970434E0,-1.9868724E0,-4.2108585E1,-3.0682025E0,-1.653549E1,2.7805094E1,3.7818954E1,1.4684449E1,2.5869625E1,3.809252E0,-3.5883656E1,1.8324507E0,1.055534E1,-1.1201976E1,-3.691684E1,-5.7286E1,-9.153217E1,-5.505204E1,-8.344269E1,-9.0050095E1,-1.2130712E2,-3.9909336E1,-7.798707E1,-1.5419484E1,-3.524564E1,-7.088498E0,-2.9174961E1,5.2034236E-2,1.302232E1,1.7885436E0,2.9985225E0,-2.0426805E0,9.263835E-1,4.924204E-1,-1.8058423E0,4.476781E-1,7.013583E-2,1.1485462E0,-5.259103E-1,-3.4019794E0,-1.8556899E0,-2.412765E-1,7.270568E-2,-1.4680117E0,1.3625662E-1,2.2767673E0,1.3175836E0,9.737361E-1,1.9399004E0,5.0633687E-1,1.0315388E0,1.1438704E0,1.9764746E0,3.0055966E0,-2.2479312E-2,-3.5977952E0,-1.5293039E0,4.1436228E-1,-8.9022714E-1,-3.1290147E-1,8.6155456E-1,-4.255363E-2,-8.406582E-1,-2.1163444E-1,-2.1386802E0,-1.4610232E0,-3.1467865E0,-4.91191E0,-2.0539877E0,1.0115796E0,-2.8518906E0,-5.4990296E0,-3.924466E0,-3.7893887E0,-4.8708096E0,-6.3932357E0,-4.5604587E0,-1.6049378E0,-2.9417303E0,-4.70898E0,-2.0970962E0,-1.422125E0,-4.1168576E-1,-1.5376202E0,-2.2491243E0,-5.6467193E-1,6.897032E-1,-1.7905674E0,-1.0078024E0,6.819888E-1,-3.219451E-2,8.204238E-1,4.293111E-1],"categories":[],"categories_nodes":[],"categories_segments":[],"categories_sizes":[],"default_left":[0,0,0,0,0,0,0,0,0,0,0,0,0,0,0,0,0,0,0,0,0,0,0,0,0,0,0,0,0,0,0,0,0,0,0,0,0,0,0,0,0,0,0,0,0,0,0,0,0,0,0,0,0,0,0,0,0,0,0,0,0,0,0,0,0,0,0,0,0,0,0,0,0,0,0,0,0,0,0,0,0,0,0,0,0,0,0,0,0,0,0,0,0,0,0,0,0,0,0,0,0,0,0,0,0,0,0,0,0,0,0,0,0,0,0,0,0,0,0,0,0,0,0,0,0,0,0],"id":10,"left_children":[1,3,5,7,9,11,13,15,17,19,21,23,25,27,29,31,33,35,37,39,41,43,45,47,49,51,53,55,57,59,61,63,65,67,69,71,73,75,77,79,81,83,85,87,89,91,93,95,97,99,101,103,105,107,109,111,113,115,117,119,121,123,125,-1,-1,-1,-1,-1,-1,-1,-1,-1,-1,-1,-1,-1,-1,-1,-1,-1,-1,-1,-1,-1,-1,-1,-1,-1,-1,-1,-1,-1,-1,-1,-1,-1,-1,-1,-1,-1,-1,-1,-1,-1,-1,-1,-1,-1,-1,-1,-1,-1,-1,-1,-1,-1,-1,-1,-1,-1,-1,-1,-1,-1,-1,-1,-1],"loss_changes":[1.2398403E7,5.3770105E6,2.837323E6,1.6932824E6,2.3397245E6,1.383433E6,5.52418E5,2.885362E5,1.460559E6,2.37611E5,2.5275465E6,3.013373E5,2.35622E5,4.3626325E5,5.0311363E4,1.0006419E5,1.1351838E5,9.7890575E5,1.4624855E6,5.588125E4,1.3571275E5,7.638074E5,1.3795585E6,9.574875E4,3.5892E4,2.83701E5,8.16725E4,2.2164E5,2.829025E5,1.4241977E4,2.127209E4,1.9874375E4,2.776E4,1.5978586E4,4.0307367E4,1.880387E5,2.5184125E5,2.66421E5,2.6228618E6,6.388675E4,1.2349375E4,7.8111875E4,7.03725E4,1.5685173E5,3.570485E5,4.3099945E6,4.3602565E6,2.4261723E4,4.2501688E4,2.0984781E4,1.11755E4,8.4128E4,1.24641E5,2.390675E4,1.5355375E4,7.511519E4,1.24442E5,1.5435694E5,5.4609E4,5.160698E3,3.0433281E3,4.463877E3,2.4553027E3,0E0,0E0,0E0,0E0,0E0,0E0,0E0,0E0,0E0,0E0,0E0,0E0,0E0,0E0,0E0,0E0,0E0,0E0,0E0,0E0,0E0,0E0,0E0,0E0,0E0,0E0,0E0,0E0,0E0,0E0,0E0,0E0,0E0,0E0,0E0,0E0,0E0,0E0,0E0,0E0,0E0,0E0,0E0,0E0,0E0,0E0,0E0,0E0,0E0,0E0,0E0,0E0,0E0,0E0,0E0,0E0,0E0,0E0,0E0,0E0,0E0,0E0,0E0,0E0],"parents":[2147483647,0,0,1,1,2,2,3,3,4,4,5,5,6,6,7,7,8,8,9,9,10,10,11,11,12,12,13,13,14,14,15,15,16,16,17,17,18,18,19,19,20,20,21,21,22,22,23,23,24,24,25,25,26,26,27,27,28,28,29,29,30,30,31,31,32,32,33,33,34,34,35,35,36,36,37,37,38,38,39,39,40,40,41,41,42,42,43,43,44,44,45,45,46,46,47,47,48,48,49,49,50,50,51,51,52,52,53,53,54,54,55,55,56,56,57,57,58,58,59,59,60,60,61,61,62,62],"right_children":[2,4,6,8,10,12,14,16,18,20,22,24,26,28,30,32,34,36,38,40,42,44,46,48,50,52,54,56,58,60,62,64,66,68,70,72,74,76,78,80,82,84,86,88,90,92,94,96,98,100,102,104,106,108,110,112,114,116,118,120,122,124,126,-1,-1,-1,-1,-1,-1,-1,-1,-1,-1,-1,-1,-1,-1,-1,-1,-1,-1,-1,-1,-1,-1,-1,-1,-1,-1,-1,-1,-1,-1,-1,-1,-1,-1,-1,-1,-1,-1,-1,-1,-1,-1,-1,-1,-1,-1,-1,-1,-1,-1,-1,-1,-1,-1,-1,-1,-1,-1,-1,-1,-1,-1,-1,-1],"split_conditions":[-5.5964413E0,3.9164902E2,-7.1325046E-1,-6.8035727E0,-6.810024E0,8.5207754E-1,1.9720139E1,-7.4800596E0,-7.8260815E-1,-7.3650126E0,-8.703557E-1,-5.143871E0,-5.143871E0,-5.049611E-1,-2.6495212E-1,-7.3417634E-1,-9.170601E-1,8.5207754E-1,6.087614E-1,4.1155618E2,4.0822375E2,8.5207754E-1,1.7213356E-2,4.975133E-1,3.5179833E-1,-8.606997E-3,9.998518E-1,5.656421E-2,-5.288522E0,-8.770502E-1,4.0290207E2,3.8828262E2,-9.4832367E-1,-7.3417634E-1,1.3053124E1,-8.5876393E-1,-9.238795E-1,3.8775726E2,1.7213356E-2,9.670962E-3,-8.800122E-1,7.0090926E-1,8.5207754E-1,-1.7355279E0,-9.4832367E-1,6.2251467E-1,-8.726535E-3,-5.458774E0,-7.3417634E-1,6.929207E-2,-3.893761E-3,-9.5881975E-1,-9.5371693E-1,-5.0668373E0,2.0368958E-1,4.009738E-1,1.7213356E-2,3.9227377E2,-5.143871E0,4.0985324E2,2.3984432E-2,-7.3490456E-2,1.7213356E-2,1.7885436E0,2.9985225E0,-2.0426805E0,9.263835E-1,4.924204E-1,-1.8058423E0,4.476781E-1,7.013583E-2,1.1485462E0,-5.259103E-1,-3.4019794E0,-1.8556899E0,-2.412765E-1,7.270568E-2,-1.4680117E0,1.3625662E-1,2.2767673E0,1.3175836E0,9.737361E-1,1.9399004E0,5.0633687E-1,1.0315388E0,1.1438704E0,1.9764746E0,3.0055966E0,-2.2479312E-2,-3.5977952E0,-1.5293039E0,4.1436228E-1,-8.9022714E-1,-3.1290147E-1,8.6155456E-1,-4.255363E-2,-8.406582E-1,-2.1163444E-1,-2.1386802E0,-1.4610232E0,-3.1467865E0,-4.91191E0,-2.0539877E0,1.0115796E0,-2.8518906E0,-5.4990296E0,-3.924466E0,-3.7893887E0,-4.8708096E0,-6.3932357E0,-4.5604587E0,-1.6049378E0,-2.9417303E0,-4.70898E0,-2.0970962E0,-1.422125E0,-4.1168576E-1,-1.5376202E0,-2.2491243E0,-5.6467193E-1,6.897032E-1,-1.7905674E0,-1.0078024E0,6.819888E-1,-3.219451E-2,8.204238E-1,4.293111E-1],"split_indices":[5,7,8,5,5,11,0,5,8,5,8,5,5,11,10,0,8,11,8,7,7,11,12,11,9,12,11,9,5,10,7,7,8,0,0,12,8,7,12,0,12,8,11,0,8,8,8,5,0,6,10,8,8,5,3,6,12,7,5,7,6,10,12,0,0,0,0,0,0,0,0,0,0,0,0,0,0,0,0,0,0,0,0,0,0,0,0,0,0,0,0,0,0,0,0,0,0,0,0,0,0,0,0,0,0,0,0,0,0,0,0,0,0,0,0,0,0,0,0,0,0,0,0,0,0,0,0],"split_type":[0,0,0,0,0,0,0,0,0,0,0,0,0,0,0,0,0,0,0,0,0,0,0,0,0,0,0,0,0,0,0,0,0,0,0,0,0,0,0,0,0,0,0,0,0,0,0,0,0,0,0,0,0,0,0,0,0,0,0,0,0,0,0,0,0,0,0,0,0,0,0,0,0,0,0,0,0,0,0,0,0,0,0,0,0,0,0,0,0,0,0,0,0,0,0,0,0,0,0,0,0,0,0,0,0,0,0,0,0,0,0,0,0,0,0,0,0,0,0,0,0,0,0,0,0,0,0],"sum_hessian":[1.42711E5,1.35456E5,7.255E3,5.2192E4,8.3264E4,2.826E3,4.429E3,5.209E3,4.6983E4,7.886E3,7.5378E4,8.26E2,2E3,3.669E3,7.6E2,2.078E3,3.131E3,2.844E3,4.4139E4,3.254E3,4.632E3,2.532E3,7.2846E4,6.39E2,1.87E2,1.567E3,4.33E2,7.39E2,2.93E3,1.18E2,6.42E2,1.75E2,1.903E3,8.1E1,3.05E3,8.81E2,1.963E3,3.3522E4,1.0617E4,2.525E3,7.29E2,2.889E3,1.743E3,6.53E2,1.879E3,3.4001E4,3.8845E4,4.17E2,2.22E2,1.43E2,4.4E1,5.54E2,1.013E3,2.97E2,1.36E2,5.2E2,2.19E2,1.651E3,1.279E3,5.6E1,6.2E1,4.7E2,1.72E2,1.23E2,5.2E1,7E0,1.896E3,8E0,7.3E1,1.936E3,1.114E3,2.24E2,6.57E2,3.15E2,1.648E3,2.4141E4,9.381E3,6.373E3,4.244E3,1.89E2,2.336E3,3.8E1,6.91E2,1.637E3,1.252E3,1.432E3,3.11E2,4.5E1,6.08E2,2.39E2,1.64E3,2.559E4,8.411E3,1.104E4,2.7805E4,1.47E2,2.7E2,3.4E1,1.88E2,2.5E1,1.18E2,3.8E1,6E0,1.4E1,5.4E2,1.56E2,8.57E2,1.05E2,1.92E2,1.09E2,2.7E1,3.7E2,1.5E2,1.5E2,6.9E1,5.86E2,1.065E3,8.78E2,4.01E2,4.7E1,9E0,3.4E1,2.8E1,2.2E1,4.48E2,9.6E1,7.6E1],"tree_param":{"num_deleted":"0","num_feature":"13","num_nodes":"127","size_leaf_vector":"1"}},{"base_weights":[4.5359626E-2,2.6794178E0,-2.9423332E1,-2.6273124E0,1.3114469E1,-6.872049E1,-2.076774E1,-8.946477E0,3.9493477E0,9.434871E0,2.4558475E1,-9.210759E1,-6.0994316E1,-1.7407562E1,-5.8145638E1,-5.4526987E0,-1.8529795E1,-7.7527122E0,6.0957317E0,4.654603E0,1.5382877E1,1.6859818E1,3.1203093E1,-1.1698344E2,-8.303972E1,-3.857922E1,-6.888493E1,2.3742855E0,-2.088916E1,-7.120907E1,-8.2307625E0,-2.0250961E1,-2.0910807E0,-2.471335E1,-5.9466953E0,-1.9525417E1,-1.3457026E0,1.0366806E1,-8.2840544E-1,1.4682058E1,1.2777267E0,1.3639288E1,2.372098E1,6.9594684E0,1.915711E1,4.189022E1,2.8754358E1,-8.470517E1,-1.2115321E2,-5.6595844E1,-9.377767E1,-5.095737E1,-2.4012455E1,-2.5833771E0,-7.026628E1,3.461231E0,-5.3933514E1,-3.3256413E1,-1.6076159E1,-6.111526E1,-9.209303E1,-3.4789783E1,1.0280912E1,9.1911906E-1,-1.2515112E0,-3.2872233E-1,7.393058E-2,-4.494031E-1,-1.4778997E0,-3.9615092E-1,1.7556994E0,-2.1834261E0,-7.320826E-1,8.580813E-1,-2.254742E-1,2.746186E-1,7.314858E-1,-4.007698E-1,4.5587283E-1,1.3565276E0,3.3452663E-1,-1.451268E-1,2.2083703E-1,5.61799E-1,9.693432E-1,1.6878939E0,1.0024194E0,-1.7319253E-1,5.1948714E-1,7.187366E-1,1.1547931E0,1.5800303E0,2.358251E0,1.1723275E0,1.6203116E0,-2.6475616E0,-5.148805E0,-6.18315E0,-3.1658175E0,-4.1313305E0,-5.84547E-1,-5.289608E0,-3.8045871E0,-2.3620443E0,-4.1464806E0,-7.9223233E-1,-1.9068342E0,9.1812533E-1,-1.3406647E0,-3.0380628E0,-3.813378E0,2.5345263E-1,-1.117523E0,-4.1097912E-1,-4.4628673E0,-2.8004773E0,-1.4414696E0,-5.757164E-1,-1.4154514E0,-3.5170133E0,-2.221213E0,-4.721506E0,-0E0,-8.9441454E-1,-2.9146166E0,1.4840929E-1,1.6996679E0],"categories":[],"categories_nodes":[],"categories_segments":[],"categories_sizes":[],"default_left":[0,0,0,0,0,0,0,0,0,0,0,0,0,0,0,0,0,0,0,0,0,0,0,0,0,0,0,0,0,0,0,0,0,0,0,0,0,0,0,0,0,0,0,0,0,0,0,0,0,0,0,0,0,0,0,0,0,0,0,0,0,0,0,0,0,0,0,0,0,0,0,0,0,0,0,0,0,0,0,0,0,0,0,0,0,0,0,0,0,0,0,0,0,0,0,0,0,0,0,0,0,0,0,0,0,0,0,0,0,0,0,0,0,0,0,0,0,0,0,0,0,0,0,0,0,0,0],"id":11,"left_children":[1,3,5,7,9,11,13,15,17,19,21,23,25,27,29,31,33,35,37,39,41,43,45,47,49,51,53,55,57,59,61,63,65,67,69,71,73,75,77,79,81,83,85,87,89,91,93,95,97,99,101,103,105,107,109,111,113,115,117,119,121,123,125,-1,-1,-1,-1,-1,-1,-1,-1,-1,-1,-1,-1,-1,-1,-1,-1,-1,-1,-1,-1,-1,-1,-1,-1,-1,-1,-1,-1,-1,-1,-1,-1,-1,-1,-1,-1,-1,-1,-1,-1,-1,-1,-1,-1,-1,-1,-1,-1,-1,-1,-1,-1,-1,-1,-1,-1,-1,-1,-1,-1,-1,-1,-1,-1],"loss_changes":[1.1060937E7,7.2434935E6,3.975481E6,3.6036162E6,1.856618E6,3.75629E5,1.2025708E6,1.4805032E6,1.0672732E6,9.487095E5,5.48256E5,1.080135E5,2.78376E5,6.057155E5,5.1453325E5,1.612127E6,9.190775E5,4.967394E5,1.0618462E6,6.264846E5,2.15827E5,1.12947E5,1.494485E5,8.156375E3,1.042835E5,7.377775E4,1.07333E5,8.078666E4,4.4457775E5,1.2631625E5,8.148269E4,1.1081098E6,4.226821E5,6.03179E5,3.162703E5,2.730222E5,2.4986383E5,4.61363E5,9.7928875E5,4.635028E5,1.8164633E5,1.6966775E5,9.405175E4,3.357472E4,7.567E4,5.6630875E4,9.0085E4,5.555E3,9.42525E3,1.3228022E5,4.994075E4,2.2685938E4,2.1655594E4,1.3181129E4,6.0951E4,5.3771836E4,3.9626383E4,2.0930275E5,3.0017612E5,6.2302875E4,4.3471E4,2.596114E4,1.6888867E4,0E0,0E0,0E0,0E0,0E0,0E0,0E0,0E0,0E0,0E0,0E0,0E0,0E0,0E0,0E0,0E0,0E0,0E0,0E0,0E0,0E0,0E0,0E0,0E0,0E0,0E0,0E0,0E0,0E0,0E0,0E0,0E0,0E0,0E0,0E0,0E0,0E0,0E0,0E0,0E0,0E0,0E0,0E0,0E0,0E0,0E0,0E0,0E0,0E0,0E0,0E0,0E0,0E0,0E0,0E0,0E0,0E0,0E0,0E0,0E0,0E0,0E0,0E0,0E0],"parents":[2147483647,0,0,1,1,2,2,3,3,4,4,5,5,6,6,7,7,8,8,9,9,10,10,11,11,12,12,13,13,14,14,15,15,16,16,17,17,18,18,19,19,20,20,21,21,22,22,23,23,24,24,25,25,26,26,27,27,28,28,29,29,30,30,31,31,32,32,33,33,34,34,35,35,36,36,37,37,38,38,39,39,40,40,41,41,42,42,43,43,44,44,45,45,46,46,47,47,48,48,49,49,50,50,51,51,52,52,53,53,54,54,55,55,56,56,57,57,58,58,59,59,60,60,61,61,62,62],"right_children":[2,4,6,8,10,12,14,16,18,20,22,24,26,28,30,32,34,36,38,40,42,44,46,48,50,52,54,56,58,60,62,64,66,68,70,72,74,76,78,80,82,84,86,88,90,92,94,96,98,100,102,104,106,108,110,112,114,116,118,120,122,124,126,-1,-1,-1,-1,-1,-1,-1,-1,-1,-1,-1,-1,-1,-1,-1,-1,-1,-1,-1,-1,-1,-1,-1,-1,-1,-1,-1,-1,-1,-1,-1,-1,-1,-1,-1,-1,-1,-1,-1,-1,-1,-1,-1,-1,-1,-1,-1,-1,-1,-1,-1,-1,-1,-1,-1,-1,-1,-1,-1,-1,-1,-1,-1,-1],"split_conditions":[-5.772728E0,1.6674857E0,-8.703557E-1,3.967617E2,6.6262007E-1,1.1453878E0,4.915433E-1,5.9482276E-1,-5.6640625E-1,3.99643E2,3.9564883E2,3.8331992E2,1.5348244E-1,-6.341174E-1,1.6277075E0,-5.8070296E-1,1.3195949E0,1.3478683E0,5.51937E-1,-1.2910296E-2,2.065589E0,4.975133E-1,3.3443226E1,3.7870966E2,8.779601E-1,-8.9493436E-1,4.975133E-1,-5.0668373E0,3.881023E2,-5.1986766E0,-7.1325046E-1,4.975133E-1,3.8479068E2,-5.080619E-1,8.5207754E-1,-9.170601E-1,4.975133E-1,4.0800095E2,1.2717332E0,5.9579676E-1,3.8717242E2,4.1404633E2,-5.6640625E-1,3.8223486E2,3.8551462E2,8.5207754E-1,4.041847E2,-9.426415E-1,6.3874766E-2,-7.647898E-2,-9.366722E-1,2.4823797E-1,4.0856582E-1,-5.246873E0,-5.416808E0,5.6640625E-1,-1.2910296E-2,1.094713E0,-5.374468E0,3.9633243E2,3.425103E1,-5.288522E0,4.559602E-3,9.1911906E-1,-1.2515112E0,-3.2872233E-1,7.393058E-2,-4.494031E-1,-1.4778997E0,-3.9615092E-1,1.7556994E0,-2.1834261E0,-7.320826E-1,8.580813E-1,-2.254742E-1,2.746186E-1,7.314858E-1,-4.007698E-1,4.5587283E-1,1.3565276E0,3.3452663E-1,-1.451268E-1,2.2083703E-1,5.61799E-1,9.693432E-1,1.6878939E0,1.0024194E0,-1.7319253E-1,5.1948714E-1,7.187366E-1,1.1547931E0,1.5800303E0,2.358251E0,1.1723275E0,1.6203116E0,-2.6475616E0,-5.148805E0,-6.18315E0,-3.1658175E0,-4.1313305E0,-5.84547E-1,-5.289608E0,-3.8045871E0,-2.3620443E0,-4.1464806E0,-7.9223233E-1,-1.9068342E0,9.1812533E-1,-1.3406647E0,-3.0380628E0,-3.813378E0,2.5345263E-1,-1.117523E0,-4.1097912E-1,-4.4628673E0,-2.8004773E0,-1.4414696E0,-5.757164E-1,-1.4154514E0,-3.5170133E0,-2.221213E0,-4.721506E0,-0E0,-8.9441454E-1,-2.9146166E0,1.4840929E-1,1.6996679E0],"split_indices":[5,4,8,7,8,4,6,8,8,7,7,7,6,9,4,8,4,4,8,11,4,11,2,7,11,8,11,5,7,5,8,11,7,10,11,8,11,7,4,10,7,7,8,7,7,11,7,8,9,9,8,10,9,5,5,8,11,4,5,7,2,5,9,0,0,0,0,0,0,0,0,0,0,0,0,0,0,0,0,0,0,0,0,0,0,0,0,0,0,0,0,0,0,0,0,0,0,0,0,0,0,0,0,0,0,0,0,0,0,0,0,0,0,0,0,0,0,0,0,0,0,0,0,0,0,0,0],"split_type":[0,0,0,0,0,0,0,0,0,0,0,0,0,0,0,0,0,0,0,0,0,0,0,0,0,0,0,0,0,0,0,0,0,0,0,0,0,0,0,0,0,0,0,0,0,0,0,0,0,0,0,0,0,0,0,0,0,0,0,0,0,0,0,0,0,0,0,0,0,0,0,0,0,0,0,0,0,0,0,0,0,0,0,0,0,0,0,0,0,0,0,0,0,0,0,0,0,0,0,0,0,0,0,0,0,0,0,0,0,0,0,0,0,0,0,0,0,0,0,0,0,0,0,0,0,0,0],"sum_hessian":[1.42495E5,1.30804E5,1.1691E4,8.6709E4,4.4095E4,2.109E3,9.582E3,4.422E4,4.2489E4,3.3368E4,1.0727E4,5.21E2,1.588E3,8.793E3,7.89E2,3.2407E4,1.1813E4,6.585E3,3.5904E4,1.8501E4,1.4867E4,4.971E3,5.756E3,1.36E2,3.85E2,4.15E2,1.173E3,1.316E3,7.477E3,6.25E2,1.64E2,5.998E3,2.6409E4,7.92E3,3.893E3,2.32E3,4.265E3,2.2206E4,1.3698E4,4.66E3,1.3841E4,1.2298E4,2.569E3,9.37E2,4.034E3,1.07E3,4.686E3,1.8E1,1.18E2,1.13E2,2.72E2,2.23E2,1.92E2,2.4E1,1.149E3,1.292E3,2.4E1,2.093E3,5.384E3,4.24E2,2.01E2,6.7E1,9.7E1,6.6E2,5.338E3,1.1706E4,1.4703E4,1.866E3,6.054E3,3.715E3,1.78E2,3.89E2,1.931E3,6.22E2,3.643E3,1.0361E4,1.1845E4,7.952E3,5.746E3,1.821E3,2.839E3,5.936E3,7.905E3,8.674E3,3.624E3,6.86E2,1.883E3,2.32E2,7.05E2,1.824E3,2.21E3,3.65E2,7.05E2,1.913E3,2.773E3,8E0,1E1,1.12E2,6E0,7.1E1,4.2E1,1.59E2,1.13E2,2.02E2,2.1E1,1.23E2,6.9E1,1.3E1,1.1E1,4.49E2,7E2,1.217E3,7.5E1,1.1E1,1.3E1,3.39E2,1.754E3,3.923E3,1.461E3,2.71E2,1.53E2,1.96E2,5E0,4E1,2.7E1,7.5E1,2.2E1],"tree_param":{"num_deleted":"0","num_feature":"13","num_nodes":"127","size_leaf_vector":"1"}},{"base_weights":[5.9932187E-2,1.897124E0,-3.7477142E1,-4.166026E0,1.0862648E1,-5.9236816E1,-2.2686678E1,-1.0123636E1,2.0232205E0,1.9234165E1,4.7042575E0,-1.4329855E1,-6.824382E1,-2.878379E1,-4.567834E0,-1.8882227E1,-4.5510645E0,-3.0176424E1,3.1300097E0,1.2647122E1,2.329202E1,8.042101E-1,1.2834692E1,-9.564121E0,-4.993548E1,-5.7676697E1,-7.974366E1,-5.917971E1,-2.4784904E1,-2.6103008E1,-1.3160783E0,-2.260101E1,-5.664216E-1,-2.9315863E0,-3.4712276E1,-1.9747425E1,-5.3657E1,6.2081223E0,-5.1906104E0,3.0092592E0,1.5088856E1,1.34902315E1,2.6260895E1,-6.22635E0,2.9355106E0,1.3149225E1,-1.9205221E1,-2.6179852E1,-6.131791E0,-3.0716309E1,-5.7413593E1,-4.6194458E1,-7.674317E1,-7.371433E1,-1.0531628E2,-4.0091103E1,-7.825654E1,-2.8542105E1,5.1619065E-1,7.377156E1,-3.773217E1,3.538667E0,-1.8114729E1,-9.225693E-1,-1.885182E0,-5.7930875E-1,2.7962512E-1,-3.979452E-1,3.6308315E-2,-6.747494E-1,-2.2974043E0,-2.6311378E0,-7.8746253E-1,-5.6887097E0,-2.3839316E0,-2.960116E-1,4.4749752E-1,-8.4640265E-1,6.4117557E-1,1.8183266E0,4.5635354E-2,5.2126517E0,7.4422735E-1,1.2454442E0,2.3562329E-1,1.4506043E0,9.150246E-1,6.5457916E-1,-5.445715E-1,-7.9599506E-1,1.856943E-1,-5.431175E-2,6.915784E-1,-2.1347137E-1,-1.7330732E0,-3.2360792E-1,-1.535927E0,1.3304624E-1,-5.626544E-1,-7.139799E-1,-1.818332E0,-2.4222028E0,-3.5119293E0,-7.5498545E-1,-2.462197E0,-2.8916976E0,-4.14067E0,-4.814577E0,-3.4589067E0,-4.1529307E0,-5.498324E0,-1.2616218E0,-2.5545893E0,-1.8410879E0,-4.531327E0,-1.8873284E0,-1.0776501E0,-2.4700525E-1,1.0447868E0,5.8235793E0,7.209226E-1,-3.929094E0,-1.5276492E0,1.1418632E0,1.0946683E-1,-1.4655281E0,-1.4850561E-1],"categories":[],"categories_nodes":[],"categories_segments":[],"categories_sizes":[],"default_left":[0,0,0,0,0,0,0,0,0,0,0,0,0,0,0,0,0,0,0,0,0,0,0,0,0,0,0,0,0,0,0,0,0,0,0,0,0,0,0,0,0,0,0,0,0,0,0,0,0,0,0,0,0,0,0,0,0,0,0,0,0,0,0,0,0,0,0,0,0,0,0,0,0,0,0,0,0,0,0,0,0,0,0,0,0,0,0,0,0,0,0,0,0,0,0,0,0,0,0,0,0,0,0,0,0,0,0,0,0,0,0,0,0,0,0,0,0,0,0,0,0,0,0,0,0,0,0],"id":12,"left_children":[1,3,5,7,9,11,13,15,17,19,21,23,25,27,29,31,33,35,37,39,41,43,45,47,49,51,53,55,57,59,61,63,65,67,69,71,73,75,77,79,81,83,85,87,89,91,93,95,97,99,101,103,105,107,109,111,113,115,117,119,121,123,125,-1,-1,-1,-1,-1,-1,-1,-1,-1,-1,-1,-1,-1,-1,-1,-1,-1,-1,-1,-1,-1,-1,-1,-1,-1,-1,-1,-1,-1,-1,-1,-1,-1,-1,-1,-1,-1,-1,-1,-1,-1,-1,-1,-1,-1,-1,-1,-1,-1,-1,-1,-1,-1,-1,-1,-1,-1,-1,-1,-1,-1,-1,-1,-1],"loss_changes":[9.834579E6,7.3903585E6,2.140142E6,2.990616E6,2.827652E6,1.087866E6,4.3766812E5,2.016946E6,1.4177801E6,6.21077E5,1.00209044E6,7.6045266E4,2.67835E5,3.5892025E5,6.9920016E4,1.094485E6,1.2336322E6,3.22663E5,9.850366E5,2.0855E5,4.1822E5,3.2006625E5,1.03497E5,2.259148E4,5.8449844E3,2.530235E5,1.573515E5,1.22118375E5,2.4926825E5,1.5493088E5,7.0935266E4,8.363845E5,1.8419622E5,4.4082E5,3.0618638E5,1.19696125E5,1.4047675E5,9.3362225E5,2.1962305E6,1.25357E5,1.27268E5,3.3525012E5,2.41225E5,4.4794712E5,2.4062178E5,9.8569125E4,2.293325E4,5.879867E3,1.4980798E4,1.0544717E3,8.4175E2,6.885E4,4.55865E4,8.2423E4,1.17545E4,2.7144438E4,8.4296E4,1.46048E5,3.7911742E4,3.378889E4,3.2193766E4,1.7524625E4,3.2973242E4,0E0,0E0,0E0,0E0,0E0,0E0,0E0,0E0,0E0,0E0,0E0,0E0,0E0,0E0,0E0,0E0,0E0,0E0,0E0,0E0,0E0,0E0,0E0,0E0,0E0,0E0,0E0,0E0,0E0,0E0,0E0,0E0,0E0,0E0,0E0,0E0,0E0,0E0,0E0,0E0,0E0,0E0,0E0,0E0,0E0,0E0,0E0,0E0,0E0,0E0,0E0,0E0,0E0,0E0,0E0,0E0,0E0,0E0,0E0,0E0,0E0,0E0,0E0,0E0],"parents":[2147483647,0,0,1,1,2,2,3,3,4,4,5,5,6,6,7,7,8,8,9,9,10,10,11,11,12,12,13,13,14,14,15,15,16,16,17,17,18,18,19,19,20,20,21,21,22,22,23,23,24,24,25,25,26,26,27,27,28,28,29,29,30,30,31,31,32,32,33,33,34,34,35,35,36,36,37,37,38,38,39,39,40,40,41,41,42,42,43,43,44,44,45,45,46,46,47,47,48,48,49,49,50,50,51,51,52,52,53,53,54,54,55,55,56,56,57,57,58,58,59,59,60,60,61,61,62,62],"right_children":[2,4,6,8,10,12,14,16,18,20,22,24,26,28,30,32,34,36,38,40,42,44,46,48,50,52,54,56,58,60,62,64,66,68,70,72,74,76,78,80,82,84,86,88,90,92,94,96,98,100,102,104,106,108,110,112,114,116,118,120,122,124,126,-1,-1,-1,-1,-1,-1,-1,-1,-1,-1,-1,-1,-1,-1,-1,-1,-1,-1,-1,-1,-1,-1,-1,-1,-1,-1,-1,-1,-1,-1,-1,-1,-1,-1,-1,-1,-1,-1,-1,-1,-1,-1,-1,-1,-1,-1,-1,-1,-1,-1,-1,-1,-1,-1,-1,-1,-1,-1,-1,-1,-1,-1,-1,-1],"split_conditions":[-5.564726E0,1.587881E0,-7.0090926E-1,3.967617E2,1.6211967E1,-8.5876393E-1,1.4531519E1,1.7975815E1,-8.9493436E-1,3.92784E2,4.0440912E2,-5.143871E0,-8.606997E-3,1.0833757E0,-3.9874908E-1,8.5876393E-1,6.2251467E-1,-5.9785323E0,6.2251467E-1,1.7184488E0,-6.3607824E-1,-5.160624E-1,6.3607824E-1,3.7831577E2,-8.616292E-1,-5.143871E0,-5.1986766E0,1.9905107E-2,9.999167E-1,1.5286116E1,3.9874908E-1,-5.9399595E0,-5.6640625E-1,-4.9377555E-1,-5.4548824E-1,-9.5371693E-1,9.741116E-1,-5.6640625E-1,1.7213356E-2,9.670962E-3,-8.2008845E-1,5.234156E-1,1.3194679E1,-2.6176948E-2,-5.51937E-1,-5.51937E-1,1.7481754E1,-4.8075116E-1,-5.458774E0,1.942482E-1,3.4095005E1,-7.3417634E-1,-7.3417634E-1,3.837965E2,-9.317966E-2,-1.4365013E-1,7.1325046E-1,3.940719E2,4.1091318E2,-8.2008845E-1,-7.695805E-1,1.9262047E1,1.2258561E0,-9.225693E-1,-1.885182E0,-5.7930875E-1,2.7962512E-1,-3.979452E-1,3.6308315E-2,-6.747494E-1,-2.2974043E0,-2.6311378E0,-7.8746253E-1,-5.6887097E0,-2.3839316E0,-2.960116E-1,4.4749752E-1,-8.4640265E-1,6.4117557E-1,1.8183266E0,4.5635354E-2,5.2126517E0,7.4422735E-1,1.2454442E0,2.3562329E-1,1.4506043E0,9.150246E-1,6.5457916E-1,-5.445715E-1,-7.9599506E-1,1.856943E-1,-5.431175E-2,6.915784E-1,-2.1347137E-1,-1.7330732E0,-3.2360792E-1,-1.535927E0,1.3304624E-1,-5.626544E-1,-7.139799E-1,-1.818332E0,-2.4222028E0,-3.5119293E0,-7.5498545E-1,-2.462197E0,-2.8916976E0,-4.14067E0,-4.814577E0,-3.4589067E0,-4.1529307E0,-5.498324E0,-1.2616218E0,-2.5545893E0,-1.8410879E0,-4.531327E0,-1.8873284E0,-1.0776501E0,-2.4700525E-1,1.0447868E0,5.8235793E0,7.209226E-1,-3.929094E0,-1.5276492E0,1.1418632E0,1.0946683E-1,-1.4655281E0,-1.4850561E-1],"split_indices":[5,4,8,7,0,12,0,0,8,7,7,5,12,4,8,12,8,5,8,4,8,12,8,7,8,5,5,9,12,0,8,5,8,12,10,8,4,8,12,0,10,12,0,8,8,8,0,9,5,6,2,0,0,7,9,9,8,7,7,10,9,0,4,0,0,0,0,0,0,0,0,0,0,0,0,0,0,0,0,0,0,0,0,0,0,0,0,0,0,0,0,0,0,0,0,0,0,0,0,0,0,0,0,0,0,0,0,0,0,0,0,0,0,0,0,0,0,0,0,0,0,0,0,0,0,0,0],"split_type":[0,0,0,0,0,0,0,0,0,0,0,0,0,0,0,0,0,0,0,0,0,0,0,0,0,0,0,0,0,0,0,0,0,0,0,0,0,0,0,0,0,0,0,0,0,0,0,0,0,0,0,0,0,0,0,0,0,0,0,0,0,0,0,0,0,0,0,0,0,0,0,0,0,0,0,0,0,0,0,0,0,0,0,0,0,0,0,0,0,0,0,0,0,0,0,0,0,0,0,0,0,0,0,0,0,0,0,0,0,0,0,0,0,0,0,0,0,0,0,0,0,0,0,0,0,0,0],"sum_hessian":[1.42605E5,1.35952E5,6.653E3,8.1104E4,5.4848E4,2.691E3,3.962E3,4.1325E4,3.9779E4,2.3246E4,3.1602E4,4.5E2,2.241E3,2.964E3,9.98E2,1.6068E4,2.5257E4,1.321E3,3.8458E4,8.863E3,1.4383E4,2.1358E4,1.0244E4,3.98E2,5.2E1,1.171E3,1.07E3,3.43E2,2.621E3,1.3E2,8.68E2,1.3356E4,2.712E3,2.3971E4,1.286E3,9.16E2,4.05E2,2.8073E4,1.0385E4,1.792E3,7.071E3,3.345E3,1.1038E4,4.968E3,1.639E4,1.0145E4,9.9E1,6.7E1,3.31E2,1.6E1,3.6E1,7.33E2,4.38E2,8.69E2,2.01E2,1.73E2,1.7E2,2.282E3,3.39E2,1.3E1,1.17E2,6.74E2,1.94E2,1.0479E4,2.877E3,9.72E2,1.74E3,1.0095E4,1.3876E4,4.46E2,8.4E2,9.8E1,8.18E2,3.5E1,3.7E2,5.176E3,2.2897E4,6.288E3,4.097E3,1.05E2,1.687E3,1.5E1,7.056E3,1.453E3,1.892E3,8.201E3,2.837E3,9.66E2,4.002E3,6.49E2,1.5741E4,4.64E2,9.681E3,5.1E1,4.8E1,1.3E1,5.4E1,1.22E2,2.09E2,5E0,1.1E1,2.4E1,1.2E1,6.6E1,6.67E2,1.09E2,3.29E2,1.42E2,7.27E2,3.8E1,1.63E2,7.5E1,9.8E1,4E1,1.3E2,9.83E2,1.299E3,2.68E2,7.1E1,7E0,6E0,1.6E1,1.01E2,4.3E1,6.31E2,1.11E2,8.3E1],"tree_param":{"num_deleted":"0","num_feature":"13","num_nodes":"127","size_leaf_vector":"1"}},{"base_weights":[-6.2285443E-3,1.7714633E0,-3.630361E1,-4.159183E0,1.0019072E1,-2.3402819E1,-5.98009E1,-9.771353E0,1.7245667E0,1.8233036E1,4.4389997E0,-1.6705166E1,-3.6258167E1,-6.888468E1,-1.7520157E1,-1.817654E1,-4.4323673E0,-3.2758007E1,2.6955526E0,9.864237E0,2.1320618E1,7.2036856E-1,1.2064719E1,-3.8020126E1,-1.1264851E1,-4.0192722E1,-1.4870584E1,-8.874716E1,-6.379422E1,-3.357437E1,4.963552E0,-2.1728062E1,-2.9731005E-1,-2.9784863E0,-3.1659142E1,-2.1682941E1,-5.393014E1,2.1342912E-1,1.2818971E1,1.3597678E1,-4.1982446E0,1.7524519E1,2.8759686E1,-6.278059E0,2.957002E0,1.705115E1,9.134236E0,8.496439E0,-4.994799E1,-1.8226093E1,-4.936471E0,-3.5923164E1,-6.122364E1,1.0882766E1,-2.102182E1,-5.5977886E1,-9.425326E1,-5.6406178E1,-7.615061E1,-4.297581E1,-5.880146E0,4.237629E0,1.1339344E0,-7.944259E-1,-1.6710442E0,1.5928712E0,-1.04144E-1,-4.1741498E-2,-5.3263134E-1,-1.1795305E0,-2.5388541E0,-1.1695118E-1,-1.4885414E0,-4.5035024E0,-2.240132E0,2.2604068E-1,-5.5367994E-1,-1.4798239E-1,8.8749915E-1,2.8805527E-1,9.244032E-1,5.071451E-1,-5.144176E-1,1.2425861E0,7.4422485E-1,1.9757944E0,1.3395222E0,6.0218686E-1,-5.498108E-1,-6.5542334E-1,1.8470629E-1,-1.6909148E-1,8.781294E-1,5.417036E-1,1.8400998E-1,4.408673E0,2.0948629E-1,-4.1837687E0,-1.9824635E0,6.762605E-1,-1.1046507E0,-7.211591E-1,1.248536E-1,-4.005335E0,-1.6845449E0,-2.7128098E0,-4.548168E0,3.64622E0,-1.2311943E-1,2.2670371E-2,-1.3741639E0,1.430839E0,-3.2171257E0,-5.6232605E0,-4.266586E0,-2.4144447E0,-3.2033393E0,-3.3452713E0,-4.304801E0,-1.0074438E0,-2.7018101E0,-1.0829885E0,4.5540463E-2,-1.2389487E-1,6.378122E-1],"categories":[],"categories_nodes":[],"categories_segments":[],"categories_sizes":[],"default_left":[0,0,0,0,0,0,0,0,0,0,0,0,0,0,0,0,0,0,0,0,0,0,0,0,0,0,0,0,0,0,0,0,0,0,0,0,0,0,0,0,0,0,0,0,0,0,0,0,0,0,0,0,0,0,0,0,0,0,0,0,0,0,0,0,0,0,0,0,0,0,0,0,0,0,0,0,0,0,0,0,0,0,0,0,0,0,0,0,0,0,0,0,0,0,0,0,0,0,0,0,0,0,0,0,0,0,0,0,0,0,0,0,0,0,0,0,0,0,0,0,0,0,0,0,0],"id":13,"left_children":[1,3,5,7,9,11,13,15,17,19,21,23,25,27,29,31,33,35,37,39,41,43,45,47,49,51,53,55,57,59,61,63,65,67,69,71,73,75,77,79,81,83,85,87,89,91,93,95,97,99,101,103,105,107,109,111,113,115,117,119,121,-1,