{"learner":{"attributes":{"best_iteration":"499","best_score":"8.274328971740657","scikit_learn":"{\"_estimator_type\": \"regressor\"}"},"feature_names":[],"feature_types":[],"gradient_booster":{"model":{"gbtree_model_param":{"num_parallel_tree":"1","num_trees":"500"},"iteration_indptr":[0,1,2,3,4,5,6,7,8,9,10,11,12,13,14,15,16,17,18,19,20,21,22,23,24,25,26,27,28,29,30,31,32,33,34,35,36,37,38,39,40,41,42,43,44,45,46,47,48,49,50,51,52,53,54,55,56,57,58,59,60,61,62,63,64,65,66,67,68,69,70,71,72,73,74,75,76,77,78,79,80,81,82,83,84,85,86,87,88,89,90,91,92,93,94,95,96,97,98,99,100,101,102,103,104,105,106,107,108,109,110,111,112,113,114,115,116,117,118,119,120,121,122,123,124,125,126,127,128,129,130,131,132,133,134,135,136,137,138,139,140,141,142,143,144,145,146,147,148,149,150,151,152,153,154,155,156,157,158,159,160,161,162,163,164,165,166,167,168,169,170,171,172,173,174,175,176,177,178,179,180,181,182,183,184,185,186,187,188,189,190,191,192,193,194,195,196,197,198,199,200,201,202,203,204,205,206,207,208,209,210,211,212,213,214,215,216,217,218,219,220,221,222,223,224,225,226,227,228,229,230,231,232,233,234,235,236,237,238,239,240,241,242,243,244,245,246,247,248,249,250,251,252,253,254,255,256,257,258,259,260,261,262,263,264,265,266,267,268,269,270,271,272,273,274,275,276,277,278,279,280,281,282,283,284,285,286,287,288,289,290,291,292,293,294,295,296,297,298,299,300,301,302,303,304,305,306,307,308,309,310,311,312,313,314,315,316,317,318,319,320,321,322,323,324,325,326,327,328,329,330,331,332,333,334,335,336,337,338,339,340,341,342,343,344,345,346,347,348,349,350,351,352,353,354,355,356,357,358,359,360,361,362,363,364,365,366,367,368,369,370,371,372,373,374,375,376,377,378,379,380,381,382,383,384,385,386,387,388,389,390,391,392,393,394,395,396,397,398,399,400,401,402,403,404,405,406,407,408,409,410,411,412,413,414,415,416,417,418,419,420,421,422,423,424,425,426,427,428,429,430,431,432,433,434,435,436,437,438,439,440,441,442,443,444,445,446,447,448,449,450,451,452,453,454,455,456,457,458,459,460,461,462,463,464,465,466,467,468,469,470,471,472,473,474,475,476,477,478,479,480,481,482,483,484,485,486,487,488,489,490,491,492,493,494,495,496,497,498,499,500],"tree_info":[0,0,0,0,0,0,0,0,0,0,0,0,0,0,0,0,0,0,0,0,0,0,0,0,0,0,0,0,0,0,0,0,0,0,0,0,0,0,0,0,0,0,0,0,0,0,0,0,0,0,0,0,0,0,0,0,0,0,0,0,0,0,0,0,0,0,0,0,0,0,0,0,0,0,0,0,0,0,0,0,0,0,0,0,0,0,0,0,0,0,0,0,0,0,0,0,0,0,0,0,0,0,0,0,0,0,0,0,0,0,0,0,0,0,0,0,0,0,0,0,0,0,0,0,0,0,0,0,0,0,0,0,0,0,0,0,0,0,0,0,0,0,0,0,0,0,0,0,0,0,0,0,0,0,0,0,0,0,0,0,0,0,0,0,0,0,0,0,0,0,0,0,0,0,0,0,0,0,0,0,0,0,0,0,0,0,0,0,0,0,0,0,0,0,0,0,0,0,0,0,0,0,0,0,0,0,0,0,0,0,0,0,0,0,0,0,0,0,0,0,0,0,0,0,0,0,0,0,0,0,0,0,0,0,0,0,0,0,0,0,0,0,0,0,0,0,0,0,0,0,0,0,0,0,0,0,0,0,0,0,0,0,0,0,0,0,0,0,0,0,0,0,0,0,0,0,0,0,0,0,0,0,0,0,0,0,0,0,0,0,0,0,0,0,0,0,0,0,0,0,0,0,0,0,0,0,0,0,0,0,0,0,0,0,0,0,0,0,0,0,0,0,0,0,0,0,0,0,0,0,0,0,0,0,0,0,0,0,0,0,0,0,0,0,0,0,0,0,0,0,0,0,0,0,0,0,0,0,0,0,0,0,0,0,0,0,0,0,0,0,0,0,0,0,0,0,0,0,0,0,0,0,0,0,0,0,0,0,0,0,0,0,0,0,0,0,0,0,0,0,0,0,0,0,0,0,0,0,0,0,0,0,0,0,0,0,0,0,0,0,0,0,0,0,0,0,0,0,0,0,0,0,0,0,0,0,0,0,0,0,0,0,0,0,0,0,0,0,0,0,0,0,0,0,0,0,0,0,0,0,0,0,0,0,0,0,0,0,0,0,0,0,0,0,0,0,0,0,0,0,0,0,0,0,0,0,0,0,0,0,0,0,0,0,0,0,0,0,0,0],"trees":[{"base_weights":[-5.8891855E-2,-1.0362767E1,1.5025331E1,-2.6771006E1,9.709287E-1,5.012061E0,2.2461138E1,-3.428312E1,4.9768877E0,-8.511871E0,1.1575296E1,6.598273E-1,1.9491417E1,2.9266226E1,1.7131002E1,-8.214688E1,-2.844199E1,1.777848E1,-6.939402E0,-6.076229E0,-4.762089E1,1.380802E1,-1.7186073E1,6.0925307E0,-6.320663E0,2.5339333E1,7.976888E0,3.534027E1,1.8213108E1,1.0676075E1,2.2024729E1,-1.5246713E2,-7.174124E1,-3.908149E1,-1.5531246E1,5.4088106E0,2.6247953E1,-1.455033E0,-4.215209E1,-1.1632712E1,-1.6370093E0,-2.9371239E1,-5.7768673E1,9.089145E0,1.9552183E1,-2.6896904E1,7.126014E0,2.0701227E1,2.4592726E0,4.3315773E1,-6.729281E0,3.039162E1,8.3390594E-1,-9.2634743E-1,1.1380299E1,1.5795928E1,4.1571125E1,2.318651E1,-1.6930534E1,1.4497456E1,1.4976232E0,2.487745E1,1.584744E1,-4.2799716E0,-8.453525E0,-2.912835E0,-4.374031E0,-1.5175072E0,-2.9352646E0,-3.6318976E-1,-1.3938462E0,-7.9813614E-2,1.0427613E0,1.1780953E0,3.2749786E0,-7.9846215E-1,4.268821E-1,-4.704093E-1,-2.3002305E0,-7.903698E-1,-3.875245E-1,1.3867246E-1,-2.375202E-1,1.0795833E0,-1.5507898E0,-1.7957859E0,-3.378856E0,-1.07076E0,5.0076383E-1,7.073625E-1,1.1592797E0,-6.0493708E-2,-1.6943241E0,5.758438E-1,-9.6284E-1,1.4572674E0,1.9215576E-1,1.6367768E-1,-1.4721279E0,3.1533136E0,3.4091297E-1,-5.250249E-1,-6.841472E-2,4.8197934E-1,1.6166977E0,-7.19619E-1,7.820718E-1,6.3197315E-2,-5.5195564E-1,6.80541E-1,3.1103924E-1,3.3610523E-2,1.4885179E0,1.3227948E0,2.3771482E0,1.5747498E0,7.5154614E-1,-1.5136179E0,2.262244E0,1.0635781E0,6.1477536E-1,-7.681142E-1,1.7797406E-1,1.0770822E0,1.4591877E0,5.01365E-1,9.8525935E-1],"categories":[],"categories_nodes":[],"categories_segments":[],"categories_sizes":[],"default_left":[0,0,0,0,0,0,0,0,0,0,0,0,0,0,0,0,0,0,0,0,0,0,0,0,0,0,0,0,0,0,0,0,0,0,0,0,0,0,0,0,0,0,0,0,0,0,0,0,0,0,0,0,0,0,0,0,0,0,0,0,0,0,0,0,0,0,0,0,0,0,0,0,0,0,0,0,0,0,0,0,0,0,0,0,0,0,0,0,0,0,0,0,0,0,0,0,0,0,0,0,0,0,0,0,0,0,0,0,0,0,0,0,0,0,0,0,0,0,0,0,0,0,0,0,0,0,0],"id":0,"left_children":[1,3,5,7,9,11,13,15,17,19,21,23,25,27,29,31,33,35,37,39,41,43,45,47,49,51,53,55,57,59,61,63,65,67,69,71,73,75,77,79,81,83,85,87,89,91,93,95,97,99,101,103,105,107,109,111,113,115,117,119,121,123,125,-1,-1,-1,-1,-1,-1,-1,-1,-1,-1,-1,-1,-1,-1,-1,-1,-1,-1,-1,-1,-1,-1,-1,-1,-1,-1,-1,-1,-1,-1,-1,-1,-1,-1,-1,-1,-1,-1,-1,-1,-1,-1,-1,-1,-1,-1,-1,-1,-1,-1,-1,-1,-1,-1,-1,-1,-1,-1,-1,-1,-1,-1,-1,-1],"loss_changes":[2.2194048E7,1.5777568E7,4.314949E6,8.26661E6,5.046255E6,1.5563925E6,1.205796E6,7.83396E6,1.0119719E6,2.5232165E6,1.5215178E6,7.2023294E5,3.841485E5,9.79956E5,5.889525E5,2.219342E6,3.431012E6,3.3489194E5,6.6349244E5,6.1516094E5,2.8589975E5,5.9571775E5,4.0320025E5,5.6681094E5,1.6887472E5,4.685865E5,5.8311414E4,1.147094E6,9.061214E5,2.8214988E5,1.86537E5,4.20712E5,5.58806E5,2.344742E6,1.1519295E6,1.4080788E5,1.9855725E5,4.3147347E5,5.7967438E4,1.7938438E5,1.904006E5,4.7353562E4,2.11263E5,3.4123162E5,1.9436325E5,2.1899612E5,5.6752523E4,3.0266712E5,2.2230144E5,4.8580414E4,1.6667731E5,1.261685E5,1.4632569E5,1.1820839E4,1.5933047E4,4.818443E5,6.43774E5,3.07155E5,5.347581E5,8.445925E4,8.2302125E4,1.03584E5,7.510556E4,0E0,0E0,0E0,0E0,0E0,0E0,0E0,0E0,0E0,0E0,0E0,0E0,0E0,0E0,0E0,0E0,0E0,0E0,0E0,0E0,0E0,0E0,0E0,0E0,0E0,0E0,0E0,0E0,0E0,0E0,0E0,0E0,0E0,0E0,0E0,0E0,0E0,0E0,0E0,0E0,0E0,0E0,0E0,0E0,0E0,0E0,0E0,0E0,0E0,0E0,0E0,0E0,0E0,0E0,0E0,0E0,0E0,0E0,0E0,0E0,0E0,0E0,0E0,0E0],"parents":[2147483647,0,0,1,1,2,2,3,3,4,4,5,5,6,6,7,7,8,8,9,9,10,10,11,11,12,12,13,13,14,14,15,15,16,16,17,17,18,18,19,19,20,20,21,21,22,22,23,23,24,24,25,25,26,26,27,27,28,28,29,29,30,30,31,31,32,32,33,33,34,34,35,35,36,36,37,37,38,38,39,39,40,40,41,41,42,42,43,43,44,44,45,45,46,46,47,47,48,48,49,49,50,50,51,51,52,52,53,53,54,54,55,55,56,56,57,57,58,58,59,59,60,60,61,61,62,62],"right_children":[2,4,6,8,10,12,14,16,18,20,22,24,26,28,30,32,34,36,38,40,42,44,46,48,50,52,54,56,58,60,62,64,66,68,70,72,74,76,78,80,82,84,86,88,90,92,94,96,98,100,102,104,106,108,110,112,114,116,118,120,122,124,126,-1,-1,-1,-1,-1,-1,-1,-1,-1,-1,-1,-1,-1,-1,-1,-1,-1,-1,-1,-1,-1,-1,-1,-1,-1,-1,-1,-1,-1,-1,-1,-1,-1,-1,-1,-1,-1,-1,-1,-1,-1,-1,-1,-1,-1,-1,-1,-1,-1,-1,-1,-1,-1,-1,-1,-1,-1,-1,-1,-1,-1,-1,-1,-1],"split_conditions":[1.5814548E0,1.7329617E1,3.9412207E2,8.5876393E-1,3.967617E2,2.0378098E0,1.5680053E1,-8.9493436E-1,3.3680454E1,6.2251467E-1,6.087614E-1,4.5578003E-2,1.4949518E1,8.6314213E-1,4.0440912E2,1.0661108E0,3.9862393E2,3.9418378E2,8.616292E-1,3.8479068E2,-6.160322E-1,4.0952954E2,-4.9377555E-1,-4.1366577E-2,-9.487118E-1,8.6314213E-1,3.816249E2,-6.4944804E-1,9.0258527E-1,3.4038734E-1,2.8364372E-1,-8.606997E-3,4.5578003E-2,2.8364372E-1,1.9613647E-1,5.821082E-1,2.278361E-1,3.9418378E2,-5.009819E-1,-4.9377555E-1,-1.3097477E-1,-1.1858082E0,6.3607824E-1,-5.51937E-1,3.4239502E1,-6.0873824E-1,1.2396526E0,1.4321159E1,9.170601E-1,2.2007214E1,1.8020948E0,-8.800122E-1,9.999167E-1,7.59264E-1,2.5945473E-1,1.8076005E0,-5.160624E-1,9.304619E-2,2.3910732E0,-4.3382072E-1,-5.6640625E-1,4.1404633E2,-8.606997E-3,-4.2799716E0,-8.453525E0,-2.912835E0,-4.374031E0,-1.5175072E0,-2.9352646E0,-3.6318976E-1,-1.3938462E0,-7.9813614E-2,1.0427613E0,1.1780953E0,3.2749786E0,-7.9846215E-1,4.268821E-1,-4.704093E-1,-2.3002305E0,-7.903698E-1,-3.875245E-1,1.3867246E-1,-2.375202E-1,1.0795833E0,-1.5507898E0,-1.7957859E0,-3.378856E0,-1.07076E0,5.0076383E-1,7.073625E-1,1.1592797E0,-6.0493708E-2,-1.6943241E0,5.758438E-1,-9.6284E-1,1.4572674E0,1.9215576E-1,1.6367768E-1,-1.4721279E0,3.1533136E0,3.4091297E-1,-5.250249E-1,-6.841472E-2,4.8197934E-1,1.6166977E0,-7.19619E-1,7.820718E-1,6.3197315E-2,-5.5195564E-1,6.80541E-1,3.1103924E-1,3.3610523E-2,1.4885179E0,1.3227948E0,2.3771482E0,1.5747498E0,7.5154614E-1,-1.5136179E0,2.262244E0,1.0635781E0,6.1477536E-1,-7.681142E-1,1.7797406E-1,1.0770822E0,1.4591877E0,5.01365E-1,9.8525935E-1],"split_indices":[4,0,7,12,7,4,0,8,2,8,8,1,0,12,7,4,7,7,8,7,10,7,12,3,9,12,7,8,8,1,1,12,1,1,1,10,9,7,10,12,1,1,8,8,2,10,1,0,8,0,4,12,12,1,1,4,12,1,4,1,8,7,12,0,0,0,0,0,0,0,0,0,0,0,0,0,0,0,0,0,0,0,0,0,0,0,0,0,0,0,0,0,0,0,0,0,0,0,0,0,0,0,0,0,0,0,0,0,0,0,0,0,0,0,0,0,0,0,0,0,0,0,0,0,0,0,0],"split_type":[0,0,0,0,0,0,0,0,0,0,0,0,0,0,0,0,0,0,0,0,0,0,0,0,0,0,0,0,0,0,0,0,0,0,0,0,0,0,0,0,0,0,0,0,0,0,0,0,0,0,0,0,0,0,0,0,0,0,0,0,0,0,0,0,0,0,0,0,0,0,0,0,0,0,0,0,0,0,0,0,0,0,0,0,0,0,0,0,0,0,0,0,0,0,0,0,0,0,0,0,0,0,0,0,0,0,0,0,0,0,0,0,0,0,0,0,0,0,0,0,0,0,0,0,0,0,0],"sum_hessian":[1.42793E5,8.484E4,5.7953E4,3.466E4,5.018E4,2.4697E4,3.3256E4,2.8028E4,6.632E3,2.6491E4,2.3689E4,1.899E4,5.707E3,1.4605E4,1.8651E4,3.047E3,2.4981E4,3.197E3,3.435E3,2.4939E4,1.552E3,2.1983E4,1.706E3,1.0679E4,8.311E3,3.784E3,1.923E3,9.424E3,5.181E3,8.044E3,1.0607E4,3.91E2,2.656E3,1.3694E4,1.1287E4,1.3E3,1.897E3,2.973E3,4.62E2,1.1075E4,1.3864E4,5.56E2,9.96E2,1.207E4,9.913E3,1.219E3,4.87E2,2.126E3,8.553E3,6.7E1,8.244E3,3.137E3,6.47E2,5.32E2,1.391E3,2.279E3,7.145E3,4.539E3,6.42E2,5.679E3,2.365E3,7.254E3,3.353E3,7.9E1,3.12E2,1.433E3,1.223E3,9.479E3,4.215E3,6.761E3,4.526E3,8.95E2,4.05E2,1.777E3,1.2E2,1.212E3,1.761E3,4.9E1,4.13E2,5.335E3,5.74E3,5.737E3,8.127E3,1.7E1,5.39E2,3.1E2,6.86E2,3.55E2,1.1715E4,3.987E3,5.926E3,2.61E2,9.58E2,4.18E2,6.9E1,1.416E3,7.1E2,8.341E3,2.12E2,4.3E1,2.4E1,4.839E3,3.405E3,2.69E2,2.868E3,3.19E2,3.28E2,4.38E2,9.4E1,9.7E2,4.21E2,1.095E3,1.184E3,2.025E3,5.12E3,2.247E3,2.292E3,5.29E2,1.13E2,1.391E3,4.288E3,2.57E2,2.108E3,4.091E3,3.163E3,1.338E3,2.015E3],"tree_param":{"num_deleted":"0","num_feature":"13","num_nodes":"127","size_leaf_vector":"1"}},{"base_weights":[5.8547243E-2,3.3416889E0,-5.324048E1,-5.6971407E0,1.6478579E1,-1.11413864E2,-3.8554703E1,-1.4932836E1,5.087641E0,2.8673048E1,8.823347E0,-8.991959E1,-1.3642928E2,-4.786764E1,-6.45357E0,-9.225034E0,-3.166662E1,-4.705675E0,1.200098E1,1.6680702E1,3.466547E1,3.4217587E-1,1.803951E1,-7.418462E1,-1.2390707E2,-1.07539536E2,-1.6287708E2,-3.9108746E1,-8.471854E1,-4.1160976E1,-1.84912E0,-3.1132391E1,-4.2882094E0,-2.0849995E1,-4.1573895E1,-3.1968203E1,-1.9313904E0,1.3604988E1,-2.1747969E1,3.4472424E1,1.0725562E1,3.103476E1,5.5169846E1,-3.3078957E0,5.3904314E0,1.4115878E1,2.4348698E1,-2.7685118E1,-8.777403E1,-1.340986E2,-9.217632E1,-6.750544E0,-1.01242E2,-1.7965125E2,-1.4015329E2,-6.7348564E1,-3.1578806E1,-6.927209E1,-1.2098113E2,3.6471772E0,-4.710001E1,2.0811179E0,-2.8832556E1,1.3026505E0,-1.7325248E0,-4.301423E-1,1.1967907E-1,-1.3670266E0,-8.216941E-2,-2.3884778E0,-1.4184504E0,3.2492172E-2,-2.0905929E0,2.7376816E-1,-5.613098E-1,5.229E-1,1.0970407E0,1.744073E-1,-1.3556571E0,6.01922E-1,1.9757572E0,3.1853956E-1,1.1695474E0,1.6567234E0,8.3160394E-1,4.926781E0,2.703603E0,-3.3399934E-1,6.678455E-2,5.007922E-1,3.0949837E-2,8.5422343E-1,2.18841E-1,1.3350935E0,8.624429E-1,-1.1561073E-1,-1.9584805E0,-3.9315083E0,-5.7160473E0,-5.788017E0,-7.6190133E0,-3.8072019E0,-6.053203E0,-4.133294E0,-5.494989E0,-9.575554E0,-8.304787E0,-7.1431117E0,-4.7803555E0,-2.9106746E0,-4.625718E0,-7.1731675E-1,-2.5803633E0,-2.7526026E0,-4.4257007E0,-5.711551E0,-7.496839E0,-1.3220215E0,-3.0066504E0,-7.193089E-2,9.689649E-1,-1.788132E-1,-2.0110414E0],"categories":[],"categories_nodes":[],"categories_segments":[],"categories_sizes":[],"default_left":[0,0,0,0,0,0,0,0,0,0,0,0,0,0,0,0,0,0,0,0,0,0,0,0,0,0,0,0,0,0,0,0,0,0,0,0,0,0,0,0,0,0,0,0,0,0,0,0,0,0,0,0,0,0,0,0,0,0,0,0,0,0,0,0,0,0,0,0,0,0,0,0,0,0,0,0,0,0,0,0,0,0,0,0,0,0,0,0,0,0,0,0,0,0,0,0,0,0,0,0,0,0,0,0,0,0,0,0,0,0,0,0,0,0,0,0,0,0,0,0,0,0,0],"id":1,"left_children":[1,3,5,7,9,11,13,15,17,19,21,23,25,27,29,31,33,35,37,39,41,43,45,47,49,51,53,55,57,59,61,63,65,67,69,71,73,75,77,79,81,83,85,87,89,91,93,95,97,99,101,-1,103,105,107,109,111,113,115,-1,117,119,121,-1,-1,-1,-1,-1,-1,-1,-1,-1,-1,-1,-1,-1,-1,-1,-1,-1,-1,-1,-1,-1,-1,-1,-1,-1,-1,-1,-1,-1,-1,-1,-1,-1,-1,-1,-1,-1,-1,-1,-1,-1,-1,-1,-1,-1,-1,-1,-1,-1,-1,-1,-1,-1,-1,-1,-1,-1,-1,-1,-1],"loss_changes":[2.4934424E7,1.5938136E7,7.059218E6,7.920164E6,5.107003E6,8.83498E5,1.973692E6,4.090913E6,2.4835945E6,1.515656E6,2.627236E6,4.715665E5,5.69263E5,1.648628E6,2.3739505E5,3.4543705E6,1.166564E6,1.1480591E6,1.164329E6,7.446814E5,1.045578E6,3.225738E5,3.98405E5,3.87441E5,7.91345E4,5.0318E4,1.26878E5,8.77572E5,5.41646E5,1.2134775E5,1.3930808E5,1.18266E6,7.515486E5,6.49437E5,4.63744E5,4.5018638E5,9.486682E5,5.38273E5,1.3224356E5,1.9896425E5,2.9051412E5,3.6095E5,9.53435E4,1.591008E5,1.6211786E5,2.8712762E5,1.027015E5,4.0991953E4,1.0677925E5,5.340725E4,2.4107812E4,0E0,3.99485E4,4.488E3,7.3145E3,1.9460475E5,1.1271705E6,1.84185E5,3.99185E4,0E0,4.3097938E4,6.986479E4,4.788522E4,0E0,0E0,0E0,0E0,0E0,0E0,0E0,0E0,0E0,0E0,0E0,0E0,0E0,0E0,0E0,0E0,0E0,0E0,0E0,0E0,0E0,0E0,0E0,0E0,0E0,0E0,0E0,0E0,0E0,0E0,0E0,0E0,0E0,0E0,0E0,0E0,0E0,0E0,0E0,0E0,0E0,0E0,0E0,0E0,0E0,0E0,0E0,0E0,0E0,0E0,0E0,0E0,0E0,0E0,0E0,0E0,0E0,0E0,0E0,0E0],"parents":[2147483647,0,0,1,1,2,2,3,3,4,4,5,5,6,6,7,7,8,8,9,9,10,10,11,11,12,12,13,13,14,14,15,15,16,16,17,17,18,18,19,19,20,20,21,21,22,22,23,23,24,24,25,25,26,26,27,27,28,28,29,29,30,30,31,31,32,32,33,33,34,34,35,35,36,36,37,37,38,38,39,39,40,40,41,41,42,42,43,43,44,44,45,45,46,46,47,47,48,48,49,49,50,50,52,52,53,53,54,54,55,55,56,56,57,57,58,58,60,60,61,61,62,62],"right_children":[2,4,6,8,10,12,14,16,18,20,22,24,26,28,30,32,34,36,38,40,42,44,46,48,50,52,54,56,58,60,62,64,66,68,70,72,74,76,78,80,82,84,86,88,90,92,94,96,98,100,102,-1,104,106,108,110,112,114,116,-1,118,120,122,-1,-1,-1,-1,-1,-1,-1,-1,-1,-1,-1,-1,-1,-1,-1,-1,-1,-1,-1,-1,-1,-1,-1,-1,-1,-1,-1,-1,-1,-1,-1,-1,-1,-1,-1,-1,-1,-1,-1,-1,-1,-1,-1,-1,-1,-1,-1,-1,-1,-1,-1,-1,-1,-1,-1,-1,-1,-1,-1,-1],"split_conditions":[-5.670653E0,1.586121E0,-8.703557E-1,3.9862393E2,1.510029E1,9.998518E-1,1.5247183E1,6.2251467E-1,1.8057074E1,1.7836614E0,3.9721753E2,-5.142958E0,-5.3395805E0,8.5207754E-1,-3.9874908E-1,-5.8070296E-1,-7.600212E-2,-8.870108E-1,6.2251467E-1,3.3460033E1,4.124629E2,-6.5524993E0,4.1155618E2,8.5207754E-1,2.2791177E-1,1.1222111E0,1.0983268E0,-5.049611E-1,-5.2940774E0,-8.56551E-1,-5.197873E0,4.975133E-1,3.8868414E2,1.3323524E0,1.3097475E0,8.5207754E-1,1.1418915E-1,4.1527115E2,-8.653073E-1,3.8615152E2,4.0701752E2,-6.0800138E0,-2.1941504E0,1.8409219E0,-1.9414425E-3,3.6023474E-1,4.100387E-1,-5.4706764E0,5.45835E-1,8.5207754E-1,-5.686924E-1,-6.750544E0,-4.866028E-2,3.9164902E2,1.2716377E0,-5.4294744E0,-5.3395805E0,3.21043E-1,-5.067349E0,3.6471772E0,5.123714E-1,4.0960068E2,3.665012E-1,1.3026505E0,-1.7325248E0,-4.301423E-1,1.1967907E-1,-1.3670266E0,-8.216941E-2,-2.3884778E0,-1.4184504E0,3.2492172E-2,-2.0905929E0,2.7376816E-1,-5.613098E-1,5.229E-1,1.0970407E0,1.744073E-1,-1.3556571E0,6.01922E-1,1.9757572E0,3.1853956E-1,1.1695474E0,1.6567234E0,8.3160394E-1,4.926781E0,2.703603E0,-3.3399934E-1,6.678455E-2,5.007922E-1,3.0949837E-2,8.5422343E-1,2.18841E-1,1.3350935E0,8.624429E-1,-1.1561073E-1,-1.9584805E0,-3.9315083E0,-5.7160473E0,-5.788017E0,-7.6190133E0,-3.8072019E0,-6.053203E0,-4.133294E0,-5.494989E0,-9.575554E0,-8.304787E0,-7.1431117E0,-4.7803555E0,-2.9106746E0,-4.625718E0,-7.1731675E-1,-2.5803633E0,-2.7526026E0,-4.4257007E0,-5.711551E0,-7.496839E0,-1.3220215E0,-3.0066504E0,-7.193089E-2,9.689649E-1,-1.788132E-1,-2.0110414E0],"split_indices":[5,4,8,7,0,11,0,8,0,4,7,5,5,11,8,8,1,8,8,2,7,5,7,11,10,4,4,11,5,11,5,11,7,4,4,11,1,7,11,7,7,5,1,4,1,1,1,5,6,11,0,0,1,7,4,5,5,1,5,0,11,7,8,0,0,0,0,0,0,0,0,0,0,0,0,0,0,0,0,0,0,0,0,0,0,0,0,0,0,0,0,0,0,0,0,0,0,0,0,0,0,0,0,0,0,0,0,0,0,0,0,0,0,0,0,0,0,0,0,0,0,0,0],"split_type":[0,0,0,0,0,0,0,0,0,0,0,0,0,0,0,0,0,0,0,0,0,0,0,0,0,0,0,0,0,0,0,0,0,0,0,0,0,0,0,0,0,0,0,0,0,0,0,0,0,0,0,0,0,0,0,0,0,0,0,0,0,0,0,0,0,0,0,0,0,0,0,0,0,0,0,0,0,0,0,0,0,0,0,0,0,0,0,0,0,0,0,0,0,0,0,0,0,0,0,0,0,0,0,0,0,0,0,0,0,0,0,0,0,0,0,0,0,0,0,0,0,0,0],"sum_hessian":[1.4249E5,1.34223E5,8.267E3,7.9514E4,5.4709E4,1.665E3,6.602E3,4.2833E4,3.6681E4,2.1098E4,3.3611E4,8.98E2,7.67E2,5.117E3,1.485E3,3.194E4,1.0893E4,1.5179E4,2.1502E4,7.031E3,1.4067E4,1.7504E4,1.6107E4,6.16E2,2.82E2,3.69E2,3.98E2,4.136E3,9.81E2,1.73E2,1.312E3,5.873E3,2.6067E4,5.209E3,5.684E3,1.401E3,1.3778E4,2.0527E4,9.75E2,1.762E3,5.269E3,1.1953E4,2.114E3,1.0159E4,7.345E3,9.933E3,6.174E3,1.4E2,4.76E2,2.11E2,7.1E1,6.5E1,3.04E2,2.25E2,1.73E2,8.69E2,3.267E3,6.9E2,2.91E2,8E0,1.65E2,1.146E3,1.66E2,3.4E2,5.533E3,1.5839E4,1.0228E4,3.893E3,1.316E3,3.867E3,1.817E3,3.25E2,1.076E3,7.668E3,6.11E3,1.4903E4,5.624E3,1.71E2,8.04E2,3.24E2,1.438E3,3.922E3,1.347E3,1.0431E4,1.522E3,5E1,2.064E3,5.885E3,4.274E3,3.729E3,3.616E3,7.612E3,2.321E3,4.635E3,1.539E3,4.4E1,9.6E1,3.57E2,1.19E2,1.09E2,1.02E2,4.8E1,2.3E1,1E2,2.04E2,1.13E2,1.12E2,1.61E2,1.2E1,6.4E2,2.29E2,1.757E3,1.51E3,3.99E2,2.91E2,2.4E2,5.1E1,6.5E1,1E2,9.53E2,1.93E2,5.2E1,1.14E2],"tree_param":{"num_deleted":"0","num_feature":"13","num_nodes":"123","size_leaf_vector":"1"}},{"base_weights":[1.550613E-2,2.92218E0,-5.41725E1,-5.8392944E0,1.544829E1,-3.702636E1,-9.66302E1,-1.5157031E1,3.6442173E0,2.6970022E1,8.338721E0,-4.5137627E1,-5.6736383E0,-7.104846E1,-1.287448E2,-2.7625992E1,-7.8194275E0,-6.378625E0,1.0658717E1,1.509755E1,3.2541832E1,-1.351128E0,1.5861862E1,-6.3735134E1,-3.1590328E1,-9.176616E-1,-2.729317E1,-7.96225E1,-9.625116E-1,-1.08804886E2,-1.4832108E2,-2.1062174E1,-4.6857864E1,-5.709349E0,-1.8807909E1,-1.3104105E1,5.949781E0,7.598354E0,1.995818E1,3.1072514E1,9.873558E0,2.7287727E1,4.5544334E1,1.865825E0,-7.6940527E0,1.2219008E1,2.3366266E1,-5.7496372E1,-1.03232285E2,-1.3622265E1,-4.8001877E1,1.7630861E0,-2.7185514E1,-1.4807022E0,-3.5649067E1,-5.827664E1,-9.462306E1,-9.067797E0,9.2908745E0,-9.255493E1,-1.3832545E2,-1.7200252E2,-1.2840762E2,-1.3658217E0,-3.6310163E-1,-2.678006E0,-1.4990534E0,-5.397839E-1,-6.99603E-2,-1.5427645E0,-6.764725E-1,-4.9046156E-1,-1.7992028E0,9.9689627E-1,9.9355064E-2,4.506494E-1,-5.9852594E-1,7.405297E-1,1.1768907E0,8.154335E-1,1.9330021E0,8.403225E-1,6.461989E-2,1.4735699E0,6.272716E-1,3.0083425E0,2.0518386E0,-4.3150734E-2,3.7759534E-1,-6.704597E-1,-2.0364371E-1,7.3386705E-1,6.1630882E-2,1.2770302E0,8.405277E-1,-2.6262681E0,-5.4270034E0,-3.9604862E0,-5.5239673E0,-1.3585242E0,-2.2451954E-1,-2.261352E0,-4.0928416E0,-2.4704523E0,1.7111795E-1,2.1839974E0,-2.0072217E0,-3.6711714E-1,3.5438558E-1,-2.018422E0,5.6935406E-1,-3.076224E0,-1.0464416E0,-5.188437E0,-3.6236749E0,-6.162351E-1,-2.531147E-1,7.9415363E-1,1.0676997E-2,-1.5153165E0,-4.8203382E0,-3.7490947E0,-7.261707E0,-9.079589E0,-7.7784896E0,-6.815841E0,-4.814758E0],"categories":[],"categories_nodes":[],"categories_segments":[],"categories_sizes":[],"default_left":[0,0,0,0,0,0,0,0,0,0,0,0,0,0,0,0,0,0,0,0,0,0,0,0,0,0,0,0,0,0,0,0,0,0,0,0,0,0,0,0,0,0,0,0,0,0,0,0,0,0,0,0,0,0,0,0,0,0,0,0,0,0,0,0,0,0,0,0,0,0,0,0,0,0,0,0,0,0,0,0,0,0,0,0,0,0,0,0,0,0,0,0,0,0,0,0,0,0,0,0,0,0,0,0,0,0,0,0,0,0,0,0,0,0,0,0,0,0,0,0,0,0,0,0,0,0,0],"id":2,"left_children":[1,3,5,7,9,11,13,15,17,19,21,23,25,27,29,31,33,35,37,39,41,43,45,47,49,51,53,55,57,59,61,63,65,67,69,71,73,75,77,79,81,83,85,87,89,91,93,95,97,99,101,103,105,107,109,111,113,115,117,119,121,123,125,-1,-1,-1,-1,-1,-1,-1,-1,-1,-1,-1,-1,-1,-1,-1,-1,-1,-1,-1,-1,-1,-1,-1,-1,-1,-1,-1,-1,-1,-1,-1,-1,-1,-1,-1,-1,-1,-1,-1,-1,-1,-1,-1,-1,-1,-1,-1,-1,-1,-1,-1,-1,-1,-1,-1,-1,-1,-1,-1,-1,-1,-1,-1,-1],"loss_changes":[2.2473704E7,1.4862056E7,5.284496E6,7.041411E6,4.56536E6,1.3160495E6,1.707044E6,3.677222E6,2.7765625E6,1.406407E6,2.5127475E6,1.033979E6,1.0947756E5,6.999865E5,3.4491E5,1.878636E6,5.866261E5,1.3482675E6,6.610505E5,5.66753E5,9.87563E5,3.0743506E5,5.301665E5,4.208365E5,7.0145825E5,6.1595355E4,4.135528E4,3.26838E5,1.0721872E4,2.087995E5,1.96696E5,9.580945E5,4.26857E5,4.654048E5,2.587775E5,7.9278425E5,3.1812944E5,4.8405825E5,1.0563675E5,1.8688725E5,3.0469584E5,3.31561E5,2.71978E5,1.5512469E5,1.0487E5,3.528425E5,8.993925E4,3.74383E5,3.2142E4,1.4066889E5,1.13149E5,6.7581875E4,7.613869E4,2.4628638E3,3.2649828E4,5.0984375E4,1.156265E5,8.751489E2,3.405855E3,6.923675E4,5.99825E4,4.6505E3,5.18695E4,0E0,0E0,0E0,0E0,0E0,0E0,0E0,0E0,0E0,0E0,0E0,0E0,0E0,0E0,0E0,0E0,0E0,0E0,0E0,0E0,0E0,0E0,0E0,0E0,0E0,0E0,0E0,0E0,0E0,0E0,0E0,0E0,0E0,0E0,0E0,0E0,0E0,0E0,0E0,0E0,0E0,0E0,0E0,0E0,0E0,0E0,0E0,0E0,0E0,0E0,0E0,0E0,0E0,0E0,0E0,0E0,0E0,0E0,0E0,0E0,0E0,0E0,0E0,0E0],"parents":[2147483647,0,0,1,1,2,2,3,3,4,4,5,5,6,6,7,7,8,8,9,9,10,10,11,11,12,12,13,13,14,14,15,15,16,16,17,17,18,18,19,19,20,20,21,21,22,22,23,23,24,24,25,25,26,26,27,27,28,28,29,29,30,30,31,31,32,32,33,33,34,34,35,35,36,36,37,37,38,38,39,39,40,40,41,41,42,42,43,43,44,44,45,45,46,46,47,47,48,48,49,49,50,50,51,51,52,52,53,53,54,54,55,55,56,56,57,57,58,58,59,59,60,60,61,61,62,62],"right_children":[2,4,6,8,10,12,14,16,18,20,22,24,26,28,30,32,34,36,38,40,42,44,46,48,50,52,54,56,58,60,62,64,66,68,70,72,74,76,78,80,82,84,86,88,90,92,94,96,98,100,102,104,106,108,110,112,114,116,118,120,122,124,126,-1,-1,-1,-1,-1,-1,-1,-1,-1,-1,-1,-1,-1,-1,-1,-1,-1,-1,-1,-1,-1,-1,-1,-1,-1,-1,-1,-1,-1,-1,-1,-1,-1,-1,-1,-1,-1,-1,-1,-1,-1,-1,-1,-1,-1,-1,-1,-1,-1,-1,-1,-1,-1,-1,-1,-1,-1,-1,-1,-1,-1,-1,-1,-1],"split_conditions":[-5.613396E0,1.5814548E0,8.695894E-1,3.9665634E2,1.4949518E1,1.4789377E1,-5.2940774E0,1.7329617E1,1.7813711E1,1.7737772E0,3.9412207E2,1.5597669E0,-5.197873E0,1.9664042E1,9.998518E-1,3.5325623E-1,4.9894905E-1,1.3766042E0,4.1527115E2,3.3483223E1,4.0546274E2,2.1355152E-1,4.1155618E2,8.5207754E-1,-5.3395805E0,1.3267465E-1,-8.8111955E-1,9.998518E-1,3.9633243E2,-5.067349E0,1.0983268E0,1.3884326E0,1.3884326E0,3.8479068E2,2.4111938E-1,-5.812961E0,3.3412148E1,9.0890026E-1,3.425311E1,3.92784E2,4.975133E-1,-6.0640845E0,-3.8571262E-1,-6.4765983E0,3.8442856E2,5.0819874E-1,4.100387E-1,-5.067349E0,2.475977E-2,-4.7495106E-1,4.975133E-1,3.315952E1,1.6263695E1,3.8502206E2,2.3067713E-1,4.7275928E-1,8.6495495E0,3.8088623E2,-1.6441345E-1,-1.7291859E0,-1.7291859E0,4.0035083E2,8.78048E0,-1.3658217E0,-3.6310163E-1,-2.678006E0,-1.4990534E0,-5.397839E-1,-6.99603E-2,-1.5427645E0,-6.764725E-1,-4.9046156E-1,-1.7992028E0,9.9689627E-1,9.9355064E-2,4.506494E-1,-5.9852594E-1,7.405297E-1,1.1768907E0,8.154335E-1,1.9330021E0,8.403225E-1,6.461989E-2,1.4735699E0,6.272716E-1,3.0083425E0,2.0518386E0,-4.3150734E-2,3.7759534E-1,-6.704597E-1,-2.0364371E-1,7.3386705E-1,6.1630882E-2,1.2770302E0,8.405277E-1,-2.6262681E0,-5.4270034E0,-3.9604862E0,-5.5239673E0,-1.3585242E0,-2.2451954E-1,-2.261352E0,-4.0928416E0,-2.4704523E0,1.7111795E-1,2.1839974E0,-2.0072217E0,-3.6711714E-1,3.5438558E-1,-2.018422E0,5.6935406E-1,-3.076224E0,-1.0464416E0,-5.188437E0,-3.6236749E0,-6.162351E-1,-2.531147E-1,7.9415363E-1,1.0676997E-2,-1.5153165E0,-4.8203382E0,-3.7490947E0,-7.261707E0,-9.079589E0,-7.7784896E0,-6.815841E0,-4.814758E0],"split_indices":[5,4,11,7,0,0,5,0,0,4,7,4,5,0,11,1,1,4,7,2,7,1,7,11,5,9,9,11,7,5,4,4,4,7,3,5,2,1,2,7,11,5,1,5,7,1,1,5,1,11,11,2,0,7,6,9,0,7,1,0,0,7,0,0,0,0,0,0,0,0,0,0,0,0,0,0,0,0,0,0,0,0,0,0,0,0,0,0,0,0,0,0,0,0,0,0,0,0,0,0,0,0,0,0,0,0,0,0,0,0,0,0,0,0,0,0,0,0,0,0,0,0,0,0,0,0,0],"split_type":[0,0,0,0,0,0,0,0,0,0,0,0,0,0,0,0,0,0,0,0,0,0,0,0,0,0,0,0,0,0,0,0,0,0,0,0,0,0,0,0,0,0,0,0,0,0,0,0,0,0,0,0,0,0,0,0,0,0,0,0,0,0,0,0,0,0,0,0,0,0,0,0,0,0,0,0,0,0,0,0,0,0,0,0,0,0,0,0,0,0,0,0,0,0,0,0,0,0,0,0,0,0,0,0,0,0,0,0,0,0,0,0,0,0,0,0,0,0,0,0,0,0,0,0,0,0,0],"sum_hessian":[1.42682E5,1.35419E5,7.263E3,7.9684E4,5.5735E4,5.175E3,2.088E3,4.0193E4,3.9491E4,2.1267E4,3.4468E4,4.111E3,1.064E3,1.164E3,9.24E2,1.4889E4,2.5304E4,1.6259E4,2.3232E4,6.794E3,1.4473E4,1.5065E4,1.9403E4,1.731E3,2.38E3,8.73E2,1.91E2,1.037E3,1.27E2,4.61E2,4.63E2,1.1102E4,3.787E3,2.1229E4,4.075E3,1.052E4,5.739E3,1.7481E4,5.751E3,1.673E3,5.121E3,1.031E4,4.163E3,9.996E3,5.069E3,1.3064E4,6.339E3,1.497E3,2.34E2,1.137E3,1.243E3,7.93E2,8E1,4.7E1,1.44E2,4.3E2,6.07E2,7.1E1,5.6E1,3E2,1.61E2,2.08E2,2.55E2,7.639E3,3.463E3,2.709E3,1.078E3,9.737E3,1.1492E4,1.24E3,2.835E3,9.197E3,1.323E3,1.266E3,4.473E3,1.6303E4,1.178E3,2.361E3,3.39E3,5.69E2,1.104E3,2.832E3,2.289E3,8.979E3,1.331E3,9.78E2,3.185E3,6.755E3,3.241E3,1.965E3,3.104E3,1.0675E4,2.389E3,4.758E3,1.581E3,1.366E3,1.31E2,5.7E1,1.77E2,4.57E2,6.8E2,1.151E3,9.2E1,2.4E1,7.69E2,1.2E1,6.8E1,2.8E1,1.9E1,1.31E2,1.3E1,3.95E2,3.5E1,4.27E2,1.8E2,3.8E1,3.3E1,3.2E1,2.4E1,1.8E1,2.82E2,1.7E1,1.44E2,1.25E2,8.3E1,2.02E2,5.3E1],"tree_param":{"num_deleted":"0","num_feature":"13","num_nodes":"127","size_leaf_vector":"1"}},{"base_weights":[3.5052624E-2,3.3072555E0,-4.3496048E1,2.8337538E1,1.5004216E0,-2.780073E1,-7.701345E1,3.4571766E1,2.0412561E1,-1.6514639E0,1.0962669E1,-1.9607782E1,-5.076486E1,-9.110017E1,1.6872481E0,5.5980083E1,3.2969624E1,2.4093647E1,4.621628E0,1.8091958E0,-1.4339774E1,2.7012691E1,9.470693E0,-4.452105E1,-9.392563E0,-6.999953E1,-4.183107E1,-7.155066E1,-1.19130005E2,6.122855E0,-4.1619835E1,5.830666E1,1.5136583E1,2.163341E1,3.4331837E1,9.878232E0,2.742875E1,-4.115408E1,8.990598E0,-4.1971145E0,7.101836E0,-2.0546831E1,4.19085E0,3.6884315E1,1.4220562E1,1.2206372E1,4.0142684E0,-5.399007E1,1.9688307E0,-2.0622381E1,-1.950664E0,-5.664958E1,-9.86306E1,1.1565135E0,-4.4768276E1,-4.882E1,-8.275236E1,-1.00345184E2,-1.3790297E2,7.055788E1,1.2238125E0,-2.699694E1,-4.734963E1,3.1647336E0,2.4645371E0,1.0785252E-1,1.5374836E0,4.0043846E-1,1.1859034E0,1.8753315E0,1.5325491E0,1.6526613E0,2.4543826E-1,1.2419755E0,1.9914459E0,-9.1450684E-2,-3.2842011E0,-5.4798782E-2,7.838401E-1,-3.549786E-1,5.5317515E-1,-4.1601163E-1,4.4603297E-1,1.9667703E-1,-1.2826022E0,3.2457742E-1,-4.9143067E-1,1.703232E0,3.7536142E0,8.5585994E-1,2.4749021E-1,6.7623657E-1,1.7611778E-1,7.2673804E-1,1.3706857E-1,-3.491176E0,-1.9554377E0,-1.2957319E0,4.1546398E-1,-1.2358931E0,1.0411405E-1,2.0446725E-1,-6.182119E-1,-6.0172725E0,-2.4886758E0,-4.520059E0,-6.1181245E0,2.3793018E-1,-3.4051725E-1,-2.3752139E0,-1.4688944E0,-3.3820379E0,-2.0540752E0,-4.576045E0,-3.2503297E0,-4.4260817E0,-6.5181055E0,-8.144351E0,-6.005241E0,4.8291974E0,7.22415E-1,-4.010523E0,2.3717776E-1,-1.7534277E0,-8.854125E-1,-2.6447885E0,-1.520158E0],"categories":[],"categories_nodes":[],"categories_segments":[],"categories_sizes":[],"default_left":[0,0,0,0,0,0,0,0,0,0,0,0,0,0,0,0,0,0,0,0,0,0,0,0,0,0,0,0,0,0,0,0,0,0,0,0,0,0,0,0,0,0,0,0,0,0,0,0,0,0,0,0,0,0,0,0,0,0,0,0,0,0,0,0,0,0,0,0,0,0,0,0,0,0,0,0,0,0,0,0,0,0,0,0,0,0,0,0,0,0,0,0,0,0,0,0,0,0,0,0,0,0,0,0,0,0,0,0,0,0,0,0,0,0,0,0,0,0,0,0,0,0,0,0,0,0,0],"id":3,"left_children":[1,3,5,7,9,11,13,15,17,19,21,23,25,27,29,31,33,35,37,39,41,43,45,47,49,51,53,55,57,59,61,63,65,67,69,71,73,75,77,79,81,83,85,87,89,91,93,95,97,99,101,103,105,107,109,111,113,115,117,119,121,123,125,-1,-1,-1,-1,-1,-1,-1,-1,-1,-1,-1,-1,-1,-1,-1,-1,-1,-1,-1,-1,-1,-1,-1,-1,-1,-1,-1,-1,-1,-1,-1,-1,-1,-1,-1,-1,-1,-1,-1,-1,-1,-1,-1,-1,-1,-1,-1,-1,-1,-1,-1,-1,-1,-1,-1,-1,-1,-1,-1,-1,-1,-1,-1,-1],"loss_changes":[2.0286388E7,5.990577E6,5.23589E6,4.39893E5,3.6845858E6,1.2751775E6,3.52008E6,1.692985E5,2.2826988E5,4.069379E6,7.38961E5,1.2723032E6,3.03449E5,1.46714E6,9.30323E4,3.1989E4,7.0981E4,1.50773E5,1.4916134E5,2.3147955E6,2.2843975E6,3.3095312E5,4.2157825E5,6.4018225E5,2.9646803E5,2.0997075E5,1.540975E5,4.00541E5,3.75812E5,1.3848556E5,2.4846484E3,1.1574625E4,3.9833916E3,1.4036656E4,4.7282E4,6.974054E4,8.1840375E4,6.2574836E4,4.5878445E4,1.510878E6,1.0858339E6,1.859393E6,1.6082019E5,1.5690225E5,3.0660906E4,2.15334E5,1.2629386E5,2.818905E5,4.388162E4,1.3153669E5,1.3433878E5,1.6348988E5,2.3680375E4,2.2992925E3,4.6684E4,7.3964875E4,1.594425E5,1.857665E5,2.24976E5,4.386308E4,1.1760365E5,4.9834082E2,1.2970859E3,0E0,0E0,0E0,0E0,0E0,0E0,0E0,0E0,0E0,0E0,0E0,0E0,0E0,0E0,0E0,0E0,0E0,0E0,0E0,0E0,0E0,0E0,0E0,0E0,0E0,0E0,0E0,0E0,0E0,0E0,0E0,0E0,0E0,0E0,0E0,0E0,0E0,0E0,0E0,0E0,0E0,0E0,0E0,0E0,0E0,0E0,0E0,0E0,0E0,0E0,0E0,0E0,0E0,0E0,0E0,0E0,0E0,0E0,0E0,0E0,0E0,0E0,0E0,0E0],"parents":[2147483647,0,0,1,1,2,2,3,3,4,4,5,5,6,6,7,7,8,8,9,9,10,10,11,11,12,12,13,13,14,14,15,15,16,16,17,17,18,18,19,19,20,20,21,21,22,22,23,23,24,24,25,25,26,26,27,27,28,28,29,29,30,30,31,31,32,32,33,33,34,34,35,35,36,36,37,37,38,38,39,39,40,40,41,41,42,42,43,43,44,44,45,45,46,46,47,47,48,48,49,49,50,50,51,51,52,52,53,53,54,54,55,55,56,56,57,57,58,58,59,59,60,60,61,61,62,62],"right_children":[2,4,6,8,10,12,14,16,18,20,22,24,26,28,30,32,34,36,38,40,42,44,46,48,50,52,54,56,58,60,62,64,66,68,70,72,74,76,78,80,82,84,86,88,90,92,94,96,98,100,102,104,106,108,110,112,114,116,118,120,122,124,126,-1,-1,-1,-1,-1,-1,-1,-1,-1,-1,-1,-1,-1,-1,-1,-1,-1,-1,-1,-1,-1,-1,-1,-1,-1,-1,-1,-1,-1,-1,-1,-1,-1,-1,-1,-1,-1,-1,-1,-1,-1,-1,-1,-1,-1,-1,-1,-1,-1,-1,-1,-1,-1,-1,-1,-1,-1,-1,-1,-1,-1,-1,-1,-1],"split_conditions":[-5.7349706E0,-6.9625206E0,8.5207754E-1,-7.4619436E0,8.5876393E-1,-5.2940774E0,1.5247183E1,-5.686924E-1,5.636349E-1,-6.2139955E0,-8.398113E-1,-5.049611E-1,3.422536E1,-5.3395805E0,1.3267465E-1,8.674564E-1,-5.160624E-1,-8.5876393E-1,-4.9357986E-1,-4.9377555E-1,1.8726105E1,1.4165297E1,2.6519966E-1,1.510029E1,-4.7495106E-1,-5.067349E0,-9.337847E-1,-8.606997E-3,9.998518E-1,-8.2008845E-1,8.695894E-1,-4.7873384E-1,9.9999076E-1,-9.997685E-1,1.2512016E-1,5.9838204E0,4.167675E-1,-2.1282835E-1,-1.4311504E-1,8.264601E-1,-1.3184214E-1,-5.160624E-1,2.8913769E1,4.0317273E-1,7.6314896E-1,2.7429842E1,3.3367012E1,1.7213356E-2,3.3693684E1,4.6890432E-1,-5.5105886E0,-8.7380713E-1,3.8044617E-1,2.3002031E1,1.4949518E1,1.4812108E0,6.791328E0,-5.067349E0,2.6024528E0,1.8516197E1,1.9664042E1,1.9204393E1,7.998276E-2,3.1647336E0,2.4645371E0,1.0785252E-1,1.5374836E0,4.0043846E-1,1.1859034E0,1.8753315E0,1.5325491E0,1.6526613E0,2.4543826E-1,1.2419755E0,1.9914459E0,-9.1450684E-2,-3.2842011E0,-5.4798782E-2,7.838401E-1,-3.549786E-1,5.5317515E-1,-4.1601163E-1,4.4603297E-1,1.9667703E-1,-1.2826022E0,3.2457742E-1,-4.9143067E-1,1.703232E0,3.7536142E0,8.5585994E-1,2.4749021E-1,6.7623657E-1,1.7611778E-1,7.2673804E-1,1.3706857E-1,-3.491176E0,-1.9554377E0,-1.2957319E0,4.1546398E-1,-1.2358931E0,1.0411405E-1,2.0446725E-1,-6.182119E-1,-6.0172725E0,-2.4886758E0,-4.520059E0,-6.1181245E0,2.3793018E-1,-3.4051725E-1,-2.3752139E0,-1.4688944E0,-3.3820379E0,-2.0540752E0,-4.576045E0,-3.2503297E0,-4.4260817E0,-6.5181055E0,-8.144351E0,-6.005241E0,4.8291974E0,7.22415E-1,-4.010523E0,2.3717776E-1,-1.7534277E0,-8.854125E-1,-2.6447885E0,-1.520158E0],"split_indices":[5,5,11,5,12,5,0,0,1,5,1,11,2,5,9,12,12,12,6,12,0,0,1,0,11,5,9,12,11,10,11,12,12,12,1,0,10,10,6,10,6,12,0,9,10,0,2,12,2,10,5,11,9,0,0,0,0,5,0,0,0,0,6,0,0,0,0,0,0,0,0,0,0,0,0,0,0,0,0,0,0,0,0,0,0,0,0,0,0,0,0,0,0,0,0,0,0,0,0,0,0,0,0,0,0,0,0,0,0,0,0,0,0,0,0,0,0,0,0,0,0,0,0,0,0,0,0],"split_type":[0,0,0,0,0,0,0,0,0,0,0,0,0,0,0,0,0,0,0,0,0,0,0,0,0,0,0,0,0,0,0,0,0,0,0,0,0,0,0,0,0,0,0,0,0,0,0,0,0,0,0,0,0,0,0,0,0,0,0,0,0,0,0,0,0,0,0,0,0,0,0,0,0,0,0,0,0,0,0,0,0,0,0,0,0,0,0,0,0,0,0,0,0,0,0,0,0,0,0,0,0,0,0,0,0,0,0,0,0,0,0,0,0,0,0,0,0,0,0,0,0,0,0,0,0,0,0],"sum_hessian":[1.42416E5,1.3246E5,9.956E3,8.917E3,1.23543E5,6.782E3,3.174E3,4.989E3,3.928E3,9.2674E4,3.0869E4,5E3,1.782E3,2.692E3,4.82E2,3.45E2,4.644E3,3.185E3,7.43E2,7.2815E4,1.9859E4,2.624E3,2.8245E4,1.453E3,3.547E3,5.63E2,1.219E3,1.588E3,1.104E3,4.38E2,4.4E1,3.26E2,1.9E1,5E2,4.144E3,6.06E2,2.579E3,6.4E1,6.79E2,3.4108E4,3.8707E4,1.4876E4,4.983E3,1.48E3,1.144E3,1.8812E4,9.433E3,1.207E3,2.46E2,1.413E3,2.134E3,3.86E2,1.77E2,7.8E1,1.141E3,5.26E2,1.062E3,5.55E2,5.49E2,3E1,4.08E2,1.4E1,3E1,2.06E2,1.2E2,1.1E1,8E0,6.7E1,4.33E2,2.22E3,1.924E3,1.06E2,5E2,2.136E3,4.43E2,2.5E1,3.9E1,2.71E2,4.08E2,2.8658E4,5.45E3,4.083E3,3.4624E4,2.567E3,1.2309E4,4.281E3,7.02E2,1.38E3,1E2,8.71E2,2.73E2,1.6332E4,2.48E3,1.017E3,8.416E3,5.83E2,6.24E2,4.5E1,2.01E2,1.197E3,2.16E2,1.351E3,7.83E2,3.6E1,3.5E2,1.35E2,4.2E1,5.4E1,2.4E1,9.67E2,1.74E2,1.51E2,3.75E2,7.08E2,3.54E2,4.01E2,1.54E2,2.25E2,3.24E2,2E1,1E1,1.6E1,3.92E2,6E0,8E0,2.1E1,9E0],"tree_param":{"num_deleted":"0","num_feature":"13","num_nodes":"127","size_leaf_vector":"1"}},{"base_weights":[6.0637185E-4,-8.911843E0,1.2244637E1,-2.244109E1,6.5690017E-1,9.081831E0,2.3829117E1,-2.896219E1,5.6162267E0,-5.6003866E0,5.1654973E0,2.7336914E1,7.2840195E0,2.7474096E1,1.5533542E1,-2.398009E1,-7.001718E1,1.71612E1,-5.260678E0,-8.205689E0,1.0990185E1,6.1380887E0,-5.019847E0,3.905902E1,1.6009668E1,1.1742226E1,3.1390996E0,3.0832327E1,1.2522804E1,1.678557E1,5.3217225E0,-2.9158958E1,-8.924515E0,-4.787244E1,-8.738625E1,1.5073745E1,5.5116127E1,5.78371E0,-1.1535122E1,-5.5768695E0,-2.5326077E1,1.155354E0,3.453887E1,8.219673E0,5.295421E-1,-1.7591381E1,-2.2663964E-2,-2.9360635E0,4.21577E1,4.164256E0,1.985608E1,5.4310005E1,1.1322895E1,1.4982737E1,1.8742385E0,1.2660251E1,3.2592342E1,-1.9109732E1,2.3409748E1,2.1143206E1,1.5094686E1,-4.2515664E0,8.332058E0,-3.0343354E0,-1.3237447E0,-2.4330834E-1,-1.0852069E0,-2.0337045E0,-3.569278E0,-3.7629025E0,-5.0410767E0,1.1024879E0,3.2805282E-1,2.9326253E0,-1.0360137E0,8.9330274E-1,-1.9381157E-1,-9.882771E-1,4.7855303E-1,2.623141E-1,-3.879776E-1,-1.1442899E0,-3.3084836E0,-3.120117E-1,3.0182123E-1,1.0154129E0,2.48488E0,5.7402414E-1,3.0008468E-1,-1.4679876E-1,1.0167714E0,-4.0881258E-1,-1.4847935E0,1.0739993E-1,-1.8395909E0,5.138731E-1,-6.9696563E-1,1.7231997E0,2.378285E0,4.6120253E-1,-5.067166E-1,1.5469791E0,6.813191E-1,3.0087268E0,8.6233026E-1,4.7609302E-1,8.9960766E-1,1.6476039E0,5.4870915E-1,1.13383055E-1,-1.6648264E0,1.14843205E-1,1.4008735E0,2.5978868E0,1.5536433E0,1.365476E0,-1.2361598E0,1.5563328E0,6.8299603E-1,1.3308196E0,8.8207245E-1,6.322098E-1,9.038917E-1,5.5906666E-3,-5.619135E-1,3.2982382E-1,8.52333E-1],"categories":[],"categories_nodes":[],"categories_segments":[],"categories_sizes":[],"default_left":[0,0,0,0,0,0,0,0,0,0,0,0,0,0,0,0,0,0,0,0,0,0,0,0,0,0,0,0,0,0,0,0,0,0,0,0,0,0,0,0,0,0,0,0,0,0,0,0,0,0,0,0,0,0,0,0,0,0,0,0,0,0,0,0,0,0,0,0,0,0,0,0,0,0,0,0,0,0,0,0,0,0,0,0,0,0,0,0,0,0,0,0,0,0,0,0,0,0,0,0,0,0,0,0,0,0,0,0,0,0,0,0,0,0,0,0,0,0,0,0,0,0,0,0,0,0,0],"id":4,"left_children":[1,3,5,7,9,11,13,15,17,19,21,23,25,27,29,31,33,35,37,39,41,43,45,47,49,51,53,55,57,59,61,63,65,67,69,71,73,75,77,79,81,83,85,87,89,91,93,95,97,99,101,103,105,107,109,111,113,115,117,119,121,123,125,-1,-1,-1,-1,-1,-1,-1,-1,-1,-1,-1,-1,-1,-1,-1,-1,-1,-1,-1,-1,-1,-1,-1,-1,-1,-1,-1,-1,-1,-1,-1,-1,-1,-1,-1,-1,-1,-1,-1,-1,-1,-1,-1,-1,-1,-1,-1,-1,-1,-1,-1,-1,-1,-1,-1,-1,-1,-1,-1,-1,-1,-1,-1,-1],"loss_changes":[1.5589062E7,1.0703078E7,2.204743E6,6.266704E6,1.3662312E6,1.5513252E6,3.8981E5,5.682688E6,8.112966E5,8.7670475E5,2.788602E5,5.620875E5,7.9525675E5,4.49741E5,5.0308938E4,1.932243E6,1.152396E6,2.474665E5,2.3061973E5,7.88773E5,6.375441E5,2.999637E5,1.5416367E5,2.7105675E5,9.819281E4,3.6949775E5,3.3409656E5,2.33699E5,5.6730006E5,2.5547188E4,1.2485557E4,1.558909E6,3.2896984E5,2.211795E5,2.66795E5,1.7634362E5,4.4933375E4,1.4082864E5,3.688086E5,3.5904738E5,2.3100625E5,7.017681E4,1.7393094E5,1.354575E5,4.7750484E5,7.930122E4,1.4031466E5,2.1080031E4,7.902925E4,3.843778E4,1.1198231E5,4.2861062E4,2.464715E5,1.5464481E5,2.78929E5,1.03063625E5,1.947315E5,1.1063664E5,9.173744E4,1.8289281E4,1.8285E4,3.172876E3,4.8612793E3,0E0,0E0,0E0,0E0,0E0,0E0,0E0,0E0,0E0,0E0,0E0,0E0,0E0,0E0,0E0,0E0,0E0,0E0,0E0,0E0,0E0,0E0,0E0,0E0,0E0,0E0,0E0,0E0,0E0,0E0,0E0,0E0,0E0,0E0,0E0,0E0,0E0,0E0,0E0,0E0,0E0,0E0,0E0,0E0,0E0,0E0,0E0,0E0,0E0,0E0,0E0,0E0,0E0,0E0,0E0,0E0,0E0,0E0,0E0,0E0,0E0,0E0,0E0,0E0],"parents":[2147483647,0,0,1,1,2,2,3,3,4,4,5,5,6,6,7,7,8,8,9,9,10,10,11,11,12,12,13,13,14,14,15,15,16,16,17,17,18,18,19,19,20,20,21,21,22,22,23,23,24,24,25,25,26,26,27,27,28,28,29,29,30,30,31,31,32,32,33,33,34,34,35,35,36,36,37,37,38,38,39,39,40,40,41,41,42,42,43,43,44,44,45,45,46,46,47,47,48,48,49,49,50,50,51,51,52,52,53,53,54,54,55,55,56,56,57,57,58,58,59,59,60,60,61,61,62,62],"right_children":[2,4,6,8,10,12,14,16,18,20,22,24,26,28,30,32,34,36,38,40,42,44,46,48,50,52,54,56,58,60,62,64,66,68,70,72,74,76,78,80,82,84,86,88,90,92,94,96,98,100,102,104,106,108,110,112,114,116,118,120,122,124,126,-1,-1,-1,-1,-1,-1,-1,-1,-1,-1,-1,-1,-1,-1,-1,-1,-1,-1,-1,-1,-1,-1,-1,-1,-1,-1,-1,-1,-1,-1,-1,-1,-1,-1,-1,-1,-1,-1,-1,-1,-1,-1,-1,-1,-1,-1,-1,-1,-1,-1,-1,-1,-1,-1,-1,-1,-1,-1,-1,-1,-1,-1,-1,-1],"split_conditions":[1.5644895E0,1.756439E1,2.0505097E0,8.5876393E-1,-4.9377555E-1,3.3317844E1,1.5831083E1,2.7730942E-1,3.366698E1,8.443317E-1,7.7471447E-1,1.0340464E1,7.5740814E-3,8.717063E-1,7.1453667E-1,1.3766042E0,8.5207754E-1,2.278361E-1,-4.6184024E-1,6.390562E-1,1.3736877E0,2.8166685E1,2.1133455E1,-8.800122E-1,-4.9377555E-1,-1.7291859E0,-5.049611E-1,-8.800122E-1,-4.7495106E-1,-2.860813E-1,-5.049611E-1,1.9806933E0,3.8129997E-1,4.4774055E-1,4.7444582E-1,3.1774044E-2,2.1516098E-2,3.4894634E1,5.9579676E-1,-7.122511E-1,1.8538465E0,2.9361725E-2,2.8435242E1,3.4713898E1,1.3842087E0,1.0037766E-1,9.4139767E-1,7.7228546E-2,8.5207754E-1,3.272648E-1,1.510029E1,4.132462E-2,1.8977003E0,1.510029E1,3.3238506E-1,7.091004E0,-9.2590237E-1,3.4482872E1,7.0417404E-2,1.7329617E1,2.2098866E0,1.2396526E0,4.9240482E-1,-3.0343354E0,-1.3237447E0,-2.4330834E-1,-1.0852069E0,-2.0337045E0,-3.569278E0,-3.7629025E0,-5.0410767E0,1.1024879E0,3.2805282E-1,2.9326253E0,-1.0360137E0,8.9330274E-1,-1.9381157E-1,-9.882771E-1,4.7855303E-1,2.623141E-1,-3.879776E-1,-1.1442899E0,-3.3084836E0,-3.120117E-1,3.0182123E-1,1.0154129E0,2.48488E0,5.7402414E-1,3.0008468E-1,-1.4679876E-1,1.0167714E0,-4.0881258E-1,-1.4847935E0,1.0739993E-1,-1.8395909E0,5.138731E-1,-6.9696563E-1,1.7231997E0,2.378285E0,4.6120253E-1,-5.067166E-1,1.5469791E0,6.813191E-1,3.0087268E0,8.6233026E-1,4.7609302E-1,8.9960766E-1,1.6476039E0,5.4870915E-1,1.13383055E-1,-1.6648264E0,1.14843205E-1,1.4008735E0,2.5978868E0,1.5536433E0,1.365476E0,-1.2361598E0,1.5563328E0,6.8299603E-1,1.3308196E0,8.8207245E-1,6.322098E-1,9.038917E-1,5.5906666E-3,-5.619135E-1,3.2982382E-1,8.52333E-1],"split_indices":[4,0,4,12,12,2,0,6,2,10,1,0,1,12,1,4,11,9,10,1,3,0,0,12,12,0,11,12,11,1,11,0,1,1,6,6,11,2,10,10,1,3,0,2,3,9,10,1,11,1,0,9,4,0,6,0,1,2,6,0,4,1,9,0,0,0,0,0,0,0,0,0,0,0,0,0,0,0,0,0,0,0,0,0,0,0,0,0,0,0,0,0,0,0,0,0,0,0,0,0,0,0,0,0,0,0,0,0,0,0,0,0,0,0,0,0,0,0,0,0,0,0,0,0,0,0,0],"split_type":[0,0,0,0,0,0,0,0,0,0,0,0,0,0,0,0,0,0,0,0,0,0,0,0,0,0,0,0,0,0,0,0,0,0,0,0,0,0,0,0,0,0,0,0,0,0,0,0,0,0,0,0,0,0,0,0,0,0,0,0,0,0,0,0,0,0,0,0,0,0,0,0,0,0,0,0,0,0,0,0,0,0,0,0,0,0,0,0,0,0,0,0,0,0,0,0,0,0,0,0,0,0,0,0,0,0,0,0,0,0,0,0,0,0,0,0,0,0,0,0,0,0,0,0,0,0,0],"sum_hessian":[1.42854E5,8.2675E4,6.0179E4,3.4249E4,4.8426E4,4.7274E4,1.2905E4,2.779E4,6.459E3,2.028E4,2.8146E4,4.237E3,4.3037E4,8.964E3,3.941E3,2.4784E4,3.006E3,3.133E3,3.326E3,1.7528E4,2.752E3,2.5693E4,2.453E3,2.081E3,2.156E3,2.0734E4,2.2303E4,7.319E3,1.645E3,3.51E3,4.31E2,1.844E4,6.344E3,1.323E3,1.683E3,2.971E3,1.62E2,1.205E3,2.121E3,1.5196E4,2.332E3,1.942E3,8.1E2,1.8738E4,6.955E3,6.97E2,1.756E3,1.43E2,1.938E3,5.29E2,1.627E3,2.01E2,2.0533E4,2.151E3,2.0152E4,6.47E2,6.672E3,4.21E2,1.224E3,9.78E2,2.532E3,1.03E2,3.28E2,1.445E3,1.6995E4,4.816E3,1.528E3,1.015E3,3.08E2,8.88E2,7.95E2,1.632E3,1.339E3,1.55E2,7E0,5.35E2,6.7E2,1.526E3,5.95E2,2.55E3,1.2646E4,2.202E3,1.3E2,7.72E2,1.17E3,4.19E2,3.91E2,7.584E3,1.1154E4,5.92E3,1.035E3,3.93E2,3.04E2,1.659E3,9.7E1,6.5E1,7.8E1,8.03E2,1.135E3,3.91E2,1.38E2,5.84E2,1.043E3,1.73E2,2.8E1,1.6169E4,4.364E3,3.91E2,1.76E3,1.993E4,2.22E2,3.87E2,2.6E2,4.83E2,6.189E3,4.5E1,3.76E2,6.82E2,5.42E2,3.79E2,5.99E2,1.393E3,1.139E3,6.4E1,3.9E1,2.75E2,5.3E1],"tree_param":{"num_deleted":"0","num_feature":"13","num_nodes":"127","size_leaf_vector":"1"}},{"base_weights":[-2.8657485E-2,2.3339071E0,-5.2450954E1,-5.2023983E0,1.379082E1,-3.463231E1,-8.586446E1,-1.3483445E1,4.523615E0,2.3771034E1,7.0095253E0,-3.959448E1,-3.4389663E0,-9.459581E1,-3.0297046E0,-2.4079294E1,-6.7402744E0,-4.175974E0,1.0525276E1,1.9738308E1,3.7710094E1,-4.065342E-1,1.5586997E1,-3.2504505E1,-5.8841747E1,4.386963E0,-2.7178E1,-8.113184E1,-1.2114962E2,-7.6857376E0,6.1033726E1,-1.6401419E1,-3.6583824E1,-9.633061E0,5.542012E-1,-5.362801E-1,-2.3061913E1,7.560762E0,1.8629606E1,9.81714E0,2.4307995E1,2.6173761E1,4.3201797E1,-3.0919719E0,5.0638733E0,1.2027521E1,2.1073898E1,-6.4784096E1,-2.5650148E1,-4.7867825E1,-8.269232E1,9.6680367E-1,8.778449E0,-3.3384052E1,-6.5393484E-1,-6.867857E1,-9.342056E1,-1.0303981E2,-1.4026067E2,-4.1033348E1,-1.009282E0,4.8692303E0,5.3782356E-1,-1.1438302E0,-2.3059681E-1,-2.1440089E0,-1.1345959E0,-3.7951502E-1,-8.8702935E-1,9.637534E-2,-1.2223278E0,-2.2594193E-1,6.79218E-1,-6.841648E-1,-2.1793118E0,4.495554E-1,-4.9872604E-1,7.0001686E-1,1.0949835E0,1.1392745E0,2.344985E-1,1.3095567E0,3.506242E-1,1.5482863E0,2.6197222E-1,1.7836819E0,2.4571338E0,2.0181693E-2,-4.4230422E-1,6.00941E-2,5.307103E-1,7.288681E-1,1.7319386E-1,1.1557525E0,7.530983E-1,-3.427759E0,3.5277247E-1,-1.7179259E0,-7.9279107E-1,-1.4872526E0,-2.5584314E0,-3.294115E0,-4.95252E0,-1.3101371E-2,1.0989653E0,4.8206195E-1,-2.1197562E-1,-1.3819875E0,-2.206147E0,4.6001694E-1,-5.99082E-1,-4.551862E0,-2.9619985E0,-6.6726184E0,-4.2915115E0,-2.3327472E0,-5.470983E0,-7.815572E0,-6.0168557E0,-1.1084763E0,-2.4297783E0,-2.662938E-1,3.5888252E-1],"categories":[],"categories_nodes":[],"categories_segments":[],"categories_sizes":[],"default_left":[0,0,0,0,0,0,0,0,0,0,0,0,0,0,0,0,0,0,0,0,0,0,0,0,0,0,0,0,0,0,0,0,0,0,0,0,0,0,0,0,0,0,0,0,0,0,0,0,0,0,0,0,0,0,0,0,0,0,0,0,0,0,0,0,0,0,0,0,0,0,0,0,0,0,0,0,0,0,0,0,0,0,0,0,0,0,0,0,0,0,0,0,0,0,0,0,0,0,0,0,0,0,0,0,0,0,0,0,0,0,0,0,0,0,0,0,0,0,0,0,0,0,0],"id":5,"left_children":[1,3,5,7,9,11,13,15,17,19,21,23,25,27,29,31,33,35,37,39,41,43,45,47,49,51,53,55,57,59,61,63,65,67,69,71,73,75,77,79,81,83,85,87,89,91,93,95,97,99,101,103,105,107,109,111,113,115,117,119,121,-1,-1,-1,-1,-1,-1,-1,-1,-1,-1,-1,-1,-1,-1,-1,-1,-1,-1,-1,-1,-1,-1,-1,-1,-1,-1,-1,-1,-1,-1,-1,-1,-1,-1,-1,-1,-1,-1,-1,-1,-1,-1,-1,-1,-1,-1,-1,-1,-1,-1,-1,-1,-1,-1,-1,-1,-1,-1,-1,-1,-1,-1],"loss_changes":[1.7668226E7,1.1786296E7,3.659812E6,6.632016E6,3.665583E6,6.21173E5,1.546754E6,3.1775575E6,1.9772081E6,1.231033E6,2.051591E6,4.706485E5,1.0267206E5,6.81952E5,6.161145E4,1.659953E6,5.7354125E5,1.0626908E6,5.3824175E5,7.7039E5,3.10311E5,2.5413066E5,2.9182175E5,5.5877025E5,2.39703E5,6.2386836E3,2.2526305E4,1.90523E5,2.1014E5,4.2702004E4,2.4528387E4,8.1809375E5,5.74474E5,3.2218738E5,2.6506653E5,7.2905125E5,4.8023725E5,4.1165244E5,9.0533E4,3.564148E5,3.78828E5,1.5913675E5,1.471245E5,2.3338842E5,1.22081734E5,1.98065E5,7.184E4,1.20504125E5,1.77797E5,3.6754625E4,7.375175E4,6.075823E3,2.0855967E3,5.620578E3,3.1244236E3,1.3028725E5,1.8451E5,1.1610775E5,8.1256E4,3.480457E3,5.7277275E3,0E0,0E0,0E0,0E0,0E0,0E0,0E0,0E0,0E0,0E0,0E0,0E0,0E0,0E0,0E0,0E0,0E0,0E0,0E0,0E0,0E0,0E0,0E0,0E0,0E0,0E0,0E0,0E0,0E0,0E0,0E0,0E0,0E0,0E0,0E0,0E0,0E0,0E0,0E0,0E0,0E0,0E0,0E0,0E0,0E0,0E0,0E0,0E0,0E0,0E0,0E0,0E0,0E0,0E0,0E0,0E0,0E0,0E0,0E0,0E0,0E0,0E0],"parents":[2147483647,0,0,1,1,2,2,3,3,4,4,5,5,6,6,7,7,8,8,9,9,10,10,11,11,12,12,13,13,14,14,15,15,16,16,17,17,18,18,19,19,20,20,21,21,22,22,23,23,24,24,25,25,26,26,27,27,28,28,29,29,30,30,31,31,32,32,33,33,34,34,35,35,36,36,37,37,38,38,39,39,40,40,41,41,42,42,43,43,44,44,45,45,46,46,47,47,48,48,49,49,50,50,51,51,52,52,53,53,54,54,55,55,56,56,57,57,58,58,59,59,60,60],"right_children":[2,4,6,8,10,12,14,16,18,20,22,24,26,28,30,32,34,36,38,40,42,44,46,48,50,52,54,56,58,60,62,64,66,68,70,72,74,76,78,80,82,84,86,88,90,92,94,96,98,100,102,104,106,108,110,112,114,116,118,120,122,-1,-1,-1,-1,-1,-1,-1,-1,-1,-1,-1,-1,-1,-1,-1,-1,-1,-1,-1,-1,-1,-1,-1,-1,-1,-1,-1,-1,-1,-1,-1,-1,-1,-1,-1,-1,-1,-1,-1,-1,-1,-1,-1,-1,-1,-1,-1,-1,-1,-1,-1,-1,-1,-1,-1,-1,-1,-1,-1,-1,-1,-1],"split_conditions":[-5.5475063E0,1.5957375E0,8.5207754E-1,3.9862393E2,1.5540523E1,1.8959562E1,9.39312E-1,1.7944656E1,1.756439E1,4.083332E2,3.9879065E2,-5.197873E0,-2.9522583E-1,-5.197873E0,1.5103581E0,1.3017464E-1,3.9083017E2,-5.86301E0,4.1527115E2,1.7836614E0,1.7836614E0,3.9076343E2,4.1155618E2,-5.049611E-1,-2.4931477E-1,3.8868945E2,1.915679E-1,9.998518E-1,9.998518E-1,2.0581928E1,-8.459573E-1,1.3656908E0,1.3846705E0,3.9583588E-1,9.567795E-1,4.1527115E2,8.5207754E-1,8.6514664E-1,4.2816925E-1,-2.6664352E-1,-5.9421086E0,2.4317658E-1,4.1404633E2,1.4697647E-1,-6.5524993E0,3.5325623E-1,4.100387E-1,3.1058687E-1,-4.7495106E-1,-4.955077E-1,5.123714E-1,1.4908476E0,-3.0654088E-1,-5.067349E0,-8.579856E-1,8.695894E-1,1.1080686E0,-1.7291859E0,3.5737944E-1,8.695894E-1,3.9633243E2,4.8692303E0,5.3782356E-1,-1.1438302E0,-2.3059681E-1,-2.1440089E0,-1.1345959E0,-3.7951502E-1,-8.8702935E-1,9.637534E-2,-1.2223278E0,-2.2594193E-1,6.79218E-1,-6.841648E-1,-2.1793118E0,4.495554E-1,-4.9872604E-1,7.0001686E-1,1.0949835E0,1.1392745E0,2.344985E-1,1.3095567E0,3.506242E-1,1.5482863E0,2.6197222E-1,1.7836819E0,2.4571338E0,2.0181693E-2,-4.4230422E-1,6.00941E-2,5.307103E-1,7.288681E-1,1.7319386E-1,1.1557525E0,7.530983E-1,-3.427759E0,3.5277247E-1,-1.7179259E0,-7.9279107E-1,-1.4872526E0,-2.5584314E0,-3.294115E0,-4.95252E0,-1.3101371E-2,1.0989653E0,4.8206195E-1,-2.1197562E-1,-1.3819875E0,-2.206147E0,4.6001694E-1,-5.99082E-1,-4.551862E0,-2.9619985E0,-6.6726184E0,-4.2915115E0,-2.3327472E0,-5.470983E0,-7.815572E0,-6.0168557E0,-1.1084763E0,-2.4297783E0,-2.662938E-1,3.5888252E-1],"split_indices":[5,4,11,7,0,0,3,0,0,7,7,5,9,5,4,1,7,5,7,4,4,7,7,11,10,7,6,11,11,0,10,4,4,1,1,7,11,1,3,3,5,9,7,1,5,1,1,9,11,10,11,4,9,5,10,11,4,0,6,11,7,0,0,0,0,0,0,0,0,0,0,0,0,0,0,0,0,0,0,0,0,0,0,0,0,0,0,0,0,0,0,0,0,0,0,0,0,0,0,0,0,0,0,0,0,0,0,0,0,0,0,0,0,0,0,0,0,0,0,0,0,0,0],"split_type":[0,0,0,0,0,0,0,0,0,0,0,0,0,0,0,0,0,0,0,0,0,0,0,0,0,0,0,0,0,0,0,0,0,0,0,0,0,0,0,0,0,0,0,0,0,0,0,0,0,0,0,0,0,0,0,0,0,0,0,0,0,0,0,0,0,0,0,0,0,0,0,0,0,0,0,0,0,0,0,0,0,0,0,0,0,0,0,0,0,0,0,0,0,0,0,0,0,0,0,0,0,0,0,0,0,0,0,0,0,0,0,0,0,0,0,0,0,0,0,0,0,0,0],"sum_hessian":[1.42655E5,1.36504E5,6.151E3,8.2341E4,5.4163E4,4.013E3,2.138E3,4.4474E4,3.7867E4,2.1912E4,3.2251E4,3.462E3,5.51E2,1.934E3,2.04E2,1.7295E4,2.7179E4,1.5459E4,2.2408E4,1.6997E4,4.915E3,1.7297E4,1.4954E4,2.532E3,9.3E2,4.15E2,1.36E2,1.286E3,6.48E2,1.91E2,1.3E1,1.0717E4,6.578E3,1.9461E4,7.718E3,1.2962E4,2.497E3,1.6408E4,6E3,5.361E3,1.1636E4,1.587E3,3.328E3,1.1602E4,5.695E3,9.072E3,5.882E3,4.42E2,2.09E3,6.39E2,2.91E2,2.34E2,1.81E2,1.1E2,2.6E1,6.42E2,6.44E2,3.36E2,3.12E2,3.1E1,1.6E2,7E0,6E0,6.917E3,3.8E3,4.525E3,2.053E3,1.5546E4,3.915E3,7.317E3,4.01E2,1.0111E4,2.851E3,1.715E3,7.82E2,1.5171E4,1.237E3,2.486E3,3.514E3,1.518E3,3.843E3,1.0493E4,1.143E3,1.291E3,2.96E2,1.471E3,1.857E3,7.218E3,4.384E3,3.359E3,2.336E3,6.99E3,2.082E3,4.389E3,1.493E3,4.2E2,2.2E1,1.105E3,9.85E2,1E2,5.39E2,1.46E2,1.45E2,2.22E2,1.2E1,1.7E2,1.1E1,7.4E1,3.6E1,1.4E1,1.2E1,1.88E2,4.54E2,1E2,5.44E2,3.5E1,3.01E2,1.69E2,1.43E2,1E1,2.1E1,1.05E2,5.5E1],"tree_param":{"num_deleted":"0","num_feature":"13","num_nodes":"123","size_leaf_vector":"1"}},{"base_weights":[-8.436024E-3,-7.971126E0,1.10752735E1,-3.24973E1,-3.3995702E0,8.19797E0,2.153651E1,-5.9067528E1,-2.2081854E1,2.9245343E0,-1.7726889E1,2.489192E1,6.5404677E0,4.6995316E1,2.0579752E1,-9.328729E1,-4.7119778E1,-1.5513026E1,-4.2134037E1,-1.3108985E0,5.6414766E0,-2.8678274E1,1.7442087E0,3.5626713E1,1.4593444E1,1.0544797E1,2.35426E0,3.945949E1,6.3189617E1,1.6839647E1,2.5399933E1,-7.269261E1,-1.1385871E2,-3.7979504E1,-6.559159E1,2.667308E1,-1.7487726E1,-2.139814E1,-4.9295147E1,1.3151509E1,-5.4746385E0,-3.2656026E0,9.980935E0,-2.2492567E1,-3.926808E1,1.3936761E1,-2.7273932E1,-2.7994697E0,3.8548695E1,3.636289E0,1.8223232E1,5.1185204E1,1.0184119E1,1.4248532E1,1.0894139E0,4.5692287E1,3.0907604E1,5.2895397E1,4.220814E0,1.9315977E1,3.6351578E0,2.7298393E1,1.7174953E1,-2.4068477E0,-4.4533057E0,-3.4888608E0,-6.6374474E0,-2.5756507E0,-1.5492302E0,-3.5460842E0,-2.0435827E0,2.503935E0,8.5651153E-1,-2.377692E0,-8.010829E-1,-8.8577956E-1,-2.149326E0,-2.1169875E0,-3.1571953E0,4.055155E-1,1.2160798E0,-7.607033E-2,-5.56097E-1,-9.5834583E-1,6.2592626E-2,1.5827465E-1,6.0587204E-1,-1.356499E0,-3.790465E-1,-2.232743E0,-1.3279803E0,1.688968E0,3.4651434E-1,-4.6870756E-1,-1.9789822E0,4.5729876E-1,-6.8895215E-1,1.5597875E0,2.1878495E0,4.1716877E-1,-4.2971656E-1,1.4604814E0,6.31306E-1,2.9651725E0,1.6874039E0,5.380425E-1,-6.095381E-1,1.6468223E0,5.529026E-1,-6.3252084E-2,3.1289622E-1,2.8584366E0,1.9669249E0,5.486052E-1,1.7718315E0,3.2285306E0,1.7477368E0,1.2588712E0,6.7069614E-1,-8.8593525E-1,7.920508E-1,1.4539856E0,1.0062842E0,7.351789E-1,1.3392993E0],"categories":[],"categories_nodes":[],"categories_segments":[],"categories_sizes":[],"default_left":[0,0,0,0,0,0,0,0,0,0,0,0,0,0,0,0,0,0,0,0,0,0,0,0,0,0,0,0,0,0,0,0,0,0,0,0,0,0,0,0,0,0,0,0,0,0,0,0,0,0,0,0,0,0,0,0,0,0,0,0,0,0,0,0,0,0,0,0,0,0,0,0,0,0,0,0,0,0,0,0,0,0,0,0,0,0,0,0,0,0,0,0,0,0,0,0,0,0,0,0,0,0,0,0,0,0,0,0,0,0,0,0,0,0,0,0,0,0,0,0,0,0,0,0,0],"id":6,"left_children":[1,3,5,7,9,11,13,15,17,19,21,23,25,27,29,31,33,35,37,39,41,43,45,47,49,51,53,55,57,59,61,63,65,67,69,71,73,75,77,79,81,83,85,87,89,91,93,95,97,99,101,103,105,107,109,111,113,115,-1,117,119,121,123,-1,-1,-1,-1,-1,-1,-1,-1,-1,-1,-1,-1,-1,-1,-1,-1,-1,-1,-1,-1,-1,-1,-1,-1,-1,-1,-1,-1,-1,-1,-1,-1,-1,-1,-1,-1,-1,-1,-1,-1,-1,-1,-1,-1,-1,-1,-1,-1,-1,-1,-1,-1,-1,-1,-1,-1,-1,-1,-1,-1,-1,-1],"loss_changes":[1.2585855E7,9.30462E6,1.7943605E6,3.606832E6,6.338046E6,1.293696E6,3.12269E5,1.496477E6,1.2332875E6,5.5846325E5,4.567769E6,4.6633625E5,7.130364E5,5.424375E4,2.23043E5,3.9376E5,4.572425E5,5.884311E5,3.42103E5,1.1421602E6,1.1427765E6,8.97191E5,2.7289245E6,2.3219525E5,8.572003E4,3.18154E5,3.1287688E5,1.56368125E4,2.7423812E4,2.282625E5,8.40655E4,1.8748225E5,3.84589E5,1.71066E5,1.1567375E5,6.971603E4,2.9645612E5,4.653503E4,1.6270375E5,2.3855662E5,3.2876344E5,6.958047E5,2.8943712E5,5.98434E5,3.44793E5,7.548155E5,5.0227912E5,1.94064E4,7.219475E4,3.1044652E4,9.924419E4,2.5027031E4,2.78231E5,1.1881866E5,2.2878614E5,1.1085594E4,1.2066344E4,1.8888562E4,0E0,2.030745E5,2.880295E5,5.559E4,2.3782031E4,0E0,0E0,0E0,0E0,0E0,0E0,0E0,0E0,0E0,0E0,0E0,0E0,0E0,0E0,0E0,0E0,0E0,0E0,0E0,0E0,0E0,0E0,0E0,0E0,0E0,0E0,0E0,0E0,0E0,0E0,0E0,0E0,0E0,0E0,0E0,0E0,0E0,0E0,0E0,0E0,0E0,0E0,0E0,0E0,0E0,0E0,0E0,0E0,0E0,0E0,0E0,0E0,0E0,0E0,0E0,0E0,0E0,0E0,0E0,0E0,0E0,0E0],"parents":[2147483647,0,0,1,1,2,2,3,3,4,4,5,5,6,6,7,7,8,8,9,9,10,10,11,11,12,12,13,13,14,14,15,15,16,16,17,17,18,18,19,19,20,20,21,21,22,22,23,23,24,24,25,25,26,26,27,27,28,28,29,29,30,30,31,31,32,32,33,33,34,34,35,35,36,36,37,37,38,38,39,39,40,40,41,41,42,42,43,43,44,44,45,45,46,46,47,47,48,48,49,49,50,50,51,51,52,52,53,53,54,54,55,55,56,56,57,57,59,59,60,60,61,61,62,62],"right_children":[2,4,6,8,10,12,14,16,18,20,22,24,26,28,30,32,34,36,38,40,42,44,46,48,50,52,54,56,58,60,62,64,66,68,70,72,74,76,78,80,82,84,86,88,90,92,94,96,98,100,102,104,106,108,110,112,114,116,-1,118,120,122,124,-1,-1,-1,-1,-1,-1,-1,-1,-1,-1,-1,-1,-1,-1,-1,-1,-1,-1,-1,-1,-1,-1,-1,-1,-1,-1,-1,-1,-1,-1,-1,-1,-1,-1,-1,-1,-1,-1,-1,-1,-1,-1,-1,-1,-1,-1,-1,-1,-1,-1,-1,-1,-1,-1,-1,-1,-1,-1,-1,-1,-1,-1],"split_conditions":[1.5688391E0,-6.087614E-1,2.0505097E0,1.2716377E0,6.2251467E-1,3.3317844E1,-1.0709596E0,-9.238795E-1,3.6023474E-1,-4.9377555E-1,1.7213356E-2,1.0340464E1,4.5578003E-2,2.6673993E-1,2.312514E0,-9.852706E-2,2.1919441E-1,2.1516098E-2,8.5207754E-1,7.84591E-2,2.6176948E-2,3.019619E-1,8.241262E-1,-8.800122E-1,-4.9377555E-1,-1.7291859E0,-5.049611E-1,8.3388585E-1,6.2251467E-1,8.717063E-1,1.5831083E1,-2.5325823E-1,9.998518E-1,-8.9493436E-1,1.3170622E1,-1.7291859E0,5.3540826E-1,3.412647E1,7.9073906E-1,3.539471E1,4.617486E-1,4.708023E-1,-8.7380713E-1,1.3356572E0,1.3055168E0,-5.1392555E-1,3.4805786E1,7.7228546E-2,8.5207754E-1,2.8364372E-1,1.4637987E1,-2.786897E-1,9.099613E-1,1.3861489E1,1.846719E0,-1.6507738E0,2.1516098E-2,-4.7495106E-1,4.220814E0,1.4480213E1,-4.7495106E-1,4.4032097E-1,3.628339E1,-2.4068477E0,-4.4533057E0,-3.4888608E0,-6.6374474E0,-2.5756507E0,-1.5492302E0,-3.5460842E0,-2.0435827E0,2.503935E0,8.5651153E-1,-2.377692E0,-8.010829E-1,-8.8577956E-1,-2.149326E0,-2.1169875E0,-3.1571953E0,4.055155E-1,1.2160798E0,-7.607033E-2,-5.56097E-1,-9.5834583E-1,6.2592626E-2,1.5827465E-1,6.0587204E-1,-1.356499E0,-3.790465E-1,-2.232743E0,-1.3279803E0,1.688968E0,3.4651434E-1,-4.6870756E-1,-1.9789822E0,4.5729876E-1,-6.8895215E-1,1.5597875E0,2.1878495E0,4.1716877E-1,-4.2971656E-1,1.4604814E0,6.31306E-1,2.9651725E0,1.6874039E0,5.380425E-1,-6.095381E-1,1.6468223E0,5.529026E-1,-6.3252084E-2,3.1289622E-1,2.8584366E0,1.9669249E0,5.486052E-1,1.7718315E0,3.2285306E0,1.7477368E0,1.2588712E0,6.7069614E-1,-8.8593525E-1,7.920508E-1,1.4539856E0,1.0062842E0,7.351789E-1,1.3392993E0],"split_indices":[4,8,4,4,8,2,1,8,1,12,12,0,1,9,4,9,1,11,11,8,8,1,8,12,12,0,11,8,8,12,0,1,11,8,0,0,0,2,1,2,8,3,11,4,4,1,2,1,11,1,0,9,8,0,4,1,11,11,0,0,11,1,2,0,0,0,0,0,0,0,0,0,0,0,0,0,0,0,0,0,0,0,0,0,0,0,0,0,0,0,0,0,0,0,0,0,0,0,0,0,0,0,0,0,0,0,0,0,0,0,0,0,0,0,0,0,0,0,0,0,0,0,0,0,0],"split_type":[0,0,0,0,0,0,0,0,0,0,0,0,0,0,0,0,0,0,0,0,0,0,0,0,0,0,0,0,0,0,0,0,0,0,0,0,0,0,0,0,0,0,0,0,0,0,0,0,0,0,0,0,0,0,0,0,0,0,0,0,0,0,0,0,0,0,0,0,0,0,0,0,0,0,0,0,0,0,0,0,0,0,0,0,0,0,0,0,0,0,0,0,0,0,0,0,0,0,0,0,0,0,0,0,0,0,0,0,0,0,0,0,0,0,0,0,0,0,0,0,0,0,0,0,0],"sum_hessian":[1.42604E5,8.2986E4,5.9618E4,1.3037E4,6.9949E4,4.6759E4,1.2859E4,3.67E3,9.367E3,4.8529E4,2.142E4,4.222E3,4.2537E4,4.64E2,1.2395E4,9.48E2,2.722E3,7.057E3,2.31E3,1.8965E4,2.9564E4,1.3709E4,7.711E3,2.066E3,2.156E3,2.174E4,2.0797E4,3.19E2,1.45E2,6.982E3,5.413E3,4.76E2,4.72E2,1.823E3,8.99E2,3.15E2,6.742E3,5.94E2,1.716E3,4.239E3,1.4726E4,9.685E3,1.9879E4,8.656E3,5.053E3,5.43E3,2.281E3,1.46E2,1.92E3,5.37E2,1.619E3,1.9E2,2.155E4,1.998E3,1.8799E4,1.82E2,1.37E2,1E2,4.5E1,5.879E3,1.103E3,4.396E3,1.017E3,1.92E2,2.84E2,1.43E2,3.29E2,6.19E2,1.204E3,7.38E2,1.61E2,9E1,2.25E2,3.12E2,6.43E3,5.09E2,8.5E1,1.145E3,5.71E2,2.922E3,1.317E3,8.663E3,6.063E3,2.142E3,7.543E3,4.745E3,1.5134E4,6.602E3,2.054E3,3.547E3,1.506E3,1.416E3,4.014E3,9.3E2,1.351E3,7E1,7.6E1,7.99E2,1.121E3,3.88E2,1.49E2,5.45E2,1.074E3,1.28E2,6.2E1,2.1009E4,5.41E2,2.9E2,1.708E3,1.2916E4,5.883E3,6.2E1,1.2E2,2.6E1,1.11E2,5.9E1,4.1E1,2.948E3,2.931E3,4.01E2,7.02E2,3.519E3,8.77E2,8.11E2,2.06E2],"tree_param":{"num_deleted":"0","num_feature":"13","num_nodes":"125","size_leaf_vector":"1"}},{"base_weights":[-1.5137523E-2,2.9911168E0,-3.5516674E1,-2.994116E0,1.3813019E1,-8.210176E1,-2.5923103E1,-1.1397293E1,5.768151E0,2.481935E1,7.1208153E0,-1.2012246E2,-7.385149E1,-3.3745872E1,-2.9836686E0,-7.621179E0,-2.3382778E1,-7.4461465E0,8.232723E0,2.2096666E1,4.3508545E1,5.444701E-1,1.5629773E1,-5.959799E1,-1.3095605E2,-7.1856265E0,-7.772825E1,-2.6838943E1,-5.5758453E1,-2.9446537E1,7.255979E-2,-2.2765638E1,-4.2565837E0,-3.1572204E0,-2.828813E1,-1.6976313E1,-7.246291E-1,1.3095095E1,-1.2824836E-1,1.3245437E1,2.5544027E1,5.0309376E1,3.628865E1,-5.4096045E0,2.9798412E0,1.1954097E1,2.074875E1,-5.7712727E0,-3.0025976E1,-1.0828319E2,-1.3729407E2,1.0471829E1,-2.9188951E1,-6.980665E1,-9.769705E1,-3.7665127E1,-8.125658E0,-7.8321526E1,-4.1342453E1,6.3939804E1,-3.4575005E1,1.3581188E0,-3.3802395E1,1.0970849E0,-1.3278099E0,-6.3116115E-1,-7.606042E-2,1.0698575E0,-1.0080874E0,-9.7979873E-1,-1.7960232E0,-1.8780845E0,-6.2574714E-1,1.5463556E-1,-7.018743E-1,5.6180114E-1,1.1054E0,1.3232286E0,-2.1149676E-1,1.0243777E-1,8.833572E-1,1.7318928E0,1.1185659E0,4.22914E0,2.4340951E0,8.2793695E-1,1.9583282E0,2.186407E0,-2.959514E-1,2.7500866E-3,4.052247E-1,7.167442E-1,2.64452E-1,1.4262638E0,9.449796E-1,-8.961299E-1,-2.6365426E0,-6.8126826E0,-4.5789332E0,-6.9646564E0,-4.0787272E0,-1.5978847E-1,7.0304245E-1,-9.3473226E-1,-2.5617464E0,-2.8770015E0,-3.978808E0,-2.9047234E0,-5.0586615E0,-1.4827962E0,-2.600942E0,5.4356355E-2,-9.558576E-1,-4.3399105E0,-2.7493038E0,-2.1832893E0,-1.0068597E0,4.429512E0,1.0199629E0,-1.975268E0,-4.2458746E-1,-1.1928693E-1,5.3240883E-1,-2.9459223E-1,-1.9431466E0],"categories":[],"categories_nodes":[],"categories_segments":[],"categories_sizes":[],"default_left":[0,0,0,0,0,0,0,0,0,0,0,0,0,0,0,0,0,0,0,0,0,0,0,0,0,0,0,0,0,0,0,0,0,0,0,0,0,0,0,0,0,0,0,0,0,0,0,0,0,0,0,0,0,0,0,0,0,0,0,0,0,0,0,0,0,0,0,0,0,0,0,0,0,0,0,0,0,0,0,0,0,0,0,0,0,0,0,0,0,0,0,0,0,0,0,0,0,0,0,0,0,0,0,0,0,0,0,0,0,0,0,0,0,0,0,0,0,0,0,0,0,0,0,0,0],"id":7,"left_children":[1,3,5,7,9,11,13,15,17,19,21,23,25,27,29,31,33,35,37,39,41,43,45,47,49,51,53,55,57,59,61,63,65,67,69,71,73,75,77,79,81,83,85,87,89,91,93,-1,95,97,99,101,103,105,107,109,111,113,115,117,119,121,123,-1,-1,-1,-1,-1,-1,-1,-1,-1,-1,-1,-1,-1,-1,-1,-1,-1,-1,-1,-1,-1,-1,-1,-1,-1,-1,-1,-1,-1,-1,-1,-1,-1,-1,-1,-1,-1,-1,-1,-1,-1,-1,-1,-1,-1,-1,-1,-1,-1,-1,-1,-1,-1,-1,-1,-1,-1,-1,-1,-1,-1,-1],"loss_changes":[1.5206094E7,8.508052E6,4.968924E6,6.2276185E6,3.445254E6,5.8679E5,1.6553205E6,1.953812E6,1.3485229E6,8.99031E5,1.6278595E6,2.131455E5,4.03386E5,1.0443745E6,1.8982238E5,1.6728541E6,1.0260725E6,4.169341E5,1.4187108E6,4.707845E5,1.085455E5,2.3796714E5,2.383695E5,8.401903E4,2.6064E4,3.410901E4,2.26803E5,1.0608738E6,5.30842E5,1.1858747E5,9.1711734E4,1.01195525E6,6.14809E5,8.438528E5,5.51517E5,2.4675544E5,1.9407416E5,3.694615E5,1.3998746E6,2.1433344E5,3.19795E5,6.029375E4,6.1464125E4,1.1950708E5,1.7457312E5,1.1709225E5,7.5656E4,0E0,8.940865E3,1.8803875E4,1.300875E4,2.4496328E3,8.058121E3,1.225565E5,5.151275E4,3.79892E5,1.945474E5,1.21612E5,4.8578125E4,1.2134742E4,2.9366281E4,7.059617E4,1.0642203E4,0E0,0E0,0E0,0E0,0E0,0E0,0E0,0E0,0E0,0E0,0E0,0E0,0E0,0E0,0E0,0E0,0E0,0E0,0E0,0E0,0E0,0E0,0E0,0E0,0E0,0E0,0E0,0E0,0E0,0E0,0E0,0E0,0E0,0E0,0E0,0E0,0E0,0E0,0E0,0E0,0E0,0E0,0E0,0E0,0E0,0E0,0E0,0E0,0E0,0E0,0E0,0E0,0E0,0E0,0E0,0E0,0E0,0E0,0E0,0E0,0E0,0E0],"parents":[2147483647,0,0,1,1,2,2,3,3,4,4,5,5,6,6,7,7,8,8,9,9,10,10,11,11,12,12,13,13,14,14,15,15,16,16,17,17,18,18,19,19,20,20,21,21,22,22,23,23,24,24,25,25,26,26,27,27,28,28,29,29,30,30,31,31,32,32,33,33,34,34,35,35,36,36,37,37,38,38,39,39,40,40,41,41,42,42,43,43,44,44,45,45,46,46,48,48,49,49,50,50,51,51,52,52,53,53,54,54,55,55,56,56,57,57,58,58,59,59,60,60,61,61,62,62],"right_children":[2,4,6,8,10,12,14,16,18,20,22,24,26,28,30,32,34,36,38,40,42,44,46,48,50,52,54,56,58,60,62,64,66,68,70,72,74,76,78,80,82,84,86,88,90,92,94,-1,96,98,100,102,104,106,108,110,112,114,116,118,120,122,124,-1,-1,-1,-1,-1,-1,-1,-1,-1,-1,-1,-1,-1,-1,-1,-1,-1,-1,-1,-1,-1,-1,-1,-1,-1,-1,-1,-1,-1,-1,-1,-1,-1,-1,-1,-1,-1,-1,-1,-1,-1,-1,-1,-1,-1,-1,-1,-1,-1,-1,-1,-1,-1,-1,-1,-1,-1,-1,-1,-1,-1,-1],"split_conditions":[-5.769021E0,1.6505705E0,-8.703557E-1,3.967617E2,1.4637987E1,1.0532984E0,1.4789377E1,6.2251467E-1,-5.6640625E-1,4.1379916E2,3.9998544E2,-1.7291859E0,4.975133E-1,-5.2940774E0,-3.9874908E-1,-5.8070296E-1,8.78048E0,1.3692361E0,5.6640625E-1,3.8615152E2,-1.19018555E-2,3.83342E2,4.1155618E2,3.2606907E1,-5.2940774E0,-5.3395805E0,-5.246116E0,1.5735626E0,8.141155E-1,-8.56551E-1,-5.067349E0,4.975133E-1,3.8088623E2,7.8260815E-1,-2.8137207E-2,-9.170601E-1,3.5325623E-1,4.1816013E2,7.3865523E0,1.8125974E0,-3.0570316E-1,-2.1941504E0,-7.1325046E-1,-9.487118E-1,-6.5315433E0,3.21043E-1,1.7696974E1,-5.7712727E0,-5.067349E0,-9.6814764E-1,3.37069E1,-4.167675E-1,-5.067349E0,2.785934E0,-1.7291859E0,3.0846024E-1,-5.5105886E0,1.6593759E0,-4.7495106E-1,-9.509697E-1,1.506089E0,4.041847E2,3.8268343E-1,1.0970849E0,-1.3278099E0,-6.3116115E-1,-7.606042E-2,1.0698575E0,-1.0080874E0,-9.7979873E-1,-1.7960232E0,-1.8780845E0,-6.2574714E-1,1.5463556E-1,-7.018743E-1,5.6180114E-1,1.1054E0,1.3232286E0,-2.1149676E-1,1.0243777E-1,8.833572E-1,1.7318928E0,1.1185659E0,4.22914E0,2.4340951E0,8.2793695E-1,1.9583282E0,2.186407E0,-2.959514E-1,2.7500866E-3,4.052247E-1,7.167442E-1,2.64452E-1,1.4262638E0,9.449796E-1,-8.961299E-1,-2.6365426E0,-6.8126826E0,-4.5789332E0,-6.9646564E0,-4.0787272E0,-1.5978847E-1,7.0304245E-1,-9.3473226E-1,-2.5617464E0,-2.8770015E0,-3.978808E0,-2.9047234E0,-5.0586615E0,-1.4827962E0,-2.600942E0,5.4356355E-2,-9.558576E-1,-4.3399105E0,-2.7493038E0,-2.1832893E0,-1.0068597E0,4.429512E0,1.0199629E0,-1.975268E0,-4.2458746E-1,-1.1928693E-1,5.3240883E-1,-2.9459223E-1,-1.9431466E0],"split_indices":[5,4,8,7,0,4,0,8,8,7,7,0,11,5,8,8,0,4,8,7,1,7,7,2,5,5,5,4,8,11,5,11,7,8,1,8,1,7,0,4,1,1,8,9,5,1,0,0,5,8,2,9,5,0,0,1,5,4,11,1,4,7,8,0,0,0,0,0,0,0,0,0,0,0,0,0,0,0,0,0,0,0,0,0,0,0,0,0,0,0,0,0,0,0,0,0,0,0,0,0,0,0,0,0,0,0,0,0,0,0,0,0,0,0,0,0,0,0,0,0,0,0,0,0,0],"split_type":[0,0,0,0,0,0,0,0,0,0,0,0,0,0,0,0,0,0,0,0,0,0,0,0,0,0,0,0,0,0,0,0,0,0,0,0,0,0,0,0,0,0,0,0,0,0,0,0,0,0,0,0,0,0,0,0,0,0,0,0,0,0,0,0,0,0,0,0,0,0,0,0,0,0,0,0,0,0,0,0,0,0,0,0,0,0,0,0,0,0,0,0,0,0,0,0,0,0,0,0,0,0,0,0,0,0,0,0,0,0,0,0,0,0,0,0,0,0,0,0,0,0,0,0,0],"sum_hessian":[1.42475E5,1.31353E5,1.1122E4,8.4577E4,4.6776E4,1.898E3,9.224E3,4.3173E4,4.1404E4,1.7686E4,2.909E4,3.36E2,1.562E3,6.878E3,2.346E3,3.2831E4,1.0342E4,6.508E3,3.4896E4,1.5439E4,2.247E3,1.6409E4,1.2681E4,5.2E1,2.84E2,8.6E1,1.476E3,5.237E3,1.641E3,2.42E2,2.104E3,5.967E3,2.6864E4,2.019E3,8.323E3,2.691E3,3.817E3,2.2064E4,1.2832E4,4.329E3,1.111E4,1.154E3,1.093E3,4.763E3,1.1646E4,7.383E3,5.298E3,1.7E1,3.5E1,6.6E1,2.18E2,4.8E1,3.8E1,1.06E3,4.16E2,3.317E3,1.92E3,6.38E2,1.003E3,1.2E1,2.3E2,2.028E3,7.6E1,4.66E2,5.501E3,6.618E3,2.0246E4,8.26E2,1.193E3,3.893E3,4.43E3,4.78E2,2.213E3,2.967E3,8.5E2,1.8293E4,3.771E3,1.714E3,1.1118E4,1.226E3,3.103E3,2.871E3,8.239E3,5E1,1.104E3,1.4E2,9.53E2,4.8E1,4.715E3,7.415E3,4.231E3,5.439E3,1.944E3,1.015E3,4.283E3,2.4E1,1.1E1,2.2E1,4.4E1,2.09E2,9E0,1E1,3.8E1,2.7E1,1.1E1,4.73E2,5.87E2,3.5E1,3.81E2,2.131E3,1.186E3,1.045E3,8.75E2,4.66E2,1.72E2,9.03E2,1E2,7E0,5E0,1.93E2,3.7E1,1.446E3,5.82E2,1.2E1,6.4E1],"tree_param":{"num_deleted":"0","num_feature":"13","num_nodes":"125","size_leaf_vector":"1"}},{"base_weights":[1.3644937E-2,2.8527644E0,-3.341039E1,-3.4193249E0,1.210641E1,-7.776485E1,-2.445101E1,-1.0866883E1,5.3862143E0,2.199407E1,6.262986E0,-1.1567078E2,-6.996365E1,-3.1626402E1,-2.6085632E0,-6.8608875E0,-2.3028028E1,-8.066837E0,7.9132104E0,1.8343063E1,3.4867134E1,-7.225899E-1,1.38232E1,-6.113987E1,-1.24868256E2,-7.3782825E0,-7.383553E1,-2.5858265E1,-5.683046E1,-2.7298822E1,-1.0280076E-1,-2.2128544E1,-3.5588171E0,-3.0814766E1,6.939818E-1,8.933269E0,-1.2494145E1,1.041723E-3,1.323888E1,9.607141E0,2.2472193E1,2.142918E1,3.941961E1,-7.6523037E0,1.2369771E0,1.0616695E1,1.9016249E1,-5.4742165E0,-3.1093409E1,-1.0213753E2,-1.2940443E2,1.0627176E1,-2.72644E1,-6.703275E1,-9.711198E1,-3.4403378E1,-8.659529E0,-4.5386234E1,-8.4201744E1,-3.7008698E1,1.6719559E1,1.2021887E0,-3.207501E1,1.0242941E0,-1.27619E0,-5.9481525E-1,-5.0623067E-2,-1.2195616E0,-2.0700774E0,6.3544416E-1,-1.1503662E0,1.2332872E0,1.0871705E-1,-4.1386962E-1,-1.5101314E0,5.036554E-1,-6.0871136E-1,7.6649344E-1,-6.8965596E-1,1.1074551E0,2.694408E-1,1.3628858E0,8.6889285E-1,1.9835151E0,6.322817E-1,2.814814E0,1.8266007E0,5.4540104E-1,-6.420111E-1,-2.5315952E-1,1.6823597E-1,6.1929876E-1,1.4781165E-3,6.3808006E-1,1.1139357E0,-8.132699E-1,-2.5182812E0,-4.034602E0,-6.10019E0,-5.4995265E0,-6.83472E0,2.073584E-1,1.0317616E0,-9.0003175E-1,-2.5229695E0,-2.324085E0,-3.88286E0,-4.47743E0,-5.829265E0,-2.6736019E0,-1.4599708E0,-4.6759363E-2,-2.4836166E0,-1.4267193E0,-2.8099263E0,-3.5715148E0,-4.78867E0,-1.5455028E0,-2.937602E0,2.2921007E0,-7.093472E-2,-2.037549E-1,3.9411682E-1,-2.5299415E-1,-1.8093888E0],"categories":[],"categories_nodes":[],"categories_segments":[],"categories_sizes":[],"default_left":[0,0,0,0,0,0,0,0,0,0,0,0,0,0,0,0,0,0,0,0,0,0,0,0,0,0,0,0,0,0,0,0,0,0,0,0,0,0,0,0,0,0,0,0,0,0,0,0,0,0,0,0,0,0,0,0,0,0,0,0,0,0,0,0,0,0,0,0,0,0,0,0,0,0,0,0,0,0,0,0,0,0,0,0,0,0,0,0,0,0,0,0,0,0,0,0,0,0,0,0,0,0,0,0,0,0,0,0,0,0,0,0,0,0,0,0,0,0,0,0,0,0,0,0,0],"id":8,"left_children":[1,3,5,7,9,11,13,15,17,19,21,23,25,27,29,31,33,35,37,39,41,43,45,47,49,51,53,55,57,59,61,63,65,67,69,71,73,75,77,79,81,83,85,87,89,91,93,-1,95,97,99,101,103,105,107,109,111,113,115,117,119,121,123,-1,-1,-1,-1,-1,-1,-1,-1,-1,-1,-1,-1,-1,-1,-1,-1,-1,-1,-1,-1,-1,-1,-1,-1,-1,-1,-1,-1,-1,-1,-1,-1,-1,-1,-1,-1,-1,-1,-1,-1,-1,-1,-1,-1,-1,-1,-1,-1,-1,-1,-1,-1,-1,-1,-1,-1,-1,-1,-1,-1,-1,-1],"loss_changes":[1.3548415E7,7.637775E6,4.440097E6,5.1437425E6,3.071441E6,5.47235E5,1.4576425E6,2.0700405E6,1.2219072E6,9.27458E5,1.7647921E6,1.523405E5,3.774705E5,1.016331E6,1.4235255E5,1.6114805E6,1.94491E6,4.279165E5,1.274998E6,5.54781E5,2.659985E5,2.3586789E5,2.67019E5,6.630555E4,1.4806E4,3.3232805E4,2.26082E5,8.37252E5,4.043215E5,9.123236E4,8.724354E4,8.22924E5,5.579804E5,5.38056E5,7.415447E5,1.2488692E5,3.365182E5,1.4930214E6,1.022441E6,2.612339E5,2.5421E5,1.7669844E5,1.56658E5,3.688325E5,1.8153578E5,1.8589088E5,1.2469625E5,0E0,8.0329473E3,1.14370625E4,1.650075E4,3.0897065E3,8.539262E3,2.4529E5,3.8143E4,3.762085E5,5.9964494E5,1.6620062E5,4.97445E4,2.1248234E4,2.067046E4,7.085588E4,8.923531E3,0E0,0E0,0E0,0E0,0E0,0E0,0E0,0E0,0E0,0E0,0E0,0E0,0E0,0E0,0E0,0E0,0E0,0E0,0E0,0E0,0E0,0E0,0E0,0E0,0E0,0E0,0E0,0E0,0E0,0E0,0E0,0E0,0E0,0E0,0E0,0E0,0E0,0E0,0E0,0E0,0E0,0E0,0E0,0E0,0E0,0E0,0E0,0E0,0E0,0E0,0E0,0E0,0E0,0E0,0E0,0E0,0E0,0E0,0E0,0E0,0E0,0E0],"parents":[2147483647,0,0,1,1,2,2,3,3,4,4,5,5,6,6,7,7,8,8,9,9,10,10,11,11,12,12,13,13,14,14,15,15,16,16,17,17,18,18,19,19,20,20,21,21,22,22,23,23,24,24,25,25,26,26,27,27,28,28,29,29,30,30,31,31,32,32,33,33,34,34,35,35,36,36,37,37,38,38,39,39,40,40,41,41,42,42,43,43,44,44,45,45,46,46,48,48,49,49,50,50,51,51,52,52,53,53,54,54,55,55,56,56,57,57,58,58,59,59,60,60,61,61,62,62],"right_children":[2,4,6,8,10,12,14,16,18,20,22,24,26,28,30,32,34,36,38,40,42,44,46,48,50,52,54,56,58,60,62,64,66,68,70,72,74,76,78,80,82,84,86,88,90,92,94,-1,96,98,100,102,104,106,108,110,112,114,116,118,120,122,124,-1,-1,-1,-1,-1,-1,-1,-1,-1,-1,-1,-1,-1,-1,-1,-1,-1,-1,-1,-1,-1,-1,-1,-1,-1,-1,-1,-1,-1,-1,-1,-1,-1,-1,-1,-1,-1,-1,-1,-1,-1,-1,-1,-1,-1,-1,-1,-1,-1,-1,-1,-1,-1,-1,-1,-1,-1,-1,-1,-1,-1,-1],"split_conditions":[-5.769021E0,1.5957375E0,-8.703557E-1,3.9862393E2,1.4789377E1,1.0532984E0,1.5247183E1,6.2251467E-1,-5.6640625E-1,4.083332E2,3.9721753E2,-1.7291859E0,4.975133E-1,8.5207754E-1,-3.9874908E-1,-5.8070296E-1,1.7213356E-2,1.7213356E-2,-4.9377555E-1,1.7836614E0,-6.4944804E-1,-5.160624E-1,4.1155618E2,3.2606907E1,9.998518E-1,-5.3395805E0,-5.197873E0,-4.7495106E-1,-5.3395805E0,1.506089E0,-5.067349E0,-4.9377555E-1,3.8088623E2,2.2494316E-1,7.0253754E-1,8.5207754E-1,-6.0800138E0,5.3729963E-1,8.141155E-1,3.3483223E1,3.107071E-3,-4.7495106E-1,-8.398113E-1,6.104854E-2,3.8223486E2,5.350609E-1,-8.606997E-3,-5.4742165E0,-5.067349E0,1.9047737E-1,-5.246116E0,3.8854382E2,-5.067349E0,-8.606997E-3,-8.606997E-3,1.7213356E-2,-5.246116E0,-8.606997E-3,-5.197873E0,-2.8137207E-2,-8.56551E-1,3.9502682E2,3.8268343E-1,1.0242941E0,-1.27619E0,-5.9481525E-1,-5.0623067E-2,-1.2195616E0,-2.0700774E0,6.3544416E-1,-1.1503662E0,1.2332872E0,1.0871705E-1,-4.1386962E-1,-1.5101314E0,5.036554E-1,-6.0871136E-1,7.6649344E-1,-6.8965596E-1,1.1074551E0,2.694408E-1,1.3628858E0,8.6889285E-1,1.9835151E0,6.322817E-1,2.814814E0,1.8266007E0,5.4540104E-1,-6.420111E-1,-2.5315952E-1,1.6823597E-1,6.1929876E-1,1.4781165E-3,6.3808006E-1,1.1139357E0,-8.132699E-1,-2.5182812E0,-4.034602E0,-6.10019E0,-5.4995265E0,-6.83472E0,2.073584E-1,1.0317616E0,-9.0003175E-1,-2.5229695E0,-2.324085E0,-3.88286E0,-4.47743E0,-5.829265E0,-2.6736019E0,-1.4599708E0,-4.6759363E-2,-2.4836166E0,-1.4267193E0,-2.8099263E0,-3.5715148E0,-4.78867E0,-1.5455028E0,-2.937602E0,2.2921007E0,-7.093472E-2,-2.037549E-1,3.9411682E-1,-2.5299415E-1,-1.8093888E0],"split_indices":[5,4,8,7,0,4,0,8,8,7,7,0,11,11,8,8,12,12,12,4,8,12,7,2,11,5,5,11,5,4,5,12,7,1,3,11,5,8,8,2,1,11,1,8,7,1,12,0,5,1,5,7,5,12,12,12,5,12,5,1,11,7,8,0,0,0,0,0,0,0,0,0,0,0,0,0,0,0,0,0,0,0,0,0,0,0,0,0,0,0,0,0,0,0,0,0,0,0,0,0,0,0,0,0,0,0,0,0,0,0,0,0,0,0,0,0,0,0,0,0,0,0,0,0,0],"split_type":[0,0,0,0,0,0,0,0,0,0,0,0,0,0,0,0,0,0,0,0,0,0,0,0,0,0,0,0,0,0,0,0,0,0,0,0,0,0,0,0,0,0,0,0,0,0,0,0,0,0,0,0,0,0,0,0,0,0,0,0,0,0,0,0,0,0,0,0,0,0,0,0,0,0,0,0,0,0,0,0,0,0,0,0,0,0,0,0,0,0,0,0,0,0,0,0,0,0,0,0,0,0,0,0,0,0,0,0,0,0,0,0,0,0,0,0,0,0,0,0,0,0,0,0,0],"sum_hessian":[1.42771E5,1.31594E5,1.1177E4,7.8433E4,5.3161E4,1.877E3,9.3E3,4.2493E4,3.594E4,1.9746E4,3.3415E4,3.18E2,1.559E3,7E3,2.3E3,3.1965E4,1.0528E4,5.683E3,3.0257E4,1.5385E4,4.361E3,1.7368E4,1.6047E4,4.7E1,2.71E2,9.1E1,1.468E3,5.698E3,1.302E3,2.11E2,2.089E3,5.683E3,2.6282E4,7.926E3,2.602E3,1.174E3,4.509E3,1.2173E4,1.8084E4,4.939E3,1.0446E4,1.105E3,3.256E3,3.828E3,1.354E4,9.923E3,6.124E3,1.7E1,3E1,4.9E1,2.22E2,4.8E1,4.3E1,1.139E3,3.29E2,3.806E3,1.892E3,9.2E2,3.82E2,1.73E2,3.8E1,2.008E3,8.1E1,4.19E2,5.264E3,6.148E3,2.0134E4,4.935E3,2.991E3,1.727E3,8.75E2,3.52E2,8.22E2,3.643E3,8.66E2,6.662E3,5.511E3,1.6786E4,1.298E3,1.242E3,3.697E3,5.384E3,5.062E3,3.58E2,7.47E2,4.73E2,2.783E3,8.36E2,2.992E3,3.418E3,1.0122E4,8.502E3,1.421E3,2.101E3,4.023E3,1.8E1,1.2E1,2.6E1,2.3E1,6.5E1,1.57E2,3E1,1.8E1,3.2E1,1.1E1,3.9E2,7.49E2,2.41E2,8.8E1,8.14E2,2.992E3,1.593E3,2.99E2,3.61E2,5.59E2,1.85E2,1.97E2,1.37E2,3.6E1,1.4E1,2.4E1,1.122E3,8.86E2,1.1E1,7E1],"tree_param":{"num_deleted":"0","num_feature":"13","num_nodes":"125","size_leaf_vector":"1"}},{"base_weights":[-5.269087E-2,-7.379266E0,8.921283E0,-4.296321E1,-4.7716627E0,1.010459E0,1.485032E1,-8.067914E1,-3.56356E1,-1.1882975E1,3.6972466E0,-2.7694066E0,1.0121935E1,2.3357101E1,1.2227477E1,-9.848884E1,-5.6524208E1,-2.7924583E1,-6.939549E1,-6.942667E0,-2.7064083E1,5.8012137E0,-1.5165422E1,1.8622749E0,-8.155529E0,1.4832955E1,3.752742E0,2.9002163E1,1.6447018E1,9.959135E0,2.1109488E1,-6.259684E1,-1.1054135E2,-3.0617723E1,-7.256748E1,-3.3393333E1,-5.34397E0,-2.0057505E1,-7.556051E1,-2.5884342E1,-4.309094E0,-3.1005325E1,1.1294241E0,-1.12579E1,8.426683E0,-2.3310621E1,1.160371E0,1.2251004E1,-1.0277994E0,-7.8626766E0,-7.679722E1,1.8813425E1,-4.0604553E0,9.58481E0,8.984247E-1,2.4223911E1,4.1064617E1,1.668974E1,-3.3787857E1,2.1801537E1,8.6425495E0,1.7721144E1,2.7954052E1,-1.851147E0,-4.6900387E0,-3.623172E0,-5.8876753E0,3.1776545E0,-1.758668E0,-5.22285E0,-3.1766467E0,-1.2833251E0,-2.4386814E0,1.1350907E0,-3.8136098E-1,2.0232423E-1,-1.198862E0,-3.8994062E0,-1.7665093E0,-1.0498837E0,-3.6025968E0,-5.7273877E-1,-1.0295512E-1,-1.2358373E0,-2.125201E0,5.59401E-1,-1.2248127E0,-3.7642667E-1,-3.0913754E0,-4.022242E-3,6.858308E-1,-1.494669E0,-7.447982E-1,-2.8163415E-1,1.2989453E0,9.114275E-1,9.6479304E-2,-3.4800314E-3,-8.924079E-1,-2.874643E-1,-6.9945246E-1,-1.5911169E0,-4.3863225E0,1.6747572E0,7.6209265E-1,-9.49807E-1,4.7201583E-1,1.0480326E0,3.9864647E-1,-1.7280103E-1,2.2795017E-1,7.212464E-1,1.4664681E0,3.7902067E0,1.956405E0,-3.1598997E-1,8.6013126E-1,-1.0822662E0,-1.9529446E0,1.7218039E0,8.645075E-1,5.1765174E-1,-2.6349572E-2,9.9350274E-1,4.5397472E-1,1.469874E0,3.050789E-1],"categories":[],"categories_nodes":[],"categories_segments":[],"categories_sizes":[],"default_left":[0,0,0,0,0,0,0,0,0,0,0,0,0,0,0,0,0,0,0,0,0,0,0,0,0,0,0,0,0,0,0,0,0,0,0,0,0,0,0,0,0,0,0,0,0,0,0,0,0,0,0,0,0,0,0,0,0,0,0,0,0,0,0,0,0,0,0,0,0,0,0,0,0,0,0,0,0,0,0,0,0,0,0,0,0,0,0,0,0,0,0,0,0,0,0,0,0,0,0,0,0,0,0,0,0,0,0,0,0,0,0,0,0,0,0,0,0,0,0,0,0,0,0,0,0,0,0],"id":9,"left_children":[1,3,5,7,9,11,13,15,17,19,21,23,25,27,29,31,33,35,37,39,41,43,45,47,49,51,53,55,57,59,61,63,65,67,69,71,73,75,77,79,81,83,85,87,89,91,93,95,97,99,101,103,105,107,109,111,113,115,117,119,121,123,125,-1,-1,-1,-1,-1,-1,-1,-1,-1,-1,-1,-1,-1,-1,-1,-1,-1,-1,-1,-1,-1,-1,-1,-1,-1,-1,-1,-1,-1,-1,-1,-1,-1,-1,-1,-1,-1,-1,-1,-1,-1,-1,-1,-1,-1,-1,-1,-1,-1,-1,-1,-1,-1,-1,-1,-1,-1,-1,-1,-1,-1,-1,-1,-1],"loss_changes":[9.373959E6,7.2828765E6,3.005658E6,1.478167E6,4.404484E6,9.4554875E5,8.16975E5,3.69115E5,1.1666435E6,2.981258E6,1.32486E6,4.8410856E5,2.4148594E5,3.36195E5,5.63895E5,2.093575E5,1.5238038E5,4.5128875E5,2.52152E5,1.4961145E6,1.084545E6,1.3451738E6,4.4550162E5,3.1328622E5,1.79742E5,3.480497E5,5.698821E4,2.7271925E5,4.790775E4,3.47578E5,1.3157725E5,9.865897E4,9.38825E4,6.4009703E4,5.932325E4,3.4849E5,4.5893016E4,8.98025E3,6.96025E4,8.2442025E5,4.233658E5,6.181365E5,3.0906722E5,7.5502975E5,1.1712729E6,1.233505E5,1.8829886E5,1.4007616E5,1.3157817E5,1.15602875E5,1.5874953E4,1.9989812E5,1.6270475E5,2.0458555E4,3.6677383E4,1.698685E5,8.757275E4,4.5721625E4,3.6455664E2,1.2656475E5,3.1487E5,7.0606E4,5.9243E4,0E0,0E0,0E0,0E0,0E0,0E0,0E0,0E0,0E0,0E0,0E0,0E0,0E0,0E0,0E0,0E0,0E0,0E0,0E0,0E0,0E0,0E0,0E0,0E0,0E0,0E0,0E0,0E0,0E0,0E0,0E0,0E0,0E0,0E0,0E0,0E0,0E0,0E0,0E0,0E0,0E0,0E0,0E0,0E0,0E0,0E0,0E0,0E0,0E0,0E0,0E0,0E0,0E0,0E0,0E0,0E0,0E0,0E0,0E0,0E0,0E0,0E0,0E0,0E0],"parents":[2147483647,0,0,1,1,2,2,3,3,4,4,5,5,6,6,7,7,8,8,9,9,10,10,11,11,12,12,13,13,14,14,15,15,16,16,17,17,18,18,19,19,20,20,21,21,22,22,23,23,24,24,25,25,26,26,27,27,28,28,29,29,30,30,31,31,32,32,33,33,34,34,35,35,36,36,37,37,38,38,39,39,40,40,41,41,42,42,43,43,44,44,45,45,46,46,47,47,48,48,49,49,50,50,51,51,52,52,53,53,54,54,55,55,56,56,57,57,58,58,59,59,60,60,61,61,62,62],"right_children":[2,4,6,8,10,12,14,16,18,20,22,24,26,28,30,32,34,36,38,40,42,44,46,48,50,52,54,56,58,60,62,64,66,68,70,72,74,76,78,80,82,84,86,88,90,92,94,96,98,100,102,104,106,108,110,112,114,116,118,120,122,124,126,-1,-1,-1,-1,-1,-1,-1,-1,-1,-1,-1,-1,-1,-1,-1,-1,-1,-1,-1,-1,-1,-1,-1,-1,-1,-1,-1,-1,-1,-1,-1,-1,-1,-1,-1,-1,-1,-1,-1,-1,-1,-1,-1,-1,-1,-1,-1,-1,-1,-1,-1,-1,-1,-1,-1,-1,-1,-1,-1,-1,-1,-1,-1,-1],"split_conditions":[1.5345826E0,-8.703557E-1,3.9412207E2,1.1606151E0,3.9862393E2,1.9363489E0,-2.9211044E-1,-9.366722E-1,2.9288816E-1,6.4944804E-1,7.933533E-1,1.325798E-2,1.4480213E1,1.7067333E1,2.0505097E0,9.998518E-1,-1.469512E-1,8.5876393E-1,5.2707773E-1,-5.9482276E-1,5.234156E-1,-5.6640625E-1,-5.049611E-1,-4.1366577E-2,5.45835E-1,8.6314213E-1,-1.5360022E-1,4.1404633E2,6.3607824E-1,3.343721E1,4.1091318E2,5.0962448E-2,-2.6234722E-1,-5.160624E-1,1.0467176E0,1.5216351E-2,4.3035382E-3,2.1516098E-2,4.1527115E2,3.5737944E-1,3.8088623E2,2.897148E-1,8.0385685E-1,3.3238506E-1,-4.9377555E-1,4.1222406E2,4.3035382E-3,1.3311342E1,8.703557E-1,6.050987E-1,4.1817155E0,-1.2910296E-2,4.3035382E-3,-4.9377555E-1,3.8442856E2,1.7229266E0,-2.1941504E0,-5.8070296E-1,3.4171207E1,5.648393E0,6.877899E-1,8.717063E-1,9.4832367E-1,-1.851147E0,-4.6900387E0,-3.623172E0,-5.8876753E0,3.1776545E0,-1.758668E0,-5.22285E0,-3.1766467E0,-1.2833251E0,-2.4386814E0,1.1350907E0,-3.8136098E-1,2.0232423E-1,-1.198862E0,-3.8994062E0,-1.7665093E0,-1.0498837E0,-3.6025968E0,-5.7273877E-1,-1.0295512E-1,-1.2358373E0,-2.125201E0,5.59401E-1,-1.2248127E0,-3.7642667E-1,-3.0913754E0,-4.022242E-3,6.858308E-1,-1.494669E0,-7.447982E-1,-2.8163415E-1,1.2989453E0,9.114275E-1,9.6479304E-2,-3.4800314E-3,-8.924079E-1,-2.874643E-1,-6.9945246E-1,-1.5911169E0,-4.3863225E0,1.6747572E0,7.6209265E-1,-9.49807E-1,4.7201583E-1,1.0480326E0,3.9864647E-1,-1.7280103E-1,2.2795017E-1,7.212464E-1,1.4664681E0,3.7902067E0,1.956405E0,-3.1598997E-1,8.6013126E-1,-1.0822662E0,-1.9529446E0,1.7218039E0,8.645075E-1,5.1765174E-1,-2.6349572E-2,9.9350274E-1,4.5397472E-1,1.469874E0,3.050789E-1],"split_indices":[4,8,7,4,7,4,1,8,6,8,8,1,0,0,4,11,6,12,11,8,12,8,11,3,6,12,1,7,8,2,7,1,6,12,4,6,11,11,7,6,7,1,8,6,12,7,11,0,8,1,0,11,11,12,7,4,1,8,2,0,1,12,8,0,0,0,0,0,0,0,0,0,0,0,0,0,0,0,0,0,0,0,0,0,0,0,0,0,0,0,0,0,0,0,0,0,0,0,0,0,0,0,0,0,0,0,0,0,0,0,0,0,0,0,0,0,0,0,0,0,0,0,0,0,0,0,0],"split_type":[0,0,0,0,0,0,0,0,0,0,0,0,0,0,0,0,0,0,0,0,0,0,0,0,0,0,0,0,0,0,0,0,0,0,0,0,0,0,0,0,0,0,0,0,0,0,0,0,0,0,0,0,0,0,0,0,0,0,0,0,0,0,0,0,0,0,0,0,0,0,0,0,0,0,0,0,0,0,0,0,0,0,0,0,0,0,0,0,0,0,0,0,0,0,0,0,0,0,0,0,0,0,0,0,0,0,0,0,0,0,0,0,0,0,0,0,0,0,0,0,0,0,0,0,0,0,0],"sum_hessian":[1.42571E5,7.849E4,6.4081E4,5.358E3,7.3132E4,2.7453E4,3.6628E4,8.7E2,4.488E3,3.9752E4,3.338E4,1.9404E4,8.049E3,8.63E3,2.7998E4,4.99E2,3.71E2,3.655E3,8.33E2,2.9993E4,9.759E3,3.0031E4,3.349E3,1.0433E4,8.971E3,4.626E3,3.423E3,4.748E3,3.882E3,2.2304E4,5.694E3,1.27E2,3.72E2,1.43E2,2.28E2,2.942E3,7.13E2,9.3E1,7.4E2,3.66E3,2.6333E4,8.562E3,1.197E3,4.005E3,2.6026E4,2.234E3,1.115E3,2.27E3,8.163E3,8.934E3,3.7E1,3.821E3,8.05E2,1.124E3,2.299E3,3.403E3,1.345E3,3.864E3,1.8E1,2.23E3,2.0074E4,3.811E3,1.883E3,7.1E1,5.6E1,6.1E1,3.11E2,6E0,1.37E2,4.8E1,1.8E2,1.96E3,9.82E2,5.3E1,6.6E2,1.3E1,8E1,6.97E2,4.3E1,3.311E3,3.49E2,6.305E3,2.0028E4,5.537E3,3.025E3,8.6E2,3.37E2,3.731E3,2.74E2,9.979E3,1.6047E4,1.252E3,9.82E2,8.76E2,2.39E2,1.437E3,8.33E2,7.724E3,4.39E2,6.644E3,2.29E3,8E0,2.9E1,7.46E2,3.075E3,3.82E2,4.23E2,1.38E2,9.86E2,1.05E3,1.249E3,1.167E3,2.236E3,6.9E1,1.276E3,8.4E1,3.78E3,7E0,1.1E1,5.85E2,1.645E3,1.6918E4,3.156E3,3.051E3,7.6E2,1.766E3,1.17E2],"tree_param":{"num_deleted":"0","num_feature":"13","num_nodes":"127","size_leaf_vector":"1"}},{"base_weights":[2.6685486E-3,2.0334427E0,-4.1312294E1,-4.0638695E0,1.0598111E1,-6.314019E1,-2.526878E1,-6.7071495E0,8.929768E0,1.8855925E1,5.3997865E0,-2.0909079E1,-7.2714935E1,-8.614749E0,-3.3920456E1,-1.5667148E1,-6.80254E-1,-6.2992253E0,1.3690383E1,1.0385834E1,2.2998232E1,6.562423E0,-4.953401E0,-1.1791655E1,-5.158129E1,-6.2090614E1,-9.237448E1,-1.728712E1,6.2650096E-1,-7.787209E1,-2.895569E1,-1.1024806E1,-2.744836E1,1.578926E0,-2.3790274E1,3.5517566E0,-7.463488E0,3.0663986E1,1.2132531E1,1.3292154E1,-7.4490457E0,3.1598272E1,2.0349596E1,2.3081853E0,9.150473E0,-9.348719E0,3.0915725E-1,-2.370799E0,-1.7186289E1,-3.6108093E1,-6.547221E1,-4.4106686E1,-7.4821556E1,-8.0470314E1,-1.1194886E2,-2.7202515E1,8.292173E0,2.285926E0,-2.0357012E1,-6.1026146E1,-8.6584724E1,-3.458912E1,-5.7520485E0,-3.2044697E-1,-1.0748043E0,-1.6091597E0,-6.3486004E-1,-8.827399E-2,2.4939103E-1,-1.4766774E0,-3.627604E-1,-1.2028105E0,3.6629602E-1,-7.3924315E-1,-2.6424357E-1,1.9191507E0,3.5181573E-1,1.5904626E0,5.49403E-1,1.4358374E0,5.1139903E-1,9.887953E-1,-5.559909E-1,1.9908313E0,1.4182513E0,1.1052322E0,3.3588257E-1,8.1332016E-1,-1.2869672E-1,1.2996818E-1,5.6728524E-1,-3.80194E-1,-1.1876414E0,7.471537E-2,-5.483369E-1,6.5043086E-1,-2.2253947E-1,-6.4436644E-1,-1.147185E0,-7.7255553E-1,-2.0259004E0,-2.1241374E0,-3.506902E0,4.878089E-1,-2.3090472E0,-3.2077942E0,-4.3310075E0,-2.165882E0,-4.268554E0,-6.080007E0,-4.732203E0,-2.009126E-1,-1.5819024E0,1.077628E0,-3.4136444E-1,-1.3273171E0,1.312725E-1,-5.733875E-1,-1.3256607E0,-2.1493642E0,-3.2593982E0,-3.7526402E0,-4.970192E0,-1.8904432E0,-1.1096866E0,1.1870827E-2,-1.0340778E0],"categories":[],"categories_nodes":[],"categories_segments":[],"categories_sizes":[],"default_left":[0,0,0,0,0,0,0,0,0,0,0,0,0,0,0,0,0,0,0,0,0,0,0,0,0,0,0,0,0,0,0,0,0,0,0,0,0,0,0,0,0,0,0,0,0,0,0,0,0,0,0,0,0,0,0,0,0,0,0,0,0,0,0,0,0,0,0,0,0,0,0,0,0,0,0,0,0,0,0,0,0,0,0,0,0,0,0,0,0,0,0,0,0,0,0,0,0,0,0,0,0,0,0,0,0,0,0,0,0,0,0,0,0,0,0,0,0,0,0,0,0,0,0,0,0,0,0],"id":10,"left_children":[1,3,5,7,9,11,13,15,17,19,21,23,25,27,29,31,33,35,37,39,41,43,45,47,49,51,53,55,57,59,61,63,65,67,69,71,73,75,77,79,81,83,85,87,89,91,93,95,97,99,101,103,105,107,109,111,113,115,117,119,121,123,125,-1,-1,-1,-1,-1,-1,-1,-1,-1,-1,-1,-1,-1,-1,-1,-1,-1,-1,-1,-1,-1,-1,-1,-1,-1,-1,-1,-1,-1,-1,-1,-1,-1,-1,-1,-1,-1,-1,-1,-1,-1,-1,-1,-1,-1,-1,-1,-1,-1,-1,-1,-1,-1,-1,-1,-1,-1,-1,-1,-1,-1,-1,-1,-1],"loss_changes":[1.1978845E7,7.1065475E6,2.340858E6,2.7303125E6,2.4292085E6,1.144001E6,5.5544025E5,3.5670758E6,9.743336E5,7.668015E5,4.180895E5,1.4620252E5,4.76528E5,1.05802E5,5.515505E5,1.4525425E6,2.061957E6,3.673957E4,2.7034062E5,3.7237056E5,3.33762E5,3.437705E5,8.112287E4,2.0591066E4,2.3418219E4,3.405745E5,1.792495E5,1.7294866E5,2.232989E4,3.242175E4,2.9809112E5,9.20961E5,5.239775E5,4.1017306E5,3.3377562E5,3.5497336E4,4.5586047E4,1.565745E5,2.10856E5,2.9160262E5,1.0085517E5,9.066975E4,2.68451E5,8.049801E5,2.7916562E5,4.784514E4,2.1357156E4,4.823409E3,6.086461E3,4.742992E3,3.6595E3,7.0282625E4,1.04915E5,8.841975E4,3.907475E4,5.036103E4,3.8442188E4,5.882112E3,2.2641875E3,4.0186562E3,1.72095E4,7.24295E4,3.9977586E4,0E0,0E0,0E0,0E0,0E0,0E0,0E0,0E0,0E0,0E0,0E0,0E0,0E0,0E0,0E0,0E0,0E0,0E0,0E0,0E0,0E0,0E0,0E0,0E0,0E0,0E0,0E0,0E0,0E0,0E0,0E0,0E0,0E0,0E0,0E0,0E0,0E0,0E0,0E0,0E0,0E0,0E0,0E0,0E0,0E0,0E0,0E0,0E0,0E0,0E0,0E0,0E0,0E0,0E0,0E0,0E0,0E0,0E0,0E0,0E0,0E0,0E0,0E0,0E0],"parents":[2147483647,0,0,1,1,2,2,3,3,4,4,5,5,6,6,7,7,8,8,9,9,10,10,11,11,12,12,13,13,14,14,15,15,16,16,17,17,18,18,19,19,20,20,21,21,22,22,23,23,24,24,25,25,26,26,27,27,28,28,29,29,30,30,31,31,32,32,33,33,34,34,35,35,36,36,37,37,38,38,39,39,40,40,41,41,42,42,43,43,44,44,45,45,46,46,47,47,48,48,49,49,50,50,51,51,52,52,53,53,54,54,55,55,56,56,57,57,58,58,59,59,60,60,61,61,62,62],"right_children":[2,4,6,8,10,12,14,16,18,20,22,24,26,28,30,32,34,36,38,40,42,44,46,48,50,52,54,56,58,60,62,64,66,68,70,72,74,76,78,80,82,84,86,88,90,92,94,96,98,100,102,104,106,108,110,112,114,116,118,120,122,124,126,-1,-1,-1,-1,-1,-1,-1,-1,-1,-1,-1,-1,-1,-1,-1,-1,-1,-1,-1,-1,-1,-1,-1,-1,-1,-1,-1,-1,-1,-1,-1,-1,-1,-1,-1,-1,-1,-1,-1,-1,-1,-1,-1,-1,-1,-1,-1,-1,-1,-1,-1,-1,-1,-1,-1,-1,-1,-1,-1,-1,-1,-1,-1,-1],"split_conditions":[-5.5806637E0,1.5735626E0,-6.6262007E-1,8.6314213E-1,1.510029E1,4.975133E-1,7.0090926E-1,1.756439E1,4.3619387E-2,1.7737772E0,7.001419E-1,-5.197873E0,-5.197873E0,2.0914991E1,1.7213356E-2,3.5325623E-1,6.087614E-1,4.7264013E0,6.475233E0,3.3692148E-1,-4.1732216E-1,-8.606997E-3,1.834976E0,-5.4706764E0,-5.067349E0,-8.606997E-3,-8.606997E-3,1.3991545E0,3.007058E-1,-6.6357097E-3,-4.7495106E-1,-6.0285535E0,1.4072464E0,8.445854E-1,-4.9377555E-1,-9.366722E-1,2.9338074E-1,-5.962205E0,-1.1446195E0,-6.4195204E-1,4.975133E-1,-1.0376034E0,-6.0109243E0,7.84591E-2,1.3052619E-1,6.3607824E-1,1.4386425E0,-5.686924E-1,-5.3395805E0,1.5022835E0,-8.7881714E-1,-1.7291859E0,-5.386519E0,-1.7291859E0,3.6485486E0,1.2123264E1,-1.6980934E-1,-1.8223552E-1,2.9268265E-2,-5.5475063E0,7.372773E-1,2.0378098E0,-5.2940774E0,-3.2044697E-1,-1.0748043E0,-1.6091597E0,-6.3486004E-1,-8.827399E-2,2.4939103E-1,-1.4766774E0,-3.627604E-1,-1.2028105E0,3.6629602E-1,-7.3924315E-1,-2.6424357E-1,1.9191507E0,3.5181573E-1,1.5904626E0,5.49403E-1,1.4358374E0,5.1139903E-1,9.887953E-1,-5.559909E-1,1.9908313E0,1.4182513E0,1.1052322E0,3.3588257E-1,8.1332016E-1,-1.2869672E-1,1.2996818E-1,5.6728524E-1,-3.80194E-1,-1.1876414E0,7.471537E-2,-5.483369E-1,6.5043086E-1,-2.2253947E-1,-6.4436644E-1,-1.147185E0,-7.7255553E-1,-2.0259004E0,-2.1241374E0,-3.506902E0,4.878089E-1,-2.3090472E0,-3.2077942E0,-4.3310075E0,-2.165882E0,-4.268554E0,-6.080007E0,-4.732203E0,-2.009126E-1,-1.5819024E0,1.077628E0,-3.4136444E-1,-1.3273171E0,1.312725E-1,-5.733875E-1,-1.3256607E0,-2.1493642E0,-3.2593982E0,-3.7526402E0,-4.970192E0,-1.8904432E0,-1.1096866E0,1.1870827E-2,-1.0340778E0],"split_indices":[5,4,8,12,0,11,8,0,8,4,1,5,5,0,12,1,8,0,0,9,1,12,4,5,5,12,12,4,8,9,11,5,4,3,12,8,3,5,1,1,11,1,5,8,8,8,1,0,5,4,8,0,5,0,0,0,1,8,1,5,8,4,5,0,0,0,0,0,0,0,0,0,0,0,0,0,0,0,0,0,0,0,0,0,0,0,0,0,0,0,0,0,0,0,0,0,0,0,0,0,0,0,0,0,0,0,0,0,0,0,0,0,0,0,0,0,0,0,0,0,0,0,0,0,0,0,0],"split_type":[0,0,0,0,0,0,0,0,0,0,0,0,0,0,0,0,0,0,0,0,0,0,0,0,0,0,0,0,0,0,0,0,0,0,0,0,0,0,0,0,0,0,0,0,0,0,0,0,0,0,0,0,0,0,0,0,0,0,0,0,0,0,0,0,0,0,0,0,0,0,0,0,0,0,0,0,0,0,0,0,0,0,0,0,0,0,0,0,0,0,0,0,0,0,0,0,0,0,0,0,0,0,0,0,0,0,0,0,0,0,0,0,0,0,0,0,0,0,0,0,0,0,0,0,0,0,0],"sum_hessian":[1.42771E5,1.36083E5,6.688E3,7.9492E4,5.6591E4,2.832E3,3.856E3,6.6055E4,1.3437E4,2.1861E4,3.473E4,5.24E2,2.308E3,1.319E3,2.537E3,2.6563E4,3.9492E4,3.2E3,1.0237E4,7.181E3,1.468E4,3.1224E4,3.506E3,4.05E2,1.19E2,1.501E3,8.07E2,6.8E2,6.39E2,2.56E2,2.281E3,1.9056E4,7.507E3,3.5976E4,3.516E3,3.38E2,2.862E3,8.59E2,9.378E3,6.175E3,1.006E3,3.454E3,1.1226E4,1.1811E4,1.9413E4,1.91E3,1.596E3,1.48E2,2.57E2,5.8E1,6.1E1,6.24E2,8.77E2,5.05E2,3.02E2,4.9E2,1.9E2,5.93E2,4.6E1,9E1,1.66E2,1.835E3,4.46E2,1.3227E4,5.829E3,5.682E3,1.825E3,1.816E4,1.7816E4,2.609E3,9.07E2,4E1,2.98E2,6.55E2,2.207E3,6.47E2,2.12E2,5.14E2,8.864E3,1.022E3,5.153E3,1.19E2,8.87E2,9.72E2,2.482E3,9.945E3,1.281E3,3.06E3,8.751E3,4.873E3,1.454E4,1.705E3,2.05E2,1.445E3,1.51E2,1.7E1,1.31E2,1.49E2,1.08E2,1.1E1,4.7E1,1.2E1,4.9E1,2.3E1,6.01E2,4.64E2,4.13E2,6E1,4.45E2,1.9E2,1.12E2,7.9E1,4.11E2,1.01E2,8.9E1,6E0,5.87E2,2E1,2.6E1,1.9E1,7.1E1,9.1E1,7.5E1,1.455E3,3.8E2,3.19E2,1.27E2],"tree_param":{"num_deleted":"0","num_feature":"13","num_nodes":"127","size_leaf_vector":"1"}},{"base_weights":[2.235703E-2,1.8494041E0,-4.1020058E1,-6.934949E0,7.325373E0,-6.3231762E1,-2.636875E1,-4.206713E0,-1.9125055E1,4.8899946E0,1.721845E1,-2.2250404E1,-7.252867E1,-3.124945E1,-1.4834765E-1,1.3530362E1,-5.8179207E0,-3.0643679E1,-1.3125236E1,2.0481052E1,3.244515E0,7.018244E-1,1.919781E1,-1.3409943E1,-4.8339294E1,-5.9643356E1,-8.652811E1,-3.488569E1,-7.471279E0,1.6272831E0,-2.8504793E1,4.441119E1,1.1741568E1,-4.6310315E0,-2.3179192E1,-6.671435E1,-2.8194576E1,-9.956458E0,-2.3035866E1,2.6107492E1,1.4979469E1,-2.9419266E1,4.1709847E0,5.583406E0,-1.5457313E1,3.805441E1,1.7444902E1,-7.7199664E0,-1.962004E1,-3.613195E1,-6.0553734E1,-4.4046516E1,-7.156701E1,-7.384917E1,-1.039429E2,-5.3685562E1,-3.120734E1,-2.2650113E0,-2.5247927E1,-1.6650797E0,6.7760434E0,-1.0436463E0,-1.745148E0,2.3508298E0,7.1797365E-1,9.1007394E-1,3.578197E-1,1.7872952E-1,-3.3947024E-1,-1.4498414E0,3.5819218E-2,-3.7473736E0,-1.4556584E0,-1.2709557E0,-2.6895893E0,-7.837378E-1,-2.921987E-1,-8.6115736E-1,-2.1952987E0,2.2486267E0,1.2259768E0,9.1407025E-1,2.957967E-1,-1.0640037E0,-2.4748304E0,2.9550073E-1,-4.1941768E-1,1.0484543E0,6.373522E-2,-1.6924686E0,-3.724219E-1,2.5606136E0,1.5838895E0,1.6892378E0,8.06444E-1,4.7317964E-1,-4.9234366E-1,-1.1934249E0,-5.2953666E-1,-1.9309828E0,-6.0602427E-1,-1.9335514E0,-3.1996143E0,6.5010947E-1,-2.309488E0,-3.1408305E0,-4.099049E0,-1.2832016E0,-3.8950524E0,-5.8388467E0,-4.440608E0,-3.4132752E0,-1.7535328E0,-1.1149588E0,-1.8460436E0,-2.4658807E-1,7.967351E-1,-1.0918154E0,-2.1466167E0,6.46761E-2,-3.9930943E-1,3.6592174E-1,-3.9786196E-1],"categories":[],"categories_nodes":[],"categories_segments":[],"categories_sizes":[],"default_left":[0,0,0,0,0,0,0,0,0,0,0,0,0,0,0,0,0,0,0,0,0,0,0,0,0,0,0,0,0,0,0,0,0,0,0,0,0,0,0,0,0,0,0,0,0,0,0,0,0,0,0,0,0,0,0,0,0,0,0,0,0,0,0,0,0,0,0,0,0,0,0,0,0,0,0,0,0,0,0,0,0,0,0,0,0,0,0,0,0,0,0,0,0,0,0,0,0,0,0,0,0,0,0,0,0,0,0,0,0,0,0,0,0,0,0,0,0,0,0,0,0,0,0],"id":11,"left_children":[1,3,5,7,9,11,13,15,17,19,21,23,25,27,29,31,33,35,37,39,41,43,45,47,49,51,53,55,57,59,61,63,65,67,69,71,73,75,77,79,81,83,85,87,89,91,93,95,97,99,101,103,105,107,109,111,113,115,117,119,121,-1,-1,-1,-1,-1,-1,-1,-1,-1,-1,-1,-1,-1,-1,-1,-1,-1,-1,-1,-1,-1,-1,-1,-1,-1,-1,-1,-1,-1,-1,-1,-1,-1,-1,-1,-1,-1,-1,-1,-1,-1,-1,-1,-1,-1,-1,-1,-1,-1,-1,-1,-1,-1,-1,-1,-1,-1,-1,-1,-1,-1,-1],"loss_changes":[1.0694035E7,6.567773E6,1.97629E6,1.743607E6,2.026312E6,9.18492E5,4.6888875E5,1.2244498E6,6.62217E5,1.7314488E6,5.43135E5,1.0267136E5,3.49826E5,2.6681925E5,2.9051006E4,1.9656731E5,8.092075E5,2.8813225E5,1.9780462E5,1.990435E5,1.8476461E6,1.4041664E5,4.89718E5,1.1718461E4,1.4651375E4,1.8801475E5,2.0008E5,1.835755E5,3.797811E4,9.216506E3,9.261113E2,1.4586656E4,9.98045E4,6.511441E5,3.4937012E5,6.2199312E4,2.171565E5,1.1231466E5,1.8448119E5,9.427325E4,9.7452125E4,2.7412775E5,1.2967094E6,9.0592625E4,6.0578547E4,1.04170625E5,2.9138325E5,6.5621904E3,5.881465E3,3.0511094E3,1.6535625E3,5.53805E4,4.778025E4,1.04982E5,6.61185E4,1.16199125E5,1.1333325E5,1.555986E4,4.666957E3,6.219946E3,1.7523057E3,0E0,0E0,0E0,0E0,0E0,0E0,0E0,0E0,0E0,0E0,0E0,0E0,0E0,0E0,0E0,0E0,0E0,0E0,0E0,0E0,0E0,0E0,0E0,0E0,0E0,0E0,0E0,0E0,0E0,0E0,0E0,0E0,0E0,0E0,0E0,0E0,0E0,0E0,0E0,0E0,0E0,0E0,0E0,0E0,0E0,0E0,0E0,0E0,0E0,0E0,0E0,0E0,0E0,0E0,0E0,0E0,0E0,0E0,0E0,0E0,0E0,0E0],"parents":[2147483647,0,0,1,1,2,2,3,3,4,4,5,5,6,6,7,7,8,8,9,9,10,10,11,11,12,12,13,13,14,14,15,15,16,16,17,17,18,18,19,19,20,20,21,21,22,22,23,23,24,24,25,25,26,26,27,27,28,28,29,29,30,30,31,31,32,32,33,33,34,34,35,35,36,36,37,37,38,38,39,39,40,40,41,41,42,42,43,43,44,44,45,45,46,46,47,47,48,48,49,49,50,50,51,51,52,52,53,53,54,54,55,55,56,56,57,57,58,58,59,59,60,60],"right_children":[2,4,6,8,10,12,14,16,18,20,22,24,26,28,30,32,34,36,38,40,42,44,46,48,50,52,54,56,58,60,62,64,66,68,70,72,74,76,78,80,82,84,86,88,90,92,94,96,98,100,102,104,106,108,110,112,114,116,118,120,122,-1,-1,-1,-1,-1,-1,-1,-1,-1,-1,-1,-1,-1,-1,-1,-1,-1,-1,-1,-1,-1,-1,-1,-1,-1,-1,-1,-1,-1,-1,-1,-1,-1,-1,-1,-1,-1,-1,-1,-1,-1,-1,-1,-1,-1,-1,-1,-1,-1,-1,-1,-1,-1,-1,-1,-1,-1,-1,-1,-1,-1,-1],"split_conditions":[-5.5475063E0,3.9164902E2,-7.1325046E-1,4.56398E-1,4.1511423E2,-8.5876393E-1,2.0469461E1,-6.8292336E0,2.7162933E-1,-6.8197265E0,-6.087614E-1,-5.197873E0,-5.246116E0,9.999167E-1,3.665012E-1,-1.7291859E0,8.0385685E-1,-9.0258527E-1,-6.2840385E0,-7.2661586E0,-8.870108E-1,4.031601E-1,-8.0319786E-1,-5.386519E0,-5.067349E0,-8.606997E-3,-8.606997E-3,-6.932297E-1,-5.246116E0,3.9457346E2,3.8848495E-1,5.234156E-1,-7.5919604E0,-6.3046265E-1,5.234156E-1,8.5876393E-1,-5.875186E0,-4.9377555E-1,8.5264015E-1,5.3540826E-1,4.100387E-1,-5.9517045E0,7.286482E-1,-6.509717E0,4.1563495E2,9.299292E0,-6.8062024E0,-5.686924E-1,3.967617E2,4.0290207E2,-8.7881714E-1,-1.7291859E0,-5.386519E0,-1.0582447E-2,4.2474222E-1,1.7213356E-2,-5.3395805E0,4.1379916E2,-5.067349E0,2.1355152E-1,3.502074E-1,-1.0436463E0,-1.745148E0,2.3508298E0,7.1797365E-1,9.1007394E-1,3.578197E-1,1.7872952E-1,-3.3947024E-1,-1.4498414E0,3.5819218E-2,-3.7473736E0,-1.4556584E0,-1.2709557E0,-2.6895893E0,-7.837378E-1,-2.921987E-1,-8.6115736E-1,-2.1952987E0,2.2486267E0,1.2259768E0,9.1407025E-1,2.957967E-1,-1.0640037E0,-2.4748304E0,2.9550073E-1,-4.1941768E-1,1.0484543E0,6.373522E-2,-1.6924686E0,-3.724219E-1,2.5606136E0,1.5838895E0,1.6892378E0,8.06444E-1,4.7317964E-1,-4.9234366E-1,-1.1934249E0,-5.2953666E-1,-1.9309828E0,-6.0602427E-1,-1.9335514E0,-3.1996143E0,6.5010947E-1,-2.309488E0,-3.1408305E0,-4.099049E0,-1.2832016E0,-3.8950524E0,-5.8388467E0,-4.440608E0,-3.4132752E0,-1.7535328E0,-1.1149588E0,-1.8460436E0,-2.4658807E-1,7.967351E-1,-1.0918154E0,-2.1466167E0,6.46761E-2,-3.9930943E-1,3.6592174E-1,-3.9786196E-1],"split_indices":[5,7,8,1,7,12,0,5,3,5,8,5,5,12,8,0,8,8,5,5,8,1,1,5,5,12,12,3,5,7,1,12,5,1,12,12,5,12,8,0,1,5,1,5,7,0,5,0,7,7,8,0,5,6,6,12,5,7,5,1,8,0,0,0,0,0,0,0,0,0,0,0,0,0,0,0,0,0,0,0,0,0,0,0,0,0,0,0,0,0,0,0,0,0,0,0,0,0,0,0,0,0,0,0,0,0,0,0,0,0,0,0,0,0,0,0,0,0,0,0,0,0,0],"split_type":[0,0,0,0,0,0,0,0,0,0,0,0,0,0,0,0,0,0,0,0,0,0,0,0,0,0,0,0,0,0,0,0,0,0,0,0,0,0,0,0,0,0,0,0,0,0,0,0,0,0,0,0,0,0,0,0,0,0,0,0,0,0,0,0,0,0,0,0,0,0,0,0,0,0,0,0,0,0,0,0,0,0,0,0,0,0,0,0,0,0,0,0,0,0,0,0,0,0,0,0,0,0,0,0,0,0,0,0,0,0,0,0,0,0,0,0,0,0,0,0,0,0,0],"sum_hessian":[1.42611E5,1.36534E5,6.077E3,5.2429E4,8.4105E4,2.414E3,3.663E3,4.2842E4,9.587E3,6.7492E4,1.6613E4,4.47E2,1.967E3,3.088E3,5.75E2,3.567E3,3.9275E4,3.282E3,6.305E3,6.442E3,6.105E4,1.778E3,1.4835E4,3.35E2,1.12E2,1.027E3,9.4E2,2.678E3,4.1E2,5.42E2,3.3E1,1.94E2,3.373E3,3.6763E4,2.512E3,2.07E2,3.075E3,4.779E3,1.526E3,3.183E3,3.259E3,1.683E3,5.9367E4,1.366E3,4.12E2,1.26E3,1.3575E4,1.76E2,1.59E2,5.8E1,5.4E1,4.47E2,5.8E2,5.47E2,3.93E2,4.36E2,2.242E3,3.18E2,9.2E1,3.31E2,2.11E2,1.7E1,1.6E1,1.78E2,1.6E1,1.399E3,1.974E3,7.656E3,2.9107E4,2.02E3,4.92E2,1.69E2,3.8E1,2.776E3,2.99E2,1.998E3,2.781E3,1.195E3,3.31E2,2.45E2,2.938E3,2.388E3,8.71E2,1.199E3,4.84E2,5.2147E4,7.22E3,2.98E2,1.068E3,1.24E2,2.88E2,4.09E2,8.51E2,1.01E3,1.2565E4,1.9E1,1.57E2,1.07E2,5.2E1,5.2E1,6E0,9E0,4.5E1,1.6E1,4.31E2,3.19E2,2.61E2,4.3E1,5.04E2,2.09E2,1.84E2,2.43E2,1.93E2,8.78E2,1.364E3,2.78E2,4E1,7.9E1,1.3E1,2.26E2,1.05E2,2.04E2,7E0],"tree_param":{"num_deleted":"0","num_feature":"13","num_nodes":"123","size_leaf_vector":"1"}},{"base_weights":[6.865055E-2,2.4915707E0,-2.8515018E1,-2.216976E0,1.1915815E1,-6.508015E1,-2.1140535E1,-7.309562E0,6.9640803E0,8.638985E0,2.1799917E1,-5.4403175E1,-8.349784E1,-2.7355513E1,-2.2590811E0,-4.450922E0,-1.5854609E1,1.6196793E1,1.5297337E0,-1.0310811E0,1.0639767E1,3.0280828E1,1.4861069E1,-3.0916023E1,-6.501498E1,-6.674852E1,-1.0348944E2,-2.0774765E1,-4.2864235E1,-2.4586954E1,2.6128376E-1,-1.6343374E1,-1.4796981E0,-2.417243E1,4.8585815E0,9.964547E0,1.979356E1,-1.6792399E0,6.1212783E0,1.5086842E1,-5.36041E0,5.290281E0,1.6275534E1,2.5549864E1,3.7734406E1,1.1074119E1,1.8022133E1,-8.043707E0,-4.2089836E1,-1.0425524E2,-6.2372044E1,-4.5079506E1,-8.374315E1,-1.11180275E2,-8.7185684E1,-3.1915752E1,-7.889483E0,-3.515665E1,-6.899859E1,-3.2711483E1,9.149963E0,2.0434148E0,-2.0685251E1,8.60456E-1,-9.909426E-1,-2.8032914E-1,2.1732867E-1,-1.4365637E0,-5.915334E-1,6.6397893E-1,-9.181081E-1,1.2567826E-1,7.1893775E-1,1.151463E0,6.247557E-1,1.4890741E0,-1.0486471E-1,-3.7265143E-1,3.5126004E-1,1.3324463E0,4.8594213E-1,-2.7116124E-2,-9.789276E-1,6.4527607E-1,-1.2981312E-1,2.550641E-1,9.922277E-1,1.426936E0,9.5253295E-1,1.9467518E0,1.2715663E0,-1.724501E0,5.6692487E-1,6.1607504E-1,9.9130774E-1,9.5915824E-1,-8.135725E-1,1.516814E0,-2.1849358E0,-5.4429064E0,-2.6170542E0,-3.8370855E0,-2.8933463E0,-4.6176583E-1,-2.6590614E0,-4.5618205E0,-2.6345804E0,-5.9711146E0,-4.815659E0,-5.0401263E0,-4.042064E0,-1.7925484E0,-4.0938064E-1,-1.04897715E-1,-8.544391E-1,-1.8566885E0,-6.668797E-1,-3.653937E0,-7.14214E-1,-1.4275789E0,-3.2214131E0,-1.9370072E-1,2.1258261E0,-6.0653508E-2,5.0416076E-1,-1.9598275E-1,-1.4515415E0],"categories":[],"categories_nodes":[],"categories_segments":[],"categories_sizes":[],"default_left":[0,0,0,0,0,0,0,0,0,0,0,0,0,0,0,0,0,0,0,0,0,0,0,0,0,0,0,0,0,0,0,0,0,0,0,0,0,0,0,0,0,0,0,0,0,0,0,0,0,0,0,0,0,0,0,0,0,0,0,0,0,0,0,0,0,0,0,0,0,0,0,0,0,0,0,0,0,0,0,0,0,0,0,0,0,0,0,0,0,0,0,0,0,0,0,0,0,0,0,0,0,0,0,0,0,0,0,0,0,0,0,0,0,0,0,0,0,0,0,0,0,0,0,0,0,0,0],"id":12,"left_children":[1,3,5,7,9,11,13,15,17,19,21,23,25,27,29,31,33,35,37,39,41,43,45,47,49,51,53,55,57,59,61,63,65,67,69,71,73,75,77,79,81,83,85,87,89,91,93,95,97,99,101,103,105,107,109,111,113,115,117,119,121,123,125,-1,-1,-1,-1,-1,-1,-1,-1,-1,-1,-1,-1,-1,-1,-1,-1,-1,-1,-1,-1,-1,-1,-1,-1,-1,-1,-1,-1,-1,-1,-1,-1,-1,-1,-1,-1,-1,-1,-1,-1,-1,-1,-1,-1,-1,-1,-1,-1,-1,-1,-1,-1,-1,-1,-1,-1,-1,-1,-1,-1,-1,-1,-1,-1],"loss_changes":[9.872296E6,5.8312355E6,3.002235E6,4.097173E6,1.4178105E6,3.62973E5,1.0878662E6,1.376767E6,1.5686561E6,6.36203E5,6.40986E5,2.9358E5,2.221095E5,7.109645E5,1.2927112E5,1.4924242E6,2.4343848E6,2.59466E5,2.9000816E5,3.9349838E5,8.2130625E5,1.719575E5,7.15865E4,9.447325E4,7.81075E4,1.3430838E5,2.91575E4,7.03019E5,4.1593975E5,6.4166156E4,7.712576E4,9.848875E5,8.126034E5,5.668555E5,7.919921E5,1.394494E5,1.7314175E5,1.5244211E5,9.940347E4,7.384328E4,3.0448878E5,8.3958425E5,5.2899925E5,5.7785125E4,2.7099E4,3.3286906E4,3.3350375E4,2.7865777E4,3.0341719E4,6.233875E3,4.5199E4,4.7999375E4,4.380775E4,1.384125E4,8.175E2,2.4499875E5,1.2106316E5,6.878075E4,1.0431825E5,2.2955656E4,2.0158578E4,4.9862668E4,2.2549719E4,0E0,0E0,0E0,0E0,0E0,0E0,0E0,0E0,0E0,0E0,0E0,0E0,0E0,0E0,0E0,0E0,0E0,0E0,0E0,0E0,0E0,0E0,0E0,0E0,0E0,0E0,0E0,0E0,0E0,0E0,0E0,0E0,0E0,0E0,0E0,0E0,0E0,0E0,0E0,0E0,0E0,0E0,0E0,0E0,0E0,0E0,0E0,0E0,0E0,0E0,0E0,0E0,0E0,0E0,0E0,0E0,0E0,0E0,0E0,0E0,0E0,0E0,0E0,0E0],"parents":[2147483647,0,0,1,1,2,2,3,3,4,4,5,5,6,6,7,7,8,8,9,9,10,10,11,11,12,12,13,13,14,14,15,15,16,16,17,17,18,18,19,19,20,20,21,21,22,22,23,23,24,24,25,25,26,26,27,27,28,28,29,29,30,30,31,31,32,32,33,33,34,34,35,35,36,36,37,37,38,38,39,39,40,40,41,41,42,42,43,43,44,44,45,45,46,46,47,47,48,48,49,49,50,50,51,51,52,52,53,53,54,54,55,55,56,56,57,57,58,58,59,59,60,60,61,61,62,62],"right_children":[2,4,6,8,10,12,14,16,18,20,22,24,26,28,30,32,34,36,38,40,42,44,46,48,50,52,54,56,58,60,62,64,66,68,70,72,74,76,78,80,82,84,86,88,90,92,94,96,98,100,102,104,106,108,110,112,114,116,118,120,122,124,126,-1,-1,-1,-1,-1,-1,-1,-1,-1,-1,-1,-1,-1,-1,-1,-1,-1,-1,-1,-1,-1,-1,-1,-1,-1,-1,-1,-1,-1,-1,-1,-1,-1,-1,-1,-1,-1,-1,-1,-1,-1,-1,-1,-1,-1,-1,-1,-1,-1,-1,-1,-1,-1,-1,-1,-1,-1,-1,-1,-1,-1,-1,-1,-1],"split_conditions":[-5.769021E0,4.040797E2,-8.703557E-1,1.6462166E0,1.7737772E0,-5.246116E0,1.510029E1,6.2251467E-1,1.4165297E1,-5.3729963E-1,1.5680053E1,-4.7873384E-1,-8.606997E-3,-5.3395805E0,-3.8268343E-1,-5.51937E-1,1.7213356E-2,3.8615152E2,3.9227377E2,1.7213356E-2,1.7213356E-2,4.1404633E2,4.1155618E2,-5.160624E-1,-9.6363044E-1,-5.067349E0,4.2474222E-1,1.4186027E0,4.7444582E-1,1.5225904E0,-5.197873E0,-4.9377555E-1,3.9083017E2,1.3846705E0,8.143158E-1,1.8977003E0,8.5876393E-1,-8.6634874E-1,-5.6640625E-1,-8.498171E-1,-6.2017727E0,4.9242356E-1,6.104854E-2,8.674564E-1,-6.001396E0,-6.2251467E-1,-8.606997E-3,-1.7291859E0,-9.5881975E-1,4.0353818E2,3.8921545E2,-1.7291859E0,2.2791177E-1,4.0035083E2,3.854407E2,8.5876393E-1,-5.5105886E0,9.999167E-1,6.177597E-1,-2.560778E-1,2.6398897E-1,4.041847E2,3.8268343E-1,8.60456E-1,-9.909426E-1,-2.8032914E-1,2.1732867E-1,-1.4365637E0,-5.915334E-1,6.6397893E-1,-9.181081E-1,1.2567826E-1,7.1893775E-1,1.151463E0,6.247557E-1,1.4890741E0,-1.0486471E-1,-3.7265143E-1,3.5126004E-1,1.3324463E0,4.8594213E-1,-2.7116124E-2,-9.789276E-1,6.4527607E-1,-1.2981312E-1,2.550641E-1,9.922277E-1,1.426936E0,9.5253295E-1,1.9467518E0,1.2715663E0,-1.724501E0,5.6692487E-1,6.1607504E-1,9.9130774E-1,9.5915824E-1,-8.135725E-1,1.516814E0,-2.1849358E0,-5.4429064E0,-2.6170542E0,-3.8370855E0,-2.8933463E0,-4.6176583E-1,-2.6590614E0,-4.5618205E0,-2.6345804E0,-5.9711146E0,-4.815659E0,-5.0401263E0,-4.042064E0,-1.7925484E0,-4.0938064E-1,-1.04897715E-1,-8.544391E-1,-1.8566885E0,-6.668797E-1,-3.653937E0,-7.14214E-1,-1.4275789E0,-3.2214131E0,-1.9370072E-1,2.1258261E0,-6.0653508E-2,5.0416076E-1,-1.9598275E-1,-1.4515415E0],"split_indices":[5,7,8,4,4,5,0,8,0,8,0,12,12,5,8,8,12,7,7,12,12,7,7,12,8,5,6,4,6,4,5,12,7,4,3,4,12,10,8,12,5,8,8,12,5,8,12,0,8,7,7,0,10,7,7,12,5,12,3,10,6,7,8,0,0,0,0,0,0,0,0,0,0,0,0,0,0,0,0,0,0,0,0,0,0,0,0,0,0,0,0,0,0,0,0,0,0,0,0,0,0,0,0,0,0,0,0,0,0,0,0,0,0,0,0,0,0,0,0,0,0,0,0,0,0,0,0],"split_type":[0,0,0,0,0,0,0,0,0,0,0,0,0,0,0,0,0,0,0,0,0,0,0,0,0,0,0,0,0,0,0,0,0,0,0,0,0,0,0,0,0,0,0,0,0,0,0,0,0,0,0,0,0,0,0,0,0,0,0,0,0,0,0,0,0,0,0,0,0,0,0,0,0,0,0,0,0,0,0,0,0,0,0,0,0,0,0,0,0,0,0,0,0,0,0,0,0,0,0,0,0,0,0,0,0,0,0,0,0,0,0,0,0,0,0,0,0,0,0,0,0,0,0,0,0,0,0],"sum_hessian":[1.42546E5,1.31408E5,1.1138E4,8.7628E4,4.378E4,1.868E3,9.27E3,5.6364E4,3.1264E4,3.2881E4,1.0899E4,1.185E3,6.83E2,6.974E3,2.296E3,4.2236E4,1.4128E4,1.1583E4,1.9681E4,5.637E3,2.7244E4,4.903E3,5.996E3,3.7E2,8.15E2,3.74E2,3.09E2,4.898E3,2.076E3,2.32E2,2.064E3,8.442E3,3.3794E4,1.008E4,4.048E3,4.24E3,7.343E3,1.1585E4,8.096E3,1.193E3,4.444E3,1.3978E4,1.3266E4,3.002E3,1.901E3,2.73E3,3.266E3,1.22E2,2.48E2,4.9E1,7.66E2,1.66E2,2.08E2,2.06E2,1.03E2,2.626E3,2.272E3,1.605E3,4.71E2,1.87E2,4.5E1,1.903E3,1.61E2,7.92E2,7.65E3,1.9782E4,1.4012E4,7.36E3,2.72E3,2.971E3,1.077E3,1.578E3,2.662E3,5.086E3,2.257E3,1.51E2,1.1434E4,5.05E2,7.591E3,3.77E2,8.16E2,3.32E3,1.124E3,7.111E3,6.867E3,3.212E3,1.0054E4,2.054E3,9.48E2,1.73E3,1.71E2,1.5E1,2.715E3,7.87E2,2.479E3,2.8E1,9.4E1,5E0,2.43E2,4.4E1,5E0,1.79E2,5.87E2,3.1E1,1.35E2,1.66E2,4.2E1,1.28E2,7.8E1,2.8E1,7.5E1,2.252E3,3.74E2,1.395E3,8.77E2,1.471E3,1.34E2,4.38E2,3.3E1,1.67E2,2E1,3.3E1,1.2E1,1.355E3,5.48E2,5.4E1,1.07E2],"tree_param":{"num_deleted":"0","num_feature":"13","num_nodes":"127","size_leaf_vector":"1"}},{"base_weights":[2.6711915E-2,2.2111654E0,-2.8894564E1,-2.215384E0,1.1144572E1,-6.272888E1,-2.1408482E1,1.5558259E1,-3.4772105E0,2.4383219E1,9.685215E0,-4.9791065E1,-7.732602E1,-2.7356203E1,-2.6268811E0,3.901329E1,1.385316E1,-1.2704604E0,-1.2835498E1,9.495946E0,2.5870651E1,-2.6854727E0,1.1230225E1,-3.9686417E1,-7.364166E1,-6.111047E1,-9.470026E1,-2.2628565E1,-4.7581654E1,-2.650653E1,-2.5658406E-2,4.506207E1,1.9777782E1,3.8827229E0,1.6838621E1,-6.842915E0,2.0275183E0,-2.260057E1,-8.436938E0,2.1728445E1,5.4813924E0,2.3275291E1,3.377879E1,1.3619703E1,-8.083559E0,5.956687E0,1.5460193E1,-1.1024599E1,-4.75704E1,-8.10814E1,-4.709762E1,-5.539004E1,-8.7167725E1,-1.03326256E2,-8.2089645E1,-2.9637829E1,-8.695973E0,-3.921914E1,-6.974226E1,4.0667515E1,-3.1159586E1,1.2855598E0,-2.7578346E1,1.8908606E0,2.63225E0,3.4173477E-2,1.4805523E0,1.8976923E0,1.2829015E-1,-3.450933E-1,8.961339E-1,1.8763861E-1,-4.4371405E-1,-1.1188307E0,1.305681E-1,-8.713751E-1,-1.6534926E0,-7.6771396E-1,-2.2009192E-1,6.46531E-1,1.2898312E0,-3.6254372E-2,4.917048E-1,1.3162941E0,9.376646E-1,1.8883326E0,1.2163198E0,2.121518E0,4.533685E-1,-2.320423E-1,-1.215605E0,5.464357E-1,-4.820426E-1,1.311224E-1,9.5729744E-1,1.14358306E-1,-1.3360304E0,1.0492058E0,-2.4460754E0,-1.2545242E0,-4.2080464E0,-1.7089942E0,-3.0079827E0,-2.8413167E0,3.9428458E-1,-2.5173912E0,-4.4767694E0,-5.519757E0,-4.473271E0,-3.4550102E0,-4.424377E0,1.1690777E-1,-1.5987912E0,-5.030225E-2,-1.8190445E0,-1.2316359E0,-2.4158218E0,-3.2555478E0,-4.7726436E0,3.518966E0,2.5658882E-1,-1.2380306E0,-3.0763414E0,-9.961767E-2,4.518745E-1,-1.786932E-1,-1.5453757E0],"categories":[],"categories_nodes":[],"categories_segments":[],"categories_sizes":[],"default_left":[0,0,0,0,0,0,0,0,0,0,0,0,0,0,0,0,0,0,0,0,0,0,0,0,0,0,0,0,0,0,0,0,0,0,0,0,0,0,0,0,0,0,0,0,0,0,0,0,0,0,0,0,0,0,0,0,0,0,0,0,0,0,0,0,0,0,0,0,0,0,0,0,0,0,0,0,0,0,0,0,0,0,0,0,0,0,0,0,0,0,0,0,0,0,0,0,0,0,0,0,0,0,0,0,0,0,0,0,0,0,0,0,0,0,0,0,0,0,0,0,0,